convolution,  2 2
0.53962880373 -0.149010434747 -0.391300410032 0.265913665295 -0.390595257282 0.428368508816 -0.0311083607376 -0.163431510329 -0.515805125237 0.0523483
0.925400972366 -0.171481281519 -0.519210755825 1.02684104443 0.130619302392 -0.56095957756 0.683005332947 0.0292180366814 -0.35812574625 0.0342926
-0.357089519501 0.289824277163 0.065096616745 0.286799758673 -0.54747647047 -0.507130205631 -0.018238414079 0.00425479607657 -0.274488508701 -0.0020143
0.333018600941 0.872415184975 0.790286540985 -0.145010128617 -0.12711840868 0.623485147953 -0.0711895748973 -0.238377377391 -0.0945950224996 -1.24208
0.341655671597 -0.332266420126 -0.0512493513525 0.314714640379 0.216702982783 -0.634207487106 0.611314833164 0.430486381054 -0.183759137988 0.056947
-0.153432548046 -0.222121551633 0.405694067478 0.359561532736 0.0220734048635 -0.0394495986402 0.0818772912025 -0.101839900017 0.803542554379 -0.411064
0.224021106958 0.130060106516 -0.13569149375 -0.501741945744 0.306965708733 -0.30732935667 -0.322213321924 -0.426947772503 0.431701213121 -0.00457001
0.448828786612 0.0300472155213 0.146235913038 -0.00678957998753 -0.0313953720033 0.409553140402 0.0850181058049 -0.165372774005 0.136144295335 -0.507444
0.221232533455 0.519806623459 0.183572366834 0.701107442379 0.93946814537 0.263267546892 -0.45962625742 -0.0285679809749 -0.115759134293 -1.20036
-0.397998660803 -0.363965660334 0.850421190262 -0.918807625771 0.0904588922858 0.624531805515 0.537811696529 0.135788917542 0.823823750019 -0.288318
0.0907200202346 -0.65297305584 -0.417882531881 0.545007884502 0.320863842964 -0.446910649538 -0.174573302269 0.657559752464 0.00723101338372 0.102626
0.445802688599 -0.51959836483 -0.275674253702 -0.104474842548 -0.595269083977 -0.326145678759 0.148836970329 0.493028521538 0.0795739367604 0.295853
0.289353698492 0.538012206554 0.567465007305 -0.162307873368 0.246216624975 -0.396470546722 -0.888823509216 -0.320882856846 -0.899405300617 0.788461
-0.988156318665 -0.717192351818 -0.919574677944 -0.499475747347 0.542402267456 0.370671391487 0.430527418852 0.40152707696 0.833849966526 0.162622
-0.0633111223578 -0.472255080938 -0.844739794731 0.0450149662793 0.0484623014927 -0.6698346138 0.472557008266 0.623344659805 0.395763725042 0.079223
-0.235631287098 -0.373004227877 -0.61929577589 -0.181175559759 -0.331618309021 -0.0127351908013 0.339687854052 0.216714322567 0.405226558447 0.301889
