convolution,  2 2
-0.00496764061972 0.0
0.4251486063 0.0
-0.000267779716523 0.0
0.0307999588549 0.0
-0.00935349985957 0.0
-0.00784000568092 0.0
-0.00973454583436 0.0
0.320113688707 0.0
-0.0102430405095 0.0
-0.00767873367295 0.0
0.355276167393 0.0
0.00482155615464 0.0
-0.000202683775569 0.0
0.0212819259614 0.0
-0.00692715868354 0.0
-0.0165220219642 0.0
0.236969158053 0.0
0.00316039682366 0.0
0.760068535805 0.0
-0.00682026566938 0.0
0.798985719681 0.0
0.684594392776 0.0
-0.02037380822 0.0
0.0527875944972 0.0
-0.00903910864145 0.0
0.00509617570788 0.0
-0.0423564389348 0.0
0.403609424829 0.0
0.0060180220753 0.0
-0.0827576965094 0.0
0.607504546642 0.0
0.14741101861 0.0
0.755790770054 0.0
1.12088787556 0.0
0.0199569072574 0.0
0.0577230453491 0.0
-0.0148410880938 0.0
0.00462055858225 0.0
-0.00538982870057 0.0
0.713334202766 0.0
0.999199092388 0.0
0.32596373558 0.0
-0.0257886201143 0.0
0.208548203111 0.0
0.249731272459 0.0
-0.0127158034593 0.0
0.135344609618 0.0
0.0671892017126 0.0
-0.00475813355297 0.0
-0.011871076189 0.0
-0.00376808154397 0.0
-0.0160570815206 0.0
0.283203929663 0.0
0.00423036655411 0.0
-0.0117148570716 0.0
0.000903077423573 0.0
0.00443299114704 0.0
0.404691874981 0.0
0.382548481226 0.0
0.17528565228 0.0
0.00462962966412 0.0
-0.00669734785333 0.0
0.0164035465568 0.0
-0.0185180269182 -0.333019
0.0192456189543 0.0
-0.151105329394 0.0
0.00214803754352 0.0
-0.0023237678688 0.0
0.088422074914 0.0
0.0529729314148 0.0
0.00142919435166 0.0
-0.139591276646 0.0
-0.00164216174744 0.0
0.00137646670919 0.0
-0.142770901322 0.0
0.00904705096036 0.0
-0.00278434320353 0.0
0.0953951850533 0.0
0.00559338275343 0.0
0.00140823342372 0.0
-0.063281185925 0.0
0.161427050829 0.0
-0.296232223511 0.0
-0.00600133836269 0.0
-0.305141955614 0.0
-0.242569029331 0.0
0.199130445719 0.0
-0.00695678265765 0.0
0.819405257702 0.0
-0.00670476118103 0.0
0.547454535961 0.0
-0.153791323304 0.0
-0.00191038858611 0.0
0.969179332256 0.0
-0.233074143529 0.0
-0.064536459744 0.0
-0.31141975522 0.0
-0.429025679827 0.0
0.0257731694728 0.0
-0.0245340783149 0.0
-0.00196802522987 0.0
-0.0106374938041 0.0
-0.011159892194 0.0
-0.267300933599 0.0
-0.394026696682 0.0
-0.095880381763 0.0
-0.0144332470372 0.0
-0.0680586323142 0.0
-0.105298407376 0.0
0.00161735212896 0.0
0.27215141058 0.0
-0.0368128418922 0.0
0.0158907026052 0.0
0.643911600113 0.0
0.00407136185095 0.0
-0.0156149044633 0.0
-0.123415313661 0.0
-0.0212286747992 0.0
0.00208935281262 0.0
0.0134602077305 0.0
0.00184735748917 0.0
-0.146169573069 0.0
-0.143135085702 0.0
-0.0526005141437 0.0
0.404845625162 0.0
0.00121296057478 0.0
0.603919148445 0.0
0.047111351043 0.983152
