convolution,  5 3
-0.170494168997 -0.47015184164 -0.111712649465 -0.247844621539 0.0
0.0427906922996 -0.189247369766 -0.0554085150361 0.0175811480731 0.0
-0.0171495936811 0.0193966608495 0.186142012477 -0.0185992140323 0.0
0.288179814816 -0.838334143162 -0.362005233765 -0.507425487041 0.0
-0.0463046319783 -0.00943391490728 0.106759704649 -0.220407918096 0.0
0.476960271597 -0.463362067938 0.219132617116 -0.469791084528 0.0
0.0384045280516 0.414953202009 0.202284321189 -0.286895722151 0.0
0.744267463684 0.0572667382658 0.377915918827 -0.213845148683 -0.875143
0.540709495544 0.0215424727648 0.186177536845 0.613945245743 0.0
-0.17180635035 0.238010972738 0.263373821974 0.0429624356329 0.0
0.154054164886 -0.00800422392786 0.0754787176847 -0.0998591706157 0.0
0.22770793736 0.0100921113044 -0.227469831705 -0.0745723322034 0.0
0.145412415266 0.211902633309 -0.0751840099692 -0.245899453759 0.0
0.378398746252 0.0770048573613 -0.430635660887 -0.0650562271476 0.0
-0.117901824415 0.0240385457873 -0.172596886754 -0.379193872213 0.0
-0.0121508883312 0.184771642089 -0.465231865644 -0.391284763813 -0.215436
0.286555707455 -0.336058735847 -0.449809968472 -0.583803594112 0.0
0.00754695385695 -0.234513103962 0.115880087018 -0.0493082366884 0.0
0.0463152378798 0.580072462559 -0.0150941396132 0.219401195645 0.0
0.270936250687 -0.423323780298 -0.00962099991739 0.371226757765 0.0
0.139934062958 0.0753308460116 0.201543286443 0.141342446208 0.0
-0.166036501527 -0.721301674843 -0.289228260517 0.180062323809 0.0
0.278403997421 0.6664711833 0.168811693788 -0.0454732589424 0.0
0.0319984667003 -0.253154814243 -0.484596848488 0.155015572906 0.421164
0.186524689198 0.0104630952701 -0.0944272726774 -0.361835092306 0.0
-0.0645361617208 -0.012204981409 -0.202180281281 0.278231501579 0.0
-0.173758164048 0.146653011441 0.149216905236 0.152804762125 0.0
0.0954482406378 -0.175204277039 -0.161597207189 0.160594820976 0.0
0.208377823234 -0.0471994131804 -0.235446289182 0.249815672636 0.0
0.127607211471 0.279875546694 -0.157121390104 0.00392179610208 0.0
-0.182806134224 0.0443156547844 -0.442037165165 -0.133108735085 0.0
0.565783619881 0.148753285408 0.369555324316 0.240156695247 -0.618206
-0.425869554281 -0.371565550566 0.123356714845 0.350973129272 0.0
0.196232497692 -0.168598145247 -0.168937847018 -0.275361657143 0.0
-0.162475943565 -0.15552636981 -0.213870689273 -0.230203360319 0.0
-0.0718224719167 -0.444156914949 0.31567928195 0.416441738605 0.0
-0.214578673244 0.241109877825 0.2097325176 0.246605172753 0.0
-0.721471309662 -0.361181348562 0.355235159397 0.731964766979 0.0
-0.0815181657672 -0.161145269871 -0.0113053862005 -0.136151954532 0.0
-0.314767539501 -0.188856720924 -0.0379932932556 0.626455843449 0.767189
-0.0272786095738 0.290830850601 0.456939578056 0.634532153606 0.0
0.182188853621 0.0792573913932 -0.191635742784 0.248835906386 0.0
-0.11485440284 -0.0304266791791 -0.199815258384 -0.139814674854 0.0
-0.249112024903 0.0693991705775 -0.097312502563 -0.107021890581 0.0
0.273933142424 0.340217232704 0.152382686734 -0.29237678647 0.0
-0.246022552252 0.326297491789 -0.100264243782 -0.132460132241 0.0
-0.0962343513966 -0.232678860426 -0.206745296717 -0.292598932981 0.0
0.073317989707 0.310546606779 0.216496884823 -0.0288134086877 -0.529865
-0.377452194691 0.289889484644 -0.0855661928654 -0.0177175980061 0.0
-0.115009494126 0.218529343605 0.253410845995 0.256324499846 0.0
-0.126517444849 0.231709063053 -0.114662095904 -0.0572857111692 0.0
-0.684439480305 0.68853610754 -0.222136646509 0.560074448586 0.0
0.262301325798 0.816126465797 0.265677809715 0.318896323442 0.0
-0.862200081348 0.818044900894 -0.572242498398 0.224921777844 0.0
-0.185756266117 -0.0771439224482 -0.246874034405 -0.174947425723 0.0
-0.750331699848 0.372962296009 -0.700004577637 0.14211794734 -0.0961417
-0.132929310203 0.0613711103797 0.0447429195046 0.205218479037 0.0
0.0644903257489 0.0449878498912 0.0795711576939 0.108325138688 0.0
0.273190438747 -0.24427331984 -0.214851230383 0.0818084478378 0.0
-0.22855360806 0.0333022475243 0.0790581181645 0.178255572915 0.0
-0.120732463896 -0.172781139612 0.0292598381639 0.0719463601708 0.0
-0.00155444594566 0.0221426058561 0.112170383334 -0.0791724324226 0.0
0.215254157782 -0.0866896212101 -0.0943386554718 -0.240985438228 0.0
0.00469816941768 -0.266281694174 -0.290819138288 -0.229182958603 -0.00169291
-0.239033967257 -0.166803687811 0.0880805104971 -0.186197370291 0.0
-0.263738036156 -0.215112656355 -0.180294394493 -0.0472032539546 0.0
-0.167863950133 0.220706701279 -0.18505205214 0.138894513249 0.0
-0.200166240335 0.191587254405 -0.269384622574 -0.178682729602 0.0
-0.237799376249 -0.243260636926 0.13928681612 0.0914443284273 0.0
0.112235203385 -0.196034327149 -0.0769369751215 -0.203440099955 0.0
0.212083011866 0.129284471273 -0.00599825847894 0.242948144674 0.0
0.256846249104 -0.218872055411 0.146673306823 -0.245510160923 0.0048214
-0.583604037762 -0.374912381172 -0.140612989664 -0.468019932508 0.0
-0.0607162602246 -0.148759588599 -0.0174444969743 0.155096322298 0.0
-0.30958583951 -0.16849924624 0.233813479543 0.0412120558321 0.0
0.145721942186 0.230872020125 -0.0164083894342 0.494704574347 0.0
-0.077796138823 -0.320119231939 0.0580222867429 0.169499188662 0.0
0.182170033455 0.271056234837 0.249488845468 0.197043687105 0.0
-0.589014351368 -0.276390314102 -0.673371851444 -0.214907601476 0.0
-0.358113795519 -0.114290587604 -0.186526551843 0.148544356227 0.895676
0.432720392942 0.394923508167 -0.0906845107675 -0.0548095069826 0.0
-0.0834665223956 0.127789393067 -0.0652998164296 -0.138414219022 0.0
0.35337677598 -0.146571859717 -0.338403314352 -0.551303386688 0.0
-0.151692554355 -0.263729125261 -0.233162552118 0.227676704526 0.0
0.0708819329739 0.327081441879 0.0512887947261 0.0539618842304 0.0
-0.216585457325 -0.51727604866 0.0728690028191 0.414889901876 0.0
0.0287707857788 0.356900304556 0.915269672871 1.11130273342 0.0
0.312452197075 -0.392729699612 -0.0124497814104 0.152124449611 0.00393216
-0.0137406280264 -0.0783866047859 0.133471474051 -0.181491240859 0.0
-0.066373847425 -0.037622962147 0.114184461534 -0.152731820941 0.0
-0.117691159248 -0.185362651944 -0.125956550241 -0.132354021072 0.0
0.336553394794 0.436617702246 0.11909276247 0.447184145451 0.0
-0.2310013026 0.138349682093 -0.019298678264 0.216075971723 0.0
-0.0618111714721 0.0476691350341 -0.922606527805 -0.612726509571 0.0
-0.297581553459 -0.241296857595 -0.227285608649 -0.105128623545 0.0
0.0517071597278 -0.301450520754 -0.620702981949 -0.239032879472 2.05886
-0.125871345401 -0.150267034769 -0.173551440239 -0.223001226783 0.0
0.101242423058 -0.263096600771 0.155902221799 0.095638461411 0.0
-0.182148694992 -0.209407866001 0.228077173233 0.0722719728947 0.0
-0.128598079085 -0.105139039457 -0.0589393228292 0.22802709043 0.0
0.0752883329988 -0.275434434414 -0.212201476097 -0.0637997165322 0.0
-0.272251456976 -0.0808713063598 0.0801086202264 -0.131441771984 0.0
0.0140133351088 -0.0624038390815 0.0959013774991 -0.14415358007 0.0
-0.00294827972539 0.198995023966 -0.0293551385403 -0.0432553961873 -0.00365268
-0.507955372334 -0.231614083052 -0.276589781046 -0.308015555143 0.0
0.00433132005855 0.14216402173 0.174039065838 -0.176016196609 0.0
0.278121650219 0.254336327314 -0.107498809695 0.325151830912 0.0
-0.287038326263 -0.446897596121 0.17479595542 0.204518958926 0.0
-0.179745540023 0.0149400271475 0.269826024771 0.0286543369293 0.0
-0.530045807362 -0.351247310638 -0.0901178717613 0.496331483126 0.0
0.855760216713 0.432670801878 0.653703987598 0.366637080908 0.0
0.328621953726 -0.25723105669 -0.363139182329 0.589130878448 0.243236
-0.166003912687 0.566872477531 -0.0433978028595 -0.34097969532 0.0
-0.0515733025968 -0.212751418352 -0.266708374023 0.125425964594 0.0
0.0640147104859 0.258128106594 -0.0126660065725 0.0930101498961 0.0
0.227511882782 0.748560547829 -0.106783635914 -0.721478462219 0.0
0.521894991398 0.23287473619 -0.365352123976 -0.410357445478 0.0
0.0834226608276 0.827217817307 -0.0554600544274 -1.00232815742 0.0
-0.376231580973 -0.023334544152 0.401669830084 0.805705964565 0.0
-0.0368120186031 0.846208095551 -0.0637986212969 -0.78715711832 -0.245974
-0.174980640411 -0.0934227108955 -0.424119025469 -0.432959318161 0.0
0.0781818926334 -0.0591609589756 0.0287027768791 0.129779100418 0.0
-0.0217646285892 0.046720277518 0.158335387707 0.127717912197 0.0
0.372712850571 -0.465297073126 0.445438712835 -0.77168160677 0.0
0.0901650935411 -0.534639120102 0.177372530103 -0.348415493965 0.0
0.471118748188 -0.638659894466 0.405763745308 -0.54603266716 0.0
0.0281248725951 -0.428723543882 0.346132129431 -0.120725460351 0.0
0.496615350246 -0.463081926107 0.862942278385 0.403570860624 0.346261
