convolution,  5 3
0.048290014267 0.142594158649 -0.0620840862393 -0.204836845398 -0.15288105607 -0.0654795020819 -0.0773769840598 -0.0855116099119 0.0392286516726 0.0
-0.183439612389 0.0235060099512 -0.0352235324681 0.149890735745 -0.1043664217 0.0724088326097 0.142924040556 -0.174983695149 -0.00547377904877 0.0
0.334388464689 0.127066552639 0.025829102844 0.150642052293 0.307093679905 0.00921892747283 0.190300107002 0.339405655861 -0.00361983687617 0.0
0.172009885311 -0.0363352112472 -0.141158461571 -0.310349911451 -0.153311729431 -0.331848680973 0.0841558948159 0.100672133267 0.239683076739 0.0
0.288937956095 -0.0369930565357 0.0827482789755 -0.240867495537 -0.267552256584 -0.07058737427 -0.204950004816 0.00870835594833 -0.0980313643813 0.0
0.0229863412678 -0.184469729662 0.211164414883 0.0445243306458 -0.308530807495 0.0786094218493 0.01388943661 -0.114416092634 -0.0510259270668 0.0
-0.0717212110758 0.365968376398 0.17947538197 -0.0372360982001 -0.146224915981 -0.196248158813 0.216178119183 -0.180704876781 -0.311642885208 0.0
0.0841101929545 -0.0339074879885 0.0631764903665 0.116746388376 -0.100597277284 0.0526892468333 0.0261471103877 0.067247711122 -0.00579288462177 0.0
-0.138926550746 -0.0665476098657 -0.0503772608936 -0.00479661393911 -0.130923509598 -0.0956868454814 0.0075670266524 -0.0349399745464 -0.0532709807158 0.0
0.0722667947412 -0.459268599749 -0.193376719952 -0.120239950716 -0.220130383968 -0.0741633027792 -0.0659762918949 0.237309262156 -0.140183374286 0.0
-0.0485317893326 0.200710847974 -0.242357850075 -0.310964822769 -0.100856237113 0.0034023700282 -0.29278549552 0.00651576602831 -0.0900805070996 0.0
-0.134872853756 -0.063333325088 0.114142112434 0.0321433022618 0.0950602442026 0.277922958136 0.303135335445 0.203816369176 0.119720041752 0.0
9.60818506428e-05 -0.0973001420498 -0.0700844228268 0.0684068500996 -0.0452812500298 -0.127372547984 -0.0557837486267 -0.123864248395 -0.00638315360993 0.0
0.0911594480276 0.383769750595 0.119491182268 -0.0365019999444 0.0371094085276 -0.166570618749 -0.121161587536 0.205992653966 0.0118668628857 0.0
-0.00747433817014 0.234822794795 -0.127166330814 0.209369704127 -0.0293744895607 0.0524368174374 0.0990229025483 -0.0806061401963 0.441037684679 0.0
0.322311133146 0.38556689024 -0.282838612795 -0.295621812344 0.0109198652208 0.027669403702 -0.402651309967 -0.0479192472994 0.520788967609 0.0912454
0.0559702254832 0.0604575239122 0.0570308193564 0.0864241346717 0.145085826516 -0.122889943421 -0.0422124043107 0.0460006296635 0.1345397681 0.0
-0.252645522356 -0.178201645613 -0.046458709985 -0.214961588383 -0.15521235764 -0.00336096272804 0.0766686797142 -0.0280366260558 -0.0978164598346 0.0
-0.209471091628 -0.0515950880945 -0.257037460804 0.222122550011 0.105428144336 0.0298466011882 0.11531611532 0.00915768463165 0.121688425541 0.0
-0.271792501211 -0.288749277592 -0.0811241939664 -0.175706654787 -0.128534585238 0.117578871548 0.123720318079 -0.198569580913 -0.160340175033 0.0
0.0787240937352 0.0185709819198 0.0453516878188 0.261475086212 0.218483701348 0.115804828703 0.0980368331075 -0.183451250196 0.165869310498 0.0
-0.0896612852812 -0.108845517039 0.0237699747086 0.0282541383058 -0.0148144485429 -0.0723352208734 0.057629391551 -0.125663563609 -0.118058644235 0.0
-0.0601454079151 0.200815618038 -0.176092028618 -0.184912145138 -0.053970836103 -0.281052410603 -0.273822396994 -0.421242564917 -0.311292916536 0.0
-0.0423337221146 0.0820953547955 -0.0959845259786 -0.122451908886 -0.113537147641 0.0638939291239 0.0109588392079 0.0937910601497 0.024428313598 0.0
-0.107834398746 0.0175441708416 0.127930894494 -0.0875247344375 0.135202541947 -0.0133802127093 -0.00862864498049 0.00654406379908 -0.0735638439655 0.0
-0.190659895539 0.0416233241558 -0.0860075429082 0.33147880435 0.218468740582 0.37035998702 0.0191427469254 -0.351467967033 -0.106728494167 0.0
-0.239442527294 -0.220576584339 -0.107775330544 -0.350502312183 -0.128154948354 -0.216711014509 0.0622888877988 -0.129666760564 0.25142082572 0.0
-0.0930017456412 0.00392146967351 -0.132823258638 0.181606680155 0.226650997996 0.270033478737 -0.404369354248 -0.311556130648 -0.22311668098 0.0
-0.0292281489819 0.0416416339576 -0.0732051953673 -0.0499476455152 0.0813486501575 -0.0443987213075 -0.12531965971 -0.026818882674 -0.0532251000404 0.0
-0.0201664343476 -0.193258658051 -0.042792994529 0.141438990831 0.0654784291983 0.175821691751 0.0719213560224 -0.0182163715363 0.286763399839 0.0
-0.290601015091 -0.0479386076331 -0.332423716784 -0.156327679753 -0.127635419369 -0.434982836246 -0.0918356701732 -0.170260161161 -0.276995778084 0.0
-0.0474567189813 0.0459248125553 -0.11198643595 -0.151599735022 0.00174909131601 0.0854048058391 -0.0530228540301 -0.315203338861 -0.0451893173158 0.664605
0.0404068380594 0.22816953063 -0.0918518081307 -0.186615377665 0.0435683466494 0.0198400951922 -0.0904785618186 -0.142924919724 -0.0358713753521 0.0
0.103591807187 -0.0166987571865 0.0128065794706 -0.0420968681574 -0.134388014674 -0.0807708203793 0.104840107262 0.0768918171525 -0.132178276777 0.0
0.0359479635954 0.24862895906 -0.027191825211 0.126573175192 0.177036419511 0.0300348252058 0.0919555798173 0.00832338631153 -0.0343483835459 0.0
0.237216442823 -0.0666447281837 -0.365030914545 0.118089340627 -0.253031611443 -0.17332521081 0.077007509768 0.032129779458 -0.00939298514277 0.0
-0.309511393309 -0.230901479721 0.0778013244271 0.00500960554928 -0.0550957396626 -0.0468553490937 -0.0979168638587 0.0732853934169 0.0111495750025 0.0
0.137312456965 -0.341271430254 -0.319612681866 0.0822323858738 -0.302578628063 -0.119492970407 0.333882212639 -0.0746024623513 0.00150643580128 0.0
-0.130439028144 -0.28533795476 -0.130440816283 -0.189269810915 0.0285128057003 -0.0727572888136 0.119997993112 -0.170603647828 -0.153953626752 0.0
0.0277257915586 -0.0411711707711 -0.0944791212678 0.0911052599549 -0.0984181016684 0.0991154685616 0.0676247626543 0.0834537222981 0.103840760887 0.0
0.0696577727795 0.0161629803479 -0.00769188906997 0.0464117452502 0.126713007689 -0.0194138921797 -0.0228483639657 -0.0309991631657 0.119266793132 0.0
0.0591844879091 -0.192628949881 -0.200737833977 -0.019288264215 0.0831833407283 -0.0773622691631 0.112889535725 0.239306330681 -0.140275731683 0.0
-0.184939786792 0.100597001612 -0.126276150346 -0.110737606883 0.0273013394326 0.00306782219559 -0.145059064031 0.0485098436475 0.0761592537165 0.0
-0.0163893420249 0.00451312819496 0.0192491617054 0.0578099638224 -0.147820621729 -0.0963617488742 0.0927990078926 -0.113110512495 -0.0688195824623 0.0
-0.0235173813999 0.0406400561333 -0.0823327377439 -0.112243868411 0.127773880959 0.0716847032309 -0.125954240561 0.00788615923375 0.00559033313766 0.0
-0.00989333260804 0.106635168195 0.0694716349244 0.0802532508969 -0.0228548832238 0.117269396782 -0.0148023609072 0.132838904858 0.0488241016865 0.0
0.0635733902454 -0.0374448336661 -0.0644709542394 -0.0573839955032 -0.180944681168 0.00797226466238 -0.166568368673 -0.0876169502735 0.00897077284753 0.0
0.183328822255 0.25677266717 -0.128072857857 -0.172990560532 0.167686134577 -0.0460973829031 -0.445069998503 0.0600307099521 -0.102044276893 0.00938459
0.00993900280446 -0.147597119212 0.0497272387147 -0.105661943555 -0.092633113265 0.0929162576795 -0.0231513008475 -0.0345567278564 0.0589692369103 0.0
0.265523374081 -0.0366262719035 0.17753726244 -0.117058634758 0.112236641347 -0.0112516283989 -0.158363193274 -0.228434875607 0.0527473576367 0.0
-0.144279271364 -0.249610975385 0.0423309803009 -0.148494109511 0.00181820639409 -0.122863046825 0.0964610129595 -0.0370823442936 -0.0130032561719 0.0
0.0476107150316 0.143362671137 0.302249997854 -0.17726573348 0.0599281080067 -0.0640921741724 -0.245619148016 -0.0560221374035 -0.249566450715 0.0
0.263463318348 0.127433881164 0.086482077837 -0.109508670866 -0.0834192931652 -0.00766678899527 -0.0755442306399 -0.269345462322 -0.154030501842 0.0
-0.120330750942 -0.0590429082513 -0.162909701467 -0.209604278207 -0.0881476104259 -0.0318590700626 -0.216341301799 -0.178047731519 -0.111850909889 0.0
0.0846424400806 0.0870280340314 -0.182557731867 -0.157268390059 0.121534645557 0.0459140278399 0.0429705753922 -0.220330938697 -0.17152774334 0.0
0.0802892148495 0.0541976056993 -0.0610295981169 0.0325646810234 -0.0669810771942 -0.0576292425394 -0.111038446426 -0.0751971751451 0.0817493498325 0.0
0.0226600226015 -0.118673443794 -0.0509179197252 0.0218455083668 0.0409179218113 -0.0507926382124 -0.0531911551952 -0.0271004345268 0.116478987038 0.0
0.191319078207 0.11029574275 0.224061176181 -0.00991171132773 -0.0895307660103 0.145922109485 -0.196718111634 -0.393509894609 -0.226085722446 0.0
-0.141836747527 -0.0514103025198 0.225344374776 -0.381431370974 -0.325233012438 -0.199638411403 0.214352652431 -0.112845346332 -0.156781852245 0.0
0.195340499282 0.0824176073074 0.0980030298233 0.00985366664827 0.072833456099 0.336002349854 -0.115630142391 -0.350559622049 -0.126317560673 0.0
0.056044805795 0.0632959976792 0.0687971636653 -0.0298393033445 0.0942922830582 0.08988391608 0.0617471933365 -0.0228130482137 0.0159035176039 0.0
-0.0426787436008 0.101109437644 0.30278840661 -0.131486594677 -0.0533077940345 -0.0122579392046 0.108971834183 0.0910428613424 0.0811129063368 0.0
0.375342100859 0.134239345789 0.174616858363 -0.380947053432 -0.386144906282 -0.401694297791 -0.275680065155 -0.412136346102 -0.220261156559 0.0
-0.161790668964 0.190688818693 0.276559710503 -0.0981760621071 0.151797577739 9.45257052081e-05 -0.096985861659 0.113103196025 -0.0780283212662 0.0876431
0.121293157339 0.0793238282204 -0.0939868092537 0.0333682335913 -0.0245852191001 -0.114507891238 0.037740830332 0.098801240325 0.0279679838568 0.0
-0.0695616602898 0.0680254623294 -0.046880338341 0.0951043143868 -0.104970343411 -0.0977858826518 0.0322409234941 0.127829119563 -0.0863297507167 0.0
0.0716102868319 -0.0365906953812 0.109563775361 -0.101863980293 -0.124561280012 -0.0233578775078 0.0563373751938 -0.0691516622901 -0.0297157764435 0.0
0.0951136946678 0.0215118527412 -0.107369706035 -0.0383318029344 -0.0616755522788 -0.0406885892153 0.123819597065 -0.0687275156379 -0.0164964068681 0.0
-0.0201728697866 -0.109792560339 -0.0218766164035 -0.0890306532383 0.0273672584444 -0.084818162024 -0.127038940787 -0.108870252967 -0.0220740288496 0.0
-0.068061247468 -0.0996516421437 -0.0152599727735 -0.0502547286451 -0.0770566016436 -0.106778182089 0.081200607121 0.0774988308549 -0.106189489365 0.0
0.129348129034 -0.119649961591 0.0010354607366 -0.0732218921185 -0.113734938204 0.111766852438 0.101718842983 -0.0383676253259 0.0851360708475 0.0
-0.112413629889 -0.103692673147 -0.100820958614 -0.0570146180689 0.0290407929569 0.116263441741 0.00195359042846 0.0591108202934 0.119478993118 0.0
0.0347869098186 0.0795994326472 0.0965052098036 -0.0367881990969 0.110118746758 0.0549633018672 0.0243059117347 0.0124978777021 0.0602583475411 0.0
-0.0707287937403 -0.129135519266 0.116671346128 -0.127035662532 -0.100100129843 -0.0163676664233 -0.0623327195644 0.0592228583992 -0.00799784902483 0.0
-0.106311559677 -0.103553563356 0.042177580297 0.0920019671321 -0.0327297262847 -0.0624034255743 0.11507473886 -0.122395902872 -0.042798794806 0.0
0.0751175284386 0.0748160779476 -0.121013380587 -0.0205622110516 0.0488832816482 0.0539229847491 0.0319395512342 -0.0820327699184 -0.0415743924677 0.0
0.00797954108566 0.0464744791389 -0.0957277715206 -0.0108869690448 0.0104052349925 0.12862662971 0.0478508025408 0.0119414404035 0.00327009800822 0.0
-0.0275120679289 0.0678084418178 -0.0303857848048 -0.0773987174034 -0.0735386908054 0.0595393404365 0.00105105596595 -0.124625988305 -0.00366479274817 0.0
-0.0496633164585 -0.0372404530644 -0.0758270770311 0.074393555522 -0.00682151969522 0.0632419809699 -0.0353277102113 0.0839275419712 -0.126588866115 0.0
0.0389507673681 -0.0405407696962 -0.0702518448234 -0.12643943727 -0.0102583672851 -0.0505143627524 0.125975385308 0.110774800181 -0.0479532852769 -0.00027826
0.0518264472485 -0.0907108709216 -0.121879979968 -0.118107035756 -0.278607547283 -0.263454914093 -0.0790628939867 -0.120779946446 -0.121438212693 0.0
0.131495386362 -0.148396924138 0.00753005035222 -0.161155432463 -0.0828106850386 -0.146297335625 0.0104312859476 -0.100089780986 -0.000936063588597 0.0
0.271015584469 0.275912642479 0.0642373114824 0.133858069777 -0.137585788965 -0.0646659657359 0.0834189355373 -0.0384550243616 0.00216892780736 0.0
-0.309210985899 -0.445268571377 0.0849238634109 -0.228969916701 -0.211635440588 -0.12272118032 -0.0106071075425 0.04655938223 -0.0362392887473 0.0
-0.302974522114 -0.309714376926 -0.274381458759 0.238403350115 -0.0909200832248 -0.12907153368 0.639766156673 0.304377675056 -0.135784253478 0.0
-0.221928492188 -0.184860125184 -0.181945264339 -0.156969070435 -0.203308090568 -0.0702148079872 0.116661705077 0.0441521406174 0.0650064349174 0.0
-0.204649955034 0.391505926847 0.0408240668476 -0.261796742678 0.0559172332287 0.00143417378422 0.178641781211 -0.147331774235 0.0354083925486 0.0
0.0351118445396 0.00816157832742 0.105653136969 0.0355985276401 0.11860562861 -0.113350711763 -0.0146748423576 0.0582605302334 -0.144978299737 0.0
-0.0721069201827 0.0655807256699 -0.040211096406 -0.0977551713586 0.0545983873308 0.109898321331 0.000650978006888 -0.00469598080963 0.111117087305 0.0
-0.145149856806 -0.196042865515 0.164184436202 -0.0291253700852 0.0359771996737 -0.0665412247181 0.340453952551 0.0287813898176 -0.0650460571051 0.0
0.152290046215 0.0469830110669 -0.260216653347 -0.107751294971 -0.413606077433 -0.0343442447484 -0.170427635312 -0.398683190346 0.0621486641467 0.0
-0.0376821272075 0.24669662118 0.204924836755 -0.0287618786097 0.263568282127 0.109646990895 0.233470141888 0.0186860263348 -0.0899050459266 0.0
0.00966037623584 -0.112596295774 -0.00778039498255 -0.087645471096 -0.12601017952 -0.0772333517671 0.118887513876 0.0145477522165 0.0724098980427 0.0
0.120073772967 0.486807703972 -0.00350098102354 -0.0851469263434 0.0061749285087 -0.0348082408309 0.0814805999398 -0.00776259368286 0.0546006709337 0.0
0.142775684595 0.0321411974728 0.241913333535 -0.0375464707613 0.00635800231248 0.140360474586 0.0423071198165 -0.031234877184 0.142674908042 0.0
0.12713509798 -0.0950721055269 -0.0953955352306 0.129954040051 0.09425894171 0.0924718901515 0.0558779984713 0.380524635315 0.217860177159 0.193976
0.0708272457123 0.0521021783352 -0.0879392027855 -0.0652934387326 -0.120918378234 -0.00585343129933 -0.0616460442543 -0.150219067931 0.026821307838 0.0
-0.122243709862 0.0416647903621 0.140797659755 -0.0356094278395 -0.202623486519 -0.165272131562 -0.151598736644 -0.195919081569 -0.0276424176991 0.0
0.206966206431 0.0261038597673 -0.142967045307 0.0484303310513 0.0380596779287 0.0287666935474 -0.00477660540491 -0.0434351228178 -0.0376900136471 0.0
-0.0413885042071 -0.175161421299 0.188244700432 -0.072487950325 -0.314660251141 0.237766519189 -0.0737130343914 -0.0955048874021 0.0462543703616 0.0
-0.0825230181217 0.186049744487 0.316284269094 0.0606229156256 0.0426698103547 0.137976422906 0.107424147427 -0.100335158408 -0.675790846348 0.0
-0.119300201535 0.0789770781994 0.160826921463 -0.156592428684 0.0486589595675 0.147734984756 -0.0120067009702 -0.205119952559 -0.0483523793519 0.0
-0.122029431164 0.554762303829 0.304317682981 0.0565342381597 0.176637783647 0.0480837263167 0.316380113363 -0.328225761652 -0.537783145905 0.0
-0.0882539898157 0.0308627169579 0.0391935110092 0.0241578742862 0.047301787883 0.00695904297754 0.00176887505222 -0.0170808788389 -0.0846572443843 0.0
-0.0662617608905 -0.105226807296 0.0967074260116 -0.0367148891091 0.0810982212424 0.0514486692846 0.0517042912543 -0.115023337305 -0.00227596634068 0.0
0.0491800792515 -0.205513700843 0.144887074828 0.1608440727 -0.318230032921 0.0735625997186 -0.0384126938879 -0.263489574194 -0.393632471561 0.0
-0.191772341728 0.290093064308 -0.155656591058 0.092630982399 0.318800777197 0.00441310321912 -0.241308972239 -0.279213547707 -0.637168109417 0.0
-0.129804253578 -0.0123227154836 0.0873797610402 0.111598663032 0.0826549902558 0.198995739222 0.334398061037 0.0516083985567 0.120236225426 0.0
0.0892422571778 -0.0152592705563 -0.0423578284681 -0.0201621148735 -0.102308787405 0.110821709037 0.0869182869792 0.0897345468402 0.0181680675596 0.0
-0.18482093513 0.294469177723 0.119865730405 0.0464754141867 0.313126206398 0.141431376338 0.0203579440713 0.00623021740466 -0.213684037328 0.0
-0.0342560037971 0.22645188868 -0.111630626023 -0.131669387221 0.00923687126487 -0.061303563416 -0.0572053454816 0.0501680001616 0.148339450359 0.0
0.195010304451 -0.0226014275104 0.0261446218938 -0.278577655554 -0.233596950769 -0.052863266319 -0.45416277647 0.0892467051744 0.267121583223 -0.139077
-0.0203733928502 0.110118247569 0.214408189058 -0.102438315749 0.0110609680414 0.0248676817864 0.0894766896963 -0.134340688586 -0.125359475613 0.0
-0.177489474416 0.199036642909 0.12291777879 -0.0110830850899 -0.192713320255 -0.0862064734101 -0.0742027387023 0.0222231298685 -0.0670696645975 0.0
-0.0425055511296 -0.0638861358166 -0.0256371777505 0.00934344995767 0.181535929441 0.162157163024 0.0565755032003 -0.0029820362106 0.140560954809 0.0
0.060908511281 0.283897787333 0.098679728806 0.00874692946672 -0.117931954563 -0.0573087334633 -0.248918220401 -0.193356096745 0.0895958840847 0.0
0.295831739902 -0.19098238647 -0.222547799349 -0.106891103089 -0.364928454161 -0.182942807674 -0.398662388325 -0.151569411159 0.0607323721051 0.0
0.101917766035 0.244367867708 -0.102599680424 0.17948050797 -0.0159523189068 -0.15877148509 -0.0208080653101 -0.154284879565 -0.0829706862569 0.0
0.150808021426 0.13659337163 0.185366079211 0.00831826869398 -0.0117437550798 0.172977030277 -0.119919367135 -0.0546264648438 -0.26353007555 0.0
0.0387807786465 -0.077717602253 -0.022924285382 -0.0311947446316 0.1094096452 0.0670342966914 0.103652916849 -0.0755816921592 -0.0771222859621 0.0
0.0227955207229 -0.0990936309099 -0.0331555716693 0.00529489852488 0.11841814965 -0.0774888694286 -0.105956763029 0.116824924946 0.0787831321359 0.0
0.14466150105 -0.243124216795 -0.108672969043 0.122255377471 -0.133579313755 0.0469552800059 -0.0713073462248 -0.0811963528395 0.125998049974 0.0
-0.201099857688 0.139323771 0.113809265196 -0.193697437644 0.403248250484 0.127800449729 -0.327680945396 0.0476881079376 0.0241321437061 0.0
0.0890287086368 0.0354992300272 0.201259061694 -0.110995270312 -0.106729932129 0.0273951515555 -0.109760835767 -0.220767229795 -0.203335255384 0.0
-0.0947367995977 0.0996238067746 -0.0612515062094 -0.0335402414203 0.116706423461 0.0519652180374 0.0596111640334 -0.0512207709253 -0.0328608900309 0.0
-0.182540178299 -0.158471271396 -0.0797448158264 -0.0731476321816 -0.0652506574988 0.127819523215 -0.1006648615 0.053735293448 0.0950674563646 0.0
-0.164762154222 0.135476723313 -0.0705530196428 0.188572436571 -0.0922534540296 -0.0823947191238 0.154080480337 -0.193021908402 0.018273063004 0.0
-0.0723050832748 0.423247009516 0.0921125784516 -0.171731993556 -0.0356375686824 0.154030442238 -0.0719467177987 -0.374962449074 0.0845603719354 0.118681
-0.0104137221351 0.231105178595 0.210786029696 -0.0545476824045 0.209407225251 0.0703990533948 0.129319414496 0.131264463067 -0.0573932677507 0.0
-0.111696511507 -0.065721064806 -0.0556290857494 0.0175281707197 -0.0752463117242 -0.0589187219739 -0.125086098909 -0.18847104907 -0.0409048348665 0.0
-0.0111749107018 0.102990202606 0.0570034682751 -0.032881449908 0.0919203385711 -0.171294361353 0.123528420925 -0.0563761033118 -0.177810445428 0.0
-0.0208254810423 0.117559097707 -0.194118127227 0.0292926765978 0.148551806808 -0.191757112741 0.121151655912 0.161274164915 -0.196472287178 0.0
0.208217725158 0.248283758759 0.0761609449983 -0.00451023690403 0.15045325458 -0.00126482371707 -0.060885630548 -0.124003380537 -0.198513865471 0.0
0.0643753185868 0.247017398477 -0.151138558984 -0.000680974626448 0.164605364203 -0.191500812769 0.00103988626506 0.144958913326 -0.27272811532 0.0
0.0137398019433 0.343123972416 0.0534191392362 -0.223955228925 0.0660853534937 0.0910473391414 -0.176564067602 -0.162856668234 -0.0561249032617 0.0
0.0164308138192 -0.0237882416695 -0.077251277864 0.00970930792391 0.127243608236 0.0451675690711 -0.0760430470109 -0.0327713750303 -0.107949703932 0.0
-0.012167558074 0.12777851522 -0.00370517210104 0.0962337851524 -0.107509829104 -0.123005747795 -0.0607266761363 0.0570116974413 0.0833220928907 0.0
0.201955512166 0.00651733484119 -0.202043250203 0.0524119772017 0.0795097053051 -0.175992801785 -0.105135604739 -0.286849230528 -0.296098083258 0.0
-0.0126327974722 -0.10507170856 0.083035364747 -0.252459824085 -0.0994554683566 -0.148645102978 -0.122381068766 -0.270195871592 -0.151476159692 0.0
-0.0321024022996 0.307259529829 -0.0685542970896 -0.105535171926 0.289236992598 0.11558252573 -0.16345487535 -0.267965525389 -0.0613123252988 0.0
-0.120748624206 0.127388864756 0.0563929378986 0.100680522621 -0.111770063639 0.0577402487397 -0.0928233414888 -0.121690019965 -0.12946665287 0.0
-0.161406487226 -0.0379220023751 0.16085422039 -0.105095185339 0.0134937018156 0.0271058063954 -0.144171565771 -0.163262099028 -0.176531255245 0.0
0.185868039727 0.160729542375 -0.130686178803 0.0613123215735 0.0333533287048 -0.159629553556 -0.0947875455022 -0.0896535217762 -0.358664393425 0.0
-0.0407958701253 -0.0819365531206 0.275570362806 -0.0942693054676 -0.12381529808 -0.115804724395 -0.327115178108 -0.088902451098 0.0437390133739 0.00255335
0.0465236790478 0.00733494805172 0.0844695791602 0.0727878212929 0.10556127131 -0.113221473992 0.0514120869339 -0.100650273263 0.00260785152204 0.0
0.0628412887454 0.0269001312554 0.0361815467477 -0.116039983928 -0.0603767074645 0.255434274673 -0.152830690145 0.0117703340948 -0.00920957978815 0.0
0.170375213027 0.102688588202 0.0786957740784 -0.0654426217079 -0.00952100474387 -0.100992031395 0.0529689490795 0.0308678392321 -0.0183718372136 0.0
-0.117568008602 -0.146553963423 -0.303667992353 -0.209992989898 -0.132136374712 0.00301544414833 -0.0956936106086 -0.194013431668 -0.0854351446033 0.0
-0.0558649934828 0.0927956402302 0.0215349588543 -0.159790366888 -0.0661528706551 0.0503695905209 0.188425943255 -0.208147600293 -0.222177296877 0.0
-0.000281668209936 -0.138251364231 0.0476347319782 -0.0726545453072 -0.183335065842 0.117624342442 -0.0738799199462 -0.164899036288 0.0194179601967 0.0
-0.00394611852244 0.183300465345 -0.0121106253937 -0.0252181272954 0.299648165703 0.103419914842 -0.13734844327 -0.163608089089 -0.0558590888977 0.0
-0.0823031514883 0.0695903524756 -0.0577313527465 0.0587238036096 0.109741017222 -0.0140454228967 0.0721818953753 -0.0457745976746 0.030929422006 0.0
-0.0400268472731 0.0463671199977 0.126384586096 0.121271461248 0.0390396341681 0.101568780839 -0.0896620377898 0.0642848834395 -0.100614443421 0.0
-0.139102712274 0.0610095709562 0.0770178437233 -0.235128477216 -0.13907250762 -0.083339124918 -0.101298749447 -0.46301689744 -0.404858291149 0.0
-0.0565278530121 -0.0597912296653 0.0949080660939 -0.141741335392 -0.421618908644 -0.12789773941 0.264176130295 -0.219200059772 -0.0668606460094 0.0
0.071744337678 0.177394226193 0.174052968621 -0.0134747475386 0.324073672295 0.164806872606 -0.0922932177782 -0.336111426353 -0.286863178015 0.0
0.0926794558764 0.0930946618319 0.0289987977594 -0.116170339286 -0.0754136070609 0.110928796232 0.0537214614451 0.0484075844288 -0.0504147745669 0.0
0.00154904532246 0.105110742152 0.175326615572 0.0073347389698 -0.0634695440531 0.0573749914765 0.293655246496 -0.0113589754328 -0.14194957912 0.0
0.0141749484465 0.114528089762 -0.0681196972728 -0.177891746163 0.124613016844 0.0273919161409 -0.126819059253 0.049965005368 0.109732016921 0.0
-0.1271456182 0.115497171879 -0.0547981448472 -0.316384524107 0.0031158386264 0.097734414041 -0.0201644599438 0.00517063448206 -0.195307686925 0.0652458
-0.0320901237428 0.0205070320517 0.0497688688338 -0.0596573129296 0.113849684596 0.0353707633913 0.0344101302326 0.00318007660098 -0.0590742044151 0.0
0.0615437850356 -0.0408171340823 -0.0943049415946 0.0178436748683 -0.021537065506 0.0994586572051 -0.110797554255 -0.024520451203 0.0723494142294 0.0
0.0984413996339 0.0756276100874 -0.0746397301555 -0.118951573968 -0.118870168924 -0.0797491073608 0.0306228026748 -0.0516458638012 -0.0282300245017 0.0
-0.0501708053052 0.106311649084 0.0883866846561 -0.0224296953529 -0.125181883574 -0.0600234642625 0.105293177068 -0.0471068322659 0.114946678281 0.0
-0.0989277735353 -0.0059216786176 -0.0441912077367 0.0197729114443 -0.0865762457252 -0.0832526758313 0.0588650405407 -0.0285803806037 -0.0807778164744 0.0
0.0267095863819 -0.117224954069 0.127303659916 -0.00527769746259 -0.0842963680625 -0.110944278538 -0.115553893149 -0.104699023068 0.0319680385292 0.0
-0.0811301469803 0.0688130557537 0.122076623142 0.131009534001 -0.0105234161019 -0.0983758121729 0.0124836200848 0.106791593134 0.0684506818652 0.0
-0.102844178677 -0.0486409068108 -0.0167125947773 0.0432358719409 -0.095106869936 -0.0467689372599 0.0609600506723 0.122363775969 -0.0550157688558 0.0
-0.0893227532506 0.0315149053931 0.00343166897073 0.0913725048304 0.129816055298 0.0416753552854 -0.100572787225 -0.0991998240352 0.0324435830116 0.0
0.129848390818 -0.0539069958031 0.0338049009442 -0.113799341023 0.0552420541644 -0.060569729656 0.0461361706257 -0.0207147430629 -0.0790278464556 0.0
-0.0924125686288 -0.0927609875798 -0.0644223466516 0.0979406014085 0.0661354362965 -0.0246933586895 0.0730981528759 -0.03764417395 -0.0844428241253 0.0
-0.0457739681005 0.0493699833751 0.102577522397 0.0559120513499 0.151312798262 -0.0713787376881 0.0847500786185 -0.0641581043601 -0.0215768069029 0.0
0.0740250945091 0.0729644224048 -0.023624913767 0.0877267718315 -0.0232896842062 -0.0262053124607 -0.0180049296468 0.0290640275925 0.120491154492 0.0
-0.0224688593298 -0.103186950088 -0.0459804460406 -0.0400371439755 -0.0425749085844 -0.108767859638 -0.11747058481 -0.118780851364 0.117882043123 0.0
-0.037114020437 -0.0545990094543 -0.130217984319 0.0547616779804 0.0527400188148 -0.038486238569 -0.00660747289658 -0.0425772890449 0.0409691222012 0.0
0.0255991406739 0.0543297640979 -0.0505603961647 -0.102896980941 -0.121005900204 -0.0786758512259 -0.107563443482 -0.0841462910175 -0.0413884110749 0.00467314
-0.0610932260752 -0.0965984538198 -0.0227660052478 0.0462331697345 0.0943724066019 0.0202246326953 0.10376431793 -0.0191218368709 0.10171187669 0.0
-0.105901829898 0.0177483092993 0.0631892606616 -0.121821433306 -0.0202100351453 0.0510634817183 -0.0827178582549 -0.0941882431507 0.113408498466 0.0
0.0112307816744 0.115402288735 -0.0127838198096 0.12263623625 -0.105857878923 0.128216907382 0.133114889264 0.102047272027 -0.100873842835 0.0
0.00803671684116 -0.152216568589 -0.158901080489 0.0631689801812 -0.146871551871 -0.0999174714088 -0.0105422064662 -0.000952789967414 -0.105178117752 0.0
-0.164484143257 -0.100614883006 -0.022648697719 -0.022656083107 -0.0730314105749 -0.0796092301607 0.00146971445065 -0.0944343209267 0.119331300259 0.0
0.0689054131508 -0.0535024777055 -0.0843697786331 0.0474435091019 -0.0899665877223 0.121256873012 0.0829719081521 -0.104439862072 -0.104589417577 0.0
-0.12025103718 0.0749169290066 -0.0875310972333 -0.130396217108 -0.13837428391 0.192534402013 -0.101983956993 -0.00139557570219 0.0607246607542 0.0
-0.112828031182 0.127573385835 0.115261465311 -0.0368424616754 -0.0169511027634 -0.0712809935212 0.0314498469234 0.021165618673 -0.0981507003307 0.0
-0.0661477446556 0.0537852048874 0.0763023868203 -0.00877201743424 0.0297050010413 0.108278058469 -0.0623409561813 -0.0569212213159 -0.0617955327034 0.0
-0.125114455819 -0.179703503847 0.0490731485188 0.0856935307384 0.0420886278152 -0.0298299454153 -0.0724847391248 0.0627784356475 -0.0913556143641 0.0
-0.0625240057707 -0.109160251915 0.0429345294833 -0.0458190925419 0.0672212466598 -0.0591260530055 0.00984596367925 -0.0552952699363 -0.0542735755444 0.0
-0.0157394837588 0.0754862874746 -0.014567932114 0.0742394402623 -0.0284684654325 0.165735289454 -0.0049871862866 0.0809275433421 0.147729590535 0.0
-0.00354271987453 -0.00814732536674 -0.0333975590765 0.0300636664033 0.00774632766843 0.110548511147 0.078565992415 -0.109284266829 -0.047942712903 0.0
-0.10485329479 0.0596226863563 0.0107260551304 -0.0905534848571 0.124726772308 -0.0924409478903 -0.0861839130521 -0.0428680069745 0.0970747619867 0.0
-0.110857382417 0.133838132024 0.0428161174059 -0.000275274418527 0.0594548210502 -0.146694839001 0.0760143771768 0.114132724702 0.0501801259816 0.0
0.0547192394733 0.0346143133938 -0.137923434377 0.0598530434072 -0.134486705065 0.0177775025368 0.0587066970766 -0.0500274300575 -0.0937609225512 0.0217911
0.0377236865461 0.13635084033 0.135923281312 -0.13576887548 0.0635140165687 0.0301279556006 -0.0292267594486 -0.0996756777167 -0.102396525443 0.0
-0.0404637232423 0.219306215644 -0.0313788093626 0.0594443008304 0.237303137779 0.0565875545144 -0.00193248933647 0.0632164627314 0.0551416911185 0.0
0.0728943198919 -0.02218606323 -0.0441949404776 0.0626123100519 0.0572427920997 -0.14200553298 0.0450266338885 -0.156070843339 -0.0361710339785 0.0
-0.0644810721278 0.283265650272 0.155730515718 -0.289429396391 0.083346426487 -0.0748378634453 -0.128969907761 0.125597000122 0.00300112343393 0.0
0.0251079220325 -0.126727297902 0.198741346598 0.101795367897 -0.102425903082 0.151858344674 0.189505890012 0.161847546697 0.116175793111 0.0
-0.130839541554 0.314300298691 0.0448719188571 -0.149708285928 0.20363637805 -0.0387263484299 -0.122051402926 0.126911908388 -0.109007418156 0.0
-0.118011511862 0.0840183570981 -0.00906265340745 -0.0400627627969 0.0100830812007 -0.13719022274 -0.0687076449394 -0.115090094507 -0.235675603151 0.0
0.0849897861481 0.0187012013048 0.0936699658632 0.101609759033 -0.0410156659782 -0.0444983690977 0.0463971868157 0.0984717682004 0.00460586464033 0.0
-0.0806201025844 -0.0549281202257 -0.0275990348309 -0.0644336864352 0.129548743367 -0.105628073215 0.051320232451 -0.0184378046542 -0.0416465960443 0.0
-0.0273540057242 0.0559963919222 -0.0564207360148 -0.0838723927736 -0.116573296487 -0.159134298563 0.00855416059494 0.33334377408 0.183174163103 0.0
0.0356790348887 -0.149168998003 0.123646043241 -0.0639563053846 -0.382843822241 -0.24361038208 0.062523342669 -0.170529484749 -0.137343674898 0.0
-0.0035159655381 0.0447704792023 0.202582195401 -0.120260350406 0.265680730343 0.138825684786 -0.0765310004354 0.0688496157527 -0.0568669177592 0.0
0.0831043943763 -0.052549213171 -0.0632703304291 0.106427818537 0.119476847351 0.0410221926868 -0.0838476270437 -0.0511249490082 -0.0745422765613 0.0
0.010009794496 -0.0917067453265 0.190847069025 0.216250911355 -0.0338071100414 -0.24003316462 -0.0238479953259 -0.175992503762 -0.0529436357319 0.0
0.0768735781312 0.180057898164 0.00556693831459 0.169946089387 0.0819996893406 0.0311713479459 -0.147143602371 -0.0421356596053 0.0208550579846 0.0
-0.143353044987 0.0259398408234 0.0740271136165 -0.152387827635 -0.0948341786861 -0.169676437974 0.064011991024 0.108200110495 -0.168445453048 0.121748
-0.0837032645941 -0.0866472050548 -0.0103290108964 0.0398196689785 -0.0910473912954 -0.0516685582697 0.13255225122 0.0533831678331 0.119257643819 0.0
0.028210664168 0.125016152859 0.0636352151632 -0.0061358101666 0.0301189273596 -0.0242689568549 0.0232228543609 0.0787557810545 -0.10869525373 0.0
-0.0585964359343 0.134939298034 -0.0846180915833 -0.0530216135085 0.136748403311 -0.0248738024384 -0.102142639458 0.0942578911781 0.101821474731 0.0
0.189575597644 0.0869479179382 0.0782349854708 0.132128000259 -0.122487686574 -0.154362872243 -0.109931252897 0.0041139582172 -0.0644206181169 0.0
-0.0398871451616 -0.180872187018 0.1078273803 0.115701757371 -0.0366179123521 0.0278691854328 -0.203395769 -0.123068168759 0.0155133837834 0.0
0.0399035513401 -0.0430754125118 -0.105642944574 0.072276905179 0.0325018912554 0.103097036481 -0.0640676990151 -0.238636657596 -0.180665418506 0.0
-0.234688222408 0.089452676475 0.121182695031 0.0327696204185 0.188510760665 0.135292381048 0.0630951598287 -0.0287783052772 -0.223044961691 0.0
-0.0695644915104 0.0922448784113 -0.0985323041677 0.126805409789 0.0408826880157 -0.0800361037254 0.0962194874883 -0.115837745368 -0.072290673852 0.0
-0.136381521821 0.052223790437 0.0407974794507 -0.0446173027158 -0.11461211741 -0.0133808599785 0.123742580414 0.038768813014 0.0376319475472 0.0
0.0471798665822 -0.175137192011 0.0522233694792 0.0154573824257 -0.0784630700946 -0.000290938856779 -0.166059270501 -0.101451843977 -0.139038324356 0.0
-0.127306699753 0.095766030252 -0.189519271255 0.20502217114 0.360777914524 0.0716878920794 -0.113793477416 -0.274619728327 0.0154660698026 0.0
-0.208822950721 -0.0340274348855 0.121850132942 -0.179904937744 0.00319028436206 -0.0805838778615 0.278410553932 0.331121653318 0.261249750853 0.0
-0.101465336978 0.0532262176275 0.00624781381339 -0.100126355886 -0.00471951253712 0.0502097569406 0.118946500123 0.110692448914 0.0445920787752 0.0
0.0443665571511 0.0456119403243 0.127569124103 0.158742278814 0.131550595164 0.272991031408 -0.0164759084582 0.012868787162 0.115033812821 0.0
0.176653414965 -0.0563322044909 -0.043363686651 -0.269639998674 -0.0304855406284 -0.116182439029 0.231520608068 0.0990538448095 -0.0340709798038 0.0
0.212601423264 -0.0235260445625 -0.0333490781486 0.269409447908 -0.0971032232046 -0.0358069315553 -0.0555852949619 -0.220156773925 -0.0449327304959 -0.0292446
0.0927938520908 -0.027099987492 -0.0646792650223 -0.11160094291 -0.180703252554 -0.244439169765 -0.194660007954 -0.18880943954 -0.321048438549 0.0
-0.0805336534977 -0.0360989570618 0.0122715672478 0.0544367693365 0.0127644836903 0.277374118567 -0.100482419133 -0.0191637258977 0.0288076270372 0.0
-0.0177624616772 -0.0234742034227 -0.122276224196 -0.101767927408 -0.129667088389 -0.189157694578 -0.26739475131 -0.335382312536 -0.481593996286 0.0
-0.409902006388 -0.607410132885 -0.42646253109 -0.142803147435 -0.0844916179776 0.0584977678955 0.0619966834784 0.124209240079 0.49176505208 0.0
-0.37753713131 -0.549391031265 -0.263843894005 0.121491260827 0.173689439893 0.0822068229318 0.385684013367 0.275235652924 0.362349271774 0.0
-0.446889042854 -0.546325087547 -0.368739694357 -0.141241028905 -0.0869782567024 0.0738725587726 0.0760971903801 0.00175759429112 -0.0070058661513 0.0
-0.371282935143 -0.231501489878 -0.081392839551 -0.137501105666 -0.0727126970887 -0.0457859188318 -0.131798326969 -0.137188389897 0.0191786121577 0.0
0.106960602105 0.096301779151 -0.0446601361036 0.0167394913733 0.0459254719317 -0.122240819037 -0.0701836049557 0.0536932907999 0.0849933922291 0.0
0.0391113832593 -0.0838159173727 0.0790338069201 -0.138550341129 -0.123864471912 0.0385068543255 0.101302050054 -0.128661960363 0.0203684959561 0.0
-0.550338447094 -0.320585072041 -0.337917566299 0.0670161545277 -0.299760907888 -0.083424821496 0.067129060626 -0.161430165172 -0.176012918353 0.0
-0.16181255877 -0.267318338156 -0.175559327006 0.0109292007983 -0.0397314429283 0.144698396325 0.280568927526 0.0281510371715 0.200708463788 0.0
-0.0861761942506 -0.0738403871655 -0.128639981151 -0.229297161102 -0.231467112899 -0.272092193365 -0.164221167564 -0.127402171493 -0.151345416903 0.0
0.0597189664841 0.0938006937504 -0.0382985696197 -0.131585091352 0.0341936126351 -0.0307244583964 -0.0552659220994 -0.0454555936158 0.0971691980958 0.0
-0.129636377096 0.0540806241333 -0.144929930568 -0.259923398495 -0.0779308006167 -0.0551276393235 0.0945366993546 -0.0161313898861 0.148338615894 0.0
0.0194237176329 0.0114720035344 0.176376774907 0.158667400479 0.0684525296092 -0.255977660418 0.0831914842129 0.0919117629528 -0.0947899073362 0.0
0.0134919313714 -0.281519383192 -0.377017945051 0.156020253897 -0.038700401783 0.224164262414 -0.0444414913654 0.178660005331 0.0372010171413 -0.239814
-0.0600763298571 0.0589430369437 0.0595410875976 0.280113309622 0.282452702522 0.282650023699 0.340275138617 0.107591301203 -0.0892113000154 0.0
-0.124126635492 0.00249143131077 -0.215506866574 0.184190616012 0.120407760143 0.373637020588 -0.197443366051 -0.225458726287 -0.102935157716 0.0
-0.142159983516 -0.282946318388 -0.295459508896 -0.0225426610559 0.0293414499611 0.192341953516 0.232475548983 0.104361787438 -0.0234406609088 0.0
-0.320480793715 -0.069098494947 0.163483291864 0.202783375978 0.289195895195 0.439650207758 -0.28645581007 -0.718094229698 -0.495961308479 0.0
-0.521727919579 -0.221352949739 -0.292189240456 0.148167490959 0.622850775719 0.414417266846 -0.166634306312 -0.564972400665 -0.398615628481 0.0
0.00747964484617 -0.027199909091 -0.0889116227627 0.464550286531 -0.0455175824463 0.118353895843 -0.331404775381 -0.587541699409 -0.306547641754 0.0
-0.109749309719 0.26904976368 -0.208851516247 -0.295664966106 0.179885402322 0.321712493896 -0.204784572124 -0.154441341758 0.199202790856 0.0
0.120335116982 0.0486461929977 0.0807469040155 -0.0675252228975 0.0475601665676 -0.0083498666063 -0.0268035158515 -0.0561161190271 0.0924496799707 0.0
-0.0389727838337 0.137682110071 0.0838208124042 -0.11608261615 -0.0459432601929 0.146143704653 -0.0602140873671 -0.0611336939037 0.142791852355 0.0
-0.85107177496 -0.550466537476 -0.328349888325 -0.0424973107874 0.131611064076 0.305525124073 -0.0525623448193 -0.488604336977 -0.453062981367 0.0
-0.0393361225724 0.316594183445 0.271715402603 -0.223938286304 -0.20725941658 -0.123759500682 -0.147947147489 -0.229935392737 -0.0146148474887 0.0
-0.101775079966 0.0476606152952 -0.231206640601 0.641352832317 0.761122822762 0.761497020721 0.0859155580401 -0.490173310041 -0.325135886669 0.0
-0.0187048148364 0.0998925566673 -0.0744759812951 -0.118883043528 0.0656276792288 -0.0101878959686 -0.0127610303462 -0.0114350402728 0.0612335763872 0.0
-0.201953068376 -0.0885859653354 0.0438256748021 0.0878141075373 0.399963051081 0.364566326141 0.0795216336846 -0.263468146324 -0.0181031376123 0.0
0.163027226925 -0.324140578508 0.0602372586727 -0.0739858672023 -0.41688644886 -0.372996777296 -0.174174100161 -0.23677931726 -0.153564304113 0.0
-0.207834392786 -0.146109312773 0.316272288561 0.226696312428 0.274720489979 0.563113927841 0.0225453209132 -0.384697198868 -0.0568966642022 0.365335
0.00782666727901 -0.0762346163392 -0.0592092387378 0.00158303964417 -0.240253850818 -0.122647300363 -0.0401565656066 0.119120523334 -0.101334832609 0.0
-0.171187967062 0.0344886183739 -0.0351512879133 -0.116034381092 0.133531555533 0.0228774137795 -0.147275879979 -0.212906748056 -0.0284351166338 0.0
-0.0612873062491 0.00828798301518 0.186918631196 -0.0535848811269 -0.0854400247335 -0.0171034783125 -0.0969427525997 0.110241100192 -0.0661832764745 0.0
0.00958832819015 0.206272780895 0.427101433277 -0.0630059838295 -0.171106204391 -0.150030866265 -0.0566786415875 -0.246922448277 -0.124415554106 0.0
0.218016564846 -0.226025238633 -0.243494823575 -0.104992493987 -0.301554977894 -0.192276522517 -0.147869467735 -0.116205617785 0.169862747192 0.0
0.140927270055 0.0672636926174 -0.0187370721251 -0.0401208996773 0.0570759549737 -0.173608466983 -0.29772913456 -0.279786765575 0.122520193458 0.0
0.549959897995 0.00069994176738 -0.0989440381527 -0.0603841580451 -0.197377040982 -0.157592102885 -0.375802189112 0.301519095898 0.368983238935 0.0
0.101923190057 0.0816989019513 -0.120259687304 -0.09728615731 -0.133598148823 0.00963451620191 0.0441171899438 -0.110795386136 -0.033925678581 0.0
0.115564420819 -0.076313726604 -0.111371546984 -0.119092941284 -0.0242372918874 0.0929815322161 0.0668438524008 -0.0998205691576 0.0963892936707 0.0
0.0118040246889 -0.0321685113013 -0.0978221669793 0.00908876862377 -0.089930973947 0.00373620376922 0.105545006692 0.0774772837758 0.124089382589 0.0
-0.163390353322 -0.312538713217 -0.153508365154 0.190576702356 0.0170482862741 -0.164572000504 -0.0454738102853 -0.0120800361037 -0.209740102291 0.0
0.255279392004 -0.0319631993771 -0.0213436819613 -0.0415294840932 0.0918004214764 0.0340856909752 -0.180567890406 0.207452356815 0.116961203516 0.0
0.0397077202797 0.00141430227086 -0.117629632354 -0.0761619657278 0.0848441198468 0.0202558953315 0.083483710885 -0.115523003042 0.0141907092184 0.0
-0.00435115490109 -0.196013838053 0.0589136295021 0.0761706158519 -0.0280917752534 0.11100294441 -0.0607187077403 0.0151066007093 -0.142725870013 0.0
0.0263431295753 0.451880544424 -0.0980820804834 -0.175730779767 0.205016702414 -0.335599601269 0.18883356452 -0.066378608346 0.143174901605 0.0
-0.254153549671 -0.274206757545 0.286150544882 0.0755771100521 -0.0760374888778 0.0941378325224 0.26243904233 0.251946777105 -0.309809505939 -0.00224055
-0.0517254434526 0.105455994606 -0.0921791121364 0.0873889699578 -0.0311460345984 0.124178349972 -0.0638914182782 -0.0210333559662 -0.0586345233023 0.0
-0.12369633466 -0.112767443061 0.0112581588328 0.0129743479192 -0.0420909114182 -0.0322139076889 0.108560629189 -0.0388797782362 0.0139644891024 0.0
-0.11488828063 -0.188723742962 0.0484962388873 -0.0844049975276 0.0334289819002 -0.00264549884014 0.0490037538111 0.106540746987 -0.155186519027 0.0
-0.310694783926 -0.153932794929 -0.225219726562 0.0275768134743 0.10422668606 0.0300209913403 -0.0489195026457 0.17868411541 0.071808680892 0.0
-0.0432797819376 -0.243502184749 -0.0460421927273 -0.0516510941088 -0.159451752901 -0.0514104664326 -0.0705036893487 0.0359958708286 -0.169152021408 0.0
-0.0753158703446 -0.164837345481 0.0255219191313 -0.160179108381 0.0201026573777 0.0691142231226 0.12155815959 0.00255212862976 0.0768406838179 0.0
-0.00139344495256 -0.0385817959905 -0.0815351828933 0.0817366167903 -0.260036528111 -0.163110226393 0.0520344115794 -0.151202276349 -0.103171750903 0.0
-0.0445708297193 0.0665048658848 -0.053594853729 -0.0636996179819 -0.0283962432295 0.0484997965395 0.00946665368974 -0.105606749654 -0.0850726366043 0.0
0.0725168138742 0.00855273101479 0.0396720021963 -0.0574526153505 -0.0649360716343 -0.0576825775206 0.0225072409958 0.0468711294234 -0.0634088292718 0.0
-0.127876490355 -0.244700819254 0.0662406161427 0.149191945791 -0.0327211171389 0.00507314503193 0.133135586977 0.196130111814 0.136866435409 0.0
-0.0831879526377 0.0128301056102 -0.183105349541 0.0151052027941 0.189209878445 -0.0668637156487 0.0251026786864 0.0151080312207 -0.0309186987579 0.0
0.00130637851544 0.044190466404 0.0857800543308 0.0197894088924 0.199682578444 -0.00872214324772 0.0645749419928 0.147495135665 0.0640961229801 0.0
-0.0915830656886 -0.0860362574458 0.0929659679532 -0.0852378904819 -0.129997730255 0.109918899834 0.00336264213547 -0.10868371278 -0.0992615222931 0.0
-0.111916899681 -0.151380255818 -0.0941261574626 -0.0574475042522 0.182648703456 -0.0339795909822 0.002721716417 0.00882765091956 -0.10338665545 0.0
-0.0605363622308 -0.040622331202 -0.237723872066 -0.00916774105281 -0.0898177027702 -0.137805446982 -0.024018092081 0.0824439898133 -0.081323094666 0.0
0.124430693686 -0.071009837091 -0.171847566962 -0.0471223779023 0.161451295018 -0.0992165356874 -0.103270299733 0.0917594209313 -0.0217007230967 0.147259
0.0601075403392 -0.024133278057 -0.0631920471787 -0.0548211671412 0.0351708456874 0.192822322249 -0.0227600652725 -0.042063254863 -0.0523179396987 0.0
0.115505881608 0.155442222953 0.0554905422032 -0.165617749095 0.0728444233537 -0.177900359035 0.164965555072 0.145659178495 -0.0922182276845 0.0
0.098462946713 -0.0289729852229 -0.168451249599 -0.0622014217079 -0.0286495946348 -0.0920210406184 -0.117725394666 0.0422395467758 0.110240966082 0.0
-0.0492725931108 -0.224654883146 -0.0520997866988 -0.120739459991 -0.196538046002 -0.0972312316298 0.0252813864499 -0.0984565988183 -0.12817941606 0.0
-0.0517929010093 -0.0852204337716 -0.111645594239 0.11964134872 0.0562349185348 0.245235607028 -0.0901099592447 -0.211289167404 0.0404103323817 0.0
-0.170605391264 -0.0521730929613 -0.0124435173348 -0.0245764106512 -0.0679641142488 -0.228390008211 -0.0684480667114 -0.100174702704 -0.0294653307647 0.0
-0.0695895254612 0.051404889673 -0.143531411886 0.256614923477 0.117963269353 0.225263595581 -0.263621598482 -0.180501654744 0.135820135474 0.0
0.0813440829515 0.0539181679487 -0.065895371139 -0.0395235009491 0.0440190508962 0.0627536550164 0.127136677504 -0.0908000692725 0.106310933828 0.0
0.0253078266978 0.0627915337682 -0.0629670023918 0.0119675733149 0.107233516872 -0.0864048302174 0.083888977766 -0.0955875515938 -0.0682634264231 0.0
0.0380934178829 -0.217528343201 0.0115308323875 -0.251468390226 -0.511272668839 -0.19858802855 -0.316832691431 -0.514201581478 0.0874696671963 0.0
0.272694587708 0.153693854809 0.204154595733 0.0108305560425 -0.256538778543 -0.0720594003797 -0.0333366990089 0.0215172469616 -0.00112327653915 0.0
-0.0632226318121 0.137068331242 0.156073018909 -0.0495440028608 0.000765778822824 0.191439568996 -0.152809813619 0.0691236704588 0.133847177029 0.0
-0.0736977607012 0.0409038886428 -0.0218422543257 -0.0353846549988 0.102332822978 0.0771487802267 -0.0545177645981 -0.056701477617 -0.10907561332 0.0
0.0744596123695 0.00275634112768 -0.0588867180049 0.0453750453889 -0.10029026866 -0.0109712807462 -0.0350652076304 -0.228074386716 0.0429191440344 0.0
0.301885396242 0.438462406397 0.334548771381 0.388273030519 0.355667769909 0.144567072392 0.233492925763 0.35144624114 0.00300396978855 0.0
0.080943711102 -0.0383613221347 -0.0620947405696 0.144047558308 0.0814567506313 -0.00570141617209 -0.0974881500006 -0.201849922538 -0.281289309263 -0.411752
0.081506036222 -0.0674978420138 0.0351104065776 -0.0586921833456 -0.130642965436 -0.0617507100105 -0.113065831363 0.0258184242994 0.0408759079874 0.0
0.00952053721994 0.00345934322104 0.0288313440979 -0.00351570011117 0.00918132998049 -0.0848600640893 -0.105069883168 -0.134107500315 -0.00123349926434 0.0
-0.121432624757 0.11470451206 -0.0464696958661 -0.0753478184342 -0.0191364996135 -0.0186332147568 -0.122379384935 -0.11797016114 0.0636472329497 0.0
-0.019469410181 -0.291755348444 -0.236436262727 -0.235075592995 -0.0985196828842 -0.205237358809 0.0233061946929 -0.190417766571 -0.0276414770633 0.0
-0.113765046 0.129890263081 -0.0564752742648 -0.121376231313 -0.096184052527 -0.0233534909785 0.0559480525553 0.132322952151 0.00785908102989 0.0
-0.208865121007 -0.0897155106068 -0.00482508027926 -0.216629847884 -0.148481115699 -0.143464103341 -0.0265473853797 -0.228240564466 0.0696548894048 0.0
-0.189317941666 0.122557021677 0.298242300749 -0.166036784649 0.29202413559 -0.0124917831272 -0.190672755241 0.0963013395667 -0.0803548544645 0.0
-0.0605280473828 0.104086264968 -0.034358330071 0.00581504683942 0.0510058961809 -0.0700769722462 -0.0301773436368 -0.100788101554 -0.0539492443204 0.0
-0.0109617868438 -0.00729582551867 0.0649764165282 0.0251786690205 -0.0921709910035 0.0389562547207 0.0243783853948 -0.0771307572722 0.0676115378737 0.0
-0.0820419192314 0.118418231606 -0.0599296838045 -0.174909994006 -0.0794465839863 -0.0565460659564 -0.00410977657884 0.044038452208 -0.0207226388156 0.0
0.104956895113 -0.015433087945 0.0367739610374 0.0223153829575 0.0347729362547 -0.0399927161634 0.00740797258914 -0.010106196627 0.0747560635209 0.0
-0.0756106749177 0.0306494887918 0.0280647650361 -0.0935518294573 -0.0282871369272 -0.0428092107177 -0.315349251032 0.0753995478153 -0.192899167538 0.0
-0.110760495067 0.00594443175942 -0.125667542219 0.0315081812441 -0.0570711195469 -0.0864573046565 0.107482895255 -0.0291020069271 0.0474413074553 0.0
0.150760307908 -0.0364737212658 0.305536419153 0.0720250606537 -0.0764656662941 -0.0219547878951 0.117732830346 0.111807614565 0.0197156127542 0.0
0.0191886369139 -0.119032353163 0.139993265271 0.12304495275 0.0707596689463 -0.0712016895413 -0.00827010069042 -0.167010366917 -0.0911918953061 0.0
0.214196100831 0.0161487944424 -0.164596244693 0.0465788058937 -0.111814945936 -0.168622478843 -0.0233512911946 -0.0193643514067 -0.101115830243 -0.114021
0.0541488565505 0.0786370933056 0.177276551723 0.313610225916 0.288995057344 0.0267415177077 0.241377070546 0.274660974741 0.195947572589 0.0
-0.00944851245731 -0.0832181051373 0.0780717507005 -0.00610559945926 -0.0700128525496 0.117584004998 -0.0215535163879 -0.172395393252 -0.230347916484 0.0
-0.0254924781621 0.0528456866741 5.17355829288e-06 -0.0777195468545 -0.186692491174 -0.105705142021 -0.0939972773194 -0.142637982965 -0.121527947485 0.0
-0.150924921036 0.131618753076 0.111887775362 -0.0670249313116 -0.142479464412 -0.154936507344 -0.184975638986 -0.148210555315 -0.00531002832577 0.0
-0.5665320158 -0.646145761013 -0.187153890729 -0.0589684918523 -0.191995322704 0.0891931205988 -0.183397039771 -0.183862552047 0.0219989847392 0.0
0.0983425155282 0.244700655341 0.121721766889 -0.0946309566498 -0.233875691891 -0.000966845662333 -0.154351428151 -0.298885643482 -0.128110826015 0.0
0.308108955622 0.277187883854 0.306674063206 0.154601052403 0.252968251705 0.294639348984 0.152895227075 0.0908743292093 0.376138448715 0.0
-0.127686679363 0.139939010143 0.0758679062128 -0.0875215008855 -0.0742222815752 0.0103843249381 0.108844079077 -0.0908125415444 0.0330995991826 0.0
-0.0272238459438 -0.0420335903764 0.116051502526 -0.0202741771936 -0.0252478737384 0.0287445485592 0.143362030387 0.0901163071394 -0.0505693368614 0.0
-0.00675538321957 -0.426622211933 -0.00104534241837 0.217581689358 -0.110509283841 0.125464171171 0.18489317596 -0.240818217397 0.194252386689 0.0
-0.166506901383 -0.170111328363 -0.260180383921 -0.186113357544 -0.212055161595 -0.462806969881 -0.136686444283 0.00741993170232 -0.126685515046 0.0
-0.228068098426 -0.238433077931 -0.151516020298 0.0269898604602 -0.202430710196 -0.0867444127798 0.127992793918 0.0258883722126 0.00947696436197 0.0
-0.0027025656309 -0.0107862520963 -0.0473913736641 0.0637881979346 0.00268827727996 -0.00983740761876 0.0946969240904 0.0933640152216 -0.0112044494599 0.0
0.114865012467 -0.155339151621 -0.174486756325 -0.209942921996 -0.220212444663 -0.143351346254 -0.0621177367866 0.0831390321255 -0.0204209703952 0.0
0.235768631101 0.217017918825 0.111116275191 0.200535386801 0.027118049562 -0.257040709257 -0.252186477184 -0.466084778309 -0.506483793259 0.0
-0.0644481778145 0.00890536233783 0.095606572926 0.217279821634 0.145250812173 0.178361833096 0.143761590123 0.0467173717916 0.136751398444 -0.722431
-0.102166108787 -0.032204605639 -0.0414769090712 -0.0343374311924 -0.06506190449 0.0399974957108 -0.0738952979445 -0.0960848405957 -0.0824397355318 0.0
-0.10010599345 -0.129508942366 0.0187760535628 -0.146888673306 0.136997163296 0.106064580381 -0.0546261630952 0.113938830793 0.0453354045749 0.0
-0.155937463045 0.109266884625 0.0515007860959 0.00170753512066 -0.103214681149 0.112528808415 -0.0208672229201 0.0401626043022 -0.0997541174293 0.0
-0.0150793325156 -0.181946203113 0.123069293797 -0.009571085684 -0.199822366238 -0.0779689326882 0.0998141169548 -0.0428283289075 0.105572447181 0.0
-0.0312890782952 0.143802151084 0.111262083054 -0.0828067585826 -0.0552486889064 -0.111632294953 -0.19995239377 0.0734601765871 -0.221631675959 0.0
-0.0691297203302 0.0245394762605 0.108149968088 -0.168408378959 0.0692687779665 0.149040728807 -0.126095846295 -0.0455280803144 0.229073688388 0.0
0.232432723045 0.353183805943 0.0200456846505 -0.0868623703718 0.141140118241 -0.0189439151436 -0.263131558895 0.0756109580398 0.0663376525044 0.0
0.0876716077328 0.097595795989 -0.100881814957 -0.108211457729 0.0961845219135 0.0228666011244 0.0785688236356 -0.0291830841452 0.105573892593 0.0
0.0104231620207 -0.0668051913381 0.0922403931618 -0.0500201061368 0.00456386525184 0.0178629271686 -0.126275539398 -0.114787839353 -0.0364588499069 0.0
0.014056308195 0.08957003057 -0.143193334341 0.00415550591424 -0.161733359098 -0.149237394333 -0.0235198680311 -0.0592971779406 0.0611520707607 0.0
-0.117056585848 -0.0376369282603 0.0190747063607 0.0293339397758 0.0911141112447 -0.132449865341 -0.0294442772865 0.133387222886 -0.217286109924 0.0
0.112695753574 0.276641249657 -0.0149996289983 -0.00763777131215 -0.0330734848976 0.0331663861871 -0.110402949154 0.0568893551826 0.0305474922061 0.0
-0.0459281206131 0.0727946013212 0.0357670299709 0.100140050054 0.0278429482132 0.101415961981 -0.05413268134 -0.0500571578741 -0.0278946347535 0.0
-0.00394415436313 0.0753222033381 0.158953562379 0.135838076472 0.207851320505 -0.0867543667555 -0.107958413661 0.217891007662 0.00323704839684 0.0
0.00750107411295 -0.11625534296 -0.00310644716956 -0.0443848855793 -0.0248954892159 -0.0177432224154 0.0469146110117 -0.00840222742409 0.073776781559 0.0
0.0972480401397 -0.19602432847 -0.218924924731 0.130570262671 -0.248918250203 -0.144021481276 -0.0536834485829 -0.0875773206353 -0.230100721121 -0.0727846
-0.0865050777793 0.111426025629 0.00203092116863 -0.0774927288294 0.172679752111 -0.0661398768425 0.0506922714412 0.18716673553 0.0171074625105 0.0
-0.155582740903 0.0772447064519 0.0221457835287 -0.135435551405 0.0142597435042 0.0130014177412 -0.128356918693 -0.0961474254727 -0.121272444725 0.0
-0.0041854721494 -0.202969908714 -0.125910177827 0.108674235642 0.133223205805 -0.00015247448755 0.00853620097041 -0.0145847769454 -0.17444986105 0.0
-0.141197085381 -0.0702852532268 0.000737689435482 -0.00651707965881 0.0645839720964 -0.0683069378138 -0.19088563323 -0.0418723076582 -0.18321146071 0.0
-0.257474243641 -0.114809043705 -0.104457050562 -0.102477863431 0.0574451349676 -0.0960498973727 -0.047399841249 0.116919994354 -0.0122626982629 0.0
-0.258693784475 0.104242183268 0.0398907698691 0.00524068251252 0.0303643699735 -0.259616374969 0.0292884521186 0.142854720354 -0.00444950349629 0.0
-0.216130226851 0.111409612 0.0899221077561 0.0117082037032 0.169559329748 0.19101421535 0.0585060939193 0.127035275102 -0.00473724771291 0.0
0.130844518542 0.0516423918307 -0.00804567243904 0.0863089486957 0.041027020663 -0.0878261476755 -0.0328542590141 -0.0803744196892 0.00484129646793 0.0
0.0350159481168 0.119097873569 0.051904451102 -0.00134595634881 0.00884649157524 0.0628989562392 -0.107448346913 -0.00922121107578 -0.0328219756484 0.0
-0.0798304453492 -0.0193899199367 -0.16001932323 -0.080054409802 0.0690768361092 0.0494934767485 0.0782626345754 0.132539436221 -0.0371963754296 0.0
-0.13177035749 -0.0985040590167 -0.00246902229264 0.142488479614 0.0728255361319 -0.0899619236588 0.0535987466574 -0.111254110932 0.119588397443 0.0
-0.0438605546951 0.132215276361 -0.153865993023 0.092887930572 0.162679418921 0.0758582055569 -0.0658731088042 0.161476790905 0.11630294472 0.0
-0.0658340156078 -0.0124429864809 -0.0208832286298 -0.101406998932 -0.0800684764981 -0.0618494637311 -0.079945653677 -0.0800432786345 0.0209279004484 0.0
-0.132410138845 -0.28573936224 -0.059272069484 -0.127128109336 0.0431491285563 -0.181531324983 0.0149069996551 -0.196806043386 -0.149154439569 0.0
-0.177311196923 -0.124311506748 -0.0822485238314 0.00306213577278 0.261336892843 -0.102203786373 -0.168459698558 0.178932234645 -0.182282045484 0.0
-0.118487380445 -0.184526845813 -0.114798121154 -0.0706115737557 -0.131288379431 0.179760470986 0.0221152361482 0.0526326410472 0.0530524738133 0.0948912
-0.00912556704134 -0.115759156644 -0.0232012402266 -0.146828308702 -0.14022924006 0.13462844491 -0.0295261424035 -0.0135539537296 0.00969919469208 0.0
-0.000973924004938 -0.199322506785 -0.0183855555952 -0.058251477778 -0.140421882272 -0.142235398293 0.148754611611 0.00307287811302 0.0508649200201 0.0
0.015568879433 -0.150922343135 -0.0878955796361 -0.0397858656943 0.0700663998723 -0.132318124175 -0.0550959743559 0.0888849049807 0.0331462807953 0.0
-0.0122773377225 -0.118130758405 -0.0648246780038 0.0369177088141 -0.090080074966 -0.204514294863 -0.00261236960068 0.181105643511 0.0184848923236 0.0
-0.0508112646639 -0.072627723217 -0.0874823629856 -0.0228244066238 0.0541322864592 0.113713108003 0.229041218758 0.148096129298 -0.0156021472067 0.0
-0.0470627844334 -0.0411651842296 0.127312615514 -0.0128103708848 -0.0180164407939 -0.186454191804 0.333618909121 0.239507094026 0.150957345963 0.0
-0.200240060687 -0.196254968643 -0.166265815496 -0.00360213336535 -0.149227976799 -0.0314194448292 -0.240329295397 -0.240087285638 -0.136828988791 0.0
-0.00971492845565 -0.0543578639627 -0.0550658032298 0.0494866706431 -0.00585001567379 -0.0593261681497 -0.0141441328451 -0.10390394181 -0.0102638714015 0.0
0.103583909571 0.0330284610391 0.0401967391372 -0.0142702283338 0.0201761182398 -0.0332932136953 -0.0698692724109 -0.122889302671 -0.045364189893 0.0
-0.295166432858 -0.247445702553 -0.157284870744 -0.246837198734 -0.209871172905 -0.157352417707 -0.114713698626 -0.0839371681213 -0.0768346115947 0.0
0.0514618642628 0.0846119597554 0.172661021352 0.181056782603 0.154388010502 0.14742782712 0.261027902365 0.151817917824 0.302831351757 0.0
-0.110507175326 -0.223020970821 -0.24515645206 -0.226075559855 -0.141087308526 -0.133442088962 -0.0487552210689 -0.0989388376474 0.025572501123 0.0
-0.107338964939 0.0275341048837 0.0285769999027 0.000541381421499 -0.0750100985169 -0.0815137475729 0.0661694481969 0.0837206766009 -0.111196815968 0.0
-0.196485444903 -0.0884646773338 -0.0331037044525 0.00414760131389 -0.125801920891 -0.0702081024647 0.0906857177615 0.0489420779049 -0.0589353479445 0.0
0.124246299267 0.0908695980906 0.166775330901 0.0803019925952 0.0226619485766 0.145733043551 -0.0969827845693 0.0506978482008 0.135894939303 0.0
0.0014002553653 -0.294188737869 -0.238386303186 0.00729313818738 -0.240074858069 0.0120562817901 -0.0422980226576 -0.235490724444 -0.0623074024916 0.0354177
0.0685841962695 -0.116552248597 -0.108210280538 0.0867447406054 0.0249066464603 -0.018514374271 -0.0913961157203 0.152279615402 0.0415035411716 0.0
-0.124929010868 0.00212061358616 -0.097348921001 -0.134539708495 -0.0498978868127 -0.0467857681215 0.0505391694605 -0.084178134799 0.0959155112505 0.0
0.109749816358 -0.0805221870542 0.0870080590248 -0.0963153764606 0.121225364506 0.0427877232432 0.0567815937102 -0.101955614984 -0.103915549815 0.0
-0.0283740237355 -0.0850956439972 0.0879962444305 -0.1097766608 0.0994050949812 -0.0775360316038 -0.184798523784 0.0707798227668 0.0231280717999 0.0
0.0506647937 -0.22847238183 -0.105580285192 -0.0291319414973 -0.0114874867722 0.0509622767568 -0.0519337020814 0.0657168552279 0.0275511201471 0.0
-0.162171497941 0.14071367681 -0.0525269620121 -0.188607618213 -0.121760420501 0.00986436661333 -0.169063910842 -0.139269739389 -0.18173801899 0.0
0.0191088281572 -0.0126395123079 0.148454844952 -0.136335119605 -0.152924403548 -0.0759233981371 -0.0425288937986 -0.0927710309625 -0.0131917186081 0.0
0.00799924507737 -0.0856208428741 -0.0470029786229 0.0858071371913 0.039116743952 -0.0991653576493 0.111106231809 0.046893466264 0.0141571341082 0.0
0.0523131489754 0.0929231792688 0.112535767257 0.0267158728093 0.122239284217 0.0428995117545 -0.0940379872918 -0.0240133181214 -0.0594122856855 0.0
0.00298910331912 0.0257238615304 0.064328879118 -0.0785498172045 0.0664285048842 0.099354557693 0.0600584372878 0.157039016485 0.236844182014 0.0
-0.189331397414 -0.144671306014 -0.238703235984 -0.0826143920422 -0.0835472047329 -0.15849198401 -0.0919175222516 -0.134208247066 -0.156342461705 0.0
0.132743537426 0.0909945070744 0.0715588182211 0.0100644761696 -0.00425968738273 0.205722182989 0.139136299491 -0.00605466775596 0.0338134281337 0.0
0.110444650054 0.0346328988671 -0.103440180421 0.0471852943301 0.0363113246858 0.12800988555 -0.0689075812697 -0.0646189674735 -0.0157212689519 0.0
-0.18391828239 -0.0341897085309 -0.17537304759 0.0199630502611 -0.124201700091 -0.158320069313 0.0100382016972 -0.0148255173117 -0.010405536741 0.0
0.134178474545 0.182778686285 -0.136750951409 -0.0901301205158 0.0176109429449 0.0585905946791 -0.0318696275353 -0.132667511702 -0.04703848809 0.0
-0.198522105813 0.0564136207104 0.00547162443399 0.0139371436089 0.0504813939333 0.0184872131795 -0.132074981928 0.123259626329 0.0786272883415 0.106382
0.020147902891 -0.0488963797688 -0.104255512357 -0.0697218477726 0.031594697386 0.0677499622107 -0.030083457008 0.0855333060026 -0.126066640019 0.0
-0.0160676091909 -0.129029065371 -0.165332883596 0.0151996677741 -0.133865818381 0.0351766645908 -0.145663455129 0.0230505429208 -0.179419562221 0.0
-0.14671304822 -0.0570579990745 0.0273784343153 -0.00844117533416 0.0741621628404 -0.178524702787 0.00346454256214 -0.0849467143416 -0.00518429465592 0.0
-0.34167650342 0.208444729447 -0.0229732468724 -0.246456339955 -0.0132698267698 0.0906555950642 -0.201335400343 0.0746728032827 0.128089264035 0.0
0.0606167465448 -0.376984149218 -0.157148048282 -0.139551863074 -0.337206453085 -0.108258940279 0.0525534786284 0.0880761295557 0.015309127979 0.0
-0.107248045504 0.179891631007 -0.0256670769304 -0.205406576395 -0.110298663378 0.145426154137 -0.0211205296218 0.0999777391553 -0.092367246747 0.0
0.413646757603 0.323437511921 -0.0540813952684 0.221594497561 0.359558969736 -0.0175774786621 0.207226842642 0.0587246306241 -0.0747248530388 0.0
0.0690840557218 0.0914917066693 -0.0878790989518 0.0533074848354 -0.111185178161 0.036596737802 -0.0353287868202 -0.0812745764852 -0.0902241095901 0.0
0.0717645660043 -0.00239329203032 -0.112640202045 -0.125354290009 0.11440307647 -0.0562983192503 0.114545755088 -0.0953291207552 0.102678567171 0.0
0.0798715874553 0.0865888893604 -0.107761494815 -0.159106805921 -0.182918995619 -0.179956421256 -0.098487727344 -0.13339741528 0.0137970903888 0.0
0.0701721534133 -0.172220021486 0.164949372411 -0.156566038728 -0.050892315805 -0.0252080541104 -0.0188722759485 -0.100941590965 0.171315833926 0.0
-0.131920844316 0.0516409687698 -0.126825720072 -0.10102891922 -0.0825452059507 0.0172331165522 -0.172167807817 0.144850328565 -0.104186050594 0.0
0.0861235484481 0.0457711182535 0.129515707493 0.00978698581457 -0.0767054781318 0.0681465789676 -0.0674002617598 -0.121235556901 -0.00834652781487 0.0
-0.157124429941 -0.0805964246392 0.0427796319127 -0.0669217556715 -0.206832543015 -0.0760761275887 -0.15735681355 -0.122784808278 0.161627799273 0.0
-0.289443075657 -0.00748716341332 -0.171346411109 -0.0247221775353 0.16418492794 0.158225730062 0.0196145121008 -0.13051211834 0.163884282112 0.0
-0.216057881713 0.396676212549 -0.0710883885622 -0.177299782634 0.331298053265 -0.191088631749 -0.0796482935548 0.516844451427 0.0917437076569 -0.412472
0.0587339028716 -0.0265148133039 -0.144279763103 -0.0527264997363 0.0682922750711 -0.0126103684306 -0.0223504658788 0.0300111230463 0.0820883512497 0.0
-0.0190991032869 -0.060964487493 -0.0471475571394 0.0623628273606 -0.145683825016 -0.0436992458999 0.0943736433983 0.129139497876 0.0826720520854 0.0
0.220787495375 -0.0552250295877 -0.0110782478005 -0.0300570894033 0.0849972814322 0.120587810874 0.139057487249 0.00608782609925 -0.00637409463525 0.0
0.00582880852744 -0.169027611613 -0.106513768435 -0.151237174869 -0.211485505104 0.00190149457194 -0.0989192426205 -0.112791389227 -0.0968450158834 0.0
0.0460022836924 0.257467508316 0.34202966094 -0.125122338533 -0.0149100814015 0.0192269589752 0.185967341065 -0.156659811735 -0.214084580541 0.0
-0.102351635695 -0.0838919207454 0.118312314153 0.0264502894133 0.0137967811897 0.0888324305415 0.245905041695 -0.0416670367122 0.0148885985836 0.0
-0.180668577552 -0.0652971416712 0.0673640146852 0.200440049171 -0.0907963737845 0.0348960906267 0.223586171865 -0.225405856967 -0.164366438985 0.0
0.00663449475542 -0.0997721999884 -0.124363467097 0.113961361349 -0.0520369634032 0.0351647101343 -0.0268872883171 -0.0872848555446 0.0411422401667 0.0
0.106189236045 -0.00294299796224 0.106847167015 0.0282249171287 0.109229102731 -0.121864818037 -0.0179373342544 0.0993094220757 -0.0368934683502 0.0
-0.164032921195 0.0373246334493 -0.0175279323012 -0.0771571025252 -0.0514785908163 -0.00300629832782 -0.0945445895195 -0.255542099476 -0.432079464197 0.0
0.0704444423318 0.0274397116154 0.117345660925 -0.284343838692 -0.303820699453 -0.129204064608 0.21591168642 0.238521322608 0.205425098538 0.0
-0.0785010382533 0.207312837243 0.170578569174 -0.0261957347393 0.129287302494 0.141999736428 -0.00639788340777 -0.169216513634 -0.149980038404 0.0
-0.0340079031885 -0.1245405972 0.120723173022 0.0874432101846 0.0279194004834 -0.0140916220844 0.00659336522222 0.036229647696 0.0482140146196 0.0
-0.0238104518503 -0.0356504768133 0.0516117103398 -0.138107091188 -0.127385541797 -0.0333715230227 0.168170705438 -0.153455004096 -0.104171045125 0.0
0.115912117064 -0.0318814255297 -0.0217781607062 -0.000814351718873 -0.148617327213 -0.0352481119335 0.0669588893652 -0.0700391829014 0.0355290398002 0.0
-0.14577293396 -0.159320101142 0.0890176594257 -0.158988982439 -0.138013482094 -0.0977616459131 -0.00503005785868 0.00397325446829 0.171995341778 0.0630078
-0.128274738789 0.112865097821 -0.0401772521436 0.122790381312 -0.0714465230703 -0.0936906039715 -0.104260899127 -0.0975126475096 0.134271323681 0.0
-0.0291712079197 -0.0685430765152 -0.00145844614599 0.203025579453 0.11410368979 0.0655062347651 -0.0853789374232 -0.018091628328 -0.00227625109255 0.0
0.125362068415 -0.0103722345084 -0.032768920064 0.00505765946582 0.191833779216 0.0489704534411 0.0526416674256 -0.0622846037149 0.0394582338631 0.0
0.0789831504226 0.121072120965 0.0560258105397 0.047791916877 0.0878055170178 0.136390522122 -0.0487822666764 -0.30185058713 -0.105278149247 0.0
-0.213887020946 -0.0673503130674 -0.0078813303262 -0.0516520254314 0.157787591219 0.0450293235481 -0.166502699256 -0.177861988544 -0.0817059800029 0.0
0.101122125983 0.0774951502681 0.00758252106607 0.0517271086574 0.138611286879 -0.020110571757 -0.0245484355837 -0.0165898483247 -0.0444210208952 0.0
-0.174796849489 -0.24959641695 -0.234077572823 -0.118502743542 -0.0132334604859 -0.154984891415 0.0579377673566 0.028640313074 0.12764531374 0.0
0.104933202267 -0.100274890661 -0.034929305315 0.0785810053349 -0.0931984633207 -0.0331248901784 0.0327352434397 0.0755371302366 0.00273711164482 0.0
-0.0815646052361 -0.0447799041867 0.0829339623451 0.0179377123713 -0.0799663811922 0.00965611450374 -0.097658328712 -0.0538195334375 0.0816793441772 0.0
-0.125870868564 -0.0608834475279 0.0347570776939 -0.0707370042801 -0.0552219413221 -0.16935287416 -0.280815184116 -0.181353539228 -0.220599532127 0.0
-0.122163057327 -0.222592696548 -0.135329321027 0.0780090540648 -0.00824787933379 -0.0302060674876 0.0651184394956 -0.142105579376 -0.151554077864 0.0
-0.0438962057233 0.171200811863 -0.0631570592523 -0.0596164762974 -0.0133522162214 0.0984903946519 -0.108804762363 0.218452766538 0.0503374226391 0.0
0.0236358921975 -0.0378891117871 -0.0627486035228 -0.00716919079423 -0.105882287025 -0.048713285476 0.0482450909913 0.0462159141898 0.121720157564 0.0
-0.0977422147989 0.134364828467 0.0842974483967 -0.0323108509183 0.13902567327 0.210462197661 -0.0654363334179 -0.132216930389 0.018587090075 0.0
-0.0775868967175 0.0243383292109 -0.150248646736 0.141787931323 0.209078624845 0.154421597719 -0.0742335617542 0.203595072031 0.302570849657 0.0
-0.0974429696798 -0.0895453915 -0.107160195708 0.0780737176538 0.030348315835 -0.0728767886758 -0.0450107939541 -0.206622496247 -0.220451548696 0.0221531
0.0279121436179 -0.0924835130572 0.133483201265 -0.0208883453161 0.0378116369247 0.312336325645 0.208781018853 -0.152926042676 -0.0532432794571 0.0
-0.253100544214 -0.15472497046 -0.180511429906 0.115106374025 0.3171646595 0.141642332077 -0.0754198879004 0.0703770667315 0.0351930335164 0.0
0.0687282755971 0.0616192892194 -0.0226476248354 0.107706151903 -0.147495359182 0.040977396071 -0.00736913317814 -0.0716530233622 0.04086760059 0.0
-0.0524407438934 -0.292679518461 -0.138608202338 -0.0936281755567 0.199463218451 0.218237623572 -0.251675546169 -0.246207416058 -0.0959315299988 0.0
0.0208010282367 -0.295825988054 -0.228176295757 0.109131388366 -0.137398138642 -0.134011730552 -0.520198523998 -0.380023598671 0.0158938318491 0.0
-0.0528374947608 -0.326072365046 -0.0693398937583 -0.00069918949157 0.22727316618 0.145624831319 -0.0878657400608 -0.0367595925927 -0.193854644895 0.0
0.218912094831 -0.0133846011013 -0.151759102941 0.0448201186955 0.157522708178 0.0462138280272 -0.20423938334 -0.0125563284382 0.129771977663 0.0
0.00118621974252 0.0565442405641 -0.0126612894237 0.00415010331199 -0.024351451546 -0.106502443552 0.10069707036 -0.024841401726 0.10189460218 0.0
-0.02512296848 -0.112207084894 -0.0898599401116 -0.0309406071901 0.126344531775 0.0859908536077 -0.00280131120235 -0.00903244968504 -0.047785371542 0.0
0.0591030567884 -0.258138954639 -0.316700607538 0.216095641255 -0.162947908044 0.0471502169967 -0.444496899843 -0.389822900295 -0.0112383821979 0.0
0.311773121357 0.155947640538 -0.0258999299258 0.00786455534399 -0.160432383418 -0.0299009811133 -0.287836432457 -0.259538412094 -0.265582978725 0.0
0.148133084178 0.0216857865453 -0.122591458261 0.286182463169 0.141247451305 0.0288937967271 -0.0486375056207 -0.0663369223475 0.0548948422074 0.0
0.018337065354 -0.0905380100012 -0.0426723696291 -0.0995001494884 0.0499148629606 -0.0172952283174 -0.0138068674132 0.0588603578508 0.129191562533 0.0
-0.0809606984258 -0.0552493445575 -0.0219949949533 -0.164991855621 -0.0284403767437 -0.185012087226 -0.0640831142664 -0.107287466526 -0.178966373205 0.0
-0.214280217886 -0.0221952684224 -0.0243095736951 0.0842491611838 0.102137304842 0.423608034849 0.153222933412 0.219284161925 0.126672849059 0.0
-0.0136088300496 -0.114646226168 0.190646469593 0.396400094032 0.203198090196 0.357521265745 0.121627032757 -0.201550230384 -0.219045013189 -0.348076
0.0120204444975 0.0580610856414 -0.0254787355661 0.043988071382 0.0876606553793 -0.0915815532207 -0.0652647614479 -0.125158131123 0.0205652937293 0.0
-0.139586135745 -0.0660749599338 0.0246930196881 -0.040304582566 -0.0189971402287 0.0732726305723 -0.101867288351 0.080321110785 0.00112639763393 0.0
-0.123644538224 -0.0296049416065 0.128464952111 -0.143774449825 -0.0372690185905 0.0979762673378 -0.112274102867 0.0881304144859 0.0794941037893 0.0
-0.0555797219276 -0.159944206476 -0.0341745316982 -0.00833195168525 -0.177626788616 -0.123399682343 -0.150971099734 -0.169517606497 0.0401539057493 0.0
0.116410344839 0.115881100297 0.0654644295573 -0.104870714247 -0.00966944359243 0.0560623966157 -0.0872752666473 -0.133746922016 -0.00303771090694 0.0
-0.175615310669 -0.00809473730624 -0.200858056545 -0.169093474746 0.0038562011905 -0.105159148574 -0.0707954764366 0.0181740187109 0.00242771673948 0.0
-0.058830358088 -0.0392612330616 0.0567679293454 -0.0484358295798 0.0856426879764 -0.00854822713882 -0.0953625962138 0.153734475374 -0.0166454408318 0.0
0.0887496545911 0.0209081787616 -0.0845873504877 -0.0548705235124 -0.110635995865 0.0834792777896 0.0634441450238 0.0214970596135 -0.0475514009595 0.0
-0.033613845706 -0.0680100247264 -0.0987952724099 -0.0125750759616 0.080252058804 -0.128630116582 -0.0966635867953 0.101749666035 0.0865482240915 0.0
-0.0156868509948 0.0276342909783 0.0167744699866 0.0801400840282 -0.0916314199567 -0.121366612613 0.00362021895126 -0.123221695423 -0.0688694268465 0.0
-0.0630062520504 0.0913832336664 0.1119967103 0.0540953874588 0.113815739751 0.0951057076454 -0.0902263373137 0.157594412565 -0.250878065825 0.0
0.0598019436002 0.0330805592239 -0.127080574632 0.00435012672096 -0.100759126246 0.122854754329 -0.138289675117 0.010232177563 0.157222509384 0.0
0.0792314857244 -0.108507379889 -0.0015747762518 0.0850703716278 -0.0591337420046 -0.0990904942155 0.0547223351896 0.0596914254129 -0.0502330958843 0.0
0.0818763002753 -0.116255223751 0.146952465177 -0.167766258121 0.0115902908146 -0.0399913266301 -0.185489714146 0.0206195339561 0.0131167443469 0.0
-0.0712263211608 -0.0150811513886 -0.0410442613065 -0.0460876561701 0.170200452209 0.116217710078 -0.0146055063233 -0.026039365679 0.0990464687347 0.0
-0.101646669209 0.0470213778317 0.0653686448932 -0.0499129630625 -0.246494650841 0.0931052491069 -0.141295328736 -0.124092951417 -0.109830647707 -0.0238925
0.0102338371798 0.126348674297 -0.0131605817005 0.0504306443036 0.123739287257 0.175777480006 0.02443899028 0.066217713058 0.172644600272 0.0
-0.0147468410432 -0.0387109518051 -0.0671035721898 -0.1797850281 -0.0951455458999 0.0829074755311 -0.0307221915573 0.0335916206241 -0.151354134083 0.0
-0.13569714129 -0.209094405174 -0.172034904361 0.0428237505257 0.115869805217 -0.0457202531397 0.0997563973069 0.0368608981371 0.0469670854509 0.0
-0.39630150795 -0.562247216702 -0.491298437119 0.166129514575 -0.113207511604 -0.00607534963638 0.313934087753 0.179204121232 0.205651074648 0.0
-0.247788622975 -0.0681268051267 -0.0893542468548 0.0199503153563 0.0607028417289 0.133790180087 -0.0173460524529 -0.150572642684 0.0670296251774 0.0
-0.128914058208 -0.184505864978 -0.32956379652 0.119185119867 -0.0455726422369 0.109871849418 0.184438958764 -0.0233208239079 0.0146776326001 0.0
-0.080076277256 -0.210067793727 -0.0696833953261 0.00205098441802 -0.102237194777 -0.12450466305 -0.116506226361 -0.337747842073 -0.256028980017 0.0
-0.14009462297 0.0975832790136 0.101492658257 0.0583820901811 0.10654348135 -0.0550594888628 -0.0651376023889 0.0879882276058 -0.0798161253333 0.0
0.0567087680101 0.0361051224172 -0.100597560406 -0.126784473658 0.0645142197609 -0.100837789476 0.116176202893 0.0642091110349 0.0744687467813 0.0
-0.388484060764 -0.449788242579 -0.0186153762043 0.107303693891 0.0267225280404 0.105516508222 0.317893505096 0.323809474707 0.238324418664 0.0
-0.231990426779 -0.19843660295 -0.192028537393 0.211817324162 -0.0389000438154 0.0914927795529 -0.00231906585395 -0.12572067976 -0.0315942950547 0.0
0.014697839506 -0.0218020416796 0.200671032071 0.200583174825 0.0983427986503 0.343494683504 0.0803686901927 0.121690161526 0.341641932726 0.0
-0.0189724806696 -0.110730469227 -0.0178894158453 0.00435164244846 -0.129027798772 0.120584204793 0.0821406394243 0.0744098722935 0.114669337869 0.0
-0.360358327627 -0.219775155187 -0.267667889595 0.112320624292 0.00846994761378 0.195612698793 -0.0619220435619 -0.123349651694 -0.184251382947 0.0
-0.0516181141138 -0.18035505712 -0.23410564661 -0.172254636884 -0.177015185356 -0.152977719903 -0.0285898093134 0.00144857726991 0.10702612251 0.0
-0.0620778985322 0.00442792382091 -0.259356558323 0.0381616726518 -0.23689456284 0.0264947582036 0.011396988295 -0.0114268781617 -0.120335020125 0.333852
-0.00223701400682 -0.142652794719 0.107380211353 0.14802543819 -0.183837085962 0.170465290546 0.010849379003 0.0642492771149 0.197628185153 0.0
-0.0630616620183 -0.116886153817 0.00715314922854 -0.125286117196 -0.164596915245 0.0128279635683 0.184223100543 0.0706489756703 0.245070293546 0.0
-0.0915685743093 0.167432397604 0.0560400001705 0.126326829195 -0.0292992889881 -0.0434112437069 -0.0285914577544 0.0414431467652 0.00579593749717 0.0
-0.129710391164 0.330799847841 0.188487529755 -0.113458111882 0.340015888214 -0.00860082544386 -0.283486753702 -0.0931007936597 -0.168828696012 0.0
0.0348275341094 0.256353914738 -0.0675475969911 -0.0971081480384 -0.0122069893405 -0.225908383727 0.0335326902568 -0.103872925043 0.279703229666 0.0
-0.21077850461 0.0496219359338 -0.144765883684 -0.0496045723557 0.0482423342764 -0.0261954944581 -0.0213380809873 -0.0365085490048 0.0879126191139 0.0
-0.0869643241167 -0.2366797328 -0.16146594286 0.00089001347078 -0.208171978593 -0.121004007757 -0.0809290930629 -0.104443892837 0.101270236075 0.0
-0.0686986744404 -0.0193877462298 0.0527182482183 0.0805290564895 -0.0857482254505 -0.0158962514251 -0.118222139776 -0.0562898516655 0.112030848861 0.0
-0.0481142997742 -0.0236127600074 0.107142359018 -0.0177267771214 0.0203651115298 -0.0349578857422 0.0760919824243 0.0575243681669 -0.0164585765451 0.0
0.015017490834 -0.0274437628686 -0.215534001589 -0.0480769760907 0.178424984217 -0.04917351529 -0.239388078451 -0.0823007822037 -0.0292496811599 0.0
-0.0597763881087 0.419015705585 0.100525520742 -0.113504365087 0.109306313097 -0.0892230346799 -0.245846375823 -0.211094215512 -0.159359261394 0.0
-0.0229700300843 0.194156378508 -0.138636618853 -0.152567714453 0.0344606973231 -0.139923021197 -0.376003682613 0.0306309070438 -0.209933683276 0.0
0.0752668902278 0.0738473385572 -0.0782868340611 0.0736307054758 -0.0811429396272 -0.0306838527322 0.0861667990685 -0.0428839214146 -0.129694193602 0.0
0.211078986526 0.475518882275 0.166804879904 0.00695752585307 -0.0124615989625 0.133985444903 -0.0645130425692 -0.113399945199 0.122570902109 0.0
-0.188550680876 -0.227770313621 -0.169212713838 -0.230261594057 -0.0764471441507 -0.0628537759185 0.0567575991154 0.0592575520277 0.124371193349 0.0
0.10884758085 -0.130055710673 -0.255869716406 0.170593485236 -0.0505875982344 -0.0221964716911 0.056563898921 -0.0942242667079 -0.263962417841 0.0736466
