convolution,  5 3
0.225382626057 0.0
0.00330599606968 0.0
-0.00281654135324 0.0
0.105940461159 0.0
0.0203109011054 0.0
-3.84871236747e-05 0.0
-0.0134055577219 0.0
-0.0473464094102 0.0
-0.00136372912675 0.0
0.554033577442 0.0
-0.0276154540479 0.0
-0.00720666069537 0.0
-0.0659159868956 0.0
0.584978759289 0.0
0.218940928578 0.0
0.0415211133659 0.0
1.21400630474 0.0
0.422355204821 0.0
-0.00635451450944 0.0
0.635958194733 0.0
-0.0379855744541 0.0
0.0463574826717 0.0
0.279044747353 0.0
-0.0212456807494 0.0
0.00614234479144 0.0
0.929572105408 0.0
-0.0275432392955 0.0
-0.0207728780806 0.0
0.40550661087 0.0
0.228212997317 0.0
0.828756570816 0.0
0.925072014332 0.0
0.745850324631 0.0
-0.187459990382 0.0
0.618379235268 0.0
-0.0169576089829 0.0
0.245249599218 0.0
-0.0080973720178 0.0
0.00915590301156 0.0
0.524212241173 0.0
-0.0281764380634 0.0
0.462738394737 0.0
0.0092466827482 0.0
0.457917839289 0.0
0.271534532309 0.0
-0.015966642648 0.0
0.131795734167 0.0
0.68144518137 0.0
-0.00604435196146 0.0
-0.0328443907201 0.0
-0.0184917598963 0.0
-0.0240778867155 0.0
-0.0500855110586 0.0
0.0675439983606 0.0
0.425353348255 0.0
-0.0116677060723 0.0
0.0368471965194 0.0
-0.0112520763651 0.0
-0.0104673989117 0.0
-0.00859306659549 0.0
0.128429085016 0.0
0.0038744348567 0.0
-0.0133660659194 0.0
-0.105483815074 -0.258756
0.426517993212 0.0
-0.00105880910996 0.0
-0.111550934613 0.0
-0.0714953839779 0.0
-0.0154376998544 0.0
-0.00392141286284 0.0
0.00344080524519 0.0
0.277530401945 0.0
-0.00864954292774 0.0
-0.286499917507 0.0
0.00536077935249 0.0
-0.0132371988147 0.0
0.575035452843 0.0
-0.302718818188 0.0
-0.150512307882 0.0
-0.0198315344751 0.0
-0.558587372303 0.0
-0.195283770561 0.0
0.00547497346997 0.0
-0.366907268763 0.0
0.0648823976517 0.0
0.147412881255 0.0
-0.156687855721 0.0
-0.0036267421674 0.0
0.00154683867004 0.0
-0.486470878124 0.0
0.0182585455477 0.0
0.000600219762418 0.0
-0.226901933551 0.0
-0.137615099549 0.0
-0.42810472846 0.0
-0.511387884617 0.0
-0.396989434958 0.0
1.91041719913 0.0
-0.32135990262 0.0
-0.014355417341 0.0
-0.098392650485 0.0
-0.00288864667527 0.0
-0.021488878876 0.0
-0.214364409447 0.0
-0.0571184307337 0.0
-0.278789013624 0.0
-0.00778427440673 0.0
-0.2351359725 0.0
-0.171830117702 0.0
-0.0201701875776 0.0
0.406923085451 0.0
-0.372396379709 0.0
0.0048314682208 0.0
-0.0594349429011 0.0
0.0188886150718 0.0
0.0412543788552 0.0
0.179005593061 0.0
0.0386081300676 0.0
0.910465657711 0.0
0.0170519370586 0.0
-0.0238133799285 0.0
-0.018377782777 0.0
-0.00651171337813 0.0
0.0552384704351 0.0
-0.0871746987104 0.0
0.0211719144136 0.0
0.00262198620476 0.0
0.339199155569 1.30053
