convolution,  5 3
0.0668535158038 0.0
0.0107512669638 0.0
0.0480970144272 0.0
-0.02081448026 0.0
0.0146658299491 0.0
0.0132212359458 0.0
0.0286623872817 0.0
0.0899100527167 0.0
0.0722758248448 0.0
-0.00167520996183 0.0
-0.00665955105796 0.0
-0.0318164154887 0.0
0.192452579737 0.0
-0.10141261667 0.0
0.151645421982 0.0
0.0966914072633 0.0
0.0841521024704 0.0
0.0980676189065 0.0
-0.0137033108622 0.0
0.0224462933838 0.0
-0.0870244652033 0.0
0.0967733189464 0.0
0.0813111364841 0.0
0.0948962718248 0.0
0.165707603097 0.0
0.0204998534173 0.0
0.00054714322323 0.0
-0.12785153091 0.0
-0.04079182446 0.0
0.000674128241371 0.0
0.158924356103 0.0
-0.0202043931931 0.0416996
0.00517384381965 0.0
-0.00541840307415 0.0
-0.00580048654228 0.0
0.0183892026544 0.0
0.0076388688758 0.0
0.00149594352115 0.0
0.00671485066414 0.0
0.00347889564 0.0
0.00837175734341 0.0
0.00354948430322 0.0
0.00648318743333 0.0
0.00103864597622 0.0
-0.00330421910621 0.0
-0.00756424386054 0.0
-0.00246711145155 0.0
0.00250420067459 0.0
-0.00386475166306 0.0
0.00174106960185 0.0
-0.00597697682679 0.0
0.00575632927939 0.0
-0.00494323996827 0.0
0.00324035692029 0.0
0.00687728263438 0.0
-0.00798378139734 0.0
-0.0148083381355 0.0
0.00546269025654 0.0
-0.00969652459025 0.0
-0.0103918649256 0.0
0.00446490198374 0.0
-0.00414731679484 0.0
0.003475865582 0.0
0.000965191458818 0.00167143
0.0148237673566 0.0
0.0241741519421 0.0
0.0369646735489 0.0
0.0119247175753 0.0
-0.00719155743718 0.0
0.0294602382928 0.0
0.0244353469461 0.0
-0.011298247613 0.0
-0.0263300128281 0.0
0.016648048535 0.0
-0.00508623803034 0.0
0.000991772161797 0.0
-0.0584361813962 0.0
0.0437327362597 0.0
-0.0130061302334 0.0
-0.0204287953675 0.0
-0.0056961835362 0.0
-0.00927738007158 0.0
-0.0134536316618 0.0
0.00983440317214 0.0
0.00767736556008 0.0
-0.0263622608036 0.0
-0.0162852276117 0.0
-0.0158103518188 0.0
-0.0329458042979 0.0
-0.0181269217283 0.0
0.0165590997785 0.0
0.0320384465158 0.0
0.0204413868487 0.0
0.00264920061454 0.0
-0.0302959568799 0.0
0.0206687152386 -0.0146153
-0.0387389026582 0.0
0.043048851192 0.0
-0.0114524839446 0.0
0.0404500961304 0.0
-0.016380039975 0.0
-0.0232176054269 0.0
-0.0129750594497 0.0
-0.0131796142086 0.0
0.0323924049735 0.0
0.0409002266824 0.0
-0.00877048168331 0.0
-0.0125083355233 0.0
0.0276249777526 0.0
-0.0301267895848 0.0
-0.0261101145297 0.0
0.0868168473244 0.0
-0.0195282362401 0.0
0.0188306830823 0.0
0.0340057015419 0.0
-0.0169597901404 0.0
0.0296869054437 0.0
-0.0159206725657 0.0
0.0276390723884 0.0
0.0399705804884 0.0
0.0286274272949 0.0
0.00249479920603 0.0
0.02017182298 0.0
-0.0118456948549 0.0
0.0363730527461 0.0
-0.0226888414472 0.0
0.0596883296967 0.0
0.0156474523246 0.0089883
-0.00461993506178 0.0
0.00826747529209 0.0
-0.00805603154004 0.0
-0.0169451422989 0.0
-0.0197810884565 0.0
-0.0190611332655 0.0
-0.0203562229872 0.0
-0.0049630147405 0.0
0.00957285333425 0.0
-0.00240007578395 0.0
0.0121633326635 0.0
-0.0148018281907 0.0
0.0207232553512 0.0
0.00184903247282 0.0
0.00480994954705 0.0
-0.00144322414417 0.0
-0.0129160601646 0.0
0.000701745331753 0.0
-0.00622826581821 0.0
-0.00134586752392 0.0
-0.0200235806406 0.0
0.000376718468033 0.0
-0.00185787526425 0.0
0.00719405012205 0.0
0.00799468439072 0.0
0.0077077364549 0.0
-0.00452799722552 0.0
-0.00364843709394 0.0
-0.00645228475332 0.0
-0.00892371311784 0.0
0.0184490326792 0.0
0.00749962776899 0.00910829
-0.00549606559798 0.0
0.0062512983568 0.0
0.00827817060053 0.0
-0.00166681630071 0.0
0.00547653390095 0.0
0.00450557516888 0.0
-0.00517582846805 0.0
-0.00532963266596 0.0
-0.00229499931447 0.0
0.00248923385516 0.0
0.00701547786593 0.0
0.00102823029738 0.0
-0.00249151955359 0.0
0.00698378449306 0.0
-0.0122564397752 0.0
-0.00149853562471 0.0
0.00235505867749 0.0
-0.0123969148844 0.0
-0.00161382020451 0.0
-0.0131242955104 0.0
0.000150830499479 0.0
-0.0088903196156 0.0
0.00147470575757 0.0
0.0044166194275 0.0
0.0056092008017 0.0
-0.00976165477186 0.0
0.00524790165946 0.0
0.00282731023617 0.0
-0.0105799455196 0.0
-0.00397059833631 0.0
-0.00011086435552 0.0
-0.000977440620773 0.00127769
-0.00517606874928 0.0
-0.0128835178912 0.0
-0.00224055442959 0.0
0.00182750215754 0.0
0.00166897696909 0.0
0.00542852748185 0.0
-0.00979736074805 0.0
-0.0220550578088 0.0
0.00410644849762 0.0
-0.0205933339894 0.0
-0.000158375623869 0.0
-0.00224702805281 0.0
-0.0102243255824 0.0
-0.0125596998259 0.0
-0.00765375699848 0.0
-0.00601081782952 0.0
-0.00289425556548 0.0
-0.00289644068107 0.0
-0.0096218790859 0.0
0.00503254542127 0.0
-0.0112038217485 0.0
0.00803534407169 0.0
-0.0125372679904 0.0
-0.00150347966701 0.0
0.000342633080436 0.0
-0.00294470577501 0.0
-0.00407573254779 0.0
-0.00676931906492 0.0
-0.00374739267863 0.0
0.00320433056913 0.0
0.00683712912723 0.0
-0.00592558970675 -0.000300185
0.0496555045247 0.0
-0.05077207461 0.0
0.0780912190676 0.0
-0.0762261673808 0.0
0.0252124387771 0.0
0.0186902917922 0.0
0.0561572611332 0.0
0.0527278482914 0.0
0.00691097928211 0.0
-0.0313448049128 0.0
-0.00655659660697 0.0
-0.0238652043045 0.0
0.0985404029489 0.0
-0.0732543841004 0.0
0.133000642061 0.0
-0.0475895628333 0.0
0.0310025364161 0.0
0.0195260737091 0.0
-0.0999525934458 0.0
0.0218054596335 0.0
-0.113797746599 0.0
0.049725420773 0.0
0.0296673625708 0.0
0.0700567960739 0.0
0.0699348449707 0.0
-0.0167789086699 0.0
-0.0452181920409 0.0
-0.113713406026 0.0
-0.0622143633664 0.0
0.0181100089103 0.0
0.0444121137261 0.0
-0.0270477924496 0.0133901
0.00687396340072 0.0
0.0189118105918 0.0
-0.00971696339548 0.0
-0.00995241384953 0.0
0.00618978170678 0.0
-0.00615793280303 0.0
-0.000356146891136 0.0
-0.00761420279741 0.0
0.00184788531624 0.0
0.00311386492103 0.0
-0.00688225403428 0.0
-0.0058285756968 0.0
0.00119757652283 0.0
0.0142583670095 0.0
-0.000312688469421 0.0
0.0102617181838 0.0
-0.011748386547 0.0
-0.00332902395166 0.0
0.00403512269258 0.0
-0.0179365798831 0.0
-0.0143578639254 0.0
-0.00392295466736 0.0
-0.0161718763411 0.0
-0.00526493228972 0.0
-0.00908477418125 0.0
-0.00810737721622 0.0
-0.00911650527269 0.0
0.00824535731226 0.0
-0.0116634191945 0.0
0.0205478779972 0.0
0.0121417474002 0.0
-0.00901314709336 0.00101801
-0.14294269681 0.0
0.232684388757 0.0
-0.0883130356669 0.0
0.212912023067 0.0
0.00156688585412 0.0
-0.08327691257 0.0
-0.084214091301 0.0
-0.0605264306068 0.0
0.149299323559 0.0
0.223322674632 0.0
0.0242749750614 0.0
0.0516593158245 0.0
0.127347692847 0.0
-0.1214415133 0.0
-0.137068584561 0.0
0.356066346169 0.0
-0.0919165611267 0.0
0.118422411382 0.0
0.0504785291851 0.0
-0.120601303875 0.0
0.17592227459 0.0
-0.0128541467711 0.0
0.126260563731 0.0
0.152903407812 0.0
0.085120819509 0.0
0.101436190307 0.0
0.119454234838 0.0
-0.0859327241778 0.0
0.173325955868 0.0
-0.0799306258559 0.0
0.218137741089 0.0
0.0966142192483 0.0520703
-0.0112597038969 0.0
-0.000411777378758 0.0
-0.00630144169554 0.0
0.0156748592854 0.0
-0.00146160309669 0.0
-0.0001067973717 0.0
-0.00685043772683 0.0
0.0178900398314 0.0
-0.0125007787719 0.0
-0.0173684302717 0.0
-0.00135257828515 0.0
-0.0112523976713 0.0
-0.00224931538105 0.0
0.00344980368391 0.0
0.00457037892193 0.0
-0.0176682528108 0.0
0.0115220341831 0.0
-0.00265406724066 0.0
0.00172423035838 0.0
-0.00881203543395 0.0
-0.0147682558745 0.0
0.000749550177716 0.0
0.00607444951311 0.0
-0.00835960078984 0.0
0.00155072077177 0.0
0.0119770597667 0.0
-0.0153977014124 0.0
0.0234109051526 0.0
0.00456449389458 0.0
-0.00178022810724 0.0
-0.0103516299278 0.0
-0.00512007111683 -0.00302092
-0.0175024736673 0.0
-0.00595459993929 0.0
-0.00401881011203 0.0
-0.0119006522 0.0
-0.0114937806502 0.0
-0.0109226452187 0.0
-0.017015196383 0.0
-0.0134565792978 0.0
0.00401858706027 0.0
0.000879043131135 0.0
0.00130913977046 0.0
0.00193596759345 0.0
-0.00374262430705 0.0
0.00766154611483 0.0
-0.00888337753713 0.0
-0.0037756159436 0.0
-0.00204392848536 0.0
0.00449822284281 0.0
-0.0120873693377 0.0
0.0139316245914 0.0
-0.0128733357415 0.0
0.0137527836487 0.0
0.0050857285969 0.0
-0.00200439151376 0.0
-0.00698815053329 0.0
-0.00270620896481 0.0
-0.0035308545921 0.0
0.00460315821692 0.0
0.0203313026577 0.0
-0.0090025709942 0.0
-0.00456356117502 0.0
0.0120840677992 0.000605861
0.0744203776121 0.0
-0.112811736763 0.0
0.142283901572 0.0
-0.11377171427 0.0
0.0221306830645 0.0
0.0625163391232 0.0
0.103035159409 0.0
0.14826412499 0.0
0.0211529117078 0.0
-0.110513843596 0.0
-0.022724930197 0.0
-0.049157794565 0.0
0.199830800295 0.0
-0.132348075509 0.0
0.260312050581 0.0
-0.0446498394012 0.0
0.0478975325823 0.0
0.0823221802711 0.0
-0.201146036386 0.0
0.0825427100062 0.0
-0.209600627422 0.0
0.0891193971038 0.0
0.0480304807425 0.0
0.130557730794 0.0
0.165726691484 0.0
-0.048464782536 0.0
-0.0834598243237 0.0
-0.234726041555 0.0
-0.161763504148 0.0
0.0262850187719 0.0
0.100303985178 0.0
-0.0366922654212 0.0382114
-0.174753040075 0.0
0.25106331706 0.0
-0.0780575796962 0.0
0.207139492035 0.0
0.00717110978439 0.0
-0.0707901194692 0.0
-0.0770898908377 0.0
-0.0807688683271 0.0
0.153259083629 0.0
0.205151841044 0.0
0.0208444520831 0.0
0.0458952821791 0.0
0.138770848513 0.0
-0.147559002042 0.0
-0.17395696044 0.0
0.386439830065 0.0
-0.08494541049 0.0
0.131510838866 0.0
0.0363798476756 0.0
-0.0904562622309 0.0
0.162769138813 0.0
-0.00076878251275 0.0
0.119939878583 0.0
0.126560553908 0.0
0.0706402882934 0.0
0.113804243505 0.0
0.128426998854 0.0
-0.0875310748816 0.0
0.192800447345 0.0
-0.0848463699222 0.0
0.210325151682 0.0
0.113217197359 0.0782805
-0.0488609932363 0.0
0.116294570267 0.0
-0.0400517657399 0.0
0.0784486159682 0.0
-0.00880113150924 0.0
-0.0429303385317 0.0
-0.019600301981 0.0
-0.0243666246533 0.0
0.0597425363958 0.0
0.0813579857349 0.0
0.00413689669222 0.0
0.0247696582228 0.0
0.0535024106503 0.0
-0.0765196681023 0.0
-0.0528755895793 0.0
0.158123254776 0.0
-0.036876924336 0.0
0.0507738739252 0.0
0.0261707995087 0.0
-0.0464723408222 0.0
0.0320017635822 0.0
-0.0462428554893 0.0
0.0402715057135 0.0
0.0760610103607 0.0
0.0311171188951 0.0
0.0427235774696 0.0
0.0454141795635 0.0
-0.0117077743635 0.0
0.072083517909 0.0
-0.0330309681594 0.0
0.0933011174202 0.0
0.0665377080441 0.0351624
0.0128076262772 0.0
0.0139501718804 0.0
0.00913680065423 0.0
0.0415818914771 0.0
0.00619888631627 0.0
-0.00579964416102 0.0
-0.0146746030077 0.0
-0.0116698760539 0.0
-0.000631518603768 0.0
0.00328700547107 0.0
0.00106969370972 0.0
-0.00245205522515 0.0
-0.00718555459753 0.0
-0.00781973451376 0.0
-0.0113889593631 0.0
0.0293176043779 0.0
-0.00813741795719 0.0
0.00822371896356 0.0
0.00796405877918 0.0
0.0114020919427 0.0
0.0177943799645 0.0
0.0161499660462 0.0
0.0178729593754 0.0
-0.00865118764341 0.0
-0.00352713116445 0.0
0.0060696490109 0.0
0.0171456392854 0.0
-0.00361812999472 0.0
0.00858099013567 0.0
-0.0048621208407 0.0
0.0288759879768 0.0
0.0159511044621 -0.00470734
-0.150885716081 0.0
0.525492250919 0.0
-0.163302257657 0.0
0.455675542355 0.0
0.0203259531409 0.0
-0.275202512741 0.0
-0.146867334843 0.0
-0.0970140099525 0.0
0.286036759615 0.0
0.457965373993 0.0
0.0493760444224 0.0
0.0737427324057 0.0
0.199879676104 0.0
-0.31195166707 0.0
-0.187013268471 0.0
0.770944595337 0.0
-0.188703864813 0.0
0.28024700284 0.0
0.0902968123555 0.0
-0.241691440344 0.0
0.375182390213 0.0
-0.0593998990953 0.0
0.24798810482 0.0
0.35747268796 0.0
0.120500601828 0.0
0.124892212451 0.0
0.304073303938 0.0
-0.0815591439605 0.0
0.414704293013 0.0
-0.180930316448 0.0
0.460033535957 0.0
0.319335579872 0.0743508
-0.0513512380421 0.0
0.191749572754 0.0
-0.0601048022509 0.0
0.151918634772 0.0
-0.016734406352 0.0
-0.0974112525582 0.0
-0.0460697636008 0.0
-0.02697567828 0.0
0.0945785939693 0.0
0.145989388227 0.0
0.0219942480326 0.0
0.0162983518094 0.0
0.065732575953 0.0
-0.101634070277 0.0
-0.0578276403248 0.0
0.27322602272 0.0
-0.0542309246957 0.0
0.10004388541 0.0
0.0338062644005 0.0
-0.0833425149322 0.0
0.12873364985 0.0
-0.0401522219181 0.0
0.0815926790237 0.0
0.12502373755 0.0
0.0577037595212 0.0
0.0361563302577 0.0
0.0963116437197 0.0
-0.0290210060775 0.0
0.145356625319 0.0
-0.0711240917444 0.0
0.163202598691 0.0
0.119000710547 0.0374327
2.93429511657e-05 0.0
-2.21268619498e-05 0.0
0.000698497169651 0.0
0.00764401024207 0.0
-0.00442427722737 0.0
-0.0133696431294 0.0
0.0019140469376 0.0
-0.005435382016 0.0
-0.00137687730603 0.0
-0.00311972526833 0.0
0.000295780802844 0.0
-0.0120881395414 0.0
-0.0195642262697 0.0
0.00512195704505 0.0
-0.00793850887567 0.0
-0.0034044845961 0.0
-0.00296000228263 0.0
-0.00771108875051 0.0
-0.006432027556 0.0
-0.00465299421921 0.0
-0.00606013741344 0.0
-0.00901533756405 0.0
0.00423961179331 0.0
0.00448698597029 0.0
0.0182781331241 0.0
0.00110402773134 0.0
0.00836792774498 0.0
-0.0098106181249 0.0
0.00499783363193 0.0
0.00551886111498 0.0
-0.00178111926652 0.0
0.00263057579286 0.000274826
-0.10838265717 0.0
0.273319065571 0.0
-0.0879362151027 0.0
0.248847424984 0.0
0.00876925792545 0.0
-0.148160710931 0.0
-0.0967917889357 0.0
-0.0673071295023 0.0
0.166834712029 0.0
0.261559128761 0.0
0.0233556553721 0.0
0.027236931026 0.0
0.139160275459 0.0
-0.177554666996 0.0
-0.132654756308 0.0
0.397444963455 0.0
-0.11351287365 0.0
0.15919084847 0.0
0.0767969787121 0.0
-0.128581658006 0.0
0.196454018354 0.0
-0.0500490106642 0.0
0.1338147223 0.0
0.202675655484 0.0
0.0826214253902 0.0
0.0666632726789 0.0
0.162585943937 0.0
-0.0546038672328 0.0
0.208995565772 0.0
-0.099088922143 0.0
0.270416975021 0.0
0.177279546857 0.0642389
-0.00238040322438 0.0
0.000517116510309 0.0
0.0281652100384 0.0
-0.0231357868761 0.0
-0.00565525796264 0.0
-0.0229748245329 0.0
-0.00141913152765 0.0
0.0030455137603 0.0
-0.00697098718956 0.0
-0.00169124337845 0.0
-0.0138193489984 0.0
-0.00427615037188 0.0
0.0276113636792 0.0
0.000231360420003 0.0
0.0343675836921 0.0
-0.0300698485225 0.0
0.0396410673857 0.0
-0.0165786426514 0.0
0.0167666971684 0.0
0.0101797031239 0.0
-0.0188092272729 0.0
0.00950477924198 0.0
0.00814561732113 0.0
0.0164311863482 0.0
-0.00400069123134 0.0
0.0106457835063 0.0
-0.0310532003641 0.0
-0.00301745580509 0.0
0.00337366526946 0.0
-0.0067103873007 0.0
-0.0375183150172 0.0
-0.00706152664497 -0.00872955
0.0244449246675 0.0
-0.00508781801909 0.0
0.00775501178578 0.0
-0.00761743448675 0.0
0.00511894095689 0.0
0.00612434139475 0.0
0.0180260594934 0.0
0.0325528159738 0.0
0.0143903959543 0.0
-0.00747321778908 0.0
-0.0105295190588 0.0
-0.0259285196662 0.0
0.0667842403054 0.0
-0.0282642357051 0.0
0.0706968382001 0.0
0.0097160609439 0.0
0.0302099473774 0.0
0.0227193441242 0.0
1.11875651783e-05 0.0
0.0121488356963 0.0
-0.0309104267508 0.0
0.041776958853 0.0
0.0209851302207 0.0
0.0230323448777 0.0
0.0553389079869 0.0
0.0111844828352 0.0
-0.00415120646358 0.0
-0.05616787076 0.0
-0.026179170236 0.0
-0.00340282428078 0.0
0.0342675670981 0.0
-0.015026697889 0.0131537
-0.0687877014279 0.0
0.110789939761 0.0
-0.0437340959907 0.0
0.108695842326 0.0
0.00883628241718 0.0
-0.0395895838737 0.0
-0.0502884089947 0.0
-0.043457172811 0.0
0.0856808423996 0.0
0.0879054293036 0.0
0.00398880802095 0.0
0.0317115932703 0.0
0.0714447572827 0.0
-0.0592671111226 0.0
-0.0614281818271 0.0
0.18987095356 0.0
-0.0411016307771 0.0
0.0544928982854 0.0
0.00363967637531 0.0
-0.0432859025896 0.0
0.107284657657 0.0
-0.0101722814143 0.0
0.0626616925001 0.0
0.0496033094823 0.0
0.0215280838311 0.0
0.073849260807 0.0
0.0609310157597 0.0
-0.0558696463704 0.0
0.100556619465 0.0
-0.0459687039256 0.0
0.113198362291 0.0
0.0665404349566 0.0279037
-0.0103345792741 0.0
0.000411783781601 0.0
-0.00529300794005 0.0
-0.0101428246126 0.0
-0.00224105198868 0.0
-0.00485015101731 0.0
-0.0121766133234 0.0
-0.000873909448273 0.0
0.00124221632723 0.0
0.00751803815365 0.0
0.0105146225542 0.0
-0.012389972806 0.0
-0.00994468666613 0.0
0.00580861186609 0.0
0.00376978912391 0.0
-0.00490538170561 0.0
-0.000792707956862 0.0
-0.0083589265123 0.0
-0.007687183097 0.0
0.00101408385672 0.0
-0.017157677561 0.0
-0.00908164959401 0.0
0.00142471783329 0.0
-0.00261071044952 0.0
-0.00860331300646 0.0
-0.0120503492653 0.0
-0.00595153449103 0.0
0.00332646910101 0.0
-0.00427564885467 0.0
0.0219217427075 0.0
-0.00855092983693 0.0
-0.00313702528365 3.0368e-05
0.00402157288045 0.0
0.00656141480431 0.0
-0.0062748817727 0.0
-0.00331703177653 0.0
0.00279085268266 0.0
-0.00649702828377 0.0
0.00249189906754 0.0
-0.00685920147225 0.0
-0.00356702553108 0.0
-0.0167076289654 0.0
-0.0148279247805 0.0
-0.000233745071455 0.0
0.0069619496353 0.0
-0.0139652378857 0.0
0.0129025606439 0.0
0.000292180920951 0.0
-0.00882829353213 0.0
0.00708719436079 0.0
-0.0125266909599 0.0
-0.00450539356098 0.0
0.00245125545189 0.0
-0.0104918600991 0.0
0.00685923499987 0.0
-0.0138589926064 0.0
0.000882272375748 0.0
0.00133464753162 0.0
-0.00510802399367 0.0
-0.0112842135131 0.0
0.00313130137511 0.0
0.0061890007928 0.0
-0.00100758916233 0.0
-0.0113608827814 0.00101199
-0.119161963463 0.0
0.429247558117 0.0
-0.12149310112 0.0
0.37469291687 0.0
0.00665593752638 0.0
-0.209198728204 0.0
-0.130620673299 0.0
-0.0896248519421 0.0
0.231610611081 0.0
0.372503727674 0.0
0.0178656261414 0.0
0.0725455284119 0.0
0.155082702637 0.0
-0.220590770245 0.0
-0.119533404708 0.0
0.604966819286 0.0
-0.151342019439 0.0
0.228970900178 0.0
0.0592864267528 0.0
-0.179412350059 0.0
0.324790745974 0.0
-0.0398790799081 0.0
0.189792349935 0.0
0.256871044636 0.0
0.104940250516 0.0
0.132675901055 0.0
0.234280988574 0.0
-0.0494206286967 0.0
0.333950191736 0.0
-0.13870690763 0.0
0.356995284557 0.0
0.258417457342 0.0605414
0.00913734827191 0.0
-0.00835789367557 0.0
-0.0176639277488 0.0
-0.00976457353681 0.0
-0.0190772898495 0.0
0.0145476451144 0.0
0.00218346179463 0.0
-0.00716212484986 0.0
-0.0172210521996 0.0
0.00528208911419 0.0
-0.00784387625754 0.0
0.00287310522981 0.0
-0.00716333184391 0.0
-0.00206747604534 0.0
0.0270683411509 0.0
-0.00463074538857 0.0
0.00947519298643 0.0
0.000370510853827 0.0
0.0126006519422 0.0
-0.00516014220193 0.0
-0.00453426316381 0.0
-0.00852604396641 0.0
-0.00223758257926 0.0
-0.0087452493608 0.0
-0.00696505140513 0.0
-0.00422262540087 0.0
-0.00769109046087 0.0
0.0059973183088 0.0
-0.00150613242295 0.0
0.0125980377197 0.0
0.0126199265942 0.0
-0.0160425230861 0.00147427
-0.0057371663861 0.0
0.00818079523742 0.0
0.00659031188115 0.0
0.00329927774146 0.0
-0.0052253161557 0.0
-0.00959014520049 0.0
0.00241998955607 0.0
-0.00980652216822 0.0
-0.0140130622312 0.0
5.95917936153e-06 0.0
0.0105642657727 0.0
-0.00083341752179 0.0
-0.0117801260203 0.0
-0.0102227218449 0.0
-0.000733511114959 0.0
-0.0210174862295 0.0
-0.00417867628857 0.0
0.00170015450567 0.0
-0.00726616382599 0.0
0.0160634070635 0.0
0.00389863038436 0.0
-0.00726362364367 0.0
0.0047302977182 0.0
-0.00408366043121 0.0
-0.011872314848 0.0
-0.00728616258129 0.0
-0.00108460150659 0.0
0.00177521642763 0.0
-0.00902185682207 0.0
-0.00570941157639 0.0
-0.0188185572624 0.0
-0.00336672877893 0.000927235
-0.0836056396365 0.0
0.162159949541 0.0
-0.0585331842303 0.0
0.159489348531 0.0
0.0172246601433 0.0
-0.0863932818174 0.0
-0.0533667989075 0.0
-0.0550898052752 0.0
0.104964509606 0.0
0.141651332378 0.0
0.000549192074686 0.0
0.0333877056837 0.0
0.106935694814 0.0
-0.120297856629 0.0
-0.125827103853 0.0
0.264382213354 0.0
-0.0576170235872 0.0
0.0935139581561 0.0
0.0316843390465 0.0
-0.0840265527368 0.0
0.103884994984 0.0
-0.0505201891065 0.0
0.0734978169203 0.0
0.106291159987 0.0
0.0534088909626 0.0
0.0478719323874 0.0
0.0711723268032 0.0
-0.0612609498203 0.0
0.118225820363 0.0
-0.0802363753319 0.0
0.168379828334 0.0
0.0898084640503 0.0545729
-0.0248286910355 0.0
0.110052078962 0.0
-0.0338357537985 0.0
0.0974734649062 0.0
-0.0229694377631 0.0
-0.0537828840315 0.0
-0.0269616432488 0.0
-0.0163061562926 0.0
0.0520039796829 0.0
0.100536443293 0.0
0.00653302064165 0.0
0.0224867146462 0.0
0.0435472503304 0.0
-0.0606807097793 0.0
-0.0312182251364 0.0
0.149448290467 0.0
-0.0377406962216 0.0
0.0539247691631 0.0
0.0149835795164 0.0
-0.0519653372467 0.0
0.0810120925307 0.0
-0.0170926842839 0.0
0.0408193878829 0.0
0.0692211836576 0.0
0.0159001387656 0.0
0.0317067950964 0.0
0.0560354404151 0.0
-0.0103539377451 0.0
0.0860165059566 0.0
-0.0440913699567 0.0
0.0923078656197 0.0
0.0657267421484 0.0211984
-0.222594454885 0.0
0.329969078302 0.0
-0.118435300887 0.0
0.316319018602 0.0
0.0105198919773 0.0
-0.123645484447 0.0
-0.148369804025 0.0
-0.147245571017 0.0
0.231592550874 0.0
0.280683994293 0.0
0.0448089502752 0.0
0.0437660068274 0.0
0.232084318995 0.0
-0.220094740391 0.0
-0.216410920024 0.0
0.520403802395 0.0
-0.140417978168 0.0
0.16878259182 0.0
0.0315493904054 0.0
-0.124405160546 0.0
0.240714088082 0.0
0.0101916724816 0.0
0.179037094116 0.0
0.176841139793 0.0
0.124957688153 0.0
0.16259431839 0.0
0.17518761754 0.0
-0.148377805948 0.0
0.238831236959 0.0
-0.127933353186 0.0
0.31053674221 0.0
0.156450793147 0.103014
-0.22522239387 0.0
0.423877894878 0.0
-0.1255928725 0.0
0.366729795933 0.0
0.000607125402894 0.0
-0.146916180849 0.0
-0.115468643606 0.0
-0.131340950727 0.0
0.261359006166 0.0
0.350423961878 0.0
0.0324163101614 0.0
0.0519971549511 0.0
0.217408210039 0.0
-0.241791903973 0.0
-0.19155600667 0.0
0.5887119174 0.0
-0.163118124008 0.0
0.204480752349 0.0
0.0811273306608 0.0
-0.16134352982 0.0
0.2687112391 0.0
-0.00564659805968 0.0
0.201036974788 0.0
0.249715656042 0.0
0.115144141018 0.0
0.19204184413 0.0
0.227884277701 0.0
-0.100172288716 0.0
0.298855096102 0.0
-0.128835245967 0.0
0.379713565111 0.0
0.233996406198 0.106543
-0.204997271299 0.0
0.313040018082 0.0
-0.106252849102 0.0
0.278221070766 0.0
-0.000214269850403 0.0
-0.0968586280942 0.0
-0.0989487990737 0.0
-0.119910567999 0.0
0.211831212044 0.0
0.267568975687 0.0
0.031952239573 0.0
0.0479252785444 0.0
0.204209536314 0.0
-0.211782470345 0.0
-0.195265933871 0.0
0.485393047333 0.0
-0.120766922832 0.0
0.144025743008 0.0
0.0463227070868 0.0
-0.134123265743 0.0
0.190430879593 0.0
0.01705140993 0.0
0.155584156513 0.0
0.174260288477 0.0
0.10395694524 0.0
0.169646441936 0.0
0.17914481461 0.0
-0.114734053612 0.0
0.212745651603 0.0
-0.0983531028032 0.0
0.278946071863 0.0
0.144555285573 0.0988493
0.257737338543 0.0
-0.358140796423 0.0
0.459239155054 0.0
-0.446518540382 0.0
0.0313394553959 0.0
0.157110035419 0.0
0.319559186697 0.0
0.452228337526 0.0
0.0900225490332 0.0
-0.388368219137 0.0
-0.0594873838127 0.0
-0.179812148213 0.0
0.699611246586 0.0
-0.417294293642 0.0
0.931762099266 0.0
-0.178068071604 0.0
0.244138941169 0.0
0.28565633297 0.0
-0.590026199818 0.0
0.254463583231 0.0
-0.718587338924 0.0
0.315151333809 0.0
0.172253414989 0.0
0.411451667547 0.0
0.508733093739 0.0
-0.114205084741 0.0
-0.266966640949 0.0
-0.751409769058 0.0
-0.452958106995 0.0
0.117081619799 0.0
0.390994638205 0.0
-0.161324635148 0.132012
-0.164391160011 0.0
0.258889168501 0.0
-0.0915698185563 0.0
0.215330377221 0.0
0.000640283804387 0.0
-0.0944225564599 0.0
-0.114778243005 0.0
-0.124220602214 0.0
0.182626500726 0.0
0.195278048515 0.0
0.0155496122316 0.0
0.0415817312896 0.0
0.195431366563 0.0
-0.16573344171 0.0
-0.15254278481 0.0
0.374771237373 0.0
-0.121957935393 0.0
0.119979605079 0.0
0.0262630991638 0.0
-0.109408214688 0.0
0.191021487117 0.0
0.0259277466685 0.0
0.132314831018 0.0
0.143191635609 0.0
0.0933768451214 0.0
0.128763720393 0.0
0.125887528062 0.0
-0.134113833308 0.0
0.148139744997 0.0
-0.0861700177193 0.0
0.236385554075 0.0
0.0959461927414 0.0811961
0.00647024437785 0.0
0.00875670369714 0.0
0.00248722103424 0.0
-0.00282686506398 0.0
-0.00381700578146 0.0
-0.013586351648 0.0
0.0036794974003 0.0
-0.00954549387097 0.0
-0.00897006504238 0.0
-0.0123130381107 0.0
-0.00759171461686 0.0
0.000414462207118 0.0
-0.000861140142661 0.0
0.00204507727176 0.0
-0.00218937825412 0.0
0.00641833432019 0.0
-0.00411023292691 0.0
-0.00450594723225 0.0
-0.00512285996228 0.0
0.00226246681996 0.0
-0.0177794191986 0.0
-0.0137021820992 0.0
-0.0143842753023 0.0
-0.000628017180134 0.0
-0.0116815492511 0.0
-0.00589022599161 0.0
0.00935079250485 0.0
0.00177890970372 0.0
0.00341823650524 0.0
-0.00442591449246 0.0
-0.00289117102511 0.0
0.00661398330703 -0.000524176
-0.0683562085032 0.0
0.102381557226 0.0
-0.0250148829073 0.0
0.074203915894 0.0
0.000344011146808 0.0
-0.0287189222872 0.0
-0.0289227198809 0.0
-0.028919108212 0.0
0.0534744076431 0.0
0.0882842540741 0.0
0.0170480199158 0.0
0.0103021143004 0.0
0.0523876585066 0.0
-0.0648132711649 0.0
-0.0783063545823 0.0
0.167526036501 0.0
-0.0294420886785 0.0
0.0407448112965 0.0
0.0211474131793 0.0
-0.0462949723005 0.0
0.0415200255811 0.0
-0.00223008170724 0.0
0.0475061535835 0.0
0.0607684887946 0.0
0.037846442312 0.0
0.0420824438334 0.0
0.0411657504737 0.0
-0.0307928379625 0.0
0.0667136237025 0.0
-0.0238153226674 0.0
0.084971383214 0.0
0.0441043972969 0.0299331
-0.00297369179316 0.0
-0.00947921257466 0.0
-0.00585731770843 0.0
0.00274912500754 0.0
0.0198846887797 0.0
-0.00289916526526 0.0
0.00693436805159 0.0
-0.00584707874805 0.0
0.0106740109622 0.0
0.00224833982065 0.0
-0.00636803871021 0.0
-0.0154410935938 0.0
-0.00197330093943 0.0
-0.0180651545525 0.0
-0.00405909772962 0.0
-0.00898746028543 0.0
0.0057207304053 0.0
-0.00484553305432 0.0
0.0164591930807 0.0
-0.00033041354618 0.0
-0.00285215955228 0.0
0.00450746109709 0.0
0.00966954044998 0.0
-0.0210010111332 0.0
-0.0103742778301 0.0
0.0128511302173 0.0
-0.000479253969388 0.0
-0.00401792535558 0.0
0.00275642843917 0.0
-0.0160131994635 0.0
-0.000429019157309 0.0
-0.013387911953 -0.00027985
0.0102652534842 0.0
0.00516413524747 0.0
-0.002019981388 0.0
-0.000114599562949 0.0
-0.00643335375935 0.0
-0.0188137274235 0.0
0.0153455352411 0.0
0.0037616819609 0.0
-0.000281898974208 0.0
0.011266393587 0.0
0.00166677555535 0.0
0.00624770205468 0.0
-0.00857154652476 0.0
0.00272701052018 0.0
-0.00417740503326 0.0
0.0139818321913 0.0
-0.00698667904362 0.0
-0.00429628789425 0.0
-0.00857264921069 0.0
-0.0124941021204 0.0
0.0141526935622 0.0
-0.0019240406109 0.0
-0.00783352181315 0.0
-0.0233540311456 0.0
-0.00053329783259 0.0
-0.00173402030487 0.0
0.00383378076367 0.0
0.00137086061295 0.0
0.00940700154752 0.0
-0.00276325293817 0.0
-0.00937406346202 0.0
-0.0113744419068 -0.0029847
-0.0679737627506 0.0
0.22501309216 0.0
-0.064449287951 0.0
0.175550878048 0.0
0.0191272608936 0.0
-0.10375700891 0.0
-0.071351274848 0.0
-0.0481884069741 0.0
0.133317530155 0.0
0.193894684315 0.0
0.0314339846373 0.0
0.0141395572573 0.0
0.0831395611167 0.0
-0.115055479109 0.0
-0.0670928582549 0.0
0.338227242231 0.0
-0.0851927250624 0.0
0.121177271008 0.0
0.0332026854157 0.0
-0.092943713069 0.0
0.182246312499 0.0
0.00792084913701 0.0
0.111322700977 0.0
0.143629938364 0.0
0.0627072751522 0.0
0.0788535028696 0.0
0.132084146142 0.0
-0.0376905277371 0.0
0.171662062407 0.0
-0.0596294105053 0.0
0.205797120929 0.0
0.130792871118 0.0309057
0.0129447607324 0.0
-0.00896018184721 0.0
0.0133140655234 0.0
0.010935314931 0.0
-0.00029018096393 0.0
0.0159459356219 0.0
0.0264482293278 0.0
-0.0163737889379 0.0
-0.00493066478521 0.0
-0.00483456114307 0.0
-0.000784107600339 0.0
0.00596100697294 0.0
-0.0280318856239 0.0
0.00638339761645 0.0
-0.00280064251274 0.0
-0.0278180912137 0.0
0.00409628078341 0.0
-0.0162717159837 0.0
0.00355351832695 0.0
-0.00624249782413 0.0
0.0186166819185 0.0
0.00467349914834 0.0
-0.0202604047954 0.0
-0.0148719372228 0.0
-0.0295480936766 0.0
0.00977483391762 0.0
-0.00782497506589 0.0
0.0174485296011 0.0
0.00914288498461 0.0
-0.00979027990252 0.0
-0.0226748287678 0.0
0.00768422661349 -0.0082845
-0.16053698957 0.0
0.194218948483 0.0
-0.0602299720049 0.0
0.170022547245 0.0
0.00381845608354 0.0
-0.0389400608838 0.0
-0.0879580751061 0.0
-0.118622452021 0.0
0.14456230402 0.0
0.1569776088 0.0
0.0308726560324 0.0
0.0352344252169 0.0
0.166189745069 0.0
-0.12094835192 0.0
-0.130044013262 0.0
0.274832576513 0.0
-0.0903056785464 0.0
0.08393330127 0.0
0.0296537615359 0.0
-0.081343613565 0.0
0.137650430202 0.0
0.0452878028154 0.0
0.10199470818 0.0
0.0889289602637 0.0
0.0653025507927 0.0
0.117817923427 0.0
0.0900392755866 0.0
-0.112761311233 0.0
0.111316852272 0.0
-0.068504281342 0.0
0.171082794666 0.0
0.0723962336779 0.0748945
-0.00441675400361 0.0
0.00204901513644 0.0
-0.00417902646586 0.0
0.00544151058421 0.0
0.00722441961989 0.0
-0.0055060419254 0.0
-0.00574883027002 0.0
0.00381949753501 0.0
-0.00324564357288 0.0
-0.000153437125846 0.0
-0.0185830928385 0.0
-0.00851112604141 0.0
0.00631249276921 0.0
0.00579051719978 0.0
0.0010256273672 0.0
0.0011200531153 0.0
-0.00741441780701 0.0
0.000431407097494 0.0
-0.00233146222308 0.0
0.00483868550509 0.0
-0.00257799797691 0.0
-0.00391372526065 0.0
-0.0042411275208 0.0
-0.0101799909025 0.0
0.00765739241615 0.0
-0.00468829134479 0.0
0.00517161935568 0.0
-0.0058173709549 0.0
0.00303549063392 0.0
-0.00398695282638 0.0
-0.0067131165415 0.0
0.00328894890845 0.00252101
-0.14201900363 0.0
0.185988381505 0.0
-0.0614382065833 0.0
0.169898584485 0.0
-0.00406116619706 0.0
-0.0537021234632 0.0
-0.07062638551 0.0
-0.0968441665173 0.0
0.133216992021 0.0
0.137474909425 0.0
0.0217641275376 0.0
0.0629232525826 0.0
0.1358525455 0.0
-0.120552301407 0.0
-0.109220817685 0.0
0.255534291267 0.0
-0.0808224901557 0.0
0.0810001343489 0.0
0.0317236855626 0.0
-0.0752969160676 0.0
0.155408918858 0.0
0.0155010363087 0.0
0.119142256677 0.0
0.0938397496939 0.0
0.0875539705157 0.0
0.0997855216265 0.0
0.0820770189166 0.0
-0.102496176958 0.0
0.128022521734 0.0
-0.0769654139876 0.0
0.171596258879 0.0
0.0792452469468 0.0607717
-0.0475610904396 0.0
0.113324075937 0.0
-0.0393648147583 0.0
0.11267555505 0.0
0.0029980817344 0.0
-0.0492045618594 0.0
-0.0442153662443 0.0
-0.0348358601332 0.0
0.0788073167205 0.0
0.122539535165 0.0
0.0155812725425 0.0
0.0277657918632 0.0
0.0656508728862 0.0
-0.0815753415227 0.0
-0.0610144920647 0.0
0.187237679958 0.0
-0.0545484349132 0.0
0.0673880949616 0.0
0.0238734316081 0.0
-0.047276224941 0.0
0.10170763731 0.0
0.000886700698175 0.0
0.0621033534408 0.0
0.0865376666188 0.0
0.0127841075882 0.0
0.0505496226251 0.0
0.075957916677 0.0
-0.026457702741 0.0
0.10265018791 0.0
-0.0377882830799 0.0
0.109212376177 0.0
0.0571019351482 0.0227371
-0.00118846213445 0.0
-0.000747265585233 0.0
-0.00994128640741 0.0
-0.0229449495673 0.0
-0.00771063845605 0.0
7.71748382249e-05 0.0
-0.0234945677221 0.0
-0.0112340599298 0.0
-0.00649222405627 0.0
-0.00396322645247 0.0
0.00383309624158 0.0
-0.00260206591338 0.0
0.00352355651557 0.0
0.00509445834905 0.0
0.01047637593 0.0
-0.00382700422779 0.0
-0.00550453271717 0.0
0.00963907688856 0.0
-0.00331014790572 0.0
-0.00130458653439 0.0
-0.00541975302622 0.0
-0.00847924593836 0.0
-0.0195428468287 0.0
-0.0156890749931 0.0
0.00344392843544 0.0
0.0148482685909 0.0
-0.00722603173926 0.0
-0.00966385379434 0.0
-0.0135168703273 0.0
0.000686926941853 0.0
-0.00834386888891 0.0
0.00362989492714 -0.00102635
0.0449933111668 0.0
-0.0234952270985 0.0
0.0417403876781 0.0
-0.0603223219514 0.0
0.00600395258516 0.0
0.0208379477262 0.0
0.0463057421148 0.0
0.0876175910234 0.0
0.0352546647191 0.0
-0.0336585827172 0.0
-0.0107958046719 0.0
-0.0307552479208 0.0
0.199817880988 0.0
-0.0705722272396 0.0
0.166011616588 0.0
0.0461575426161 0.0
0.0793611034751 0.0
0.0724298432469 0.0
-0.0159589797258 0.0
0.0296807717532 0.0
-0.0914097353816 0.0
0.0961599946022 0.0
0.0670529305935 0.0
0.0836986228824 0.0
0.141053572297 0.0
0.0240447986871 0.0
-0.0322729237378 0.0
-0.139687180519 0.0
-0.060701739043 0.0
0.00716392416507 0.0
0.123610913754 0.0
-0.0172044932842 0.0350864
-0.21764729917 0.0
0.29323977232 0.0
-0.0942650586367 0.0
0.243094027042 0.0
0.0011045144638 0.0
-0.0819271206856 0.0
-0.0931181013584 0.0
-0.129304051399 0.0
0.20765851438 0.0
0.229212492704 0.0
0.0218787547201 0.0
0.0384310260415 0.0
0.200339332223 0.0
-0.190538734198 0.0
-0.16815905273 0.0
0.404650777578 0.0
-0.124064952135 0.0
0.138798221946 0.0
0.0574338063598 0.0
-0.103746592999 0.0
0.172890916467 0.0
0.0318853333592 0.0
0.155213057995 0.0
0.159015864134 0.0
0.132058024406 0.0
0.155120149255 0.0
0.158660382032 0.0
-0.127543538809 0.0
0.177658006549 0.0
-0.0978716313839 0.0
0.265906840563 0.0
0.12782497704 0.101205
0.00142822228372 0.0
0.000968454463873 0.0
0.0038418637123 0.0
-0.00164137221873 0.0
0.0106655899435 0.0
0.00551418913528 0.0
-0.0106349363923 0.0
-0.00506673008204 0.0
0.00022435466235 0.0
0.00249716639519 0.0
-0.00364022399299 0.0
-0.0012667037081 0.0
-0.00721334991977 0.0
-0.0197239648551 0.0
-0.00387038034387 0.0
-0.00790902879089 0.0
-0.0162550006062 0.0
-0.00452562142164 0.0
-0.00902490317822 0.0
-0.00379561679438 0.0
-0.00908961705863 0.0
-0.00630635023117 0.0
-0.00546187302098 0.0
-0.0059797228314 0.0
-0.0131484670565 0.0
0.00337386038154 0.0
-0.00255016959272 0.0
-0.00939130969346 0.0
0.00508588785306 0.0
0.0129930926487 0.0
0.00282780476846 0.0
0.00731653766707 0.0010941
0.0160734280944 0.0
-0.00916568376124 0.0
0.00432477332652 0.0
0.00511708389968 0.0
0.00468902848661 0.0
0.0166703741997 0.0
0.0256640706211 0.0
-0.0159997101873 0.0
-0.018129773438 0.0
-0.0161769166589 0.0
-0.000492796476465 0.0
-0.0110691851005 0.0
-0.0225109420717 0.0
0.0267991833389 0.0
-0.0186312105507 0.0
-0.0254447050393 0.0
-0.00327440653928 0.0
-0.0194434672594 0.0
0.0146545078605 0.0
0.0004456442839 0.0
0.00306492205709 0.0
-0.010345893912 0.0
-0.00686651282012 0.0
-0.00710161635652 0.0
-0.0290747825056 0.0
0.00282069365494 0.0
0.00538730947301 0.0
0.0321807712317 0.0
-0.00161888485309 0.0
-0.0158694107085 0.0
-0.0148216374218 0.0
-0.0159886348993 -0.00704641
0.00736476108432 0.0
-0.00602724263445 0.0
0.0167745426297 0.0
-0.0123527413234 0.0
0.0244824513793 0.0
0.00508018070832 0.0
0.0102633833885 0.0
-0.000965312763583 0.0
-0.0169403962791 0.0
-0.013131855987 0.0
-0.0167764481157 0.0
-0.00909064803272 0.0
0.0232277903706 0.0
-0.0193712916225 0.0
-0.0215830672532 0.0
0.000641721009742 0.0
0.0123978853226 0.0
-0.00444648880512 0.0
0.00880498345941 0.0
-0.00662448210642 0.0
-0.0150584578514 0.0
-0.00111051008571 0.0
-0.0157064255327 0.0
-0.0182551369071 0.0
0.00661934679374 0.0
-0.0100484769791 0.0
-0.00245573115535 0.0
0.0026017234195 0.0
0.00498922588304 0.0
0.0088432058692 0.0
-0.0091452812776 0.0
-0.00861309748143 0.00202789
-0.00607722019777 0.0
-0.000976676237769 0.0
0.014683239162 0.0
-0.00460760341957 0.0
-0.000217851673369 0.0
0.0122162317857 0.0
-0.00599097274244 0.0
0.0186942405999 0.0
-0.00866868719459 0.0
-0.00599700352177 0.0
-0.0064928974025 0.0
-0.0195315405726 0.0
0.0201282761991 0.0
-0.00839696358889 0.0
0.0362603068352 0.0
-0.0154948849231 0.0
0.0268620345742 0.0
-0.00399513589218 0.0
-0.0125893270597 0.0
-0.0203287787735 0.0
-0.024127682671 0.0
0.00510436668992 0.0
0.00545880524442 0.0
-0.00265415594913 0.0
0.00614613108337 0.0
0.00019510902348 0.0
-0.00594979152083 0.0
0.0123298484832 0.0
-0.00769179547206 0.0
-0.000218169574509 0.0
-0.0152104226872 0.0
-0.0255410186946 -0.00355647
0.034967135638 0.0
-0.0285102818161 0.0
0.0227380227298 0.0
-0.0438901223242 0.0
-0.00167729449458 0.0
0.0176808368415 0.0
0.0396856665611 0.0
0.0307352803648 0.0
-0.0109723424539 0.0
-0.0682417824864 0.0
0.00840204302222 0.0
-0.0135939773172 0.0
0.0692310556769 0.0
-0.033757571131 0.0
0.0968677178025 0.0
-0.0207128468901 0.0
0.0342079363763 0.0
0.0143842985854 0.0
-0.0618314854801 0.0
0.0332381352782 0.0
-0.0839127600193 0.0
0.0359995476902 0.0
-0.00390456616879 0.0
0.0332792550325 0.0
0.052390974015 0.0
-0.0158679764718 0.0
-0.0193558353931 0.0
-0.080197557807 0.0
-0.0563337393105 0.0
0.0142520498484 0.0
0.0209688059986 0.0
-0.0255321189761 0.00630809
0.0061213336885 0.0
0.00848507042974 0.0
0.0125655820593 0.0
0.0114813614637 0.0
0.00421568192542 0.0
-0.00316101056524 0.0
0.00240341667086 0.0
-0.00766818644479 0.0
0.0128188645467 0.0
0.0257682576776 0.0
0.00307134306058 0.0
0.000590333191212 0.0
0.0321320220828 0.0
-0.0180029477924 0.0
0.00960020534694 0.0
0.0379041582346 0.0
-0.00821597408503 0.0
0.00699918204919 0.0
-0.0176783148199 0.0
0.00888560898602 0.0
0.00502117024735 0.0
0.00795001257211 0.0
0.014463301748 0.0
-0.00251130177639 0.0
0.0190538223833 0.0
0.0060827746056 0.0
0.00987721607089 0.0
-0.00778478197753 0.0
0.0176162179559 0.0
0.00636188453063 0.0
0.0367131531239 0.0
0.0101341828704 0.0102961
0.117088973522 0.0
-0.0102159678936 0.0
0.125109821558 0.0
-0.0443257801235 0.0
0.0258002392948 0.0
0.0290114041418 0.0
0.0778000876307 0.0
0.211485132575 0.0
0.113801598549 0.0
-0.0282024927437 0.0
-0.0168004054576 0.0
-0.0357609838247 0.0
0.429548919201 0.0
-0.205881521106 0.0
0.331048429012 0.0
0.180209353566 0.0
0.174212425947 0.0
0.181769311428 0.0
-0.00701595377177 0.0
0.063159532845 0.0
-0.180596336722 0.0
0.194528669119 0.0
0.156360194087 0.0
0.193717360497 0.0
0.331988990307 0.0
0.0458758659661 0.0
-0.0299335438758 0.0
-0.314263403416 0.0
-0.106698215008 0.0
0.0139159383252 0.0
0.327742546797 0.0
-0.0237861517817 0.0861082
0.00790853053331 0.0
-0.00774272205308 0.0
0.00631052535027 0.0
-0.0090802880004 0.0
0.00612259935588 0.0
-0.00541839981452 0.0
0.00733358412981 0.0
0.00617035804316 0.0
-0.00707649393007 0.0
-0.00146702199709 0.0
0.00829735584557 0.0
-0.0083490954712 0.0
0.000298294384265 0.0
-0.00812954083085 0.0
0.00220583099872 0.0
-0.00504293618724 0.0
0.0160183161497 0.0
0.00367167801596 0.0
-3.13445889333e-05 0.0
0.0120096029714 0.0
-0.00456663966179 0.0
-0.0125419562683 0.0
0.0196339804679 0.0
-0.0047500366345 0.0
0.00765624316409 0.0
0.0026917103678 0.0
-0.000552851415705 0.0
-0.0104776518419 0.0
-0.00823590531945 0.0
0.0122475940734 0.0
-0.0144762434065 0.0
0.0016142699169 0.0022213
-0.0170395243913 0.0
0.00703770993277 0.0
-0.00215667486191 0.0
0.00735289976001 0.0
0.0220884047449 0.0
-0.00137569371145 0.0
-0.00822495669127 0.0
-0.0205663219094 0.0
0.0152965504676 0.0
-0.00207633990794 0.0
-0.0110098952428 0.0
0.00263546407223 0.0
0.0147120431066 0.0
-0.00116898468696 0.0
-0.0108824633062 0.0
0.0164558831602 0.0
-0.00612232647836 0.0
0.0107006635517 0.0
-0.00124761369079 0.0
-0.0105289677158 0.0
0.0177647601813 0.0
-0.00287312199362 0.0
0.0116133447737 0.0
0.0036427883897 0.0
0.00605904357508 0.0
0.0184917580336 0.0
0.0183208417147 0.0
-0.00393673358485 0.0
0.0232621002942 0.0
-0.00969146750867 0.0
0.0177943427116 0.0
0.00856506638229 0.0105779
0.00773313269019 0.0
0.00241682119668 0.0
0.00267249345779 0.0
-0.0117616960779 0.0
-0.00752296857536 0.0
0.00477958191186 0.0
0.00370396953076 0.0
-0.0144882332534 0.0
-0.0035889337305 0.0
-0.00918478518724 0.0
0.00249839457683 0.0
0.00279432861134 0.0
-0.01068764925 0.0
0.013601613231 0.0
-0.0134047763422 0.0
-0.0132278054953 0.0
-0.00401689438149 0.0
-0.0206601768732 0.0
0.00139370979741 0.0
-0.00986580830067 0.0
0.0151212764904 0.0
0.00242186221294 0.0
-0.0117084868252 0.0
0.00314158690162 0.0
0.00859013106674 0.0
-0.018376769498 0.0
0.00733365444466 0.0
-0.01450929977 0.0
0.00254966923967 0.0
0.0125802783296 0.0
-0.017129663378 0.0
0.00613374542445 0.00222337
-0.0101485792547 0.0
-0.0168472193182 0.0
-0.0176357813179 0.0
0.00344758783467 0.0
-0.00970611255616 0.0
0.00467478763312 0.0
-0.00478313723579 0.0
-0.0082697942853 0.0
-0.00882587302476 0.0
-0.00718877185136 0.0
-0.00506193004549 0.0
-0.0156701486558 0.0
-0.00268738763407 0.0
0.00915331579745 0.0
-0.00955010857433 0.0
0.000703903438989 0.0
0.00491430703551 0.0
-0.0119221555069 0.0
0.00474897166714 0.0
0.00428642518818 0.0
-0.00179762009066 0.0
0.00640558963642 0.0
-0.0145564768463 0.0
-0.00211318093352 0.0
0.00839004013687 0.0
0.000678148469888 0.0
-0.00506699085236 0.0
0.0134352454916 0.0
-6.33293166175e-05 0.0
-0.00214527710341 0.0
0.0148002896458 0.0
-0.00675547681749 -0.00184801
0.00825245864689 0.0
-0.0152916293591 0.0
-0.00971653312445 0.0
0.00401597563177 0.0
0.00550527637824 0.0
0.0123072015122 0.0
0.00999859999865 0.0
-0.00604670820758 0.0
-0.0156823545694 0.0
-0.00987925380468 0.0
0.0199390705675 0.0
-0.0148016056046 0.0
0.0298960264772 0.0
-0.000316441612085 0.0
0.0503321886063 0.0
0.00702313240618 0.0
0.0203271191567 0.0
-0.00211736559868 0.0
-0.00914464890957 0.0
0.0210753846914 0.0
-0.0320567935705 0.0
0.0192336235195 0.0
-0.000273565558018 0.0
0.00187467248179 0.0
0.00404031248763 0.0
-0.00829529482871 0.0
-0.00243363995105 0.0
-0.0212634950876 0.0
-0.017272580415 0.0
0.000637241872028 0.0
0.000857902807184 0.0
0.00207483954728 -2.87494e-05
-0.0289262533188 0.0
0.0685710981488 0.0
-0.0133009962738 0.0
0.0541034564376 0.0
0.00753102265298 0.0
-0.0286490619183 0.0
-0.0190996658057 0.0
-0.00708093866706 0.0
0.032173268497 0.0
0.0626775249839 0.0
-0.0026840288192 0.0
-0.00583840860054 0.0
0.0307392589748 0.0
-0.0379027910531 0.0
-0.0257809292525 0.0
0.073428787291 0.0
-0.0270085055381 0.0
0.024120869115 0.0
0.0280772447586 0.0
-0.0266182143241 0.0
0.0494507215917 0.0
-0.0101655805483 0.0
0.0264568347484 0.0
0.0484835542738 0.0
0.0232608038932 0.0
0.00119108823128 0.0
0.0431059785187 0.0
-0.0146687133238 0.0
0.0383791849017 0.0
-0.0213744137436 0.0
0.0635497421026 0.0
0.0223361458629 0.0213765
0.00737037323415 0.0
-0.00962614733726 0.0
0.00868835765868 0.0
-0.0154544347897 0.0
0.00415824679658 0.0
-0.00813447125256 0.0
-0.000785083859228 0.0
-0.00493971537799 0.0
-0.00249509350397 0.0
0.0114326514304 0.0
0.00399971893057 0.0
0.00940653029829 0.0
0.021464638412 0.0
-0.00128077622503 0.0
-0.00130622228608 0.0
-0.00390215381049 0.0
0.00525375036523 0.0
-0.00884702801704 0.0
-0.00970661267638 0.0
0.00707822246477 0.0
-0.00790798012167 0.0
0.000657021941151 0.0
-0.0107199456543 0.0
0.00947439763695 0.0
0.00233344547451 0.0
-0.00738692749292 0.0
0.00121765898075 0.0
-0.00935805775225 0.0
0.00583807192743 0.0
0.00113302224781 0.0
0.0147571898997 0.0
-0.00728262588382 1.52717e-05
-0.00514475395903 0.0
-0.012989663519 0.0
-0.00172873819247 0.0
0.00788963772357 0.0
0.000835269747768 0.0
-0.00532088475302 0.0
0.00473313964903 0.0
-0.0119261844084 0.0
-0.00448440993205 0.0
-0.00487853540108 0.0
0.0118156066164 0.0
-0.00452073989436 0.0
-0.00210087257437 0.0
-0.00937053002417 0.0
-8.12629732536e-05 0.0
-0.010876186192 0.0
0.0102967768908 0.0
7.23473131075e-05 0.0
0.0110555710271 0.0
-0.00257473113015 0.0
0.00393946096301 0.0
-0.000903962703887 0.0
-0.00134826765861 0.0
0.00643279822543 0.0
0.012569475919 0.0
0.0174697171897 0.0
0.00653359806165 0.0
5.5747681472e-05 0.0
0.0104156695306 0.0
0.0156313739717 0.0
-0.0295963175595 0.0
0.00792032387108 -0.00200721
0.056093852967 0.0
-0.0909278839827 0.0
0.0873955711722 0.0
-0.0949099436402 0.0
-0.014013685286 0.0
0.0429425649345 0.0
0.0666534006596 0.0
0.0677464976907 0.0
-0.0126762203872 0.0
-0.0901548415422 0.0
-0.0196360964328 0.0
-0.0269686691463 0.0
0.113808244467 0.0
-0.0805580466986 0.0
0.155603736639 0.0
-0.0562321729958 0.0
0.0559330880642 0.0
0.0448156856 0.0
-0.125437051058 0.0
0.0483614802361 0.0
-0.142388150096 0.0
0.0415265075862 0.0
0.0052622500807 0.0
0.0928779616952 0.0
0.0884181410074 0.0
-0.0349565260112 0.0
-0.0517243333161 0.0
-0.145179197192 0.0
-0.0885141938925 0.0
0.0444759391248 0.0
0.044708147645 0.0
-0.0238378569484 0.00997154
