convolution,  3 1
0.235696703196 -0.02856679447 -0.124102838337 -0.0946498960257 -0.0697617009282 -0.147158682346 -0.00278633227572 -0.0530442968011 -0.0319025479257 0.0
-0.0162033122033 -0.0770732909441 0.116587802768 -0.0173236466944 -0.105579555035 -0.0554257556796 0.0858323797584 -0.0742699578404 0.0629694014788 0.0
-0.083207577467 -0.081256441772 -0.191814899445 -0.00927277002484 -0.0370006747544 0.0746397152543 -0.0820333957672 -0.132209047675 0.0960075780749 0.0
0.000422257231548 -0.124144822359 -0.11831086874 -0.00973593257368 -0.0280897393823 -0.00432393699884 0.121424227953 -0.131877049804 0.0456717163324 0.0
0.107027880847 0.0984057188034 -0.0885196104646 -0.0733128190041 -0.0406476631761 -0.0356814861298 0.0299195200205 -0.000753899395932 -0.0207994747907 0.0
-0.0903173014522 0.110769510269 -0.0854800716043 -0.0250896289945 -0.107553131878 -0.04050212726 0.0419610664248 -0.0953052565455 0.0287945456803 0.0
-0.0920318812132 0.0707453563809 -0.013234208338 -0.018857780844 0.0367809347808 0.112831421196 -0.105371139944 -0.0391850918531 0.0728677585721 0.0
0.0436787977815 -0.079325504601 0.0791058763862 0.0811807364225 -0.0932253524661 -0.00288410787471 -0.0500877872109 0.0371735356748 0.0609543435276 0.0
0.0541182793677 -0.0662515461445 0.124980844557 -0.0575537830591 0.0719367787242 -0.115250810981 -0.0626384541392 -0.0900298506021 -0.119874998927 0.0
0.0120632108301 -0.000146885868162 0.0504487752914 0.121804393828 0.060935985297 0.20063598454 -0.0737463459373 0.0610850416124 0.158412054181 0.0
0.0386173501611 0.0828817784786 -0.0113173099235 -0.0629476457834 0.134856656194 -0.0408878400922 -0.0242047831416 -0.110782593489 -0.119490392506 0.0
-0.0732648670673 0.0886528491974 0.169255465269 -0.140901774168 0.0100383292884 0.0244183484465 -0.0275168698281 -0.154453843832 0.0319174714386 0.0
0.063179217279 0.0245151277632 0.0724654123187 -0.065660700202 -0.0916118472815 0.0198576338589 0.080255895853 -0.0870639160275 0.0418663471937 0.0
-0.12186986953 0.0161158405244 0.0647195354104 0.00848730374128 -0.0276961550117 -0.082626439631 0.00534883560613 0.0715859159827 0.0743517950177 0.0
-0.119856469333 -0.135009139776 -0.103777833283 0.089749917388 -0.0864160656929 -0.0217721015215 -0.116609059274 -0.10299076885 -0.119051702321 0.0
-0.122214317322 0.0653417184949 -0.148702532053 0.0584775060415 -0.0871268734336 0.0616300068796 0.0618777126074 0.085749976337 -0.141003072262 0.0434715
-0.0447040125728 -0.0798868834972 0.0481216423213 -0.100439049304 -0.0148529484868 -0.0156427174807 0.136128634214 0.0358447879553 0.214008271694 0.0
0.0766369625926 -0.0869581699371 -0.0903840586543 0.0416876114905 0.115102507174 -0.022844940424 0.0147885363549 0.173149317503 -0.0635209307075 0.0
-0.10930455476 -0.0574488155544 0.116854034364 -0.0188487712294 0.0592197701335 0.0848444998264 0.000338241108693 0.141459390521 0.210529789329 0.0
-0.0352504551411 0.132048875093 0.0716239884496 -0.0436414442956 -0.137574732304 -0.150617733598 -0.0941594913602 0.0836811065674 -0.00192473619245 0.0
-0.119310259819 -0.142403587699 -0.17316403985 -0.261570364237 -0.195474907756 -0.128662794828 -0.00794036034495 0.053689263761 0.120605990291 0.0
-0.0107369124889 0.0257355254143 0.113219819963 -0.138758793473 -0.0438242033124 0.13258947432 0.0999998450279 0.129648014903 -0.085582472384 0.0
-0.18730700016 -0.0422668457031 -0.043428670615 -0.223151251674 0.0667391866446 0.0252099949867 0.113878488541 0.212528154254 0.208689510822 0.0
-0.189364403486 -0.088326819241 0.0695113837719 0.0704320669174 -0.162256896496 0.0762361586094 0.0934688523412 -0.0118384044617 0.103653691709 0.0
-0.19978646934 0.0600153468549 -0.122752301395 -0.0392964892089 -0.128052800894 -0.0140637448058 0.168657332659 0.099072881043 -0.00651945127174 0.0
-0.12095002085 -0.112841941416 0.0773801580071 -0.187832176685 -0.0676877722144 0.110471203923 -0.140726223588 -0.0028813497629 -0.00460873357952 0.0
-0.114441275597 -0.116387233138 0.0557127743959 -0.0381721928716 0.0835432484746 0.12445025146 0.111689984798 0.012267883867 0.00341950589791 0.0
-0.0356379076838 0.063697822392 -0.0904670953751 0.0960528030992 0.122927837074 0.00798111595213 0.126333400607 -0.105425924063 0.00748361088336 0.0
0.0484331995249 -0.126285150647 -0.0135836275294 0.097585439682 0.0129390573129 -0.0744294822216 -0.121728792787 -0.146439731121 -0.0100032519549 0.0
-0.0542361736298 0.122396305203 0.024659216404 0.0935796946287 -0.121736891568 0.110602125525 0.101547412574 -0.0201836694032 0.0356330424547 0.0
0.0914903432131 -0.0463669449091 0.0396280139685 -0.107946269214 0.0949306711555 -0.102959036827 0.0707532316446 -0.0626844912767 0.0647512972355 0.0
0.100278630853 -0.0759087055922 0.151642113924 -0.00698040332645 0.151504680514 0.221313476562 0.149360224605 0.0836359187961 0.164462342858 -0.173538
-0.13152334094 -0.0294217709452 -0.0292469616979 -0.132043138146 -0.0624438300729 -0.00309775257483 -0.0559577345848 0.0173289179802 -0.161109983921 0.0
-0.0923109948635 -0.0312115587294 -0.0974438861012 -0.0517288558185 -0.131871327758 0.000877442595083 0.13678380847 -0.131727665663 0.0782173499465 0.0
0.0989946424961 0.10330132395 -0.105589367449 0.142703667283 0.0469267554581 -0.0793355926871 0.0821081027389 -0.0788654759526 -0.162626922131 0.0
-0.0117733962834 -0.0923011898994 0.143749311566 0.0870469212532 -0.123360663652 -0.0228648036718 0.0217685494572 -0.0816255137324 0.0835700407624 0.0
-0.116785734892 -0.00330388988368 -0.115371607244 0.1516045928 -0.00708182482049 -0.0348371975124 -0.104536160827 0.0481935068965 0.0830049067736 0.0
-0.0702761784196 0.146611943841 -0.0807832330465 -0.0170863624662 -0.146209925413 -0.0855727493763 -0.062996096909 -0.109457053244 -0.116386316717 0.0
0.000862497254275 0.106668129563 0.0600749328732 0.0984663665295 0.127473056316 0.0646700188518 -0.043146405369 0.171345129609 -0.105876870453 0.0
0.062242936343 -0.0560189932585 0.00171418057289 0.0470100753009 -0.0603618808091 -0.048057500273 0.052294947207 0.127224251628 0.0769073441625 0.0
0.104103408754 -0.0291479174048 0.0469593331218 -0.00993875414133 -0.102394379675 0.0932316407561 0.114576824009 -0.0747056901455 0.00121566699818 0.0
0.0526889041066 -0.0711497291923 -0.0492282547057 -0.159115105867 0.0674814432859 0.0555561073124 -0.0804203823209 -0.0706938654184 -0.0667644590139 0.0
0.0324634127319 0.116394780576 0.119611650705 0.0730827897787 0.0637891292572 -0.0376909263432 -0.0307026896626 0.0835139900446 -0.0419514961541 0.0
-0.0223948843777 -0.0193093903363 0.0196123886853 0.0292003303766 -0.12344083935 0.087835110724 0.12913364172 0.0576712042093 0.00312974397093 0.0
-0.124260738492 -0.0247459113598 0.0142237599939 -0.0492457784712 0.0714170858264 -0.0469666458666 -0.0135155022144 -0.0811693668365 -0.086657769978 0.0
0.0163779575378 -0.109691485763 -0.135569706559 -0.000912934017833 0.126665309072 0.108884356916 -0.0535023957491 0.108531787992 -0.000120613804029 0.0
-0.0150915123522 0.0686787366867 0.139440983534 -0.139437362552 -0.0215753316879 -0.108217917383 0.0600793138146 0.0843167826533 0.12153621763 0.0
0.043623007834 0.0940919443965 0.0500969476998 -0.057432256639 0.0981282293797 0.0862732306123 -0.0811265483499 -0.0111599992961 -0.128555104136 0.0313468
0.168726190925 0.274480521679 0.0879083126783 0.0327500514686 0.12091679126 0.247152969241 0.0385573916137 0.198623344302 0.230655923486 0.0
-0.0336767658591 -0.00479914946482 -0.215068042278 -0.0426296852529 -0.179820880294 -0.239383965731 -0.0690584927797 -0.0737458541989 -0.2092166394 0.0
0.0414443090558 -0.167218729854 0.110383346677 0.0421916842461 -0.236446678638 0.0864018946886 -0.0744077712297 -0.345476329327 -0.0338725596666 0.0
-0.00478854682297 0.02636025846 -0.0725804492831 -0.0918181836605 0.0343055911362 0.0463122688234 -0.0940657556057 -0.00522603979334 -0.099229298532 0.0
-0.0198508221656 0.0547017306089 0.238948494196 0.185408145189 0.0330470874906 -0.0297959577292 0.112934559584 0.0514754764736 -0.00723210629076 0.0
0.0562685765326 0.123311176896 -0.0921728089452 0.0408495254815 0.225570634007 0.207271799445 0.0777353942394 0.0504447892308 0.194682389498 0.0
0.0873000621796 0.143737718463 0.135848701 0.159639850259 -0.14301751554 -0.0398594103754 0.208081439137 0.0553239956498 -0.205955207348 0.0
-0.00120412744582 -0.286146908998 -0.107285045087 -0.0947326570749 -0.26931771636 -0.181560352445 -0.0566181391478 -0.0491769909859 -0.114314928651 0.0
0.0153075056151 0.133459374309 0.100502751768 0.0648135095835 0.122277349234 -0.0753328725696 0.141989380121 0.00120304734446 -0.15042579174 0.0
-0.0666434764862 -0.0170549806207 -0.134553104639 -0.0105010541156 -0.0117140710354 -0.126627296209 -0.117615535855 -0.207461237907 -0.181091144681 0.0
-0.140630304813 0.137206241488 0.0102234361693 -0.0507574975491 0.163991719484 0.0104345418513 -0.13242021203 -0.0787618681788 0.0631088539958 0.0
0.148499444127 0.245413094759 0.0894257947803 0.258126795292 -0.116905681789 0.100349679589 0.397026449442 0.020213291049 -0.148405924439 0.0
0.135781005025 -0.220326036215 -0.216975107789 0.00756509369239 -0.236267894506 -0.112879343331 -0.0745938494802 -0.25851637125 -0.0702821314335 0.0
-0.0797667875886 0.102816842496 -0.0403141379356 -0.0658471435308 -0.117835827172 0.0100877983496 -0.121270850301 0.0504352934659 0.099826708436 0.0
-0.129313677549 0.060668412596 0.0838141962886 -0.0285312272608 0.0285031832755 0.0589174292982 -0.00755336182192 0.0613170601428 -0.0463729761541 0.0
0.114767841995 0.00802279449999 -0.0545962117612 0.0831424072385 -0.125071331859 0.184829950333 0.104960732162 -0.0570529140532 0.0391428843141 -1.11794
-0.142120346427 -0.126279085875 -0.0716957002878 -0.1606965065 -0.0598301701248 0.094801209867 0.0195970721543 -0.0662860870361 0.0457801520824 0.0
0.0106784356758 0.106881022453 -0.0507128722966 0.16215378046 -0.0508455969393 -0.00103129725903 0.00519876973704 0.135474845767 0.106642499566 0.0
0.10952860117 -0.0787768065929 0.061481654644 -0.1786788553 -0.0139661552384 0.0616259090602 -0.147949099541 -0.132727265358 0.109268091619 0.0
-0.0926133543253 -0.0922524631023 -0.0604325868189 -0.0365479923785 0.0544671341777 0.135864064097 0.0676169916987 0.042524933815 -0.0378955379128 0.0
-0.0482174158096 -0.0844696760178 -0.0870261564851 0.0914273485541 -0.0544022358954 0.022697802633 0.104599550366 0.191126435995 -0.00506766373292 0.0
0.0967357456684 0.0174481477588 -0.0598745159805 0.0691024214029 0.108230985701 0.0418422520161 0.0696252435446 0.118831261992 0.0484118014574 0.0
0.0749445334077 -0.13391238451 0.0987619236112 -0.122503615916 -0.110541880131 -0.0992360860109 -0.00382427754812 0.0172117706388 -0.0481768399477 0.0
-0.0334356799722 -0.00174186192453 -0.0876538679004 0.097092166543 -0.035437155515 -0.0646961256862 0.0679861605167 0.103950574994 0.0813676789403 0.0
-0.113952629268 0.135957583785 0.0751327574253 0.101839162409 0.155780792236 0.0320838317275 -0.0824448019266 0.143045887351 0.00578478351235 0.0
-0.101569458842 0.0323639512062 0.0235395040363 0.0444026850164 -0.0294503960758 -0.0187302809209 0.0947609320283 0.140437021852 -0.058626268059 0.0
-0.0253625512123 0.0656134933233 0.0436315946281 0.0964916720986 0.152130395174 0.0687843412161 0.094071008265 -0.0196999758482 0.113316051662 0.0
-0.180184066296 -0.104649469256 0.00734319258481 -0.11660720408 0.0703301802278 -0.0404160954058 0.126411467791 0.0492304861546 -0.00507364189252 0.0
-0.131903037429 -0.020300462842 0.0442256368697 -0.104611471295 -0.178611204028 -0.146057233214 0.0425469391048 0.0714815482497 0.101850420237 0.0
-0.078116722405 0.047183893621 -0.0701287612319 0.0694205537438 0.130634009838 -0.0378252007067 -0.116543874145 0.0496338941157 -0.074089743197 0.0
-0.0613671429455 0.109133370221 -0.104358315468 0.0804349482059 0.0624973028898 0.126503378153 0.111410170794 0.014697374776 -0.102092176676 0.0
-0.0803080871701 -0.0911227241158 0.0312271136791 0.00154687929899 0.1343755126 -0.102073140442 -0.120242074132 -0.114334776998 -0.0662297978997 0.0603448
-0.298219949007 -0.0418801568449 0.0118123525754 -0.174163296819 -0.137641474605 0.0271216221154 -0.292647331953 -0.0876612216234 -0.162446394563 0.0
0.144767269492 -0.0139429969713 0.0467318817973 0.00614314479753 -0.0812341794372 -0.0328516848385 -0.0392975881696 -0.00749876582995 0.0503498241305 0.0
-0.105210773647 0.142228081822 0.240300446749 -0.076657757163 -0.0951669737697 0.0353737398982 0.0303116645664 -0.0387634001672 0.0973642095923 0.0
0.0827861055732 0.0967938676476 -0.124161191285 -0.065941222012 -0.094183743 0.111219540238 0.0482345744967 0.104954265058 -0.117590621114 0.0
-0.0400410033762 -0.0236267484725 -0.0533452965319 -0.013246325776 -0.0708101019263 0.101442858577 -0.115668974817 0.0474594831467 -0.100071795285 0.0
0.0580774098635 0.0235297866166 -0.00365965836681 0.119645692408 0.0204866956919 -0.00708133587614 -0.0994321927428 0.0404620952904 0.0741678401828 0.0
-0.248817831278 -0.0145016852766 -0.0602308921516 0.0932282134891 -0.04712112993 0.00491936318576 0.0120659749955 -0.0407892353833 -0.139147803187 0.0
-0.124439194798 -0.207569494843 0.00178736029193 -0.108992479742 -0.0852332413197 0.129841402173 -0.171982616186 -0.089262239635 0.0375182963908 0.0
-0.107546754181 -0.107539281249 0.108720809221 0.0737611055374 -0.0395934507251 -0.00387615198269 0.119951598346 0.192829862237 0.00420816242695 0.0
-0.0697762146592 -0.0972234681249 -0.0982661172748 -0.103239789605 0.0202249661088 0.0544723793864 -0.092017441988 0.032815169543 0.0739671364427 0.0
0.132562354207 -0.000641114893369 0.0582567304373 0.0605178661644 -0.0825192704797 -0.0926627218723 0.153718188405 0.142767190933 0.0914668515325 0.0
-0.069188952446 -0.180049955845 -0.162154898047 -0.0414886772633 -0.149396046996 -0.0974166616797 -0.17136476934 -0.188220724463 0.142197087407 0.0
0.100131198764 0.16319668293 0.345772266388 -0.106415748596 0.0908787250519 0.12022344768 -0.0858640298247 -0.144056156278 0.0307819321752 0.0
-0.10731228441 0.0586676262319 0.0757403448224 0.0461409427226 -0.0865564644337 -0.06756413728 -0.029031926766 0.0389031134546 0.0400747656822 0.0
-0.110523253679 -0.040599886328 -0.110192351043 -0.0160230062902 0.0990043878555 -0.178946584463 0.11987926811 -0.116409532726 0.0245823264122 0.0
0.0506162829697 0.00754043040797 0.11116502434 -0.0906236469746 -0.0501873902977 0.0618755184114 0.0976987928152 0.0714306235313 0.129287287593 0.129583
-0.1402887851 -0.0686882436275 0.180483624339 0.0603162199259 0.065088942647 0.195007577538 0.0769495591521 0.110005706549 -0.125621363521 0.0
-0.0415968820453 -0.081705249846 0.000533373618964 -0.0063048331067 -0.0432134047151 -0.192112803459 -0.215142741799 -0.134146749973 0.00305961631238 0.0
-0.0726835057139 -0.225731045008 -0.136842340231 -0.00952151045203 0.13889978826 0.0693699941039 -0.0293769668788 0.298965871334 0.100835613906 0.0
-0.0186407081783 -0.0207452382892 0.146749764681 -0.100497245789 0.0107731958851 0.0582530684769 -0.0571730993688 -0.0799082368612 -0.0115429433063 0.0
-0.158024713397 0.00987729150802 0.317803710699 0.134978950024 0.103458248079 0.048740029335 0.11824337393 -0.0402775816619 -0.285819768906 0.0
0.0757170543075 -0.150396823883 -0.0775643140078 -0.0306326169521 -0.188786402345 -0.252224385738 -0.136009126902 -0.157796904445 -0.264874875546 0.0
-0.243227228522 0.0783343985677 0.374501913786 -0.120530761778 0.142417922616 0.388188421726 -0.0824783369899 -0.236228838563 -0.061927780509 0.0
0.0370541885495 -0.122124582529 0.260078787804 0.00795139931142 0.0908658206463 0.031606670469 -0.0281286239624 -0.146260336041 -0.0106140049174 0.0
-0.0456731580198 0.0489741452038 -0.119715921581 0.0854006558657 -0.0237461943179 0.0318598896265 0.0518968179822 0.148936584592 -0.0300636291504 0.0
0.0794642567635 0.292710512877 0.183332592249 0.0650646612048 -0.0319239199162 0.0402057170868 -0.155412122607 -0.15969479084 0.213277846575 0.0
0.0657982081175 0.0679213702679 -0.0243204068393 0.075372107327 0.0499151535332 0.0597948506474 -0.00976817216724 -0.145807087421 -0.164875909686 0.0
0.115873277187 0.148326277733 -0.0474492423236 0.0247221644968 0.0135923931375 -0.00683215865865 -0.165374308825 -0.26008489728 -0.107163980603 0.0
-0.0750200301409 -0.179598748684 -0.143036231399 -0.219035699964 -0.0433819852769 -0.0589394643903 -0.13754709065 0.0654080733657 0.0732534900308 0.0
0.1352314502 0.0676936805248 0.0620113015175 0.110234856606 -0.0876597464085 -0.0968636795878 -0.0750525668263 0.0569882504642 0.0176658071578 0.0
0.0194651577622 0.0289908889681 -0.0277894809842 0.135369226336 -0.0687680020928 0.0436431989074 0.000716066395398 -0.193627253175 -0.157110258937 0.0
-0.00183261185884 -0.1321118325 -0.0934996902943 -0.101846165955 -0.200732067227 -0.0563241764903 -0.253883928061 0.0769839957356 -0.0395512543619 -0.0859317
0.185153111815 0.243067622185 -0.0524710156024 0.147085860372 0.0700605660677 0.17420245707 0.0493870601058 -0.041197065264 0.153871625662 0.0
0.116769134998 -0.0176918469369 0.0460264831781 -0.229978725314 -0.0856474339962 -0.038749024272 -0.142230674624 -0.0783940926194 -0.103001594543 0.0
-0.0981783866882 -0.20021879673 -0.242182582617 0.150994211435 -0.0109922941774 -0.0803385153413 0.169999048114 -0.153536841273 -0.107741676271 0.0
0.115068018436 0.0323692299426 -0.00023472806788 0.0501147992909 -0.00997379329056 0.0110917203128 -0.00151420861948 0.0379519723356 0.122031614184 0.0
0.199882909656 -0.141382321715 -0.1014040187 0.207886502147 0.0876991823316 0.0429512560368 -0.00800362695009 0.0491086579859 0.0230958871543 0.0
-0.129401668906 -0.106094948947 -0.0637689828873 -0.147610113025 -0.223974108696 -0.153117164969 -0.105594605207 -0.120976157486 -0.0707035288215 0.0
-0.00861521996558 -0.0650181695819 -0.23121111095 0.162392646074 0.114101216197 0.0902997478843 0.000876864651218 0.191394865513 0.206096470356 0.0
-0.0472226031125 0.224725961685 0.108813405037 0.0242876522243 0.180698916316 0.0920648276806 -0.0697094649076 -0.0902339071035 -0.0338193662465 0.0
0.0415776632726 -0.150456115603 0.0433236956596 -0.0288734156638 -0.131958097219 -0.0291512459517 0.0557558126748 -0.070837341249 0.115155540407 0.0
0.159556314349 -0.0652421340346 0.0568397268653 0.0477559231222 0.200718328357 0.0688983649015 0.0878247693181 0.0826181694865 0.166623488069 0.0
-0.123225033283 0.11843521148 -0.0104954401031 -0.000179585360456 0.115384295583 -0.0265980139375 -0.103317283094 -0.18241725862 -0.0717904865742 0.0
-0.00638594618067 -0.0669918581843 0.0745095014572 -0.072916045785 0.0349606238306 -0.0632600933313 -0.0676046535373 -0.091221138835 -0.0109922075644 0.0
-0.265283048153 -0.0561303757131 0.142946496606 -0.201112031937 -0.275515258312 -0.0770449414849 0.0992836430669 -0.0503539294004 -0.206280872226 0.0
-0.0627994090319 0.114373736084 0.0155192809179 -0.0989119708538 -0.026100018993 -0.0942265018821 -0.0337879955769 -0.103556104004 -0.106911107898 0.0
0.00128178799059 0.00805066619068 -0.0733897089958 -0.110644318163 -0.120938912034 -0.112700045109 -0.144148334861 -0.029754947871 0.0351770780981 0.0
-0.166656807065 0.0041827885434 -0.223661273718 -0.246264368296 -0.0140430284664 -0.221939235926 -0.0554850474 -0.0691834166646 -0.060918238014 0.0692826
0.0440115109086 0.291121542454 0.157848998904 0.0808697938919 -0.0939179584384 0.13503716886 -0.0771709233522 -0.200616359711 0.0341534391046 0.0
0.0697512477636 -0.0629464611411 0.119173660874 0.0422945991158 0.0426811501384 -0.159585908055 0.0860485062003 0.14515222609 0.107088506222 0.0
-0.071828968823 -0.0295147467405 -0.0183568354696 0.0915111377835 0.123833969235 0.0537368990481 0.041668292135 -0.135067880154 0.132226571441 0.0
0.129869475961 0.028968276456 0.00107401644345 -0.134552329779 -0.101380936801 -0.101321801543 -0.0247470010072 -0.121319361031 0.0114609366283 0.0
-0.0952398329973 -0.0719792097807 0.00252458755858 -0.0423323586583 -0.127266839147 -0.0835091248155 0.0551991574466 -0.0408206321299 -0.144287198782 0.0
-0.0763787180185 -0.0129455700517 0.107290968299 0.0219495575875 -0.0967153385282 -0.261323332787 -0.00950064789504 -0.14627546072 -0.0563804395497 0.0
0.127898901701 -0.220913872123 -0.249546051025 -0.0967895463109 -0.13703840971 -0.194502592087 0.118109770119 0.0450354740024 0.0249501448125 0.0
0.0547883994877 0.0753765329719 -0.214870542288 0.090976677835 0.0367417111993 0.032583411783 0.0225486829877 0.152812927961 -0.104003682733 0.0
-0.039960026741 0.139105051756 -0.0556462854147 -0.03738822788 -0.056813377887 0.0571131668985 0.11382111907 0.107035532594 0.160388231277 0.0
0.0270644519478 -0.20183314383 0.0804716348648 0.0286175347865 -0.113920949399 0.131983175874 -0.0432224646211 -0.00852984283119 0.0350057929754 0.0
-0.130352586508 -0.024552538991 0.0782844051719 -0.092756010592 0.012624415569 0.00833866093308 0.175859689713 0.174875855446 0.179398223758 0.0
-0.0935229733586 -0.0965579226613 0.145279601216 0.0405615977943 0.0896620452404 0.195498406887 -0.0101760448888 0.0153453713283 0.157637625933 0.0
-0.142239123583 0.216099247336 0.0498163029552 -0.259289622307 -0.176911979914 -0.0811208635569 -0.162653923035 -0.0584729127586 -0.212020084262 0.0
-0.0884316340089 0.0762402117252 0.11931668967 0.138607129455 -0.0342251323164 0.0683362483978 -0.102781571448 0.00375100411475 0.0153025416657 0.0
0.0565088018775 -0.110490776598 0.056545805186 -0.0985727980733 0.0799342319369 0.0252414811403 -0.00522485515103 0.031689722091 -0.0421166867018 0.0
0.0368930324912 -0.155325606465 -0.120408520103 -0.0248316954821 0.0830015614629 -0.028373464942 0.00750559475273 -0.0436989888549 0.0989464521408 0.152863
-0.0297139119357 0.0656922459602 0.194529771805 0.0620139800012 0.0936692133546 0.0590588450432 0.165063381195 0.179257050157 -0.0417615585029 0.0
-0.107295967638 -0.188876137137 -0.141999348998 -0.0632371157408 -0.0608457513154 -0.0725819319487 0.044046856463 0.118119381368 0.178729876876 0.0
-0.0563068650663 -0.159713447094 -0.0446243546903 0.109787397087 0.12298425287 0.000242800830165 0.132547751069 0.0904848575592 -0.132898166776 0.0
-0.0387650206685 -0.0849640071392 -0.143005564809 0.039223190397 0.115806207061 0.0934917107224 0.0407057404518 0.0673336237669 -0.00452829059213 0.0
0.175897598267 -0.0302926376462 -0.0378135107458 -0.0643774420023 0.0823749750853 -0.11063708365 0.0406941920519 -0.0985200256109 -0.0546492412686 0.0
-0.104721873999 0.102847933769 -0.0424269512296 0.0822150558233 -0.0327109582722 0.00625026179478 -0.122108146548 -0.138378202915 -0.0635092183948 0.0
0.0886581763625 0.0604538358748 0.079192019999 -0.145688727498 0.0189357493073 -0.0382325910032 -0.193145349622 0.147092938423 -0.0846200957894 0.0
-0.00817707832903 -0.0767922624946 0.0231853034347 -0.135016337037 0.0385857187212 -0.0672294944525 -0.0210865158588 -0.0234089456499 -0.0189921222627 0.0
-0.0323595143855 0.00212358613499 0.105288259685 -0.144442349672 -0.0331899225712 0.0214904751629 0.0336363278329 -0.0201661866158 0.094527669251 0.0
-0.138470768929 0.0822131559253 -0.195113018155 0.000949051231146 -0.0218148063868 0.00156119372696 -0.142128393054 -0.0979744940996 0.136398926377 0.0
-0.0943051055074 -0.0230353530496 -0.00856945011765 -0.0486400723457 -0.0286418311298 -0.13704252243 -0.100458472967 0.133012145758 0.124667070806 0.0
-0.185447841883 -0.16492472589 -0.0771580561996 -0.228440821171 -0.152506306767 0.0373954325914 0.0593053922057 0.0892404839396 0.15771561861 0.0
0.0912870466709 -0.0851450189948 -0.145402207971 0.0516194924712 -0.0995276123285 0.0145402867347 0.271017849445 0.13030987978 0.100695721805 0.0
-0.00270973914303 0.0707269757986 0.027405757457 0.0353380292654 -0.123319528997 0.122652612627 -0.0868874341249 -0.0262433271855 -0.0887211337686 0.0
0.0517910569906 0.0834692046046 0.0144835701212 0.0357427038252 -0.136529579759 -0.0722348541021 0.0326065868139 0.0878108069301 0.172863140702 0.0
0.034481279552 0.0371430367231 0.0311925336719 -0.100742571056 0.0215345583856 -0.120719946921 0.149064257741 -0.00457997107878 0.089872546494 -0.177536
-0.0877465307713 -0.0782483145595 -0.151741579175 0.112602949142 0.0737939178944 -0.252697944641 0.134656995535 0.0413175821304 -0.155549943447 0.0
-0.0662471801043 0.0282942932099 -0.050139516592 -0.177455306053 -0.0497992187738 -0.234261229634 0.177306443453 0.0982893407345 -0.0184288565069 0.0
-0.134429499507 0.0243741869926 0.0967104285955 0.0167651828378 -0.0022178676445 0.00694565661252 0.149395853281 -0.0667562559247 0.135011166334 0.0
0.0270663239062 0.00730634434149 -0.0982908234 0.00546108931303 0.0135956536978 -0.11170463264 -0.0396849550307 0.100934065878 0.0376021191478 0.0
-0.0230113118887 -0.0779886320233 0.00692988559604 0.128475949168 -0.00778843881562 -0.281110912561 -0.110941752791 -0.185236543417 -0.120463579893 0.0
0.0953904092312 0.179808318615 0.183987468481 0.195469602942 -0.0207965187728 -0.0131497010589 0.145368605852 0.0483877286315 0.0242893937975 0.0
-0.0238868761808 0.032707888633 0.22228038311 0.0784417316318 -0.0611819699407 0.0588762126863 0.136365890503 0.0924666449428 -0.0451971963048 0.0
0.0996943712234 0.150964066386 0.102410465479 -0.00951497536153 -0.0116550400853 -0.19442653656 0.156508147717 0.0790121406317 0.0828209593892 0.0
-0.218926548958 -0.167453363538 0.0860066488385 -0.11299598217 -0.0857754647732 0.0897063538432 -0.0977099686861 0.143115952611 -0.00474814465269 0.0
0.00367127312347 -0.127691164613 0.00874371081591 -0.0326414331794 -0.0254316069186 -0.0726900696754 0.207127138972 0.0653257146478 -0.0866082087159 0.0
0.0419632457197 -0.110905915499 0.150444760919 -0.073102645576 0.0632742494345 -0.103123858571 0.0227008406073 -0.0234119556844 0.0179281104356 0.0
-0.299680709839 -0.0550033561885 -0.157605081797 -0.0565706081688 0.057826988399 -0.103176869452 -0.181219413877 0.0138993402943 -0.179594859481 0.0
0.00890500284731 0.00373775488697 0.0161872431636 -0.0907321572304 0.00618485035375 -0.00650667399168 -0.140059545636 0.128070935607 0.0822227820754 0.0
-0.041146710515 0.0129082668573 -0.0233437120914 0.06923609972 -0.132366150618 -0.0289221070707 -0.1105280146 -0.100075088441 -0.0961107760668 0.0
0.118116915226 -0.00111993087921 -0.0510248243809 0.0145855620503 -0.0948057994246 -0.0221337005496 0.14045214653 0.029114080593 -0.05063495785 0.0
0.0403943061829 0.0950686186552 -0.113460302353 -0.033083114773 -0.146107003093 -0.152843773365 0.07459461689 0.270285159349 0.109287910163 0.261902
-0.0253114830703 -0.136861130595 -0.10990229249 -0.00188812718261 -0.103174619377 0.0812792778015 -0.0191306658089 -0.00737212691456 0.0362547300756 0.0
-0.132899805903 -0.0974019244313 -0.115080215037 0.00612299423665 -0.0170309860259 -0.0427845828235 -0.0451273098588 -0.0863023027778 -0.105707801878 0.0
-0.130484357476 0.0264011658728 -0.0647671893239 0.100535340607 -0.134717494249 -0.0539764724672 0.0997978374362 0.068206705153 -0.131766960025 0.0
-0.0775424093008 0.0813839808106 0.123698167503 0.0417880676687 0.0670703575015 0.0791429951787 0.0976077616215 0.125119224191 0.10510827601 0.0
-0.0981581658125 0.0405516512692 0.0979065597057 -0.0541764833033 -0.0238699354231 0.102483101189 -0.0155196376145 -0.0847164094448 -0.0156833492219 0.0
-0.059547714889 0.0414084605873 0.114637978375 -0.0625630691648 -0.0846052467823 -0.0621861368418 -0.0809495747089 0.00157644029241 0.0548160150647 0.0
-0.0530800297856 -0.11680008471 -0.0539344288409 0.0639256834984 0.0663071274757 -0.00341274426319 -0.0945521146059 0.0649052038789 -0.0272148419172 0.0
-0.116089336574 -0.03069575876 -0.024502646178 -0.0182221457362 0.0944843292236 -0.100732572377 0.0428849309683 0.0835961550474 -0.0981307476759 0.0
-0.0571691691875 -0.0356087498367 0.110624678433 0.125659584999 -0.0724019035697 -0.0490510836244 0.0204061996192 -0.0955093726516 0.0319819226861 0.0
0.0138425957412 -0.103405244648 -0.0112340096384 -0.0965680927038 0.020605776459 -0.038295712322 0.0313073769212 0.0988098978996 -0.0238166227937 0.0
-0.0364876426756 0.0864601656795 0.119978256524 0.0244756694883 -0.090704202652 0.131788060069 0.108665086329 -0.132613271475 -0.0524150170386 0.0
-0.0868413299322 0.0341453924775 -0.061480730772 -0.0680094137788 0.0380719341338 0.0520751401782 0.0777817294002 -0.106444098055 -0.0632426738739 0.0
-0.038565825671 0.0716165527701 0.0395213477314 0.101310685277 -0.028357308358 -0.00465693743899 -0.0208524707705 -0.133076354861 0.0684216171503 0.0
-0.0368375591934 0.12863099575 -0.0257571786642 -0.0883213952184 0.093941539526 -0.0212426688522 -0.109798319638 0.128675043583 -0.0949856042862 0.0
0.044385317713 0.12062638253 0.0986678898335 -0.0974808856845 -0.0067832688801 0.0138917267323 0.1103220433 -0.0677210390568 -0.0537873581052 0.0
-0.113424867392 -0.0578586533666 0.0748671814799 -0.0624361075461 0.0797713920474 0.121098518372 -0.11703760922 -0.113366149366 0.124898932874 -0.0312486
0.0735220834613 -0.135296076536 -0.0722324550152 0.109511464834 0.114151842892 -0.000183233511052 -0.0266114529222 0.0135904923081 -0.144017130136 0.0
-0.012507728301 0.099005356431 0.0754951313138 -0.016551990062 -0.10622857511 0.000567070848774 -0.123143151402 0.0990527793765 0.122056983411 0.0
-0.0523552559316 -0.0615784339607 -0.0581166632473 -0.108585767448 0.13722153008 -0.035035494715 -0.103593721986 0.140173941851 0.0586612410843 0.0
0.103573277593 0.0261648651212 0.0864220485091 0.0401336438954 0.0456433594227 0.075469315052 -0.140108317137 -0.138179540634 0.0264351479709 0.0
-0.228552952409 -0.185983270407 -0.108140766621 -0.103578418493 0.0257555413991 0.0187955591828 -0.0358012393117 -0.108636006713 -0.0284505933523 0.0
0.0116299865767 0.0664389654994 -0.131665587425 -0.0802381336689 0.192059934139 -0.0313649699092 -0.16617397964 -0.000229529221542 -0.0863670185208 0.0
-0.113036848605 -0.202616974711 -0.227643087506 0.0402551367879 -0.186301782727 -0.116319395602 -0.0731983855367 -0.156065553427 -0.25392255187 0.0
0.0374969281256 -0.0446291454136 0.0261232387275 0.231334477663 0.108220055699 0.0175699945539 0.238589882851 0.238428384066 0.135433077812 0.0
-0.0257206261158 0.0723145157099 -0.0338450707495 -0.0770017132163 0.00882221199572 -0.0402702055871 0.191666245461 0.0503859370947 0.0753777101636 0.0
0.159860149026 -0.00594804575667 0.0145485801622 0.136138036847 0.0116827134043 0.025930935517 -0.0104609252885 0.00616414193064 -0.0375748872757 0.0
0.0830596759915 -0.0842108428478 -0.228509500623 -0.0775938257575 0.0832547619939 -0.0556866377592 -0.125754356384 0.00944335293025 0.0413502939045 0.0
0.217790141702 0.242747709155 0.139850258827 0.0952645391226 0.153870120645 -0.0388683639467 -0.0614591501653 -0.188963130116 -0.0774995461106 0.0
0.180882826447 0.15230460465 0.0135720204562 -0.0084960013628 -0.0893296971917 0.0618223138154 -0.0740913823247 -0.0687983557582 0.0230846945196 0.0
0.0824008956552 0.100546367466 -0.0748311579227 -0.0152368368581 -0.0903055816889 0.0116733945906 -0.0637527778745 0.00611574528739 -0.0697988644242 0.0
0.00885342713445 -0.0476306974888 -0.0964968875051 -0.0589471459389 -0.0970342680812 -0.165068477392 -0.145613566041 0.0347076915205 -0.151567667723 0.0
0.0816263705492 -0.0792512223125 0.0980713218451 0.0350164622068 -0.0441748574376 -0.133865088224 0.0524174198508 -0.0765422731638 0.20032864809 -0.0430551
-0.125073283911 -0.015988022089 0.0267206989229 0.0107115199789 -0.0479820147157 0.0117246508598 0.0381288267672 -0.124785654247 -0.0257116835564 0.0
0.117487847805 0.167973071337 0.119622215629 -0.156563177705 -0.206288784742 0.0119996946305 -0.0796808749437 -0.0405925028026 0.0321478359401 0.0
-0.139107450843 -0.00670940289274 -0.1242326051 0.0494780950248 -0.115246675909 -0.150637939572 -0.113789252937 -0.207583382726 0.0333397164941 0.0
-0.124647378922 -0.0243264231831 -0.0502155162394 0.0523318685591 0.0283672828227 0.0925393849611 -0.136933714151 0.000522073765751 0.0753070563078 0.0
-0.181769430637 -0.134545490146 -0.0659853816032 0.0943504571915 -0.0130040151998 -5.78077269893e-05 0.0665097385645 -0.146885052323 0.00987424235791 0.0
-0.117169640958 0.083060361445 0.199740767479 -0.0324027426541 -0.127625122666 0.136863023043 -0.0961954221129 0.0445212945342 0.0211553648114 0.0
0.0272897537798 -0.04997048527 -0.232231497765 0.213723823428 0.157305389643 0.132327452302 -0.0529252626002 -0.0471025556326 -0.00446803821251 0.0
0.0348376333714 0.0392617732286 0.0521289817989 -0.149162948132 0.0429027490318 -0.0876447334886 -0.0310760531574 -0.19505751133 -0.0384432077408 0.0
0.144289433956 0.0205990336835 0.194619208574 -0.148770168424 -0.0279135834426 -0.126763239503 -0.0788292959332 0.0792370140553 0.03181919083 0.0
0.0310827996582 -0.000847687013447 0.00435664784163 0.159687623382 -0.134252116084 -0.16447904706 0.177440628409 -0.0485714785755 -0.0546925030649 0.0
-0.0464555807412 -0.0932111591101 0.090227112174 0.0795033350587 -0.0375925786793 0.0086328946054 0.0675248429179 0.00514036975801 -0.00497210305184 0.0
0.114829398692 -0.0538723319769 0.0799300670624 0.137683659792 -0.110463202 -0.0897230505943 0.143869712949 -0.0811903402209 -0.0347486250103 0.0
0.199752032757 0.308971405029 0.266719549894 -0.162900432944 -0.0458026714623 0.0684434100986 0.125393047929 0.165517181158 0.0648257657886 0.0
-0.0765502080321 0.0873282328248 -0.0897671058774 0.0338246338069 0.1257263273 -0.0586874186993 -0.0300513040274 -0.0507556423545 0.0750714614987 0.0
-0.121047578752 -0.139100760221 -0.115621462464 -0.00600140867755 -0.033853314817 0.0266859475523 -0.0313657820225 -0.0140774650499 -0.0410921424627 0.0
0.0701037496328 0.116274654865 0.0902276858687 0.0479229278862 0.0254204850644 -0.0448727086186 0.168367698789 0.116755180061 0.160808756948 -0.564523
-0.0427004396915 0.220276772976 0.12331301719 0.122819490731 0.0428468026221 -0.0304050035775 -0.280963093042 0.00268781557679 -0.0175535529852 0.0
0.170554891229 -0.0338288545609 0.111609876156 0.0387308113277 0.0155623415485 0.120139941573 -0.114307180047 0.0561507791281 -0.0673889815807 0.0
0.0924320369959 0.163207828999 0.107815302908 0.162861630321 -0.127452760935 -0.0589221827686 0.0450610518456 0.00632779020816 -0.00692818453535 0.0
-0.0910181477666 -0.0039775823243 0.0606580041349 0.124223694205 0.148278132081 0.115234993398 0.10914222151 -0.00257212645374 0.0641279742122 0.0
-0.0470114462078 -0.0456850454211 -0.0910841301084 0.121647804976 -0.0945921987295 -0.0579506158829 -0.0816370695829 -0.135352909565 0.13108818233 0.0
0.0268508400768 0.0819745659828 -0.0570749044418 0.00665777456015 -0.0015771080507 -0.000685143342707 -0.0535138808191 -0.118230171502 -0.0953881591558 0.0
0.170736551285 -0.0246245488524 0.00071816338459 0.107116103172 -0.0779172852635 -0.198886424303 0.0878510549664 0.096982255578 0.232355043292 0.0
0.00230912771076 -0.0493666343391 -0.0248524807394 0.0539305843413 0.0646530911326 -0.0847221687436 -0.0702097713947 0.111109688878 0.0518960915506 0.0
-9.15541822906e-05 0.106379203498 0.122717313468 -0.036690659821 0.116739019752 -0.142718032002 0.194234088063 0.0771661922336 -0.0862134024501 0.0
-0.0705360323191 -0.0308400094509 -0.0454149506986 0.0940206646919 -0.0753527060151 -0.0453832149506 0.0473097935319 -0.157110705972 0.0850095972419 0.0
-0.073560141027 0.00623566703871 -0.11960170418 0.0369868725538 -0.0897426232696 -0.0941826701164 -0.0100933760405 -0.129632592201 -0.0764596834779 0.0
0.0966475978494 0.00121235300321 -0.0596537142992 0.0938207060099 0.134845867753 -0.0398957915604 -0.0601662844419 -0.0828435868025 0.0452595613897 0.0
-0.176262080669 -0.106288664043 -0.0636164397001 0.016888871789 0.0457564219832 0.0475855432451 -0.130453139544 -0.106040239334 -0.0517638362944 0.0
0.0983671620488 -0.0647711381316 0.0321027860045 0.128076344728 0.106117986143 -0.0360408723354 0.110879249871 -0.125537097454 -0.0358328297734 0.0
-0.0732595473528 -0.0152006475255 -0.0847539007664 -0.0582606010139 0.0128667196259 0.118285857141 0.018257342279 -0.128217354417 0.0201081540436 0.0
0.0585961230099 -0.148154422641 0.0284120161086 -0.103983469307 0.0320585332811 -0.132690817118 -0.035553265363 0.00798348523676 -0.0480727106333 0.00796349
0.0572972036898 0.0459791198373 0.268023908138 -0.0406738743186 -0.127900317311 0.0628026872873 -0.141582682729 -0.222231566906 -0.150818184018 0.0
-0.267647117376 -0.228972226381 -0.101216286421 0.102024309337 0.155465736985 0.0683286488056 -0.0926726311445 0.119210898876 -0.157897591591 0.0
0.275005102158 0.160178363323 0.219529554248 0.149454936385 -0.0890410020947 -0.0531628727913 -0.0947726666927 -0.0778159871697 -0.230858430266 0.0
0.0788518860936 0.115609936416 0.135941490531 -0.0782422497869 -0.0545348487794 0.0318085290492 -0.0405736900866 0.0128128454089 0.110912591219 0.0
0.252022504807 -0.00890905689448 0.117632582784 -0.0150312129408 0.128652825952 0.0955790355802 -0.158294871449 -0.157525971532 -0.0896630957723 0.0
-0.121789298952 -0.062333021313 -0.043599113822 0.0767368078232 0.0192703101784 -0.0525197759271 -0.209130704403 0.0144663816318 0.142252907157 0.0
0.32744884491 0.0576599799097 -0.0767083764076 -0.0997416004539 0.0748451277614 -0.103652790189 -0.339196950197 -0.0840155929327 -0.175163388252 0.0
0.0347201861441 0.0394234545529 0.0214591305703 -0.00173058826476 0.0815963074565 -0.0467239506543 -0.0870258510113 -0.0651331469417 0.0194609537721 0.0
-0.0288695376366 -0.0556373223662 -0.131183773279 0.126630172133 -0.0625448077917 0.0125240795314 -0.0226072389632 0.116406604648 0.133981496096 0.0
-0.0351237095892 -0.0769274532795 0.0265117064118 -0.106387957931 0.0883660018444 0.153195366263 -0.00213427352719 0.148132652044 0.120491921902 0.0
-0.0158539377153 -0.115406818688 0.120211295784 0.00523725617677 -0.139043197036 -0.185387507081 -0.0204329881817 -0.097700625658 -0.00150590762496 0.0
-0.0199399217963 0.00273859477602 -0.140372633934 0.0747772082686 0.0571039654315 -0.0738158002496 -0.132173910737 0.110590726137 -0.107265807688 0.0
-0.302009820938 -0.0522843413055 -0.0733101740479 0.0477060675621 0.214963287115 -0.0666328370571 0.0876657143235 0.254808187485 0.141354843974 0.0
0.0528861954808 0.0636430606246 -0.105158135295 0.126100867987 0.0159201622009 0.0791392400861 -0.00171586161014 0.0066653303802 0.12768432498 0.0
0.122923076153 0.0213176291436 -0.028198543936 0.0879115313292 0.0120777972043 0.0409829579294 -0.12412353605 0.0726468414068 0.174809351563 0.0
-0.0697458907962 -0.0107412133366 -0.0634153559804 -0.0523135326803 0.0242879465222 -0.0682237669826 0.00589699484408 0.183550909162 -0.00299667101353 0.0527498
-0.0665152445436 0.0600194633007 0.152028217912 -0.102560356259 0.0905714631081 0.172204077244 -0.193604320288 -0.0163081977516 0.0173903778195 0.0
0.186388015747 0.237000569701 0.0827395915985 -0.0116671817377 -0.0112398341298 0.0218371953815 0.0194969698787 -0.0676273703575 -0.164998710155 0.0
-0.174896582961 -0.0641724839807 0.113286375999 -0.0815777778625 -0.0304577574134 0.102143116295 -0.280961751938 0.0411270782351 0.105343922973 0.0
0.0224025417119 -0.00441842246801 -0.118569783866 -0.0324735231698 -0.0347111485898 0.0324154384434 0.0967394039035 0.0413268432021 -0.0673289522529 0.0
0.00662211282179 -0.0511196516454 -0.068576566875 0.0460053868592 0.0672344341874 0.176733776927 0.0128974281251 0.222704693675 0.103359781206 0.0
-0.0846471935511 0.0544700995088 0.0331114009023 0.154434874654 -0.0458739437163 -0.0654649212956 0.014116617851 -0.00564004853368 -0.212097421288 0.0
-0.164602577686 -0.00491461111233 -0.0124707911164 -0.0621189773083 -0.0459036901593 0.0381806567311 0.0112619977444 0.0756041631103 -0.225691229105 0.0
0.00209354469553 -0.133148938417 -0.0369138121605 -0.061403401196 0.0736175179482 0.0335236638784 0.121999964118 -0.0494619235396 -0.0450448207557 0.0
0.0731248185039 0.0820869877934 -0.0983511433005 0.156850025058 -0.0223635472357 0.0396642573178 0.152491107583 0.0527976565063 0.177674293518 0.0
-0.0574482157826 0.0285569559783 -0.00643368298188 -0.0946883931756 -0.068672798574 0.0122729577124 0.00965027790517 -0.101402036846 0.0402801111341 0.0
0.0292312093079 0.177295580506 -0.0861530900002 -0.0421755313873 -0.00982348620892 -0.0146497329697 0.108789145947 0.0860358774662 -0.0563608855009 0.0
0.0907186120749 0.00580815039575 -0.0774456784129 0.142589941621 0.157637789845 -0.0149620389566 -0.220839738846 -0.194382578135 -0.157244831324 0.0
0.0939474999905 0.102183654904 0.0730443298817 -0.0598877817392 0.0442834347486 0.00922603160143 0.135031297803 0.0373492725194 -0.0540591850877 0.0
-0.0463891327381 -0.00122517743148 0.0807521492243 -0.100223869085 0.120674699545 0.0143810538575 0.0791682600975 -0.0306461341679 0.0529458746314 0.0
0.131454795599 0.0899421870708 -0.0844733789563 -0.126744553447 -0.0701844021678 -0.183998823166 0.0911833941936 0.107041269541 -0.0116201182827 0.0
0.0135744959116 -0.0186866242439 -0.0576500222087 0.0920629054308 -0.144485890865 -0.0389755740762 -0.0747023448348 -0.00262945936993 0.0489875264466 -0.0998608
-0.0159252714366 -0.0755097344518 0.0627382323146 0.0343825779855 0.0158545225859 -0.00467912247404 -0.135450959206 -0.173407167196 -0.063841573894 0.0
0.0971482768655 0.109106495976 0.0735031291842 -0.0996610149741 0.0264488458633 -0.235311418772 -0.167331025004 0.0771264359355 -0.226349890232 0.0
-0.069739446044 0.120273008943 0.0831793695688 0.109550237656 -0.117344804108 0.0842382982373 0.046545855701 -0.142741680145 0.0938260927796 0.0
-0.118657365441 0.0122554618865 0.10316170007 -0.0884828642011 -0.122012659907 0.0263953506947 0.0763660222292 0.122748538852 -0.0958385691047 0.0
-0.154616415501 0.0159828234464 -0.153750404716 0.0387061275542 -0.141372770071 -0.0602448955178 -0.0726420208812 -0.0565358623862 0.0408943109214 0.0
-0.117962181568 -0.0715422332287 0.056674759835 0.0255160797387 -0.170699566603 0.00830173213035 -0.0169015042484 -0.0939222574234 0.058822479099 0.0
-0.104301095009 -0.11628369242 -0.215443119407 -0.0217896122485 -0.104808010161 -0.170961484313 -0.202043041587 -0.237277522683 -0.167017877102 0.0
-0.0076468125917 0.0945080295205 0.20967233181 -0.131813421845 -0.00093091360759 0.238645330071 0.150404304266 0.111322849989 0.00721396878362 0.0
0.0667650103569 0.0828405618668 0.0066333161667 -0.145274952054 -0.0421129465103 0.140455976129 -0.14332793653 -0.0329580307007 -0.0191757176071 0.0
0.137611910701 0.0475514307618 0.0254205781966 -0.00677338801324 -0.0940623581409 -0.112384848297 0.0403415709734 0.00734249129891 -0.0386612378061 0.0
0.175897315145 0.0724268034101 -0.00425686594099 0.103415586054 0.101475305855 -0.131053477526 -0.099569298327 -0.08229059726 0.0499157682061 0.0
0.256882041693 0.150566205382 -0.122135154903 0.0455907061696 0.113645240664 0.0704972371459 -0.117193378508 0.154671519995 -0.130502700806 0.0
0.0902859196067 0.126841977239 0.141179606318 0.0125259980559 -0.0789408385754 -0.229703441262 0.141678228974 -0.133381322026 -0.149820879102 0.0
0.091276936233 0.12036652118 -0.00726958503947 -0.102685175836 0.0150477737188 0.0454428568482 -0.00951153971255 -0.0805157646537 0.0365906469524 0.0
0.047005109489 -0.0941469892859 -0.0963084101677 -0.0364223346114 -0.122764781117 -0.120693854988 -0.103901132941 -0.00253387424164 0.0535743497312 0.0
0.239556312561 0.0814110860229 0.255571842194 -0.0358494929969 -0.0646003708243 0.201921641827 -0.0368240587413 0.0289105176926 0.146817326546 0.120583
-0.0992951616645 0.00619224412367 -0.0757994279265 -0.115981198847 -0.18074850738 -0.0900461152196 0.293688625097 0.0244566425681 0.0371232144535 0.0
-0.0145216286182 -0.0330268628895 -0.139448031783 -0.110627315938 0.0923037827015 -0.0511464551091 0.129499480128 -0.117475144565 0.0124661913142 0.0
-0.0774318799376 -0.0767567828298 -0.0816146805882 0.0416136682034 -0.0714720785618 -0.182359024882 0.238309025764 0.140155732632 0.0785685032606 0.0
-0.15569126606 -0.0478936620057 0.0693344175816 0.00124477630015 -0.0437930040061 0.0211566500366 -0.0758823826909 -0.156781181693 0.0236653257161 0.0
-0.00369435618632 0.142920687795 0.0295396149158 0.198084816337 0.161146491766 -0.0535127297044 0.0884478166699 -0.0894302129745 -0.111408390105 0.0
-0.0318840257823 0.0773822367191 0.173725455999 -0.0505108423531 -0.0129429958761 -0.126932576299 -0.0603859983385 -0.0302520170808 0.101719081402 0.0
-0.0144596714526 0.0900633558631 -0.0208497401327 0.0938732475042 -0.0817450508475 -0.109287247062 0.000346506276401 -0.0435560829937 -0.116474427283 0.0
0.0934826284647 0.0205324348062 0.0342609807849 -0.100816436112 -0.0394917577505 0.0853004306555 0.0630540326238 0.0310172829777 0.0225512888283 0.0
-0.0795533955097 -0.182575568557 -0.236368790269 0.0557678751647 -0.197092473507 0.0254969689995 -0.0667014345527 0.0403869412839 0.0508217103779 0.0
0.125686973333 0.0996409580112 0.0219723079354 0.15318980813 0.123974367976 0.00325366598554 0.0193916112185 0.295263260603 0.0917641222477 0.0
-0.110551588237 -0.0221300963312 0.0176588166505 -0.176308974624 -0.0842302888632 -0.0452591851354 0.166991621256 0.0946651026607 0.144039019942 0.0
0.0316538102925 -0.142400503159 0.0145992534235 -0.0777311325073 -0.146839216352 -0.120266318321 -0.0123592559248 0.292632699013 0.129186615348 0.0
-0.0489275157452 -0.016597898677 -0.11885818094 0.143500059843 -0.0131364660338 0.0198081675917 0.261081039906 -0.0626223608851 -0.0379985943437 0.0
-0.0406076088548 -0.0739133581519 0.099685266614 0.0655389800668 -0.116106428206 0.0651919394732 -0.141093701124 0.0387993007898 -0.123452842236 0.0
0.0966135412455 -0.0841873139143 -0.132817283273 -0.0697127953172 -0.0564288496971 0.097847700119 0.106188379228 0.220644369721 0.00298247719184 0.0
-0.119793608785 -0.000890105380677 -0.18602283299 0.0313722230494 -0.129993870854 -0.0482128039002 0.0685459896922 -0.0468764416873 0.144580006599 0.149471
-0.015484132804 -0.315130710602 -0.0924636051059 0.0189757607877 -0.00649955309927 -0.037427496165 0.0992614626884 -0.164561316371 0.00969117507339 0.0
-0.107896067202 0.105003871024 -0.161068692803 -0.0117249451578 -0.138660937548 -0.0996067896485 0.118785120547 0.144121110439 -0.0903743058443 0.0
-0.108661822975 -0.117533870041 -0.193244561553 0.0781224742532 -0.0852011293173 -0.077305778861 0.175726175308 0.0923887565732 0.104464113712 0.0
-0.108197011054 0.136536300182 0.0943592712283 -0.143920212984 0.0976539924741 0.00432280264795 -0.0125227151439 -0.0574386119843 -0.0229055546224 0.0
0.00783770438284 -0.126167207956 -0.0470802597702 0.0421774201095 0.155366793275 0.114476069808 -0.0324103944004 0.122996211052 0.0207144357264 0.0
0.0229763500392 0.0756970345974 0.0545659326017 -0.161300823092 -0.184708639979 -0.0223823226988 -0.137426868081 -0.221733391285 -0.12065847218 0.0
0.0697586908937 -0.0926974788308 0.0518010258675 -0.112432040274 0.0335932224989 -0.181582406163 -0.111254632473 0.0451505668461 0.15366615355 0.0
0.210851415992 0.196942329407 0.246801823378 0.0937586575747 -0.179912239313 -0.0164369754493 0.0657298862934 -0.0596353039145 -0.072077639401 0.0
-0.0436239950359 0.0263913460076 0.00764539465308 0.18519076705 0.115589335561 -0.051298532635 0.211160674691 0.116039775312 0.0395902618766 0.0
0.0711500197649 0.0298068579286 0.123584955931 0.0116371363401 0.125447839499 -0.0329482853413 0.193673610687 0.0899553671479 0.321395009756 0.0
0.00301176449284 -0.0662012770772 0.0854664891958 0.0729350522161 0.0479227378964 -0.0893614366651 -0.0734604969621 -0.0073961452581 -0.00212247041054 0.0
-0.127819925547 -0.00804144795984 -0.221839338541 -0.166815504432 0.0102521376684 -0.123321317136 -0.114834085107 0.308563500643 0.0236415266991 0.0
-0.00849705841392 0.0824459940195 -0.0362872593105 -0.0908859297633 0.0771208554506 -0.162669464946 0.290995329618 0.121802978218 0.0798489227891 0.0
0.0397186912596 -0.109577409923 -0.0709204003215 -0.0609540902078 0.0756855234504 -0.0195532180369 0.0452215112746 -0.0551249608397 0.0245676729828 0.0
-0.062747888267 0.0555386170745 -0.00510266982019 -0.0876117050648 -0.128308102489 0.147811725736 -0.054469499737 0.106110841036 0.0471487753093 0.0
0.114170797169 -0.0141343669966 -0.161401420832 -0.109986834228 0.0444858931005 -0.0661381259561 0.0347164347768 0.159041672945 0.0454547293484 0.192514
0.161768004298 0.20431548357 -0.187351867557 0.14799118042 0.14875356853 -0.10280431807 0.0540923029184 0.119619376957 0.0810160413384 0.0
0.0732876881957 0.115602426231 0.0779707878828 0.117112547159 -0.0857892483473 -0.0727645903826 -0.000561660970561 -0.115670114756 -0.17676666379 0.0
-0.0560660399497 0.0235210582614 -0.00166605308186 0.0563079193234 -0.1162751019 -0.180333554745 0.153862282634 0.0203056242317 0.164856553078 0.0
0.0491751655936 0.0593253262341 0.139260470867 -0.0476792491972 0.0627909079194 -0.0760960280895 -0.11248909682 -0.0596969723701 0.12024371326 0.0
0.0288428720087 -0.0496204644442 0.0321468487382 -0.10335405916 -0.104767240584 -0.131564185023 0.107201986015 -0.0312654338777 -0.0040841861628 0.0
0.124905578792 -0.0966844782233 -0.072131305933 0.0351937636733 -0.0540685243905 -0.0774116143584 0.0393824987113 0.13595405221 0.0763912200928 0.0
0.0271162539721 0.112396202981 -0.164495378733 0.0326383151114 -0.0800187215209 -0.220453470945 0.110871061683 0.0663450434804 0.0302698407322 0.0
-0.0906793996692 -0.0457610674202 -0.0467204637825 0.194639921188 0.0959346592426 -0.0989571288228 0.154181957245 0.192302986979 0.137146666646 0.0
0.0244081858546 -0.114250846207 -0.00922487210482 0.100818708539 0.0594989769161 -0.128100305796 0.00851045548916 0.138122797012 -0.0451263077557 0.0
-0.0022863810882 -0.0203601829708 -0.10281662643 -0.160491645336 -0.0912755429745 0.0991583168507 0.10576736927 -0.0570787228644 0.145394697785 0.0
-0.0761130303144 0.019714737311 -0.15376393497 -0.153870463371 0.111235067248 -0.0345061384141 0.140770584345 0.0725350677967 0.0463651865721 0.0
0.0111214965582 0.0756596848369 -0.195063099265 0.0769387930632 0.114735864103 0.0462173819542 -0.064566642046 0.00443306937814 -0.266235351562 0.0
-0.0256097614765 0.0665660575032 0.303407430649 -0.00573380663991 -0.017565805465 0.155643701553 -0.28621673584 -0.280456244946 -0.143802672625 0.0
-0.0828595981002 -0.0931394845247 0.0904226005077 -0.00506478222087 0.126710101962 -0.114084243774 0.130295842886 0.113841153681 0.0982161313295 0.0
0.0904809311032 -0.132858499885 -0.0778366401792 0.0193224195391 0.102311901748 -0.145841643214 -0.143421143293 -0.102493211627 0.0503500215709 0.0
0.116758361459 -0.113481111825 0.145539551973 0.0711101666093 -0.00714876269922 0.0691284090281 0.0746259465814 0.0955174714327 0.0448813587427 -0.188966
0.063756890595 -0.107776418328 -0.00990749988705 0.01354710944 0.0595282129943 -0.020807299763 0.0877082720399 0.0448408387601 0.127581089735 0.0
0.0822776332498 -0.136363580823 -0.0838594511151 0.029526066035 -0.0931102335453 0.0059453737922 0.0320578739047 -0.0334178321064 0.0602656416595 0.0
0.0166292954236 -0.0174939911813 0.0308663714677 0.100477918983 0.0246913973242 0.039315957576 -0.0345023460686 0.0228899065405 -0.0395261235535 0.0
0.0298714283854 0.124815843999 -0.0858178287745 -0.0683236867189 -0.0844787582755 0.0643703565001 0.101015456021 -0.100989706814 0.0656248405576 0.0
0.0562995225191 -0.127301335335 0.00563299562782 -0.137081712484 0.0407197102904 -0.120442189276 -0.1308516711 -0.105735473335 -0.062664873898 0.0
0.0651029646397 -0.0397821627557 0.115498639643 -0.0163016803563 0.122084133327 -0.0105000743642 -0.108249470592 -0.101170264184 0.00611471384764 0.0
0.024773735553 -0.0512361191213 0.137636855245 -0.0461157038808 0.0270793698728 -0.135500654578 0.0671631395817 0.14597325027 0.0273161362857 0.0
-0.0558952502906 -0.038615282625 -0.0273275952786 0.0457081347704 -0.0603116378188 0.109921842813 0.0221871975809 -0.129856050014 0.0707381367683 0.0
-0.0974469333887 0.00588258914649 0.104421332479 -0.055263236165 -0.0377042479813 -0.0160435084254 -0.0195731446147 -0.0354814194143 -0.0288676321507 0.0
-0.058625113219 0.0893424525857 -0.0820333063602 0.0176868513227 -0.108755424619 0.00188094249461 -0.124286860228 -0.0480003543198 -0.0774835571647 0.0
-0.139716282487 0.0470842383802 -0.0292338840663 0.129522487521 -0.117935203016 -0.036700155586 -0.111434452236 0.0874699726701 -0.0650726482272 0.0
0.109248630702 -0.110515013337 -0.0459287203848 0.0540810674429 -0.071345359087 -0.0609345510602 0.0330190621316 -0.0719268620014 -0.075947791338 0.0
0.00289048394188 -0.0933835208416 -0.102281481028 -0.134099304676 -0.0867212191224 -0.0226433556527 0.150422185659 -0.0179588459432 -0.0536083728075 0.0
0.0503344349563 0.127408012748 -0.00868423748761 -0.0840855017304 0.121037997305 0.104807272553 -0.110315807164 0.0391815081239 -0.0110711390153 0.0
-0.0399875193834 -0.0918127223849 -0.0563959740102 0.0777637958527 0.0741188600659 0.044107940048 0.0318238027394 -0.0222668685019 0.123829111457 0.0
-0.132669508457 0.113890781999 -0.132033705711 0.0513065420091 -0.107445202768 0.0544727258384 -0.145027264953 0.0402140580118 -0.0757426321507 -0.0162024
0.220934078097 -0.102585196495 -0.131420612335 0.129586696625 0.0275154709816 0.0329448282719 -0.0714068561792 0.177366256714 -0.129291504622 0.0
-0.0348050892353 -0.100348636508 0.127942934632 -0.0255538746715 -0.0681884363294 -0.0173847265542 0.0489925630391 -0.0753316059709 0.00889593176544 0.0
0.0687991753221 -0.0337353013456 -0.0326994508505 -0.185389876366 -0.0190771706402 -0.129098802805 -0.252848595381 -0.0152836954221 -0.123997986317 0.0
0.0446169562638 0.0145980576053 -0.102892160416 0.0409109741449 -0.0498778522015 -0.0586740933359 0.12174551934 0.0536794997752 -0.0888188928366 0.0
-0.0887805446982 -0.100652068853 0.0313577577472 0.0894686728716 -0.101539418101 -0.00286941509694 0.0576477870345 0.103862680495 0.0126675684005 0.0
-0.0892516076565 -0.0874110758305 0.0631086304784 -0.0903540700674 -0.0202844552696 0.0323201492429 -0.00921039748937 0.151299700141 -0.0400677472353 0.0
-0.119983486831 0.138252958655 0.069785900414 -0.176238045096 -0.0108270831406 -0.0402939878404 -0.100049838424 0.0048182439059 0.023677945137 0.0
-0.083069331944 -0.13314153254 -0.121624842286 -0.023871364072 0.0620979703963 -0.187248051167 0.0562833100557 0.0854876413941 -0.09111405164 0.0
0.0415702573955 -0.0448570549488 0.038995783776 0.0304234642535 -0.0441409908235 0.0681549534202 -0.0742244496942 0.078710258007 0.107022345066 0.0
-0.0152287706733 0.047476015985 -0.103491820395 -0.114805616438 -0.0693346560001 0.0699767619371 -0.0928398668766 -0.0473367683589 0.0810462087393 0.0
-0.132320910692 0.0747008472681 -0.0377936549485 -0.114097826183 -0.084981136024 0.00576393399388 0.128653258085 0.168664187193 -0.0376230552793 0.0
-0.102394685149 0.100828237832 -0.140855759382 0.0263979565352 0.00155205943156 0.0468736812472 0.0377230718732 0.028351822868 0.0606747977436 0.0
-0.0526592694223 -0.0395074002445 -0.0811991915107 0.0730942934752 0.191142901778 0.0661667585373 0.0172190163285 0.159752845764 0.108655162156 0.0
-0.0486781820655 -0.0700687244534 -0.00129337899853 0.0591521188617 0.0797712877393 0.04208054021 -0.0304553750902 0.0919424667954 0.0462251268327 0.0
0.0881219282746 -0.128314495087 0.0489859767258 0.111416742206 -0.0832731127739 -0.0582412853837 0.11289832741 -0.0845549702644 0.0344035923481 0.0
-0.158925488591 -0.11988645792 0.147588178515 -0.0230084192008 0.100679896772 -0.0548651777208 0.10271961242 0.183688983321 -0.0659865811467 -0.211895
-0.0808662623167 0.100276954472 -0.108031697571 -0.053618799895 0.0665958970785 -0.000702878867742 -0.0296772215515 0.0313614979386 0.000195236658328 0.0
-0.0453580543399 0.024351362139 0.177106007934 -0.0189365241677 0.0131455706432 -0.0520263426006 0.0896180346608 0.0818284079432 0.0284268874675 0.0
-0.0533822700381 -0.0946150645614 0.0405304692686 -0.00541875883937 0.0215837433934 -0.0123427845538 -0.130875274539 -0.0563705787063 0.0133611755446 0.0
0.0264332927763 0.0275383163244 -0.0873258784413 0.0842419713736 -0.0412485152483 0.0564513243735 -0.0486398749053 -0.120279610157 -0.0809813812375 0.0
-0.0603400543332 0.022418897599 -0.115450061858 -0.129586458206 0.0607322268188 0.14055415988 -0.134029492736 -0.0250953454524 0.0351931899786 0.0
0.0854094475508 0.149022385478 0.209284588695 -0.162810444832 -0.00197940389626 -0.0587830916047 -0.133244752884 -0.115142270923 0.0555468387902 0.0
0.20970441401 0.194711431861 -0.0191604420543 -0.203698545694 0.100194089115 -0.0921687483788 0.118951052427 0.306010395288 0.192029446363 0.0
-0.100556671619 0.0141877103597 -0.176900357008 -0.116356536746 -0.0662638321519 0.0831286534667 0.0455632358789 -0.00498637231067 0.0726488083601 0.0
-0.0183258261532 0.00220063654706 -0.0899049341679 0.150893732905 -0.0255241114646 -0.0329236090183 -0.0265232361853 0.0410820394754 -0.0799523815513 0.0
0.114218808711 -0.0965626761317 -0.0338694863021 0.0126045858487 0.0759885907173 -0.102869167924 -0.0301990453154 -0.0901949182153 -0.1767886132 0.0
-0.0660905018449 0.037033457309 0.0848030894995 0.0912990570068 -0.0788598805666 0.0997010841966 0.138338804245 -0.010821973905 0.00799944251776 0.0
0.127768307924 -0.0619497299194 -0.0894211009145 -0.00770462444052 0.0674242302775 -0.0990495309234 -0.280477613211 0.120152071118 -0.0348484367132 0.0
-0.082401484251 -0.0644725263119 0.0814706087112 0.140995368361 -0.146298199892 0.0450521893799 0.0993561223149 -0.0984302908182 -0.0725347325206 0.0
-0.0693997368217 0.0911035910249 0.0378633625805 -0.127260878682 -0.0356410071254 -0.0460960529745 0.108072079718 -0.133900880814 0.109232753515 0.0
-0.137699887156 0.134811908007 0.00715305702761 0.0870470777154 0.0308253020048 -0.0815470293164 -0.154084801674 -0.128783226013 -0.0454094074667 0.0
0.0166970342398 0.138438642025 -0.00595655990764 0.073248103261 0.106301173568 -0.0635241344571 0.0811310857534 -0.12358096987 -0.023525075987 0.0511926
0.00684327539057 -0.0644491165876 -0.050270434469 -0.0204819440842 -0.10744741559 -0.12442869693 -0.0120399808511 0.0640352442861 -0.0589682608843 0.0
0.0153779676184 0.0377696603537 0.0498657263815 0.0648871436715 -0.0969132184982 -0.0986365154386 0.232167959213 0.150934532285 0.145256444812 0.0
-0.092721298337 0.0842900574207 -0.147959455848 0.0444619320333 0.0625125095248 -0.140698716044 -0.258737623692 -0.0985940545797 -0.233439147472 0.0
-0.0343479029834 0.0152473896742 -0.0578062310815 0.0844088047743 0.0667017102242 -0.119286254048 0.0161885526031 -0.0823531001806 -0.133238434792 0.0
0.0500377044082 -0.0953415855765 0.0628884807229 -0.161609664559 0.0274453274906 -0.0565486475825 -0.183809325099 -0.0236126724631 -0.155615642667 0.0
-0.0221548303962 0.0544429160655 0.106974892318 -0.0950288623571 -0.0805666595697 -0.0330556854606 0.0889103710651 0.192267924547 0.0843787863851 0.0
-0.0965313315392 -0.107993938029 0.0200158860534 0.116359725595 -0.0587541945279 -0.0944083184004 0.00999811198562 0.0193260777742 0.0160160884261 0.0
0.141657367349 0.0325883701444 0.130408078432 -0.0863628014922 0.143743276596 -0.00234535359778 -0.0125180343166 -0.0520203076303 0.0916146785021 0.0
0.112211875618 0.150190904737 -0.0193851329386 0.11072973907 -0.157156020403 -0.0462313517928 -0.0935951471329 -0.043942257762 0.0332724414766 0.0
0.137505829334 -0.0402970649302 -0.113973334432 0.199587211013 -0.0734809190035 -0.00323920650408 0.269614070654 0.138802006841 0.193737477064 0.0
-0.015160696581 -0.15559323132 0.0291350670159 0.0654382929206 -0.192986473441 0.0175048094243 0.244589969516 0.283366560936 -0.00241029448807 0.0
-0.0545860379934 -0.0100999139249 0.0358098037541 0.167388185859 -0.134066969156 -0.283127367496 0.31515455246 0.118611715734 0.137206405401 0.0
-0.0480171702802 0.047460693866 -0.0160071831197 -0.09190133214 0.0217662062496 -0.165783599019 0.150582879782 0.199283659458 -0.194536730647 0.0
0.0636946707964 -0.106397695839 -0.119208805263 -0.0271523147821 -0.108317501843 -0.104159347713 -0.00261206785217 -0.00624464545399 -0.0443340018392 0.0
-0.0349691733718 -0.14079913497 0.0661191269755 0.13269418478 0.10640732944 0.100819565356 0.285663068295 0.162888139486 0.151232749224 0.0
0.027311174199 0.0377806983888 0.155642971396 0.202324107289 -0.0678608119488 0.0212540365756 0.134273275733 0.0368538722396 -0.0127008147538 0.112324
0.081272944808 0.0594089180231 0.188387870789 0.0468493141234 -0.100625693798 0.0864150971174 -0.0292245466262 -0.0768165513873 -0.159524098039 0.0
0.0360979810357 0.0271672271192 0.0375020205975 0.0459716506302 0.132576808333 0.0358012244105 -0.0911230221391 -0.0762605816126 -0.0714536607265 0.0
0.117972582579 0.0374997071922 0.161915197968 0.0432747714221 0.0174600854516 -0.0880348160863 -0.195763647556 -0.0873131677508 -0.132024347782 0.0
-0.0459659770131 -0.0195687301457 -0.124574936926 -0.0981439426541 0.00197938573547 0.0768165066838 -0.0700244233012 -0.0708568021655 -0.0877690911293 0.0
-0.10856860131 0.0147691313177 0.0352351889014 -0.00296771386638 0.0608844049275 -0.0940805077553 0.0970916897058 0.0275503508747 -0.0364563465118 0.0
0.0708121955395 0.0468470342457 0.0853319838643 0.144586369395 0.141112148762 0.0740926638246 0.0581348463893 -0.0330183245242 0.0643447861075 0.0
-0.0785259604454 0.016898162663 0.248716026545 -0.042644765228 -0.0651724338531 -0.162962988019 0.0525961890817 0.0159167405218 -0.151766940951 0.0
-0.042547699064 -0.0933029428124 0.00186988012865 -0.136248469353 -0.0753204077482 -0.0766182020307 -0.0102086225525 -0.162698432803 -0.051955204457 0.0
0.151329427958 0.113528229296 0.0233014374971 -0.0459186024964 0.0511271990836 0.00536912679672 0.0573759637773 -0.0420974902809 0.0817887783051 0.0
-0.0479203276336 0.00492494227365 0.101689614356 0.0128237679601 0.0398851335049 0.00744623458013 0.0464864596725 -0.0869436264038 0.0501638054848 0.0
-0.039260674268 0.0257708635181 -0.0350069850683 -0.0831899344921 0.166118219495 0.00563599914312 0.0311520155519 -0.0450459085405 0.125807419419 0.0
0.0273088142276 0.0622064508498 0.198743388057 -0.0644759386778 0.0173580795527 0.0728035271168 -0.0419816114008 -0.158209890127 -0.0966368839145 0.0
0.0181908085942 -0.0388984493911 -0.129183098674 0.030107691884 -0.0626414865255 0.0184443220496 -0.134009346366 0.0506075881422 -0.149640217423 0.0
0.0423017218709 -0.134318739176 0.0126138431951 0.13157351315 0.0338458828628 -0.117168940604 -0.105503045022 -0.0133795784786 0.000838120409753 0.0
-0.12316519767 0.0864932090044 -0.0502071976662 0.00186194560956 -0.0149477366358 0.0244844462723 0.0838527232409 0.0530434511602 0.148368194699 0.0
-0.146352514625 0.0616827197373 -0.0684729143977 0.0273467563093 0.0845032334328 0.109165340662 -0.0613936558366 0.0406905934215 0.0137161938474 -0.0330729
-0.380618572235 -0.234033539891 -0.313613563776 -0.165932953358 -0.212591335177 -0.189053729177 -0.105077423155 -0.14333319664 -0.268293440342 0.0
0.0499745346606 -0.147579178214 -0.124450191855 -0.0377098731697 0.0238307323307 -0.0474047400057 0.285038471222 0.184558257461 -0.0136737963185 0.0
0.0676084309816 -0.116021454334 -0.0610166341066 -0.0180255118757 0.0708281472325 -0.0994833484292 0.258997410536 0.153686493635 0.0196214597672 0.0
0.0625031664968 0.0845877155662 -0.0779005363584 -0.12722723186 -0.0247331000865 -0.138611972332 -0.10181120038 0.0443196371198 0.000983622507192 0.0
0.0779540464282 -0.173203930259 -0.154788836837 -0.132747039199 -0.0523257032037 -0.169187143445 -0.130107149482 -0.155395582318 0.0437176451087 0.0
0.0694788396358 -0.00972008798271 -0.0113624604419 -0.14467728138 -0.10805337131 -0.126463696361 -0.0165551789105 -0.115980036557 -0.105865240097 0.0
0.0490523204207 0.00970489997417 0.0360205620527 -0.0089229606092 0.0205594450235 -0.0757637321949 0.073394112289 0.181632652879 0.16014572978 0.0
0.116751454771 -0.00716420635581 0.2137016505 -0.0951831117272 -0.0596921890974 0.105341233313 -0.00992908701301 0.0774370282888 -0.00243380269967 0.0
-0.206455409527 0.0375909395516 -0.165992662311 0.0397497229278 0.129741281271 -0.141166076064 0.0813393369317 -0.0167134907097 -0.0864897742867 0.0
-0.059303753078 -0.00739907892421 -0.0518729351461 -0.00483050104231 -0.0846978649497 0.0414730235934 -0.14474734664 -0.148296937346 -0.138538390398 0.0
-0.0261048208922 -0.0379743725061 0.0583711639047 -0.196893900633 -0.160639047623 -0.0709441304207 -0.123503632843 -0.0213762428612 -0.210272043943 0.0
-0.253488898277 -0.323709487915 -0.312834262848 -0.102923899889 -0.0885277315974 -0.212989881635 -0.0147252837196 -0.241557598114 -0.195454210043 0.0
-0.086121186614 -0.0848397761583 -0.11150225997 0.00460716756061 -0.00438405340537 0.0441763289273 0.0753932744265 0.255656510592 0.028867052868 0.0
-0.126274049282 -0.0914599820971 -0.00449838163331 0.0565885603428 0.105706498027 0.0641652867198 0.016867402941 -0.0363330245018 0.0791832506657 0.0
-0.14186245203 0.0896799489856 -0.0391951017082 0.0766647309065 -0.126166597009 0.0174574367702 -0.083451539278 0.110203795135 0.0196277108043 0.0
-0.0952951535583 -0.0642741322517 -0.042633164674 -0.140613585711 0.00969492830336 -0.0734276622534 0.232587814331 0.0610466711223 -0.0976063460112 0.907538
-0.000498290115502 -0.11876386404 -0.0699931979179 0.0654971152544 -0.0102245043963 0.114148542285 -0.0629561394453 0.171295553446 0.12739983201 0.0
0.152795761824 0.158658176661 0.0132145946845 0.122616931796 -0.143860250711 0.0659951716661 0.0502229481936 -0.11668690294 -0.121149480343 0.0
-0.115698777139 0.151677235961 0.116216532886 -0.0978372767568 0.185735881329 0.0697406977415 -0.121529147029 0.0491519607604 -0.292729139328 0.0
-0.0194628145546 0.0680609717965 -0.00345168239437 0.13976816833 0.0624051727355 0.0808666869998 0.124709494412 0.00659945048392 0.0055117495358 0.0
-0.147017970681 0.0432856231928 0.0240405779332 0.00364295369945 0.147058278322 0.00225742836483 0.165927395225 -0.0130747333169 0.0791916102171 0.0
0.160524114966 -0.0492484644055 -0.0273834820837 0.180495604873 0.110054716468 -0.173102363944 0.249108210206 0.0977538824081 -0.0556205883622 0.0
-0.0565290860832 -0.0858280062675 -0.073581956327 -0.110492870212 -0.0658906027675 -0.0184400696307 -0.00459506502375 -0.132966384292 -0.222688108683 0.0
0.107116930187 0.0305065046996 0.0387878790498 -0.0252485908568 -0.0717828795314 0.0108848251402 0.0192789696157 0.12289724499 0.0354930721223 0.0
-0.077703975141 0.135878160596 -0.0514309108257 -0.0160757787526 0.0468843542039 -0.120276741683 -0.116404831409 0.118606872857 0.048719227314 0.0
-0.0843720808625 0.00379964197055 -0.0524537377059 -0.0707722976804 0.123194769025 -0.0322478599846 0.154510214925 0.0481972843409 0.0720913112164 0.0
-0.0597806088626 -0.126100853086 -0.0807199701667 0.13398039341 0.100764252245 0.0759061872959 0.0617290474474 0.0801032334566 -0.186237111688 0.0
-0.0220366399735 -0.0223155785352 0.0359552837908 -0.117230847478 -0.0187421720475 0.150729060173 0.0174767579883 0.0793087631464 0.232087701559 0.0
-0.0399433374405 0.0798292905092 -0.195999234915 -0.00794818811119 -0.117931619287 -0.197605893016 0.062762863934 0.00380435725674 -0.33918595314 0.0
0.015211279504 0.0277781412005 -0.123105823994 0.00360077014193 -0.12916135788 0.0381040759385 0.0211393628269 0.0158218350261 0.0389412641525 0.0
0.0589586421847 0.0796734169126 0.061021476984 0.0776719674468 -0.0489823780954 -0.0313498303294 -0.0381622351706 0.0404483936727 -0.0228802934289 0.0
-0.144202515483 0.0931157469749 -0.0927754193544 -0.157179757953 0.071685731411 -0.111779086292 -0.0230151042342 -0.10272167623 0.0313145294785 0.14015
-0.158148959279 -0.0325733013451 0.050240881741 -0.173724651337 -0.21067738533 0.017987029627 -0.194899588823 -0.337127298117 -0.0547331832349 0.0
0.119641929865 -0.0552582256496 -0.0731375962496 0.015712544322 -0.0822034031153 -0.0804958119988 -0.118987731636 -0.0729889646173 0.0878140032291 0.0
-0.0613491348922 0.0615277141333 -0.16876411438 0.103587672114 0.0386174023151 0.0577309131622 -0.0179573558271 0.142250970006 0.160752296448 0.0
-0.0477807559073 0.0987744480371 0.0371920876205 0.0381685979664 -0.0254970043898 0.149995416403 0.0544145852327 0.0464452505112 0.12782253325 0.0
-0.104006670415 0.0741104185581 0.174189969897 0.0482134595513 0.153256371617 0.105838946998 -0.0074132042937 0.062822766602 0.03567776829 0.0
0.0863166898489 -0.0317650772631 -0.162753388286 0.0437254235148 0.00475870259106 -0.0497971996665 -0.177730187774 -0.16244789958 -0.0807330086827 0.0
0.0485124476254 0.0761834084988 0.0887812674046 0.112713962793 0.200514808297 -0.0254386030138 0.0103440796956 0.103321000934 -0.0632066577673 0.0
-0.20794428885 0.0275974944234 -0.148333221674 -0.11575858295 -0.0589174032211 -0.106190875173 -0.185246556997 -0.100585073233 0.0860375091434 0.0
-0.0850955918431 -0.1404838413 -0.0879146158695 0.119700528681 0.00850135833025 -0.0448847673833 0.0587312579155 0.157629087567 0.201978906989 0.0
0.0879548788071 -0.154101997614 -0.037521649152 -0.0588794015348 0.0617366544902 -0.0969074070454 -0.0799151137471 -0.0694521665573 0.0132440803573 0.0
-0.0222994163632 -0.0460885949433 0.0146898822859 0.157849699259 0.00627087568864 -0.0993244796991 0.0982163250446 -0.0250314343721 0.099702052772 0.0
0.395429939032 -0.0636869817972 0.0317652747035 -0.0020822910592 0.220883071423 0.00541766174138 -0.375880241394 0.00703667895868 -0.139085620642 0.0
-0.0576098524034 -0.182162150741 -0.145883560181 -0.132522210479 -0.0891491025686 -0.182891890407 0.0482174269855 -0.0890755355358 0.00287861377001 0.0
-0.0710934475064 -0.0952085331082 -0.108311004937 -0.0139576988295 -0.0732561200857 -0.104007348418 -0.0131900180131 -0.0575606264174 0.04318395257 0.0
0.0156777966768 -0.105160824955 0.0594709031284 0.0713799223304 0.104703582823 0.0845102742314 0.0430312976241 -0.0303028859198 -0.00502721546218 0.0
0.0889926180243 0.0207469854504 -0.18264092505 -0.223153725266 0.0560319423676 -0.0298599544913 -0.161969766021 0.00689981598407 -0.0354663096368 -0.16971
0.232852309942 0.00373022351414 -0.0366155728698 -0.160875201225 -0.0560727342963 -0.211462378502 -0.120504267514 -0.182607859373 -0.218176424503 0.0
0.102300703526 0.0566485784948 -0.190024286509 0.0175368022174 0.0566992051899 0.138034969568 -0.188414260745 0.0301083251834 0.0221363194287 0.0
0.25449192524 -0.114446468651 0.0140806110576 -0.2950335145 -0.120225556195 -0.143043160439 -0.372851520777 -0.171373263001 -0.0560777634382 0.0
-0.169551730156 -0.0839408859611 -0.0565021410584 -0.174303337932 -0.118382669985 -0.162341311574 0.0276392344385 0.00647507701069 -0.0844418630004 0.0
-0.0770780965686 0.0136240450665 0.06558290869 -0.0973736792803 -0.225266903639 0.0154932551086 -0.118699975312 0.0902514234185 -0.0740064531565 0.0
-0.0454613678157 0.122625388205 -0.117737405002 -0.123848393559 -0.0682150870562 -0.0235591288656 -0.241271093488 0.0559632666409 0.0791572034359 0.0
0.0503369905055 -0.0667055770755 0.107819437981 -0.327498733997 -0.231942594051 -0.127079233527 -0.229894936085 -0.242483630776 0.112564645708 0.0
0.140543580055 0.175314843655 0.180592998862 0.043981295079 -0.0416234098375 0.0906280949712 0.204258278012 0.198835790157 0.180804535747 0.0
-0.0257345363498 0.214786112309 -0.133944585919 0.129176333547 -0.0326531715691 -0.197038814425 -0.0776695907116 0.02739055641 -0.10284448415 0.0
0.0919349193573 0.152895733714 0.14032509923 0.143724381924 -0.102446734905 0.240955427289 0.385996520519 0.147136777639 0.282440632582 0.0
-0.00325573515147 0.206272125244 -0.0831749662757 -0.0356378778815 0.0710468068719 0.0994811877608 -0.0611262731254 0.128607243299 0.0520350188017 0.0
-0.0535608008504 0.32941070199 -0.261349856853 0.00198621535674 -0.0236818995327 -0.184410884976 0.142877310514 -0.031251873821 0.00845634937286 0.0
0.1635299474 0.0519886799157 -0.088212043047 0.144231945276 0.121876440942 0.112478069961 -0.0110554080456 -0.000914475880563 -0.0330846421421 0.0
0.0211160685867 0.0898867025971 -0.0756950676441 0.128796547651 0.0300722233951 0.101240441203 -0.137355715036 0.0406889617443 0.0544449575245 0.0
-0.0392332822084 0.0597209595144 0.000482439034386 -0.0417322255671 -0.10482429713 -0.0309625342488 0.0366883389652 0.0319738909602 -0.023330969736 0.0
0.156279161572 0.132757380605 0.127722755075 0.180948853493 -0.188684716821 -0.0373051054776 0.324158430099 0.0925991982222 0.00842678640038 0.383234
0.0189241487533 -0.0309572461993 -0.0249924343079 -0.00402499781922 -0.129564642906 0.119882412255 -0.0415617227554 -0.025241067633 0.131399467587 0.0
-0.0631259307265 -0.0672642290592 0.0111705418676 0.00873028486967 -0.0739375054836 -0.0532025769353 -0.167282596231 -0.0747092366219 0.047294061631 0.0
-0.0398797541857 -0.0327866598964 -0.0977880954742 -0.012197772041 0.0567700192332 0.127161353827 -0.131802424788 -0.121513128281 0.124898448586 0.0
0.13877184689 -0.0560567677021 -0.0262132100761 0.0387858487666 -0.0461557097733 -0.0230503361672 -0.0968417674303 0.0748042836785 0.109555877745 0.0
-0.0403763577342 0.0243860520422 -0.087713137269 0.0178990345448 0.0420370735228 -0.032766520977 0.0753623619676 0.00981946662068 0.0446096584201 0.0
0.117485783994 0.107399009168 -0.032074522227 -0.0340809896588 -0.193614289165 -0.0978932529688 0.0701624527574 0.0358243845403 -0.141439065337 0.0
0.172351673245 -0.0752070397139 -0.105595245957 -0.0784307122231 0.160211369395 0.177126005292 0.0206234473735 -0.0491065979004 0.0558212287724 0.0
-0.0585761480033 0.113903611898 0.133131444454 -0.237564191222 -0.129531726241 -0.104689568281 -0.19896133244 -0.152017205954 0.0806535854936 0.0
-0.109592437744 -0.0295552536845 0.176707819104 -0.0304578859359 -0.0765714719892 0.109645761549 0.0474366471171 -0.10723297298 0.0848423913121 0.0
0.0415358580649 -0.0171398166567 -0.101729027927 -0.0610649324954 -0.124002017081 0.0416458807886 -0.0111507484689 -0.154870852828 0.0830558985472 0.0
0.0971502587199 -0.056784208864 0.0484933629632 0.0144982812926 0.0437583439052 -0.158606141806 0.0160404406488 -0.114074751735 -0.0826372057199 0.0
-0.0261486191303 -0.0671788156033 -0.00571815529838 -0.227038949728 -0.202896371484 -0.101332940161 0.04559199512 0.0300143603235 0.152179226279 0.0
0.0902819782495 0.217104896903 0.180765464902 -0.0234230291098 0.117990516126 -0.0801784470677 -0.072330608964 0.193693771958 0.0687977746129 0.0
-0.0140487831086 0.00201429589652 0.0373853668571 -0.125487118959 -0.120210073888 -0.125643342733 0.0164994392544 0.0185786765069 0.0969672352076 0.0
-0.0460989512503 -0.040561106056 -0.116871200502 0.0985578671098 -0.11565836519 -0.134133309126 -0.10652461648 0.0304450280964 -0.0559971965849 0.0
0.162285387516 0.136186614633 0.0786782503128 -0.0659647658467 -0.0156696867198 0.0558398813009 0.0327255874872 0.0708911716938 -0.0525538474321 -0.421008
-0.121121831238 -0.0731518343091 0.0208500549197 -0.0907057970762 0.0805475562811 0.0757495164871 -0.133808970451 -0.105163305998 -0.054183639586 0.0
0.047731846571 0.0273112431169 -0.0301170442253 -0.20063854754 0.0245220027864 -0.0779218897223 0.0440026856959 0.00197309697978 -0.0555324405432 0.0
-0.0522887669504 -0.046355292201 -0.0302318409085 0.102015994489 0.0344325937331 0.0411061383784 0.0506652928889 0.15356233716 0.236428752542 0.0
0.0115019986406 0.079511269927 0.112160913646 -0.00503490772098 0.014567094855 0.0670277997851 -0.0474708564579 0.0836281329393 0.0836884975433 0.0
-0.0357987545431 -0.0569032095373 0.0213297512382 -0.050951987505 -0.0769524052739 -0.0980370044708 0.042040232569 -0.149279400706 -0.178161531687 0.0
-0.0756071507931 0.00654143467546 -0.0368858911097 0.0821203812957 0.0978589579463 -0.00323354569264 -0.0294001307338 -0.0564298890531 0.0344540923834 0.0
-0.192882090807 -0.0913852974772 -0.170426368713 -0.0656811743975 -0.169806033373 -0.112167194486 -0.266080200672 -0.219729781151 -0.0851851329207 0.0
0.0529185794294 -0.0681753605604 0.142555952072 0.0538637824357 0.0518920049071 -0.108599863946 0.0141007332131 -0.117296867073 0.0534976050258 0.0
0.147485509515 0.0342702306807 0.23896278441 -0.118967853487 -0.129842564464 0.0169129110873 -0.00776753760874 0.0353989712894 -0.0594284012914 0.0
0.124283522367 0.0500464737415 0.179054901004 -0.0371769182384 -0.0968975499272 0.00598338339478 0.112261392176 0.0357696078718 -0.0452974513173 0.0
0.0108804414049 0.13665574789 0.07192081213 0.110270068049 0.108412668109 -0.0846367701888 0.127269595861 -0.0714354515076 0.0210027545691 0.0
0.0886027812958 -0.038539648056 0.0691342204809 -0.0746404826641 0.0181580651551 -0.0732269734144 -0.207200914621 -0.109128810465 -0.0124555276707 0.0
0.282309383154 0.271743476391 0.0255198348314 -0.224053755403 -0.0853549614549 0.146451771259 -0.146659135818 -0.173258796334 0.195478186011 0.0
0.0613652952015 -0.063925921917 0.112561926246 0.101486824453 0.0623077005148 0.0210272371769 0.0293220281601 -0.000822123198304 -0.061344679445 0.0
-0.121878273785 -0.0698303580284 -0.0328010171652 0.0052286637947 -0.112758494914 0.0558472983539 0.0286950971931 -0.042844325304 -0.0936273559928 0.0
0.0897487476468 0.197090640664 0.122862704098 0.0641780346632 0.00678935460746 0.0581234358251 -0.0976104959846 -0.0548220425844 -0.0464480444789 0.0405452
