convolution,  3 1
-0.00240329606459 0.0
-0.00153724162374 0.0
-0.00300239096396 0.0
0.00306570716202 0.0
-0.0226077195257 0.0
0.00190228794236 0.0
0.0078351451084 0.0
0.0069025545381 0.0
-0.0251405853778 0.0
-0.0173491686583 0.0
0.00123769917991 0.0
0.0145029025152 0.0
-0.00250463024713 0.0
0.014590876177 0.0
-0.0144186159596 0.0
-0.00210004602559 0.0
0.0178715623915 0.0
-0.00646845018491 0.0
-0.00123069854453 0.0
-0.00962551031262 0.0
0.00356868002564 0.0
-0.0110229821876 0.0
0.00548467924818 0.0
0.00581324100494 0.0
-0.00108707486652 0.0
-0.0157031323761 0.0
-0.0050297183916 0.0
0.00222903792746 0.0
-0.00429573887959 0.0
-0.0143937580287 0.0
-0.00499091250822 0.0
0.00798068940639 0.000244825
-0.045345582068 0.0
-0.116284295917 0.0
0.220555514097 0.0
0.17551022768 0.0
0.0767531245947 0.0
0.0507282949984 0.0
-0.127184942365 0.0
0.0793874263763 0.0
0.0612417310476 0.0
-0.0463043525815 0.0
0.0535848662257 0.0
-0.0981316715479 0.0
-0.0734836235642 0.0
0.068821310997 0.0
0.0551836155355 0.0
0.0715421065688 0.0
0.0747333988547 0.0
-0.088876157999 0.0
0.0247323513031 0.0
-0.0186446029693 0.0
0.0603306554258 0.0
0.0336064100266 0.0
-0.0554242655635 0.0
-0.0676257833838 0.0
0.0769212543964 0.0
0.199716106057 0.0
0.0204794891179 0.0
-0.0274904742837 0.0
0.0716123729944 0.0
0.0955538004637 0.0
0.109006926417 0.0
-0.110291436315 0.0163423
0.000849895179272 0.0
-0.0110958712175 0.0
-0.0171245168895 0.0
-0.00303605548106 0.0
-0.017614653334 0.0
0.00107008521445 0.0
-0.00715953530744 0.0
0.00247252848931 0.0
-0.0108031649143 0.0
0.00167991756462 0.0
-0.0130987428129 0.0
0.00571579253301 0.0
0.00480142794549 0.0
-0.00180576369166 0.0
-0.00920742470771 0.0
-0.00351223745383 0.0
0.0175001267344 0.0
0.0117096407339 0.0
0.00257772929035 0.0
0.00261323736049 0.0
0.00333543610759 0.0
-0.0126706743613 0.0
-0.000769622158259 0.0
-0.00884393136948 0.0
-0.00414498941973 0.0
0.0016478569014 0.0
0.00729864370078 0.0
-0.00615436350927 0.0
-0.011019513011 0.0
-0.00345851946622 0.0
0.00267618871294 0.0
0.00815774966031 -0.000710506
-0.00218811491504 0.0
0.00130968762096 0.0
0.0198613125831 0.0
0.0208868589252 0.0
0.00249059009366 0.0
0.0105888238177 0.0
-0.00336231524125 0.0
0.00543916923925 0.0
-0.0132024865597 0.0
-0.00253780465573 0.0
-0.0238475687802 0.0
-0.00884574931115 0.0
0.00153146369848 0.0
0.00623029423878 0.0
0.00426060613245 0.0
-0.0114678619429 0.0
-0.00128055654932 0.0
-0.000689442269504 0.0
-0.00821029394865 0.0
0.00943466369063 0.0
-0.00928602740169 0.0
-0.013008819893 0.0
0.00905305240303 0.0
-0.00352948810905 0.0
-0.00125501758885 0.0
0.00188831298146 0.0
-0.00342708337121 0.0
0.000892638519872 0.0
0.00280579715036 0.0
0.011246163398 0.0
-0.00685651600361 0.0
-0.0100552244112 0.00100263
0.0120223443955 0.0
0.0270887631923 0.0
-0.0426796451211 0.0
-0.00783103983849 0.0
0.00765238469467 0.0
-0.00851860269904 0.0
0.0397824496031 0.0
0.00375457224436 0.0
0.00798913650215 0.0
0.00502560706809 0.0
-0.0128915784881 0.0
0.043012496084 0.0
0.0154116712511 0.0
-0.00159883871675 0.0
0.0100035574287 0.0
0.0061330976896 0.0
0.0093009788543 0.0
0.0341167598963 0.0
0.0079604210332 0.0
0.0234586596489 0.0
0.00213364255615 0.0
-0.00683752121404 0.0
0.0246357601136 0.0
0.0250400509685 0.0
0.0174955483526 0.0
-0.00919000711292 0.0
-0.000415472459281 0.0
-0.00379118346609 0.0
-0.00227746390738 0.0
0.00818050466478 0.0
0.000368180510122 0.0
0.0259447917342 0.0138488
0.0155499419197 0.0
0.0130953071639 0.0
-0.0128700062633 0.0
-0.000344872009009 0.0
0.0139895854518 0.0
-0.0116892950609 0.0
0.0204356499016 0.0
0.00974820554256 0.0
-0.00251912744716 0.0
0.020027641207 0.0
-0.0121502587572 0.0
0.00748413754627 0.0
0.0144897503778 0.0
-0.00691714929417 0.0
0.00553614227101 0.0
-0.00091284600785 0.0
0.0176742579788 0.0
0.0118629038334 0.0
0.0107925329357 0.0
-0.00695525249466 0.0
-0.0187567323446 0.0
-0.00724520161748 0.0
0.0270665418357 0.0
0.0331495516002 0.0
0.0100832600147 0.0
-0.0097697339952 0.0
-0.00538479350507 0.0
0.00386951770633 0.0
-0.0180556662381 0.0
-0.0112091954798 0.0
0.0121727883816 0.0
0.0141053143889 0.00803407
-0.00912836473435 0.0
-0.0157068464905 0.0
-0.000732393586077 0.0
-0.0106742456555 0.0
-0.00462371250615 0.0
0.00253021530807 0.0
0.00117881712504 0.0
-0.0129132857546 0.0
-0.00389352883212 0.0
-0.0107350982726 0.0
-0.00261145806871 0.0
0.00665272446349 0.0
-0.000671587651595 0.0
-0.00910648051649 0.0
0.00573364971206 0.0
-0.00430593127385 0.0
0.0107058137655 0.0
-0.00583468005061 0.0
0.0098468484357 0.0
-0.00711528211832 0.0
-0.0137208690867 0.0
0.00846245884895 0.0
-0.0108485165983 0.0
-0.00517493393272 0.0
0.00756887951866 0.0
-0.0113268531859 0.0
-0.0039842533879 0.0
-0.0129129728302 0.0
-0.00536593189463 0.0
-0.0181468743831 0.0
0.0146814854816 0.0
0.00148647930473 -6.87436e-06
-0.0520195253193 0.0
-0.0944740921259 0.0
0.174798250198 0.0
0.139940947294 0.0
0.0624051578343 0.0
0.0256102643907 0.0
-0.116648748517 0.0
0.0547410883009 0.0
0.0636204108596 0.0
-0.0276866294444 0.0
0.0401146635413 0.0
-0.0746028274298 0.0
-0.0487530976534 0.0
0.0682461708784 0.0
0.0388132557273 0.0
0.0430426113307 0.0
0.0661760047078 0.0
-0.0705550163984 0.0
0.0136562688276 0.0
-0.0281640272588 0.0
0.0296824928373 0.0
0.0392316542566 0.0
-0.037363845855 0.0
-0.0417530424893 0.0
0.0512898936868 0.0
0.153297334909 0.0
0.0153145082295 0.0
-0.0186929926276 0.0
0.0533065460622 0.0
0.0657915249467 0.0
0.0865614116192 0.0
-0.0864258557558 0.0137673
0.00696941465139 0.0
-0.0142008140683 0.0
0.0032229074277 0.0
0.00874926615506 0.0
-0.00316456425935 0.0
0.000160698138643 0.0
0.0151458997279 0.0
-0.00265235407278 0.0
0.0191075392067 0.0
-0.000143439086969 0.0
0.00294161401689 0.0
-0.00243009114638 0.0
-0.0115818781778 0.0
0.0251461025327 0.0
0.00701646879315 0.0
-0.0140625489876 0.0
-0.0309031475335 0.0
0.010164947249 0.0
-0.00567251164466 0.0
-0.0123649705201 0.0
-0.0118687395006 0.0
-0.00706672435626 0.0
-0.00263786292635 0.0
-0.0130071612075 0.0
-0.00170450820588 0.0
-0.00282630044967 0.0
0.00466210534796 0.0
-0.00626412173733 0.0
0.0063656931743 0.0
-0.00727704679593 0.0
-0.0118710948154 0.0
0.0138783836737 -0.00169631
0.00535632902756 0.0
-0.00402209488675 0.0
-0.0130495196208 0.0
-0.00432760408148 0.0
-0.0166452396661 0.0
-0.00148116564378 0.0
0.00369647191837 0.0
0.0108454599977 0.0
0.0115733081475 0.0
0.000359027792001 0.0
-0.0171783268452 0.0
-0.00630109664053 0.0
-0.00285959499888 0.0
-0.00809323694557 0.0
0.00786995422095 0.0
0.00449954904616 0.0
0.00155008258298 0.0
-0.000242781025008 0.0
0.00265924306586 0.0
-0.00766973057762 0.0
-0.0115328067914 0.0
0.00478835403919 0.0
0.00341298687272 0.0
-0.00720034400001 0.0
0.0103175193071 0.0
-0.00648719118908 0.0
0.000906427856535 0.0
-0.000295856152661 0.0
0.0135042807087 0.0
-0.00717687793076 0.0
-0.0154305836186 0.0
0.00331049971282 -9.27203e-05
-0.042187936604 0.0
-0.0978390723467 0.0
0.201198533177 0.0
0.162740975618 0.0
0.0759362205863 0.0
0.0303545631468 0.0
-0.1077337116 0.0
0.0545916184783 0.0
0.0679995119572 0.0
-0.0540674291551 0.0
0.0463980287313 0.0
-0.0722203180194 0.0
-0.0517538785934 0.0
0.0648779347539 0.0
0.0436133481562 0.0
0.0449080020189 0.0
0.0672275573015 0.0
-0.0924559161067 0.0
0.0148384142667 0.0
-0.0243201199919 0.0
0.0471233017743 0.0
0.0228414926678 0.0
-0.0368358120322 0.0
-0.0504876375198 0.0
0.0613866336644 0.0
0.154306158423 0.0
0.0122138839215 0.0
-0.0195136200637 0.0
0.0580098219216 0.0
0.0736436620355 0.0
0.101493723691 0.0
-0.0889381244779 0.0204166
-0.00301827420481 0.0
-0.00561381364241 0.0
0.00330895767547 0.0
0.018737161532 0.0
0.00818909052759 0.0
-0.0200590323657 0.0
0.000869954819791 0.0
-0.0125641860068 0.0
0.0067875594832 0.0
-0.00593465799466 0.0
0.0149740837514 0.0
-0.00861851405352 0.0
0.00815323647112 0.0
-0.0151887331158 0.0
0.00311475130729 0.0
0.00687213009223 0.0
-0.0017423274694 0.0
-0.0136391026899 0.0
0.0108206588775 0.0
-0.0121612418443 0.0
0.00354930362664 0.0
-0.013937169686 0.0
-0.00596139067784 0.0
-0.0136457262561 0.0
-0.0182216130197 0.0
0.00831502582878 0.0
-0.00222984957509 0.0
-0.00187852536328 0.0
-0.00417282339185 0.0
-0.0041025984101 0.0
0.00330197764561 0.0
0.00222850497812 2.76383e-05
-0.0103012146428 0.0
-0.00957717280835 0.0
-0.00530723808333 0.0
0.000834321544971 0.0
-0.0106216566637 0.0
-0.0229234173894 0.0
0.00150976830628 0.0
0.00966004189104 0.0
-0.00998758710921 0.0
-0.0213480498642 0.0
-0.00440009962767 0.0
0.00469812331721 0.0
0.0128234969452 0.0
0.00503143807873 0.0
0.00386263942346 0.0
0.0293430928141 0.0
0.00385241908953 0.0
-0.0171650648117 0.0
0.00445899413899 0.0
-0.0137616358697 0.0
0.00828593317419 0.0
-0.00497544789687 0.0
0.00264300778508 0.0
-0.0023695200216 0.0
0.00666926940903 0.0
-0.0177148450166 0.0
-0.0113202715293 0.0
-0.0153017807752 0.0
0.00221424619667 0.0
-0.00983991194516 0.0
-0.00137029530015 0.0
-0.0157893206924 -0.000623426
0.0135912764817 0.0
0.0360945612192 0.0
0.00653372891247 0.0
-0.013508300297 0.0
0.00283344369382 0.0
-0.00977542065084 0.0
0.0392906107008 0.0
-0.00514019932598 0.0
0.0157540906221 0.0
0.0126677108929 0.0
0.011967016384 0.0
0.0250381566584 0.0
0.0398500859737 0.0
-0.015560044907 0.0
-0.000171304563992 0.0
0.00116613239516 0.0
0.0128050912172 0.0
0.0387092716992 0.0
0.00320315989666 0.0
0.0022424547933 0.0
0.00323265325278 0.0
-0.000326366251102 0.0
0.0282139610499 0.0
0.0231089293957 0.0
0.00975239928812 0.0
0.00131697917823 0.0
-0.00340090319514 0.0
0.0117169152945 0.0
0.0151281356812 0.0
0.00258086039685 0.0
0.000692314351909 0.0
0.0306849870831 0.0237553
0.0114919189364 0.0
0.00730393547565 0.0
-0.00131686765235 0.0
-0.013253015466 0.0
0.00375213427469 0.0
-0.0107442587614 0.0
0.00438492093235 0.0
0.00450412323698 0.0
0.00210381206125 0.0
-0.0160780791193 0.0
0.00339175784029 0.0
0.00476500019431 0.0
0.00886667892337 0.0
-0.00750697404146 0.0
-0.00804441515356 0.0
-0.0122198285535 0.0
-0.00780210644007 0.0
-0.00569056114182 0.0
-0.016840448603 0.0
-0.00928637478501 0.0
0.00493001332507 0.0
0.00481499172747 0.0
-0.00764801027253 0.0
-0.0109283234924 0.0
-0.00170908553991 0.0
-0.00918360613286 0.0
0.0173298753798 0.0
-0.0109244249761 0.0
0.0100542437285 0.0
0.00610039569438 0.0
-0.0201149433851 0.0
0.0108901020139 1.7618e-05
0.0121037280187 0.0
-0.00659868773073 0.0
0.00503517966717 0.0
0.00268729357049 0.0
-8.09494740679e-05 0.0
0.000800797366537 0.0
0.00849876832217 0.0
-0.0128994556144 0.0
-0.0210807044059 0.0
0.0114653622732 0.0
0.00317498156801 0.0
-0.00759107293561 0.0
0.0102616176009 0.0
-0.0222755502909 0.0
0.00696030911058 0.0
-0.00393898878247 0.0
-0.00111635902431 0.0
-0.000153240558575 0.0
-0.0046335849911 0.0
0.00639141490683 0.0
0.00380623852834 0.0
0.00132326874882 0.0
-0.00677489722148 0.0
-0.0060174074024 0.0
0.00950185395777 0.0
-0.00633336324245 0.0
0.00363789335825 0.0
-0.00196102587506 0.0
-4.12004264945e-05 0.0
-0.00168100034352 0.0
0.000498012581374 0.0
-0.0103653632104 0.00258973
-0.0308330655098 0.0
-0.0539471805096 0.0
0.13356423378 0.0
0.0880420431495 0.0
0.0513180829585 0.0
0.0305667445064 0.0
-0.064078643918 0.0
0.0326719023287 0.0
0.0410092063248 0.0
-0.0190559606999 0.0
0.0386037714779 0.0
-0.0334183499217 0.0
-0.0299423616379 0.0
0.021637564525 0.0
0.0269980002195 0.0
0.0438225790858 0.0
0.0383722558618 0.0
-0.0446583144367 0.0
0.017672393471 0.0
-0.0181791763753 0.0
0.0347695983946 0.0
0.0241625029594 0.0
-0.0301711261272 0.0
-0.0329556129873 0.0
0.0425832867622 0.0
0.101598456502 0.0
0.00661246757954 0.0
0.00361234555021 0.0
0.0614578872919 0.0
0.0471266694367 0.0
0.0482987314463 0.0
-0.0720057189465 0.00701034
0.0402346178889 0.0
0.0496674701571 0.0
-0.0304394960403 0.0
-0.00875006895512 0.0
0.00211707502604 0.0
-0.0148885771632 0.0
0.0628532990813 0.0
-0.00612492254004 0.0
0.0122320698574 0.0
0.0491238720715 0.0
0.008559377864 0.0
0.0427882820368 0.0
0.0456535108387 0.0
0.0258796587586 0.0
-0.00728372624144 0.0
0.0193180833012 0.0
0.00352236279286 0.0
0.0608038008213 0.0
-0.000430853338912 0.0
0.0226915292442 0.0
-0.0160515718162 0.0
-0.0193617511541 0.0
0.0567047595978 0.0
0.0413060188293 0.0
-0.00274032424204 0.0
-0.00316837360151 0.0
0.00847513601184 0.0
-0.00063318782486 0.0
0.00847465638071 0.0
0.00602884171531 0.0
0.00271134427749 0.0
0.0553758628666 0.0305055
-0.0987700596452 0.0
-0.222192332149 0.0
0.404825031757 0.0
0.328137457371 0.0
0.1616294384 0.0
0.0790396779776 0.0
-0.241606041789 0.0
0.125787734985 0.0
0.152726754546 0.0
-0.0861990451813 0.0
0.117329388857 0.0
-0.168397054076 0.0
-0.125836268067 0.0
0.115261845291 0.0
0.0925156995654 0.0
0.115820884705 0.0
0.131156906486 0.0
-0.178229749203 0.0
0.022024936974 0.0
-0.0394313596189 0.0
0.103989414871 0.0
0.0422021523118 0.0
-0.0917003527284 0.0
-0.102042406797 0.0
0.140817016363 0.0
0.347390502691 0.0
0.0376573130488 0.0
-0.0201685614884 0.0
0.118599563837 0.0
0.159233063459 0.0
0.191750377417 0.0
-0.212705165148 0.039489
-0.00161708111409 0.0
0.00776703329757 0.0
-0.0210427865386 0.0
0.00733440369368 0.0
0.00416625430807 0.0
-0.00334799522534 0.0
0.00992479547858 0.0
-0.00863218121231 0.0
-0.00329908076674 0.0
-0.0192509815097 0.0
-0.0111974431202 0.0
-0.00236675958149 0.0
0.00161977938842 0.0
0.0111270369962 0.0
-0.00379969901405 0.0
-0.0132053708658 0.0
-0.0182664003223 0.0
0.00300886016339 0.0
-0.0137525908649 0.0
0.00384151749313 0.0
0.00187823455781 0.0
0.0157274175435 0.0
-0.000584778084885 0.0
-0.0124173993245 0.0
0.00106156338006 0.0
-0.0013150133891 0.0
-0.00978198461235 0.0
-0.00407645991072 0.0
0.00750034861267 0.0
-0.00106003449764 0.0
-0.00119644834194 0.0
-0.0025158894714 -4.90208e-05
-0.0965999737382 0.0
-0.216827049851 0.0
0.428071111441 0.0
0.347049951553 0.0
0.161010444164 0.0
0.0770704448223 0.0
-0.251366049051 0.0
0.128552138805 0.0
0.143291935325 0.0
-0.0856266245246 0.0
0.111419945955 0.0
-0.172979742289 0.0
-0.130370050669 0.0
0.12939016521 0.0
0.104968428612 0.0
0.122672021389 0.0
0.143347933888 0.0
-0.174783170223 0.0
0.0209278464317 0.0
-0.0580217912793 0.0
0.108319826424 0.0
0.0730170533061 0.0
-0.109477698803 0.0
-0.118968203664 0.0
0.15299987793 0.0
0.363092362881 0.0
0.0384982675314 0.0
-0.0326740518212 0.0
0.11415656656 0.0
0.179094746709 0.0
0.201414018869 0.0
-0.228536218405 0.0385647
-0.0868538916111 0.0
-0.1676889956 0.0
0.370639443398 0.0
0.281011283398 0.0
0.133694037795 0.0
0.0719627961516 0.0
-0.209633216262 0.0
0.097469098866 0.0
0.131944835186 0.0
-0.0845937132835 0.0
0.0883251205087 0.0
-0.139671519399 0.0
-0.114339418709 0.0
0.115067094564 0.0
0.0725939571857 0.0
0.0814812257886 0.0
0.134925320745 0.0
-0.139400720596 0.0
0.0236471984535 0.0
-0.0479330085218 0.0
0.108126066625 0.0
0.0559897832572 0.0
-0.094916112721 0.0
-0.0931292623281 0.0
0.12577162683 0.0
0.311718314886 0.0
0.0397680439055 0.0
-0.0441784746945 0.0
0.12680478394 0.0
0.14626647532 0.0
0.183253824711 0.0
-0.185860112309 0.021928
0.0460515543818 0.0
0.0896194130182 0.0
-0.0443175584078 0.0
-0.0240247286856 0.0
0.00758318509907 0.0
-0.00867248512805 0.0
0.0800818949938 0.0
-0.0105027575046 0.0
0.00687012635171 0.0
0.0493981763721 0.0
0.0012641797075 0.0
0.0524209626019 0.0
0.0399463661015 0.0
0.0204291120172 0.0
0.0290935486555 0.0
-0.000714631169103 0.0
0.0149244144559 0.0
0.0601424835622 0.0
0.00236560683697 0.0
0.0439992807806 0.0
-0.0129757476971 0.0
-0.00876732356846 0.0
0.0678961202502 0.0
0.0636201277375 0.0
0.0209650490433 0.0
-0.0154524715617 0.0
0.00921987183392 0.0
0.0137885613367 0.0
-0.0166373588145 0.0
-0.0120657086372 0.0
-0.0185741763562 0.0
0.0541624799371 0.0336469
-0.00975743122399 0.0
-0.0104290433228 0.0
0.0426646247506 0.0
0.000588109425735 0.0
0.0169300343841 0.0
0.00668804300949 0.0
-0.0193039570004 0.0
0.029304113239 0.0
0.0117497639731 0.0
-0.00528562394902 0.0
-0.00138024066109 0.0
0.00791569706053 0.0
-0.0165617968887 0.0
0.00827872473747 0.0
0.0196286533028 0.0
0.0197790060192 0.0
-0.00370779749937 0.0
-0.00167503010016 0.0
0.0042207823135 0.0
-0.000358448538464 0.0
-0.0138444993645 0.0
0.00436299853027 0.0
0.00769173819572 0.0
0.00125905917957 0.0
0.0143023207784 0.0
0.0101152099669 0.0
-0.0059011997655 0.0
0.000194196851226 0.0
0.018799578771 0.0
-0.000319288083119 0.0
0.0183411724865 0.0
-0.0306448154151 0.000190794
0.173080191016 0.0
0.299615681171 0.0
-0.129365101457 0.0
-0.0411315262318 0.0
0.0114606907591 0.0
-0.0294833928347 0.0
0.376446664333 0.0
-0.056610185653 0.0
0.0473302602768 0.0
0.220650330186 0.0
0.0355919450521 0.0
0.19176876545 0.0
0.171953320503 0.0
0.0286995526403 0.0
0.0835948139429 0.0
0.046519163996 0.0
0.0756341442466 0.0
0.26690787077 0.0
0.0465601868927 0.0
0.168411910534 0.0
-0.0288458056748 0.0
-0.00804617255926 0.0
0.271043360233 0.0
0.216244727373 0.0
0.0373075269163 0.0
-0.052555218339 0.0
0.00176792172715 0.0
0.0343714468181 0.0
-0.034010656178 0.0
-0.0229157898575 0.0
0.00884104799479 0.0
0.254820019007 0.152386
-0.00218208110891 0.0
-0.0301454253495 0.0
-0.0137696135789 0.0
-0.00247803819366 0.0
-0.00938536785543 0.0
-0.015133949928 0.0
-0.0122391916811 0.0
-0.00143924902659 0.0
0.0121636530384 0.0
0.00180042115971 0.0
-0.00347390840761 0.0
0.00117824506015 0.0
0.0136683546007 0.0
-0.00072655006079 0.0
0.00467264419422 0.0
-0.0123058659956 0.0
-0.00331131345592 0.0
-0.00902619585395 0.0
0.0156453661621 0.0
-0.00963323749602 0.0
0.00180109869689 0.0
-0.00749455299228 0.0
-0.00623331870884 0.0
0.0137435412034 0.0
0.0133487349376 0.0
-0.0171120930463 0.0
-0.00934501178563 0.0
-0.00880485307425 0.0
-0.0211748760194 0.0
-0.00552294962108 0.0
0.00684286188334 0.0
0.0154198464006 -0.00197324
0.122715443373 0.0
0.20528973639 0.0
-0.104177042842 0.0
-0.0363414250314 0.0
-0.00875750835985 0.0
-0.0030907203909 0.0
0.263966649771 0.0
-0.0379110760987 0.0
0.00375115522183 0.0
0.130707606673 0.0
0.0217149555683 0.0
0.130770593882 0.0
0.123910032213 0.0
0.012028131634 0.0
0.0698659345508 0.0
0.0270953644067 0.0
0.0480850115418 0.0
0.168562710285 0.0
0.0223887078464 0.0
0.103144451976 0.0
-0.0325795076787 0.0
0.00377155677415 0.0
0.171893328428 0.0
0.158149912953 0.0
0.0340473204851 0.0
-0.0496603287756 0.0
0.00142069126014 0.0
0.0475337505341 0.0
-0.0288622416556 0.0
-0.0127592170611 0.0
-0.00698896218091 0.0
0.196945726871 0.0929822
-0.0440427586436 0.0
-0.100065492094 0.0
0.217551395297 0.0
0.173476904631 0.0
0.0793426930904 0.0
0.045149628073 0.0
-0.149270489812 0.0
0.0554644949734 0.0
0.0804798901081 0.0
-0.0483508072793 0.0
0.0429586097598 0.0
-0.0942967832088 0.0
-0.0706451833248 0.0
0.0522985868156 0.0
0.0461438372731 0.0
0.0558446086943 0.0
0.0555975735188 0.0
-0.0815184563398 0.0
0.00172669289168 0.0
-0.0298907663673 0.0
0.0766434893012 0.0
0.0266041886061 0.0
-0.0443635582924 0.0
-0.0723656415939 0.0
0.0686620548368 0.0
0.191485270858 0.0
0.00334064336494 0.0
-0.0233488529921 0.0
0.0561738982797 0.0
0.0959591418505 0.0
0.112620867789 0.0
-0.0891015604138 0.0209688
0.00557930907235 0.0
0.0049015050754 0.0
-0.00235902238637 0.0
-0.0179160237312 0.0
-0.0092957187444 0.0
-0.00925618503243 0.0
-0.0209678150713 0.0
0.00424077408388 0.0
-0.00480513926595 0.0
0.00828248355538 0.0
0.00347127113491 0.0
-0.00178289355244 0.0
0.0146737024188 0.0
0.00475029088557 0.0
0.00203134771436 0.0
-0.00117355945986 0.0
-0.00717682996765 0.0
0.00237001897767 0.0
-0.0140892583877 0.0
-0.0158869605511 0.0
0.00239180680364 0.0
-0.00213181669824 0.0
-0.00829761009663 0.0
-0.0183042604476 0.0
0.0051281307824 0.0
-0.00656209327281 0.0
-0.0150347612798 0.0
-0.0129339993 0.0
-0.00352293113247 0.0
-0.00382514880039 0.0
-0.00900058448315 0.0
-0.0023454434704 -7.992e-07
0.187579795718 0.0
0.370876729488 0.0
-0.180619925261 0.0
-0.0648968592286 0.0
-0.0221618749201 0.0
-0.0298135951161 0.0
0.454519897699 0.0
-0.0567655079067 0.0
0.00901594012976 0.0
0.259322404861 0.0
0.0345049761236 0.0
0.250132590532 0.0
0.211806893349 0.0
0.0379671566188 0.0
0.0875281915069 0.0
0.0516563281417 0.0
0.0701133310795 0.0
0.315906941891 0.0
0.0458422154188 0.0
0.183453902602 0.0
-0.0526730306447 0.0
-0.0021814010106 0.0
0.325226843357 0.0
0.270153909922 0.0
0.034105271101 0.0
-0.0959733426571 0.0
0.0018096746644 0.0
0.0483970418572 0.0
-0.0431792810559 0.0
-0.032604906708 0.0
-0.00477829575539 0.0
0.337657034397 0.184167
-0.0582832954824 0.0
-0.166927471757 0.0
0.340987443924 0.0
0.248620167375 0.0
0.112785123289 0.0
0.0636692196131 0.0
-0.196693047881 0.0
0.0932159274817 0.0
0.118628911674 0.0
-0.0775434747338 0.0
0.0775310322642 0.0
-0.138135746121 0.0
-0.110904589295 0.0
0.0927225872874 0.0
0.0656950846314 0.0
0.087852999568 0.0
0.120004765689 0.0
-0.120844557881 0.0
0.0246317200363 0.0
-0.0426499061286 0.0
0.0644292011857 0.0
0.0546760223806 0.0
-0.07745654881 0.0
-0.0932092517614 0.0
0.127295643091 0.0
0.280478149652 0.0
0.00913233309984 0.0
-0.0185925588012 0.0
0.102343738079 0.0
0.130965918303 0.0
0.149058356881 0.0
-0.167006924748 0.0227903
-0.0139525001869 0.0
-0.0505152568221 0.0
0.0770863443613 0.0
0.0627895966172 0.0
0.0196726769209 0.0
-0.00752856209874 0.0
-0.0437162481248 0.0
0.0232170019299 0.0
0.0220939535648 0.0
0.000979973818175 0.0
0.0196429528296 0.0
-0.0279145538807 0.0
-0.0249877292663 0.0
0.0248355735093 0.0
0.0244347676635 0.0
0.0131978653371 0.0
0.033574026078 0.0
-0.0493008941412 0.0
0.0120755666867 0.0
-0.00447465572506 0.0
0.0323855280876 0.0
0.0171087533236 0.0
-0.0199021939188 0.0
-0.0339410752058 0.0
0.0147967059165 0.0
0.0644125193357 0.0
0.00957995839417 0.0
-0.0177174974233 0.0
0.0209899414331 0.0
0.0502537861466 0.0
0.0429760292172 0.0
-0.0375501140952 0.0170659
-0.0938242971897 0.0
-0.193602114916 0.0
0.424371242523 0.0
0.315856486559 0.0
0.152084112167 0.0
0.0903760418296 0.0
-0.254035323858 0.0
0.0973231717944 0.0
0.134292796254 0.0
-0.101346425712 0.0
0.102698177099 0.0
-0.173118144274 0.0
-0.125668644905 0.0
0.115434989333 0.0
0.0809224024415 0.0
0.104302734137 0.0
0.142961606383 0.0
-0.160469174385 0.0
0.038751643151 0.0
-0.0424750447273 0.0
0.109173662961 0.0
0.0672996342182 0.0
-0.0980624780059 0.0
-0.109002798796 0.0
0.128571763635 0.0
0.339780300856 0.0
0.0439325906336 0.0
-0.0444004274905 0.0
0.136518478394 0.0
0.197405681014 0.0
0.210476085544 0.0
-0.213898852468 0.0396299
-0.139461040497 0.0
-0.3033182621 0.0
0.607927441597 0.0
0.46701285243 0.0
0.209297686815 0.0
0.100640006363 0.0
-0.373257815838 0.0
0.172586649656 0.0
0.224959239364 0.0
-0.127205714583 0.0
0.145262077451 0.0
-0.245796605945 0.0
-0.194657534361 0.0
0.179887622595 0.0
0.135094404221 0.0
0.175839245319 0.0
0.215869694948 0.0
-0.239170759916 0.0
0.0300330221653 0.0
-0.0718737766147 0.0
0.158111363649 0.0
0.0800470337272 0.0
-0.148045644164 0.0
-0.162735134363 0.0
0.208775803447 0.0
0.514998555183 0.0
0.0562908947468 0.0
-0.0500608272851 0.0
0.159587651491 0.0
0.249126881361 0.0
0.294896602631 0.0
-0.301506340504 0.0487812
-0.003494549077 0.0
-0.00213117408566 0.0
0.00469515752047 0.0
0.00806424580514 0.0
-0.00174604926724 0.0
0.00924183242023 0.0
0.014141750522 0.0
0.00287644495256 0.0
0.00223306613043 0.0
0.00740424869582 0.0
-0.00367656187154 0.0
-0.00390329351649 0.0
0.0173964705318 0.0
-0.0156482513994 0.0
0.00824369676411 0.0
0.000859622843564 0.0
0.00803585350513 0.0
0.0145768821239 0.0
-0.0131010515615 0.0
-0.0243676155806 0.0
0.002637676429 0.0
-0.00543899089098 0.0
0.0171980857849 0.0
0.00857959967107 0.0
0.0158096849918 0.0
0.00617771502584 0.0
-0.0137085197493 0.0
0.0119704697281 0.0
0.000945488922298 0.0
0.00350017636083 0.0
0.00226675532758 0.0
0.00849199853837 0.00970691
-0.0181222800165 0.0
-0.0116083174944 0.0
0.0386269576848 0.0
0.0193612668663 0.0
0.0358276329935 0.0
0.0102272378281 0.0
-0.0101390480995 0.0
0.0208332333714 0.0
-0.00199179234914 0.0
-0.0221374034882 0.0
0.0105547355488 0.0
0.00163322407752 0.0
-0.000918936915696 0.0
0.00759649649262 0.0
0.00850518606603 0.0
0.0231650806963 0.0
0.0108152851462 0.0
-0.00227597169578 0.0
0.00229317089543 0.0
-0.0147252837196 0.0
0.0226243603975 0.0
0.00963971856982 0.0
-0.00934979878366 0.0
-0.0143879186362 0.0
0.00163102138322 0.0
0.0214547626674 0.0
-0.00243170419708 0.0
0.00756864110008 0.0
0.013948767446 0.0
0.000125402002595 0.0
0.0256574619561 0.0
-0.0206367075443 0.000333083
-0.00282490160316 0.0
0.000476283603348 0.0
-0.0125674074516 0.0
0.00133288244251 0.0
-0.00981128308922 0.0
-0.00343148689717 0.0
0.00369766750373 0.0
0.00253772968426 0.0
-0.000907544163056 0.0
0.00235832831822 0.0
-0.00675872061402 0.0
-0.0137008093297 0.0
-0.013619045727 0.0
0.0110304243863 0.0
0.0140359019861 0.0
0.00148141919635 0.0
0.00585674820468 0.0
0.00365410652012 0.0
0.0151947569102 0.0
0.0160051491112 0.0
-0.0072863753885 0.0
-0.00580147327855 0.0
-0.00423093046993 0.0
-0.0022627285216 0.0
0.00428000744432 0.0
-0.00730460835621 0.0
0.00600807927549 0.0
0.0032001377549 0.0
-0.00694500934333 0.0
-0.00933115370572 0.0
-0.00107098987792 0.0
-0.000394744070945 -0.00129316
0.0100943436846 0.0
-0.00227412534878 0.0
0.00117702747229 0.0
-0.003290069988 0.0
-0.0111314021051 0.0
0.00733260670677 0.0
0.00902343355119 0.0
-0.00295516522601 0.0
-0.00409130332991 0.0
-0.00106107012834 0.0
0.00231258757412 0.0
0.0127794444561 0.0
-0.00444318959489 0.0
-0.00194631470367 0.0
-0.0186107140034 0.0
-0.00756198633462 0.0
-0.0142597565427 0.0
0.0118737919256 0.0
-0.00174113037065 0.0
-0.00595553778112 0.0
-0.0175922363997 0.0
-0.0258817113936 0.0
-0.00899170804769 0.0
-0.00730738043785 0.0
-0.00774788903072 0.0
0.00316790863872 0.0
-0.00725832069293 0.0
-0.0131473820657 0.0
-0.0026524271816 0.0
-0.000786923163105 0.0
0.0101749412715 0.0
0.00588059518486 -3.16048e-05
0.00159490492661 0.0
-0.0053274622187 0.0
-0.00228733150288 0.0
-0.00211108732037 0.0
0.00127651309595 0.0
-0.00362404040061 0.0
0.00565024185926 0.0
-0.000648737710435 0.0
0.0133292200044 0.0
-0.00117292569485 0.0
0.00182545464486 0.0
-0.00472398521379 0.0
-0.005543241743 0.0
0.0139899710193 0.0
0.00173245836049 0.0
-0.0147535782307 0.0
-0.0152172688395 0.0
-0.00525863980874 0.0
0.0173782035708 0.0
-0.00619600480422 0.0
-0.00434573739767 0.0
-0.00800453778356 0.0
0.00454659108073 0.0
-0.0062389425002 0.0
-0.0302917193621 0.0
0.00677694426849 0.0
-0.00217412295751 0.0
0.0117705557495 0.0
-0.000520680972841 0.0
0.00153123692144 0.0
-0.000356783944881 0.0
0.00651186704636 -0.000857931
-0.0798717364669 0.0
-0.176849812269 0.0
0.388059049845 0.0
0.304420590401 0.0
0.149581775069 0.0
0.0676005259156 0.0
-0.229537427425 0.0
0.11894351244 0.0
0.128365233541 0.0
-0.0973161682487 0.0
0.0981565341353 0.0
-0.145511060953 0.0
-0.1234729141 0.0
0.115531004965 0.0
0.0867241546512 0.0
0.112950287759 0.0
0.120656974614 0.0
-0.148080274463 0.0
0.0294907595962 0.0
-0.0403394363821 0.0
0.0867382511497 0.0
0.0632207766175 0.0
-0.084858328104 0.0
-0.120861567557 0.0
0.124313190579 0.0
0.325609713793 0.0
0.0265238340944 0.0
-0.0241915881634 0.0
0.111007474363 0.0
0.159115210176 0.0
0.18225504458 0.0
-0.202387094498 0.033683
-0.109709113836 0.0
-0.272735893726 0.0
0.535288691521 0.0
0.440639913082 0.0
0.18233731389 0.0
0.106794930995 0.0
-0.32168596983 0.0
0.156209930778 0.0
0.193780779839 0.0
-0.116347372532 0.0
0.137638181448 0.0
-0.203151479363 0.0
-0.157194942236 0.0
0.148638993502 0.0
0.136511847377 0.0
0.168898820877 0.0
0.184252470732 0.0
-0.219404861331 0.0
0.0354370288551 0.0
-0.0682385936379 0.0
0.133722379804 0.0
0.0793194621801 0.0
-0.14433516562 0.0
-0.167653024197 0.0
0.179840892553 0.0
0.455603957176 0.0
0.0284352283925 0.0
-0.0543732605875 0.0
0.163886427879 0.0
0.229566469789 0.0
0.260051548481 0.0
-0.275885611773 0.0535243
-0.0327741056681 0.0
-0.0859799832106 0.0
0.165664613247 0.0
0.145297884941 0.0
0.053929451853 0.0
0.0311308261007 0.0
-0.101165339351 0.0
0.0696909204125 0.0
0.0561687126756 0.0
-0.0408317185938 0.0
0.0421998240054 0.0
-0.0725567266345 0.0
-0.0589375197887 0.0
0.0494147725403 0.0
0.0373792387545 0.0
0.0435381494462 0.0
0.0633589178324 0.0
-0.0573343336582 0.0
0.00587977189571 0.0
-0.0206756759435 0.0
0.0602723173797 0.0
0.0403043888509 0.0
-0.0444678664207 0.0
-0.0345691181719 0.0
0.0637676045299 0.0
0.135914131999 0.0
0.0113158952445 0.0
-0.0102623933926 0.0
0.0528390035033 0.0
0.0801977962255 0.0
0.076071433723 0.0
-0.064644984901 0.00586038
-0.00810413621366 0.0
-0.000592505850364 0.0
0.00265891384333 0.0
-0.0193941816688 0.0
0.0028956795577 0.0
-0.000396707036998 0.0
0.00401422334835 0.0
-0.00126822281163 0.0
0.0052765016444 0.0
0.00011566811736 0.0
-0.00107025541365 0.0
-0.00483749434352 0.0
0.00553164025769 0.0
-0.00594058725983 0.0
-0.0161407887936 0.0
-0.0126944407821 0.0
0.00215531163849 0.0
-0.00232044537552 0.0
-0.0062469127588 0.0
-0.000147924220073 0.0
0.0187302902341 0.0
-0.0108452504501 0.0
-0.0119982277974 0.0
-0.000155461457325 0.0
0.00157913099974 0.0
-0.0161163005978 0.0
-0.0132592627779 0.0
-0.00376997841522 0.0
0.00683763530105 0.0
0.00667079631239 0.0
0.0119352564216 0.0
-0.00913031119853 -6.74793e-06
-0.0293902438134 0.0
-0.0533565171063 0.0
0.106358520687 0.0
0.0887663289905 0.0
0.0406706668437 0.0
0.0282435826957 0.0
-0.0610268861055 0.0
0.0430121123791 0.0
0.0242240671068 0.0
-0.0108616007492 0.0
0.0321585983038 0.0
-0.030559707433 0.0
-0.0306544974446 0.0
0.0445210300386 0.0
0.0299574248493 0.0
0.0351011827588 0.0
0.0274316165596 0.0
-0.0377582870424 0.0
0.00620650500059 0.0
0.00136144063435 0.0
0.0294127780944 0.0
0.0171970240772 0.0
-0.0379039123654 0.0
-0.0373842045665 0.0
0.0401118174195 0.0
0.100667431951 0.0
0.0100261755288 0.0
-0.0151171209291 0.0
0.0556116141379 0.0
0.0574621148407 0.0
0.022721324116 0.0
-0.0648375228047 0.0054476
-0.0211568791419 0.0
-0.0748078301549 0.0
0.136251837015 0.0
0.106730028987 0.0
0.0343751497567 0.0
0.0201782509685 0.0
-0.0659705102444 0.0
0.0367007888854 0.0
0.0458829477429 0.0
-0.0433855727315 0.0
0.0363279543817 0.0
-0.0636235699058 0.0
-0.0435273423791 0.0
0.0388927161694 0.0
0.0247329548001 0.0
0.0439346320927 0.0
0.0466146580875 0.0
-0.0378761701286 0.0
0.0120615093037 0.0
-0.00909243803471 0.0
0.0351631939411 0.0
0.0236796569079 0.0
-0.0439158566296 0.0
-0.0577303096652 0.0
0.0531541220844 0.0
0.135036289692 0.0
0.01073196996 0.0
-0.00196810159832 0.0
0.040996786207 0.0
0.043183721602 0.0
0.0635337084532 0.0
-0.0633386895061 0.0111246
-0.00261462526396 0.0
-0.00188730249647 0.0
-0.00970618054271 0.0
0.00109773280565 0.0
0.00658888136968 0.0
-0.0035200251732 0.0
0.00675919651985 0.0
-0.00219981279224 0.0
0.00411712145433 0.0
0.0219489615411 0.0
-0.000708172447048 0.0
-0.0150987682864 0.0
-0.000902995641809 0.0
0.00223718723282 0.0
-0.0193258915097 0.0
-0.0105473659933 0.0
0.00186193082482 0.0
0.00838641822338 0.0
-0.0154279014096 0.0
0.00686228182167 0.0
0.000663492595777 0.0
-0.00092941679759 0.0
0.00825281720608 0.0
-0.00149020296521 0.0
-0.00181511999108 0.0
0.00931152328849 0.0
0.0137332854792 0.0
-0.0158064477146 0.0
-0.0134617285803 0.0
0.00482363207266 0.0
-0.0116805378348 0.0
-0.014493633993 -0.000258594
0.0484582670033 0.0
0.0755996704102 0.0
0.0197958741337 0.0
0.0484588555992 0.0
0.0294345207512 0.0
0.00544457510114 0.0
0.0899863317609 0.0
0.00675701024011 0.0
0.0190184228122 0.0
0.0565674714744 0.0
0.0318065956235 0.0
0.050162229687 0.0
0.0697602033615 0.0
0.0260716788471 0.0
0.0471363253891 0.0
0.0404718630016 0.0
0.0637200549245 0.0
0.0790282338858 0.0
0.012591233477 0.0
0.0416555628181 0.0
0.0165444295853 0.0
0.00615889811888 0.0
0.0791659206152 0.0
0.0796960368752 0.0
0.0361542440951 0.0
0.0338425971568 0.0
0.00826368574053 0.0
0.0111639387906 0.0
0.0167266577482 0.0
0.0217222012579 0.0
0.0331656709313 0.0
0.0537904016674 0.0593827
-0.00446654856205 0.0
-0.0235785208642 0.0
0.0398069210351 0.0
0.0371646173298 0.0
0.0112954769284 0.0
0.0145040182397 0.0
-0.0343099348247 0.0
0.00624744780362 0.0
0.0175801534206 0.0
-0.0156455617398 0.0
0.00942428596318 0.0
-0.00309102283791 0.0
-0.0127140041441 0.0
0.00167073018383 0.0
0.0019424604252 0.0
0.0150606501848 0.0
0.0171738937497 0.0
-0.0130345094949 0.0
-0.000637899909634 0.0
0.000382889411412 0.0
0.0192800443619 0.0
-0.00181818858255 0.0
-0.0147284502164 0.0
0.000243758709985 0.0
0.0194867625833 0.0
0.0324747487903 0.0
0.0185574050993 0.0
0.000392594258301 0.0
0.00213504186831 0.0
0.0243430268019 0.0
0.00409365864471 0.0
-0.0286105368286 0.0149622
-0.00673685921356 0.0
0.00135450530797 0.0
-0.0105318110436 0.0
0.00308314641006 0.0
-0.0112154334784 0.0
-0.0103861326352 0.0
0.0040118470788 0.0
0.00575149757788 0.0
0.00840283278376 0.0
-0.00729563040659 0.0
-0.00939203146845 0.0
-0.0160792265087 0.0
0.0011743940413 0.0
-0.0220748446882 0.0
0.00669350335374 0.0
-0.00276407040656 0.0
0.0102928271517 0.0
-0.00405566347763 0.0
-0.000546202354599 0.0
0.00793325249106 0.0
0.00447325175628 0.0
-0.00962107256055 0.0
-0.0191601477563 0.0
-0.00490668788552 0.0
-0.00634237425402 0.0
0.00952938012779 0.0
-0.00722957588732 0.0
-0.0049150227569 0.0
0.00426183454692 0.0
0.00206111930311 0.0
-0.00204998441041 0.0
0.0219622887671 -0.000490067
0.1307336092 0.0
0.239576905966 0.0
-0.103941984475 0.0
-0.0410067513585 0.0
0.00328271882609 0.0
-0.0168916005641 0.0
0.293713033199 0.0
-0.0340418145061 0.0
0.0374032706022 0.0
0.153333500028 0.0
0.0382718667388 0.0
0.15971493721 0.0
0.148831382394 0.0
0.014162613079 0.0
0.0805765166879 0.0
0.0540714785457 0.0
0.0490152239799 0.0
0.21143758297 0.0
0.0459649600089 0.0
0.117405466735 0.0
-0.0317838080227 0.0
-0.000262835528702 0.0
0.20310755074 0.0
0.170035347342 0.0
0.020083591342 0.0
-0.0363220274448 0.0
-0.000612678762991 0.0
0.0255611278117 0.0
-0.0323355868459 0.0
-0.0183349493891 0.0
-0.00225523929112 0.0
0.218388527632 0.118997
-0.000167923572008 0.0
0.00227227783762 0.0
-0.00966447312385 0.0
-0.00569624546915 0.0
-0.010139846243 0.0
0.00697210105136 0.0
-0.00198051822372 0.0
-0.00377017771825 0.0
-0.015028834343 0.0
-0.0197102278471 0.0
0.00191477057524 0.0
-0.00197012210265 0.0
-0.000584909284953 0.0
-0.0124644087628 0.0
-0.000765099364799 0.0
-0.0137020768598 0.0
0.0145499473438 0.0
0.00372035172768 0.0
0.000603173859417 0.0
0.00750285340473 0.0
0.000650204659905 0.0
0.00170798948966 0.0
-0.00292028672993 0.0
0.00250651547685 0.0
-0.0031861870084 0.0
-0.00772120943293 0.0
0.0123064136133 0.0
0.00487102707848 0.0
0.00958383642137 0.0
-0.0119555406272 0.0
0.000988095765933 0.0
0.0187076907605 0.000532523
0.0024576887954 0.0
-0.00189757649787 0.0
-0.0105495462194 0.0
0.0125300232321 0.0
-0.00352383940481 0.0
-0.0153509415686 0.0
-0.00230717891827 0.0
-0.0132898446172 0.0
0.0101190516725 0.0
0.00509663205594 0.0
-0.0170653685927 0.0
-0.0190291386098 0.0
0.0100584011525 0.0
0.00341883278452 0.0
0.00108610687312 0.0
0.00802150648087 0.0
-0.00437930272892 0.0
-0.00823722034693 0.0
-0.0100490776822 0.0
-0.00413254927844 0.0
0.0108783589676 0.0
0.0108890952542 0.0
-0.00498625356704 0.0
0.0074302428402 0.0
0.00959209632128 0.0
-0.0262200068682 0.0
-0.00999062415212 0.0
-0.00649543106556 0.0
-0.0112777911127 0.0
0.0087764961645 0.0
-0.00286773545668 0.0
-0.0069041592069 -0.000340832
-0.0456097535789 0.0
-0.076945617795 0.0
0.14417104423 0.0
0.12283102423 0.0
0.0566598363221 0.0
-0.00114041543566 0.0
-0.091613702476 0.0
0.0376323834062 0.0
0.0531093478203 0.0
-0.0414869263768 0.0
0.0497334748507 0.0
-0.0647521540523 0.0
-0.0561249293387 0.0
0.0326711982489 0.0
0.0275758039206 0.0
0.0245498139411 0.0
0.0443299300969 0.0
-0.0617552660406 0.0
0.0100174490362 0.0
-0.0147411478683 0.0
0.0382634997368 0.0
0.0213344097137 0.0
-0.0300691574812 0.0
-0.0570085905492 0.0
0.0468730218709 0.0
0.152877926826 0.0
0.00232329871505 0.0
-0.0103387637064 0.0
0.0521999001503 0.0
0.0730423480272 0.0
0.0789099857211 0.0
-0.071687027812 0.0120823
-0.00153717992362 0.0
-0.00454007321969 0.0
0.0033269119449 0.0
-0.0211665071547 0.0
-0.0104746129364 0.0
0.00192042975686 0.0
-0.00253749173135 0.0
-0.0157335996628 0.0
-0.000286712340312 0.0
-0.00945022981614 0.0
-0.00255595427006 0.0
0.00305505422875 0.0
-0.00484038330615 0.0
-0.00384538108483 0.0
-0.00308476830833 0.0
-0.00439086463302 0.0
0.00335121108219 0.0
0.00830343738198 0.0
0.00404569040984 0.0
-0.00942770391703 0.0
0.0212862715125 0.0
-0.00890766642988 0.0
0.00764239765704 0.0
0.00272035598755 0.0
0.00300249271095 0.0
-0.0193377379328 0.0
-0.0197026953101 0.0
-0.00531058711931 0.0
-0.00586695177481 0.0
-0.00675975298509 0.0
-0.00732905277982 0.0
0.00250230287202 -0.000142734
-0.00235320045613 0.0
-0.0201693587005 0.0
-0.0217939279974 0.0
0.013969598338 0.0
0.00757828587666 0.0
-0.0107609853148 0.0
-0.00402826769277 0.0
0.00567892752588 0.0
0.00274072028697 0.0
-0.00676422053948 0.0
-0.00271097011864 0.0
-0.00468774419278 0.0
0.00622619548813 0.0
0.00611697789282 0.0
-0.0106840897352 0.0
-0.0111814578995 0.0
-0.0106302425265 0.0
0.0120268408209 0.0
0.00447004986927 0.0
-0.00478572258726 0.0
0.0200711786747 0.0
-0.00842356868088 0.0
-0.010538992472 0.0
0.010676195845 0.0
-9.71904955804e-05 0.0
-0.00757563533261 0.0
0.0152558712289 0.0
0.0173767358065 0.0
-0.0171904210001 0.0
0.00371948280372 0.0
0.00699761789292 0.0
-0.00320258550346 -0.00435841
0.00597337819636 0.0
-0.0133182723075 0.0
-0.0108201224357 0.0
-0.0152241690084 0.0
0.00598141131923 0.0
-0.00573383131996 0.0
-0.000139270850923 0.0
-0.0107426969334 0.0
0.00137214933056 0.0
0.00324161048047 0.0
-0.0164079517126 0.0
-0.0104622561485 0.0
0.0136867118999 0.0
0.00195821747184 0.0
-4.74690841656e-06 0.0
-0.0202387925237 0.0
0.00412007560953 0.0
0.0029103748966 0.0
-0.0094401370734 0.0
-0.00907599553466 0.0
-0.0152421360835 0.0
0.00116797920782 0.0
0.00256305001676 0.0
-0.0151608176529 0.0
-0.0121159479022 0.0
-0.000114880189358 0.0
0.0089712375775 0.0
0.0103108519688 0.0
0.00220303423703 0.0
-0.00476972106844 0.0
-0.00350287440233 0.0
-0.0125300139189 -3.42928e-06
0.0131952939555 0.0
-0.0147089362144 0.0
-0.00461731944233 0.0
-0.0255549158901 0.0
0.0132694365457 0.0
-0.00558013329282 0.0
0.0101920831949 0.0
0.00892157573253 0.0
0.0266335755587 0.0
-0.00893010478467 0.0
-0.0186365060508 0.0
0.0128536103293 0.0
-0.00732076587155 0.0
0.0150763085112 0.0
0.00390347698703 0.0
0.011369632557 0.0
-0.00847195461392 0.0
-0.0036134107504 0.0
-0.00269744428806 0.0
-0.0128329424188 0.0
-0.00801736023277 0.0
0.00240041851066 0.0
-0.00608149124309 0.0
-0.00189984252211 0.0
-0.0154214939103 0.0
-0.00543326372281 0.0
-0.0026112976484 0.0
0.00846289843321 0.0
-0.00516673317179 0.0
-0.0128652779385 0.0
-0.00582983903587 0.0
-0.0123560363427 0.000236205
-0.0412135645747 0.0
-0.121320299804 0.0
0.220323115587 0.0
0.157031416893 0.0
0.0708512365818 0.0
0.037466596812 0.0
-0.133760124445 0.0
0.0465384200215 0.0
0.0785692557693 0.0
-0.0392893962562 0.0
0.0623785369098 0.0
-0.0904767289758 0.0
-0.0678577050567 0.0
0.0752632841468 0.0
0.0523780249059 0.0
0.0727913081646 0.0
0.0708230957389 0.0
-0.0765929818153 0.0
0.0318335331976 0.0
-0.0175888128579 0.0
0.0798966959119 0.0
0.0362679846585 0.0
-0.0670779123902 0.0
-0.0468393228948 0.0
0.0592797845602 0.0
0.192185476422 0.0
0.0116183487698 0.0
-0.0147132603452 0.0
0.0730460211635 0.0
0.0728353783488 0.0
0.104547418654 0.0
-0.100568205118 0.0114435
-0.0327441655099 0.0
-0.10014166683 0.0
0.205848738551 0.0
0.159572258592 0.0
0.0716558694839 0.0
0.0394362695515 0.0
-0.123743444681 0.0
0.0597364678979 0.0
0.0651177242398 0.0
-0.0483266375959 0.0
0.0514113754034 0.0
-0.0790275260806 0.0
-0.0733307898045 0.0
0.0528529249132 0.0
0.0675581991673 0.0
0.0596967115998 0.0
0.0805204808712 0.0
-0.0736594349146 0.0
0.0274766124785 0.0
-0.0174345746636 0.0
0.0562928020954 0.0
0.0392957143486 0.0
-0.0655715614557 0.0
-0.0592531487346 0.0
0.0790785104036 0.0
0.157365232706 0.0
0.0108829261735 0.0
-0.0211081970483 0.0
0.0691374093294 0.0
0.0912113189697 0.0
0.102286942303 0.0
-0.108477979898 0.016753
-0.0180449411273 0.0
-0.0532624050975 0.0
0.0889023393393 0.0
0.0633653923869 0.0
0.0360802933574 0.0
0.0110287517309 0.0
-0.0597067177296 0.0
0.0272506270558 0.0
0.0321695208549 0.0
0.00436104927212 0.0
0.0364830084145 0.0
-0.0367254018784 0.0
-0.0343566834927 0.0
0.0443500690162 0.0
0.0386978052557 0.0
0.0159869138151 0.0
0.0425670892 0.0
-0.0420225262642 0.0
0.00374251417816 0.0
-0.0206558350474 0.0
0.024790873751 0.0
-0.000938933342695 0.0
-0.00907560903579 0.0
-0.0286863539368 0.0
0.0380395911634 0.0
0.0639167353511 0.0
0.0132117876783 0.0
-0.00365109788254 0.0
0.0347457081079 0.0
0.0378305874765 0.0
0.0365675613284 0.0
-0.0565957911313 0.00662647
0.0811822935939 0.0
0.126566812396 0.0
-0.0566883087158 0.0
-0.0376641303301 0.0
0.00670298980549 0.0
-0.0124464873224 0.0
0.180759102106 0.0
-0.00939993653446 0.0
0.0249979197979 0.0
0.111298084259 0.0
0.023185826838 0.0
0.116774700582 0.0
0.0917079970241 0.0
0.00803996156901 0.0
0.0570425353944 0.0
0.0234610456973 0.0
0.0233530718833 0.0
0.145496845245 0.0
0.0204860679805 0.0
0.0638787671924 0.0
-0.00807195343077 0.0
-0.00415975460783 0.0
0.119258455932 0.0
0.119797095656 0.0
0.0238524992019 0.0
-0.0126732606441 0.0
0.00379963917658 0.0
-0.00212200800888 0.0
-0.0255311373621 0.0
-0.0231617838144 0.0
0.00913933105767 0.0
0.133302405477 0.0732046
0.00356508325785 0.0
-0.0084720198065 0.0
-0.00149575795513 0.0
0.00428998749703 0.0
-0.0236900262535 0.0
-0.0131710739806 0.0
-0.00409773504362 0.0
-0.0101523138583 0.0
0.0217216070741 0.0
-0.00526694767177 0.0
-0.018868971616 0.0
-0.00145514961332 0.0
0.000818045635242 0.0
-0.00253501231782 0.0
0.00430659763515 0.0
0.0051479996182 0.0
0.00395510159433 0.0
-0.00257263169624 0.0
-0.00568684469908 0.0
0.000151574015035 0.0
0.00953850336373 0.0
-0.0109219979495 0.0
0.0015362490667 0.0
-0.000188069781871 0.0
-0.00726471748203 0.0
-0.00613658968359 0.0
0.0121402507648 0.0
0.012926954776 0.0
0.00216709729284 0.0
0.00502933422104 0.0
0.00541049707681 0.0
-0.00806938111782 -0.00122315
0.131475239992 0.0
0.213033795357 0.0
-0.0945463404059 0.0
-0.00769584393129 0.0
0.00532617792487 0.0
-0.028209220618 0.0
0.262018233538 0.0
-0.0302183832973 0.0
0.0147115048021 0.0
0.14784039557 0.0
0.0207882374525 0.0
0.154647290707 0.0
0.128093212843 0.0
0.0309377722442 0.0
0.0682517066598 0.0
0.0299591831863 0.0
0.0682935938239 0.0
0.192059099674 0.0
0.030981272459 0.0
0.107908695936 0.0
-0.032683186233 0.0
-0.00905700307339 0.0
0.194065615535 0.0
0.185794964433 0.0
0.0281521920115 0.0
-0.0218679644167 0.0
0.01357128378 0.0
0.0324819982052 0.0
-0.00953664071858 0.0
-1.13236010293e-05 0.0
0.0134259639308 0.0
0.195337623358 0.112393
0.0290600322187 0.0
0.00818276870996 0.0
-0.0154246846214 0.0
-0.00326116476208 0.0
-0.00263892137446 0.0
0.00536248181015 0.0
0.0129513572901 0.0
0.0109524736181 0.0
-0.00167014019098 0.0
0.0134953595698 0.0
-0.00760233169422 0.0
0.0167025271803 0.0
0.000552241748665 0.0
-0.00769565999508 0.0
0.0090471431613 0.0
-0.00293856183998 0.0
0.0113821178675 0.0
0.0407665334642 0.0
-0.00927715282887 0.0
0.00242222496308 0.0
0.0090843886137 0.0
-0.00865567103028 0.0
0.0120118437335 0.0
0.0261889062822 0.0
-0.00587937608361 0.0
-0.0214440226555 0.0
0.00186880282126 0.0
-0.00346349552274 0.0
0.0037354209926 0.0
-0.0165446810424 0.0
-0.0107425106689 0.0
0.0201299265027 0.0058034
