convolution,  3 1
0.0426699258387 0.0926447883248 0.0731615200639 0.0630863830447 -0.132698237896 0.132187023759 -0.0436973385513 0.00967229995877 0.104553118348 0.0
-0.0642119720578 -0.26673784852 -0.261060118675 -0.0709032863379 -0.468309819698 -0.083722345531 -0.14361359179 -0.288891732693 -0.102749399841 0.0
0.0279450844973 -0.0666755214334 -0.0365254543722 0.0390530005097 -0.097859069705 0.0910359099507 0.12162476033 -0.0300529003143 0.123356036842 0.0
-0.124312415719 -0.173105984926 0.114380948246 -0.177777901292 0.0773629322648 0.186604097486 -0.0780508890748 0.234760910273 0.349528074265 0.0
-0.1797555089 -0.338014215231 -0.101391211152 -0.190725743771 -0.323690950871 -0.109288014472 -0.0439926609397 -0.21060743928 -0.14113985002 0.0
0.0375897660851 0.0936468169093 -0.0178928151727 0.0683239325881 -0.0405666343868 0.131327778101 -0.0034484420903 -0.0817568227649 0.08389313519 0.0
-0.0958483219147 -0.0366426259279 -0.0557033270597 -0.122295074165 0.000506750366185 -0.0257907565683 0.0784805044532 0.0362761877477 0.127083733678 0.0
0.0500360131264 -0.0517412722111 0.111986458302 0.106566533446 -0.0617217794061 0.00381579808891 -0.00349875818938 -0.0915345922112 0.0984813421965 0.0
-0.274654000998 -0.217626675963 0.0196383930743 -0.170668452978 -0.0854532644153 0.135477721691 -0.0231124144047 0.138450011611 0.117455601692 0.0
-0.296248078346 0.230256676674 0.199927389622 0.0438862107694 0.491109251976 0.342254638672 0.188908278942 0.268426150084 0.0434242747724 0.0
0.172011643648 0.0736105144024 0.0955631732941 0.17414188385 0.0852770805359 -0.0912007167935 -0.0233417265117 -0.0525516271591 0.0319779142737 0.0
-0.0597537904978 -0.000411973131122 -0.0356963612139 0.15637730062 0.126171827316 -0.129830777645 0.188203766942 -0.0174237620085 -0.00591486645862 0.0
0.162850350142 0.195900514722 0.105762302876 -0.0363652892411 0.161064133048 -0.106860294938 -0.0425873100758 0.127009630203 0.121413812041 0.0
0.201412558556 0.108006462455 0.186737030745 0.293609261513 0.158172607422 0.210103660822 0.373332798481 0.264111667871 -0.079933218658 0.0
0.183513075113 0.210918411613 0.0631396323442 0.196128815413 0.0643677562475 0.0559148006141 0.000692141300533 0.000151704240125 -0.0373411774635 0.0
0.114746391773 -0.0133710457012 -0.00615290738642 0.042549546808 0.0137263303623 0.0496602207422 0.0343300364912 0.0324163213372 0.139447450638 -0.245799
0.103836469352 -0.0846616923809 -0.074519969523 0.0522281862795 0.00576165970415 0.0754834786057 0.0302854776382 -0.0706694796681 -0.103197999299 0.0
-0.0186763349921 0.0342169590294 -0.00964881572872 -0.127650752664 -0.0538031198084 -0.219987869263 -0.0388546288013 0.161754578352 0.121194779873 0.0
0.0642051771283 0.129743024707 -0.0134007008746 0.127254083753 0.0719736367464 -0.04386100173 0.0174733549356 -0.111436419189 0.0847874507308 0.0
0.155359297991 -0.0101473582909 0.129197761416 -0.0183152668178 -0.0026014612522 -0.0284776873887 -0.175398781896 -0.0278384443372 0.0191331859678 0.0
-0.0583292208612 -0.078462921083 0.0347003675997 -0.158426553011 -0.0181240756065 0.00560448784381 -0.0317707955837 0.141708493233 -0.11154743284 0.0
-0.0491156578064 -0.0837550014257 0.151784583926 0.0981059446931 -0.210721001029 0.152360990644 0.0861729085445 -0.00655749253929 0.202450782061 0.0
0.00094792136224 0.0134903155267 0.110818780959 -0.0526355840266 -0.0739032998681 -0.0448715128005 0.106729634106 -0.00846592523158 -0.0221610851586 0.0
0.143058985472 -0.0045375446789 0.133974701166 0.0391039922833 -0.137864142656 0.118507660925 -0.0143799642101 -0.143550127745 0.184827849269 0.0
0.0310355238616 0.167279884219 0.19528003037 -0.0911489725113 -0.136177495122 -0.12536162138 0.179012268782 0.164107367396 0.0496939197183 0.0
0.0501986071467 -0.136190265417 0.042084287852 0.119179613888 -0.130221709609 0.16053070128 -0.0179805457592 -0.214945212007 0.0529269762337 0.0
0.0179896038026 0.0948231890798 -0.0670391693711 -0.155897513032 0.108844473958 -0.164100587368 -0.0440398864448 -0.0349868163466 0.0371266305447 0.0
-0.126122951508 -0.127812460065 -0.0229006186128 -0.0938834622502 -0.00749617256224 0.0590679645538 -0.152922421694 0.0833315625787 -0.0314271077514 0.0
0.0144681483507 -0.0218850933015 -0.0177545603365 0.109776668251 0.233465239406 0.164625287056 0.0352615565062 0.137304395437 0.118083268404 0.0
-0.172917500138 -0.0585076771677 -0.179849386215 -0.120682641864 -0.0572392344475 -0.0948031842709 0.0156168844551 -0.0928270295262 -0.088314846158 0.0
0.0588307827711 -0.118666008115 -0.0900906771421 0.0103591131046 0.0935860276222 -0.17046700418 0.105777442455 0.100494645536 0.018443595618 0.0
0.0178602356464 0.0232330188155 -0.110533379018 0.106339737773 -0.114445619285 0.0318002179265 -0.00191705371253 -0.0594282634556 -0.0243230424821 0.133462
-0.0844303295016 0.0799102932215 0.0616428218782 0.126408368349 0.0566912740469 0.0181254968047 -0.0574159361422 -0.125126793981 -0.0743417143822 0.0
0.105782337487 -0.052494879812 -0.060423668474 0.0433837771416 -0.183186978102 0.0782645717263 0.103621803224 -0.153787702322 0.180593848228 0.0
0.00325199356303 0.0493034608662 0.0669411867857 0.00711036333814 0.0610908716917 -0.0102367661893 0.0656739547849 -0.114607043564 0.130756661296 0.0
-0.237197384238 -0.167207032442 -0.0255983248353 -0.144942954183 0.0090892482549 0.104143686593 -0.0575361065567 -0.0843212530017 0.0607783123851 0.0
0.134064942598 -0.209840804338 -0.0116002522409 0.0114874523133 -0.112020000815 0.0460047982633 -0.0726691633463 0.0766741037369 0.142213925719 0.0
-0.0582251995802 0.0646177604795 0.0152709065005 -0.0567079558969 -0.0423480384052 0.0750284641981 0.0609330460429 0.194843038917 0.174178108573 0.0
0.0532622076571 -0.0556231513619 -0.112759642303 -0.0106830131263 0.0518451742828 0.0586651451886 -0.0752880647779 -0.0524664781988 -0.12033624202 0.0
-0.0273502226919 0.0458441674709 -0.0242205802351 0.0523564964533 0.0942335054278 0.0759453475475 0.160779684782 0.0209668558091 -0.0554378703237 0.0
-0.052869156003 -0.194211661816 -0.111853629351 0.0528072565794 -0.131846547127 0.0245859883726 -0.0566064789891 0.0550987534225 0.14445823431 0.0
-0.105893500149 0.0472522489727 0.0596803054214 0.0363038294017 0.230107411742 0.166227161884 0.153940528631 0.265870451927 0.131531730294 0.0
0.103390231729 -0.101638883352 0.0322953537107 0.103977762163 0.100786373019 -0.0391285121441 -0.129783093929 -0.186883553863 -0.10034622252 0.0
0.0717948675156 -0.0861638560891 -0.0712282285094 -0.0285630766302 -0.158758535981 -0.0593849495053 0.0621867962182 0.106820575893 0.0756352543831 0.0
-0.202617272735 -0.186650186777 -0.110925510526 0.0280361436307 -0.0527603216469 -0.1974157691 -0.259197860956 -0.209138557315 -0.075450502336 0.0
0.0838011130691 0.108580090106 0.205343455076 -0.0736266896129 0.14188246429 0.0821516141295 0.0773657262325 0.0924564003944 0.101520314813 0.0
0.0849754959345 -0.0763064548373 0.0594458803535 0.118530876935 -0.0839525908232 -0.111009150743 -0.140685230494 0.016241190955 0.047361228615 0.0
0.0800064280629 0.056623660028 0.0287048015743 0.0167802330106 0.0135792624205 -0.0856621563435 0.0241533461958 -0.00558448303491 0.0236409064382 0.0185284
-0.112803332508 -0.0267148688436 0.108792662621 -0.0852734446526 0.121461696923 -0.00758771039546 -0.0161644220352 -0.0108083961532 0.0948765799403 0.0
-0.0656274780631 -0.0175489149988 0.0292053874582 -0.0775093510747 -0.0837115645409 0.0319676883519 0.101827591658 0.0962605476379 -0.0878379568458 0.0
-0.00364907132462 -0.00731281377375 -0.124321550131 0.124652072787 0.0792713910341 0.0277977101505 -0.000847723858897 0.000463030126411 -0.106638938189 0.0
0.0679194182158 -0.0739465728402 -0.028163312003 -0.059889242053 -0.0691844522953 -0.0868716537952 -0.0596649609506 -0.034781716764 -0.137657895684 0.0
-0.00304482528009 -0.0688758939505 0.010768304579 -0.0184988398105 0.0859702974558 0.0709050670266 -0.0186511725187 -0.00457617128268 -0.12582577765 0.0
-0.0694790259004 -0.0329346768558 0.0527924075723 0.108315691352 -0.0467754118145 0.108480788767 -0.0978175997734 0.105993710458 -0.0260707158595 0.0
0.0977956652641 0.0393938459456 0.050838124007 -0.108309820294 -0.117850005627 -0.058156657964 -0.096712872386 0.10002219677 -0.0763149186969 0.0
0.112750776112 -0.12335716188 0.0302497241646 0.103431835771 -0.117152117193 -0.120019875467 -0.140376791358 -0.140631556511 0.084208637476 0.0
-0.144597098231 -0.125614434481 0.0684375017881 -0.0931605026126 0.102720066905 0.101379178464 0.0859804004431 0.0728744268417 -0.101610146463 0.0
-0.161660254002 -0.0865187495947 -0.0983771234751 0.0673167556524 0.0824470818043 -0.0105171129107 0.0401754491031 0.0559754520655 -0.0306318625808 0.0
0.0489685237408 -0.125275284052 0.049217261374 -0.0125286849216 -0.0435347221792 0.0466104894876 -0.029867939651 -0.0930026099086 -0.083402954042 0.0
-0.0260311961174 0.12455521524 0.121645249426 0.104095213115 0.168935552239 0.0867587402463 0.112379290164 0.131042867899 -0.025413967669 0.0
0.161922618747 0.0869951918721 0.0773575231433 -0.0821244195104 -0.00103807915002 -0.0178933404386 -0.0327659770846 -0.138539984822 -0.120774239302 0.0
0.0194993186742 -0.151737004519 0.0964767113328 -0.0491251051426 0.113371491432 -0.0869289636612 0.264776349068 0.226502045989 0.196416705847 0.0
0.0923798233271 -0.103924065828 -0.0274199359119 0.0272417794913 0.0350286662579 -0.0360019057989 -0.0702930614352 -0.0410171560943 -0.00513328658417 0.0
-0.0646419748664 0.038750436157 0.0893792286515 0.128044873476 0.0300280675292 -0.0352354869246 0.093021325767 0.0108850356191 -0.0832122117281 0.0265068
-0.0968027040362 0.122315734625 0.0370830334723 0.00749872392043 -0.0764464586973 -0.0550628267229 -0.0674797743559 -0.149625763297 -0.118921518326 0.0
0.292853027582 -0.139209598303 -0.477043539286 0.172283574939 0.0251891259104 -0.291666924953 0.0635146275163 -0.0413689278066 -0.0257901120931 0.0
-0.123416513205 0.0583423934877 0.0803102180362 -0.0217527132481 0.0881291180849 0.10506952554 -0.0638784095645 -0.0649983361363 -0.13194347918 0.0
-0.0911993831396 -0.0640313923359 -0.134261235595 -0.226402714849 -0.121997445822 -0.13104224205 -0.115082584321 -0.105074390769 0.0436394736171 0.0
0.181647956371 -0.0542767457664 -0.116359882057 -0.0310287009925 -0.119924880564 -0.15967348218 -0.000833578000311 0.158627569675 -0.0380341224372 0.0
-0.158078014851 -0.0501336194575 -0.0961839780211 -0.193038523197 -0.206738635898 0.062759488821 -0.0474653765559 0.0943771526217 0.111788153648 0.0
-0.00605371547863 -0.0335483700037 0.116284012794 -0.0328711532056 0.0781005620956 -0.0877550020814 -0.0455405116081 -0.114649251103 -0.10943736136 0.0
-0.0854414701462 -0.119126811624 -0.147583439946 -0.104807563126 -0.113198593259 -0.115085698664 -0.00384359085001 -0.109369456768 -0.0458373688161 0.0
-0.0846566483378 -0.267271667719 -0.111575558782 -0.0242307465523 -0.155543684959 -0.281206250191 0.145347982645 -0.121417813003 0.0382807515562 0.0
-0.256209820509 -0.13865339756 0.113162770867 -0.317999362946 0.0441858507693 0.019020775333 -0.0231489725411 0.150184035301 0.0482476837933 0.0
0.114871494472 0.079738676548 0.0293880440295 0.00438047200441 0.102901779115 -0.172468587756 -0.086221665144 0.11477740854 0.088162265718 0.0
0.0557043291628 0.146585777402 0.0773641914129 0.028338804841 0.0527323596179 -0.103490225971 0.0960091277957 0.198847517371 -0.0556153394282 0.0
0.297659784555 0.254589766264 0.202627822757 0.119578510523 0.183112949133 0.137348145247 0.0537812747061 -0.106839954853 -0.0267024133354 0.0
0.182163089514 0.22698584199 0.179785192013 0.128171473742 0.208671793342 0.15918263793 0.0710359439254 0.152678579092 0.050187125802 0.0
0.00248492509127 0.0467902757227 -0.0892756804824 0.186616808176 0.164520636201 -0.0232181809843 0.301361858845 0.323552191257 0.179193601012 0.0
0.182013943791 0.236949592829 0.187287896872 -0.016256628558 0.147279828787 -0.0694605633616 -0.0221689417958 0.163337305188 0.19245699048 -0.0352608
-0.0863102376461 -0.0139276580885 -0.0215873531997 -0.0204811599106 -0.0223846305162 -0.0580843277276 0.096339918673 0.0558167546988 -0.098990522325 0.0
-0.0144295310602 -0.106219500303 0.11750113219 -0.154867336154 -0.270592927933 0.0534779131413 -0.136945322156 -0.163292080164 0.0720032602549 0.0
-0.0341714024544 0.0197738613933 0.119308419526 -0.124100863934 -0.0560892932117 0.118731357157 -0.0578722655773 -0.130333274603 -0.102466873825 0.0
0.45054268837 0.378228724003 0.161145418882 0.08722101897 0.177253484726 0.0846519693732 -0.165618553758 -0.28167745471 -0.260343909264 0.0
-0.231585755944 -0.237706243992 -0.0118785360828 -0.0158569794148 -0.166512146592 -0.00757013540715 0.0347655080259 0.0132244620472 0.04880226776 0.0
-0.0386814549565 -0.074023745954 0.0889417380095 0.120741441846 -0.204746872187 0.0590546987951 0.185575813055 -0.176619589329 -0.0729212760925 0.0
-0.0244687329978 0.0100218979642 -0.047797575593 -0.130851760507 -0.0746775716543 0.0524877123535 -0.0147918211296 -0.123816944659 0.0688048005104 0.0
0.156973600388 -0.0903305113316 0.176267623901 -0.0289719514549 -0.162469089031 0.150238379836 -0.0745333954692 -0.126775979996 -0.195656612515 0.0
0.0445231720805 0.360983252525 0.263073891401 -0.31956115365 -0.19009500742 -0.21851734817 -0.116952240467 -0.000997359398752 -0.0444441996515 0.0
0.341159939766 -0.136174082756 -0.151874631643 0.0534134246409 -0.0672048255801 -0.214247107506 -0.00726701924577 0.000924498366658 -0.0808341354132 0.0
0.00784268137068 0.111660502851 0.0176524203271 0.0396198444068 0.0860812067986 0.138239994645 -0.061786968261 0.246881499887 0.0702268183231 0.0
0.0120802214369 -0.134275317192 0.129565760493 -0.0218498390168 0.0007556125056 0.180617272854 0.0219622217119 -0.0311006605625 -0.00757374800742 0.0
0.184172227979 0.398150265217 0.348445147276 0.253970086575 0.106551006436 0.121708370745 0.122403398156 0.0966540127993 -0.0411934778094 0.0
0.129729032516 0.120967783034 -0.115531697869 0.0701772049069 -0.0236765854061 -0.142064556479 0.337572425604 0.338546842337 0.112663730979 0.0
-0.0321767777205 -0.0640909522772 -0.0446584001184 0.123746089637 -0.0118645885959 0.135286599398 -0.0760267451406 -0.0131840864196 0.228337422013 0.0
-0.0751781389117 -0.0611588396132 0.0860771760345 -0.0884326919913 0.0826693400741 0.000142477103509 0.0592433027923 0.0524435676634 0.113503977656 -0.523394
-0.112485691905 0.0857165381312 -0.0138201573864 -0.130255952477 0.0411030985415 0.110156297684 0.034110609442 -0.0789264291525 0.0162991210818 0.0
0.147881090641 -0.0703381970525 -0.403105914593 -0.0990035682917 0.151593461633 -0.00357113592327 -0.34988322854 0.162975341082 0.373008668423 0.0
0.040109667927 -0.134925484657 0.124070495367 0.0680449530482 0.0173233188689 -0.0590087249875 -0.0199010968208 -0.0790533423424 0.123088285327 0.0
-0.222438365221 -0.321745067835 -0.0119410809129 -0.121280238032 -0.205473765731 -0.241354733706 0.105934627354 0.043484903872 -0.213601663709 0.0
0.274757474661 -0.084276035428 -0.206037268043 -0.0155733106658 0.268377006054 0.197069466114 -0.287972033024 0.141479641199 0.0769255533814 0.0
-0.0532891228795 0.0325891450047 -0.186265677214 0.0601089075208 0.126978814602 -0.0514771603048 0.0227592624724 0.0452501624823 0.0949808433652 0.0
-0.112789854407 0.109353810549 0.0580061003566 0.0596174299717 0.0940926000476 0.00726438499987 0.10641361773 0.103183396161 -0.0504502914846 0.0
0.014581582509 -0.0557650998235 -0.0382490642369 -0.0616308972239 -0.0621865838766 -0.147368475795 0.108403421938 0.149846941233 -0.110409103334 0.0
-0.152302935719 -0.247906312346 -0.278610110283 -0.0940399691463 -0.170652776957 -0.16326674819 -0.0467598699033 0.119728654623 0.000992789631709 0.0
-0.152154684067 -0.12133435905 0.102484464645 -0.127205535769 0.0766660049558 0.165377601981 0.0316601544619 0.0213054995984 -0.280479192734 0.0
0.230164438486 0.112540125847 -0.117950469255 0.144256994128 0.22314928472 0.14993827045 -0.13571241498 0.14419400692 0.300803333521 0.0
0.0311226341873 0.0520344376564 0.104143545032 0.218039885163 0.2221609056 0.0991248190403 -0.00656459387392 -0.13296829164 -0.132599100471 0.0
-0.0771916508675 -0.0869454741478 0.118871957064 -0.0651240348816 0.0451213493943 -0.162536874413 -0.24612274766 -0.163693189621 -0.0531317703426 0.0
0.140726178885 0.267136663198 0.0337523072958 0.069308757782 0.284839391708 0.32507994771 0.159146443009 0.224342554808 0.181233629584 0.0
0.254300951958 0.244781419635 0.0229576826096 0.379277944565 0.291024416685 0.0891800373793 0.121065311134 0.235037207603 0.190704002976 0.0
0.16429258883 0.234907209873 0.0314877592027 0.0793133601546 0.242129251361 0.138795867562 0.00232565426268 0.0559002347291 -0.0411278530955 0.0644524
0.0495642721653 -0.1358679533 0.095236428082 -0.0265841837972 -0.0022489707917 -0.063112847507 0.097709916532 -0.112948842347 0.0377504006028 0.0
-0.0514687895775 -0.19475030899 0.0891041234136 -0.0378325432539 0.026544963941 0.0812858566642 0.261225938797 -0.106060840189 -0.0917809456587 0.0
-0.0253372043371 0.0306154955178 0.106138162315 0.0269141346216 0.0195702090859 0.00425149174407 -0.0808039084077 -0.0179611500353 -0.0497025772929 0.0
-0.0364400558174 0.000762570416555 0.183261290193 -0.0796782150865 -0.00945902522653 -0.00707508064806 -0.282557338476 -0.0968302562833 -0.115464232862 0.0
0.0412847176194 -0.230925545096 -0.118911087513 0.210827589035 0.00672768708318 0.035447653383 0.0390325188637 -0.0600687451661 0.00710861152038 0.0
-0.07749556005 0.0966368019581 0.0769935324788 0.0597169958055 0.0898029357195 0.0730023160577 0.0573025494814 0.0485657677054 -0.150441095233 0.0
-0.00577650638297 -0.0939258635044 0.108225248754 0.084979198873 0.115294516087 0.00732234865427 -0.114117965102 0.0725017413497 0.0573641844094 0.0
-0.106893949211 0.0226285420358 -0.0536858662963 0.0787182822824 -0.0547892935574 0.0326397418976 -0.0198796465993 -0.112498931587 -0.170969262719 0.0
-0.207113713026 -0.0711895078421 0.033809825778 -0.113902620971 -0.286071032286 -0.201082020998 -0.18451346457 -0.11459518224 -0.118653170764 0.0
0.0648429021239 0.164877697825 0.0173172224313 0.235664591193 0.344004631042 0.151641339064 -0.151395276189 0.177514344454 -0.0701141804457 0.0
-0.0241374652833 0.0380705967546 0.00174910540227 0.123555012047 -0.196086272597 -0.0712292194366 0.193869665265 0.053724642843 0.137153699994 0.0
-0.0660597681999 0.0856133550406 0.0420201346278 -0.00433389237151 -0.109242871404 -0.129673525691 -0.158552333713 -0.0662771239877 -0.0294657666236 0.0
0.0169947724789 0.168922796845 0.161731734872 -0.0301533564925 -0.11062476784 0.0891067609191 -0.188259258866 -0.205425694585 -0.156640246511 0.0
0.0045660561882 0.055037394166 -0.116372011602 -0.104383170605 -0.07367939502 -0.109554305673 -0.0216108951718 0.0835015699267 0.00295239523984 0.0
-0.101624362171 0.0360752604902 -0.0913223773241 -0.0512310303748 -0.147209003568 -0.000878309772816 -0.0686613470316 -0.194621235132 -0.176972717047 0.0
-0.0912716910243 0.0826392173767 0.0323711000383 -0.13472917676 -0.181741312146 0.0195315983146 -0.122846774757 0.00511168735102 0.0300019104034 0.55066
-0.0902184322476 -0.138557747006 0.130702868104 -0.0237891748548 0.0932986065745 0.0128573058173 0.0562347769737 -0.0360077768564 0.111246027052 0.0
0.17111544311 0.266823202372 0.0652045160532 0.0368605330586 -0.0720277130604 0.0665376484394 0.169364452362 -0.273395866156 -0.259850949049 0.0
0.0425990894437 0.0712463259697 -0.0153715843335 0.0158638656139 0.0660769194365 0.136528268456 -0.0256964918226 -0.0927610248327 0.099576279521 0.0
0.185477763414 0.170163065195 -0.100498765707 0.0776774436235 0.192120552063 0.0673185586929 0.0477572642267 -0.0646172910929 -0.154706776142 0.0
0.133650913835 0.167190045118 0.110278636217 0.0715490430593 -0.108350120485 0.0155252581462 -0.185317382216 -0.0600904226303 -0.119591340423 0.0
0.0364546589553 0.156623929739 0.0987118333578 0.166537329555 0.0136022213846 -0.00418911734596 0.0582049526274 -0.0759275183082 -0.124399445951 0.0
0.120327048004 0.102130122483 -0.0467622317374 0.13166987896 -0.104046963155 -0.100248113275 0.133011832833 0.078520655632 -0.0812628865242 0.0
0.0535684488714 0.141871482134 -0.0885083153844 -0.0486600548029 0.0138114877045 0.0271472744644 0.0256579108536 0.0917634889483 0.00843914132565 0.0
0.271867334843 0.131072402 -0.0353452898562 0.0677626207471 0.168821424246 -0.109834484756 -0.0799047127366 -0.162891075015 -0.242030113935 0.0
0.102264381945 -0.0433529429138 -0.151215225458 0.0739542618394 -0.0715587958694 -0.00983707793057 -0.229215845466 -0.0927303209901 -0.192875683308 0.0
0.0666013136506 0.0100563038141 0.138778358698 -0.0558367930353 0.0415554828942 0.0527957119048 -0.0189397167414 -0.108797602355 -0.0990495085716 0.0
-0.00385732622817 0.0527619123459 0.10975907743 0.0215452983975 0.022554019466 0.0611911900342 -0.120144739747 0.0184311643243 -0.0661154091358 0.0
-0.051973413676 -0.0066325510852 -0.0360010676086 -0.0951435863972 -0.0954843759537 -0.119967594743 0.0665618628263 -0.136192962527 -0.181769952178 0.0
-0.0340770035982 -0.134474053979 -0.0087083177641 0.103533148766 -0.135186463594 -0.00760023947805 -0.0186643395573 0.045418549329 -0.0923706069589 0.0
-0.089167021215 0.0117437131703 0.040142763406 -0.126468285918 -0.0592339672148 -0.0880958586931 -0.164512082934 -0.0933844223619 0.0650125071406 0.0
-0.115932196379 -0.10385786742 0.105795130134 0.112673453987 0.00521398382261 0.0690403357148 -0.0281763132662 -0.0955862998962 -0.069604896009 -0.082978
-0.137336462736 -0.0170425288379 -0.0445750840008 -0.0310436785221 -0.0812261402607 0.0781997442245 0.103202775121 0.127687335014 0.126367196441 0.0
-0.176966905594 0.208215132356 0.300566077232 -0.212472334504 0.0888829901814 0.419070243835 -0.413838595152 -0.153421640396 0.317637234926 0.0
0.0382190868258 -0.0406234413385 0.0386107340455 -0.0905600711703 -0.0496376901865 -0.0160908214748 0.0931289941072 0.0141840633005 -0.134110793471 0.0
-0.146660834551 -0.225670874119 -0.0985349789262 0.00344303739257 -0.0640162304044 -0.0081322947517 -0.18320158124 0.0743703246117 -0.0540227107704 0.0
-0.205385655165 0.157783672214 0.245363518596 -0.14434659481 0.00877512805164 0.115903384984 -0.159343585372 -0.122364215553 0.180106386542 0.0
-0.144889101386 0.00590273644775 -0.121254391968 0.0635098442435 -0.14848318696 -0.103656217456 -0.114996425807 0.0753464996815 -0.20019389689 0.0
-0.0118190404028 -0.00659735547379 0.120143227279 0.0801582038403 -0.137134119868 0.126828148961 -0.0526419691741 0.0260798726231 0.00248870742507 0.0
-0.091201454401 0.0707224085927 -0.0689392611384 -0.0197116173804 0.0783006623387 0.00726629793644 -0.0210973266512 -0.00677871052176 -0.154367595911 0.0
-0.299581766129 -0.0631796568632 -0.285610765219 -0.00769473752007 -0.101501822472 -0.0822160542011 -0.21213978529 0.0489129461348 0.0807829499245 0.0
-0.00156049034558 -0.279261052608 -0.0955538153648 -0.0508852861822 -0.248651146889 -0.0237432383001 -0.0332338288426 -0.00156066392083 -0.271993458271 0.0
0.0642568171024 -0.0556965507567 -0.0530619770288 -0.0666078552604 -0.0777670294046 0.0818400606513 0.0304867848754 0.0789426639676 0.0963719859719 0.0
-0.143209114671 -0.0960200428963 0.0367953516543 0.0369212441146 -0.0618440620601 -0.0688000172377 0.0895157679915 -0.169464945793 0.0113445827737 0.0
0.0545479878783 0.0745517835021 0.0471045151353 0.0758038461208 0.226762071252 0.240420788527 -0.0763611495495 0.128366187215 0.0149684185162 0.0
-0.159343913198 -0.203935667872 -0.134300231934 0.0206986684352 -0.137649223208 0.0621094368398 -0.219789355993 -0.034888215363 0.125158518553 0.0
-0.0595285929739 0.00119491072837 0.0951400026679 -0.00464618159458 0.106452822685 -0.0187110882252 -0.0861566215754 0.0371919162571 0.00625435262918 0.0
-0.169508635998 0.0649073123932 0.0495807081461 -0.0674400478601 -0.066579438746 -0.0108635434881 0.0187990162522 0.060772176832 -0.00815256591886 0.46861
0.0130795342848 -0.110117822886 0.0296747609973 -0.0433774106205 -0.0811970755458 0.153469905257 -0.126044273376 0.0495175495744 0.0179708376527 0.0
-0.0509397275746 -0.0406624488533 0.221457794309 -0.177260801196 0.0844166874886 0.229417771101 -0.0623030252755 -0.0625998526812 0.0293198842555 0.0
0.0868687182665 0.0592960976064 -0.0742134600878 -0.0404992215335 0.119047425687 -0.0358210876584 -0.0947638526559 -0.0992064401507 0.0794012695551 0.0
-0.0565689653158 -0.0416615903378 -0.097930893302 0.0654055923223 0.262551784515 0.0511897169054 -0.185142755508 0.126768022776 0.0398261025548 0.0
-0.105490148067 -0.0340100042522 0.00103500159457 -0.0821372866631 0.0965181738138 -0.0164887476712 -0.0473439656198 -0.134051993489 -0.0154422596097 0.0
-0.0476745031774 0.0468808375299 0.179390788078 0.0701699405909 -0.0880520418286 -0.0730075836182 -0.258447885513 -0.129990339279 -0.14251974225 0.0
0.0953651443124 0.125777751207 -0.019745092839 -0.0206944830716 0.0745493024588 0.0967431813478 0.0967410430312 -0.117446675897 0.0103149050847 0.0
0.0139247365296 -0.0229741688818 0.0321621634066 0.133315265179 0.168321833014 0.0724846944213 -0.133131951094 -0.15442468226 0.0960345417261 0.0
-0.10791515559 0.235946133733 0.0137859294191 0.148130625486 0.338058233261 0.198476448655 -0.160469770432 -0.161816880107 -0.124817349017 0.0
-0.018219973892 0.197081759572 -0.033061131835 -0.0060594403185 -0.0315264463425 -0.10363407433 -0.16687759757 -0.0774346590042 -0.166130557656 0.0
-0.0997566655278 0.0508432947099 -0.0122669059783 0.1321156919 -0.0147143928334 0.0601013451815 -0.0248829331249 -0.0970772057772 0.0301046073437 0.0
-0.0514904372394 0.0900422856212 -0.0115839643404 -0.0855154618621 0.130109131336 -0.0589615888894 0.0525096170604 0.0874639302492 -0.0250984784216 0.0
0.111005924642 -0.0142223760486 0.111803084612 0.105721317232 0.141980245709 0.0973241701722 0.0965204834938 0.174586474895 0.157088458538 0.0
0.170586168766 0.112326622009 -0.0841432884336 -0.0667584612966 0.0627779215574 0.014005433768 0.00451186532155 -0.0800548568368 -0.0140249747783 0.0
0.000672404363286 -0.00525223603472 0.00463455589488 -0.0996689125896 0.127557381988 -0.00618779007345 0.101231828332 0.120846703649 -0.0448840335011 0.0
0.0115478364751 0.048150178045 -0.0693266615272 -0.102953091264 0.0309701897204 -0.0869743227959 -0.0216124430299 0.0338850840926 0.0755234584212 -0.111511
-0.0395023822784 0.0792201757431 0.166859358549 -0.0991053804755 0.0993634909391 0.0309074558318 0.147601038218 0.0939987003803 -0.0615590773523 0.0
-0.231217801571 0.548219203949 -0.00617715157568 -0.178458765149 0.584635555744 0.0532734952867 -0.140330567956 0.346422374249 0.0160296149552 0.0
-0.0279523897916 0.0533044934273 -0.0150004662573 -0.107070401311 0.0856193900108 -0.0382510572672 0.0050341472961 -0.0629569739103 -0.110042490065 0.0
0.174637243152 -0.0888395234942 0.000121798213513 0.138888284564 -0.145677790046 -0.26935556531 -0.0999306067824 0.0278694666922 -0.246496498585 0.0
-0.0194131042808 0.407295674086 0.058833450079 0.0837143361568 0.15620623529 0.104366898537 -0.112249366939 0.20924295485 -0.200822412968 0.0
0.170839607716 0.137740701437 -0.0943645760417 0.15225982666 -0.00775936292484 -0.230064660311 -0.0772955268621 -0.158119753003 -0.263662457466 0.0
-0.114533126354 -0.130060330033 -0.114835515618 0.046077709645 -0.107715688646 -0.0134267397225 -0.0718546584249 -0.11648145318 0.00957512296736 0.0
0.0887347534299 0.057849291712 -0.0394042059779 0.00500853825361 0.0690552890301 -0.0951171815395 0.0494467280805 0.0874944552779 -0.0588314794004 0.0
-0.0143476696685 0.121703080833 -0.0904178023338 0.30933663249 0.171022087336 -0.263857573271 0.15554626286 -0.064460746944 -0.344396799803 0.0
0.136074662209 -0.162462204695 -0.0836090445518 -0.105432569981 -0.368166178465 -0.212343528867 -0.0589520335197 -0.393144011497 -0.185248047113 0.0
-0.170331671834 0.134740263224 -0.106887497008 0.0376720279455 0.0176881030202 0.0547398217022 -0.144311621785 0.0300049595535 -0.0701947063208 0.0
0.0297094602138 0.0523465499282 -0.123169437051 -0.111018382013 -0.0524106435478 0.0221468154341 -0.00716993073002 0.0569690130651 -0.101891808212 0.0
-0.00585658568889 -0.0425458811224 -0.171423271298 0.0207225345075 -0.0609669499099 0.00862825848162 0.0709009245038 -0.121362008154 0.0356352962554 0.0
-0.0400262996554 -0.12996815145 -0.0248680338264 -0.0380697734654 -0.163601115346 -0.0216922461987 -0.017133820802 -0.0122875440866 -0.0617098398507 0.0
0.0824326276779 0.139655724168 0.101226478815 -0.0838060453534 -0.00518073933199 -0.044480279088 -0.0208747461438 0.110882654786 -0.212200134993 0.0
-0.0671838745475 0.074521265924 -0.128236040473 -0.0900353267789 -0.0794201642275 -0.0606549307704 0.0987032875419 0.0697868391871 -0.0478463470936 -0.609542
0.124267868698 -0.02337356098 -0.124517768621 -0.0794377401471 0.0610737279058 -0.124338552356 -0.0633783638477 -0.117478951812 0.066758967936 0.0
-0.1361964643 -0.0042577739805 0.0727500617504 -0.0426423214376 -0.0940452739596 -0.201179772615 0.0899942517281 0.0561191365123 -0.157319530845 0.0
0.00665384624153 0.0891106724739 0.0577925220132 -0.0813324153423 -0.0422398932278 -0.0324698798358 -0.0524135604501 0.107194691896 -0.119581088424 0.0
0.0981306433678 0.174272537231 0.40025857091 -0.0129624549299 0.0389230288565 0.150482729077 -0.011108841747 0.107851162553 0.198224395514 0.0
0.0241877287626 -0.0936744883657 -0.0562976188958 -0.0262394547462 0.072185434401 -0.00508148781955 0.00577742420137 -0.123224027455 -0.217347025871 0.0
0.0255328193307 0.133351668715 -0.0195001084358 -0.00296906707808 -0.146392121911 0.228652358055 -0.279470473528 0.144208952785 0.289086908102 0.0
-0.064461633563 -0.0514034703374 0.115866437554 0.12436567992 -0.133007660508 0.0800314545631 0.11308003217 -0.0513699911535 0.120412036777 0.0
0.00974162854254 0.127448067069 0.178732410073 -0.133750632405 0.10643170774 6.42911181785e-05 -0.119158327579 0.0495616979897 0.191417440772 0.0
0.044634077698 0.156377822161 0.222546681762 0.0188018940389 0.0546529628336 -0.00570435402915 0.0492339059711 0.0711339861155 0.203711777925 0.0
-0.0952826365829 0.0151035292074 0.170946210623 -0.304447799921 0.107011981308 0.0985681563616 -0.278485149145 0.0881989002228 0.47750890255 0.0
-0.0101136341691 -0.1949647367 -0.212402924895 -0.00460649002343 0.0714861229062 -0.0319672562182 -0.130807474256 -0.016647959128 -0.103376165032 0.0
0.0635468065739 0.0265778508037 -0.0388885959983 -0.00791227538139 0.0978216603398 -0.0342762880027 0.0697677135468 0.0124786533415 -0.117552243173 0.0
-0.128336042166 -0.245137825608 -0.171267345548 -0.141915917397 -0.171108499169 -0.226836487651 0.113149702549 -0.045138426125 -0.11456348747 0.0
-0.139049753547 -0.132048889995 -0.0589823909104 -0.168486639857 -0.198470383883 -0.0427044779062 -0.185008466244 -0.129407659173 0.210181951523 0.0
-0.030882421881 -0.172217473388 0.00644783535972 -0.129478096962 0.0820642858744 -0.111356988549 -0.0631925985217 0.0907071605325 0.128145098686 0.0
-0.131370484829 0.0320248045027 0.0312648154795 -0.0863119289279 -0.155644625425 -0.0539711639285 -0.144180878997 0.0257744845003 0.124468736351 -0.581063
-0.0216330159456 0.00329167931341 -0.0494662448764 -0.0964971482754 0.0953622832894 0.122822009027 0.129384115338 -0.0942459180951 -0.0559973232448 0.0
-0.123259805143 -0.138228222728 -0.0456467755139 -0.0534318573773 0.0172878988087 -0.0315420404077 0.0850991383195 -0.136533677578 0.0597475729883 0.0
-0.0125407539308 0.0716340616345 0.0752513036132 -0.128597557545 0.120141543448 0.0904256999493 0.102325901389 -0.0926386117935 0.127018362284 0.0
0.0266905445606 0.120499536395 -0.11272034049 0.041280772537 -0.0883268266916 -0.0145408408716 -0.0621260069311 0.00458872225136 -0.106088981032 0.0
0.0127592971548 0.0186663102359 0.13205948472 -0.106899522245 0.0148042934015 0.0226092580706 -0.111676059663 -0.133612751961 -0.0101464539766 0.0
-0.00471793301404 0.0016187975416 0.00920943729579 0.107157945633 0.0396486148238 -0.103441022336 0.0541145056486 0.0908192321658 0.102693520486 0.0
-0.00220849039033 -0.12799552083 0.100419819355 -0.0495506748557 -0.128135368228 -0.0882604122162 0.0207199919969 -0.0243489593267 0.0838366523385 0.0
0.0416562668979 -0.0648685917258 -0.109687291086 0.110465846956 0.0214539021254 -0.103773146868 0.0187443625182 0.135122418404 0.133202195168 0.0
-0.0855200216174 -0.134307056665 -0.100196748972 -0.0199526678771 -0.0787033736706 0.0939301326871 -0.0596300810575 -0.113613143563 -0.118985541165 0.0
-0.044854581356 -0.0675516352057 0.0092297187075 -0.0805098563433 0.0093415863812 -0.111177794635 0.0182837247849 0.00975234527141 0.0186906047165 0.0
-0.10249569267 -0.02774534747 0.14469845593 -0.0220656786114 0.103237807751 -0.102802269161 -0.0884917154908 0.108976572752 -0.0755524113774 0.0
0.0638869032264 0.0649615228176 0.0954565778375 -0.136694073677 0.0661298036575 -0.107118800282 0.0756585970521 -0.0781883895397 -0.0736312419176 0.0
0.0144891431555 -0.0984051153064 -0.119828656316 0.0824385732412 -0.0841460078955 -0.0547119528055 0.0843747258186 0.0892537310719 0.020565668121 0.0
0.0969263911247 0.0145629411563 0.125297963619 0.0888485237956 -0.0192408431321 -0.114068172872 0.0574370808899 0.0157704632729 0.0287471078336 0.0
-0.0444962009788 0.0452169366181 0.0628193840384 -0.0306175705045 0.0832866728306 -0.125739201903 -0.0384658910334 0.041146248579 -0.00350354844704 0.0
0.0693674907088 0.078778937459 0.0829098001122 0.104380302131 0.00419816188514 0.0809945985675 0.0873412564397 0.0548833161592 0.0130217410624 0.0245283
0.036093339324 -0.0378222763538 0.0799109712243 0.0366915874183 -0.0928595140576 0.09094658494 0.0649617537856 0.0939503312111 0.140198051929 0.0
-0.085619404912 0.109205819666 0.12812794745 -0.227561324835 -0.09216234833 0.0771327987313 -0.0515285469592 -0.153210833669 -0.192764416337 0.0
0.0551897287369 -0.0965800285339 0.0263949688524 0.0843108668923 -0.129402309656 -0.0669584423304 0.0647352263331 -0.130251899362 -0.0986332520843 0.0
0.0762874186039 0.152827426791 -0.0402217470109 -0.0698862597346 0.0420001447201 0.0218325741589 -0.146979779005 -0.101929567754 0.0766951367259 0.0
-0.0377589985728 0.0975099131465 0.00554768834263 -0.133168950677 -0.145023673773 0.0831805095077 -0.145026683807 -0.129268169403 -0.0859362259507 0.0
0.138844415545 0.0875730887055 0.0264618769288 -0.104725457728 -0.14108479023 -0.201604098082 -0.140343502164 -0.106394633651 -0.214465036988 0.0
0.0993529483676 -0.0161211900413 -0.0260305237025 -0.0166545063257 -0.0811840519309 -0.0426644794643 -0.0663867890835 -0.00359366345219 -0.0473790466785 0.0
-0.0586450397968 0.074816994369 0.0548743791878 0.0120450593531 -0.0739451795816 -0.139625504613 0.0779044404626 0.10259038955 -0.114810757339 0.0
0.0840403735638 0.0265018977225 0.242193087935 -0.0525174513459 0.027259722352 0.138735204935 0.00404383428395 -0.121641203761 -0.20072171092 0.0
0.00982184521854 0.00568359112367 0.13322918117 -0.0610335059464 -0.00379344448447 -0.0907421037555 -0.141690775752 -0.0708129480481 -0.208795785904 0.0
0.0323936119676 -0.0452573746443 -0.0477270931005 0.108216039836 0.0991846621037 0.0965730324388 -0.0142093207687 -0.111442945898 -0.0998675599694 0.0
-0.00343499379233 -0.0846658945084 0.101092137396 0.0799111351371 0.0447988808155 -0.115237496793 0.102026492357 0.0897065922618 0.0667866095901 0.0
0.0571792423725 0.0755321457982 0.190903499722 0.0550016127527 0.369117379189 0.1591476053 -0.0948700085282 -0.0730632394552 0.0622211657465 0.0
0.00759999407455 0.169282183051 0.0911705195904 -0.034528773278 0.024029487744 -0.0151979969814 -0.0820625200868 0.11799158901 0.0891555249691 0.0
-0.0463199317455 -0.12756331265 -0.111859545112 0.0392436310649 -0.126579299569 -0.00330898654647 -0.123815841973 0.0607274547219 -0.072998829186 0.0
-0.0300400387496 0.0364512577653 0.0585964135826 -0.0885379463434 0.000891645322554 -0.1414912045 0.0666728690267 -0.116059757769 0.106614500284 0.0898943
0.128483846784 0.0303578991443 0.00783044844866 0.00123387470376 -0.0570676624775 0.0379712171853 0.0356201976538 0.146493971348 0.0165509395301 0.0
-0.257955312729 0.121168144047 -0.195826545358 -0.0994344726205 0.264270722866 -0.130282253027 0.0777397081256 0.384111195803 -0.185037851334 0.0
0.111447907984 -0.0693729296327 0.0257538743317 0.0885896012187 0.0753986611962 0.0412792824209 -0.0748673379421 -0.105744756758 -0.0224293209612 0.0
0.0854174494743 0.286588340998 0.207933485508 -0.0688734203577 0.0926727950573 0.0726486220956 -0.0397489145398 -0.149433970451 -0.249209657311 0.0
0.0907857567072 -0.0056477044709 -0.184479653835 0.0362687520683 0.155519083142 -0.0473229959607 -0.0735949277878 0.0943935737014 -0.155019596219 0.0
-0.0234613995999 0.0479938723147 -0.00145391817205 -0.0348724350333 0.0709076374769 0.00761415110901 -0.199008882046 0.0278363954276 -0.0555228739977 0.0
0.107689864933 -0.127630010247 0.114775419235 0.0186675321311 0.137260615826 -0.0211850069463 0.0569319576025 -0.125298544765 -0.121151514351 0.0
-0.137103721499 0.158800110221 0.0667420998216 0.0786698386073 -0.0169075354934 0.15294072032 -0.03993980214 -0.0103821828961 -0.108501821756 0.0
0.0670876950026 0.0896124020219 0.203700870275 0.277279883623 -0.0106838913634 -0.137633860111 0.145955145359 -0.195758670568 -0.170402780175 0.0
0.184944167733 0.115591064095 0.249897420406 -0.118996940553 -0.190184101462 0.209233626723 -0.277842342854 -0.34167021513 0.143767535686 0.0
0.00871708802879 0.0698002949357 0.0115586472675 0.0457271523774 0.123248234391 0.11928357929 0.106684729457 0.135192289948 0.0906511545181 0.0
-0.0464275553823 -0.0205316413194 -0.0981636345387 0.133181855083 0.0152825582772 0.0262737553567 0.0377797782421 0.126583591104 -0.106663748622 0.0
-0.142152890563 -0.0884996131063 0.0160756222904 0.0749335959554 -0.130337834358 -0.020410515368 0.0930978879333 -0.0418511033058 -0.142288088799 0.0
-0.0459090732038 -0.130388453603 0.0240566339344 0.166616275907 -0.0529298447073 -0.0887689217925 -0.0949687585235 0.0976197049022 0.109071619809 0.0
0.0768414661288 0.00693064136431 -0.0475328192115 0.194850876927 0.179256796837 -0.0277906451374 0.168748095632 0.111407257617 -0.0332978330553 0.0
-0.0847940519452 0.0125367389992 0.0488993264735 -0.0428248681128 0.0990128740668 0.0966493487358 -0.0449062921107 0.0429602712393 -0.0411466918886 -0.877193
