convolution,  3 1
0.0978536084294 -0.0299738030881 0.0694212391973 0.00540537154302 0.0816245153546 0.0185722429305 0.0644880980253 0.0734646320343 0.0198133904487 0.0
-0.0985814407468 -0.0065997634083 -0.0350042432547 -0.00609159935266 -0.103257350624 -0.0253153964877 0.00223139906302 0.0621829405427 0.00361088337377 0.0
0.0405924357474 0.0943813100457 -0.0333296842873 -0.0436725579202 0.0189118310809 -0.104578047991 -0.0269309021533 0.00174182048067 0.022323967889 0.0
0.0434207208455 -0.0853548422456 -0.112031295896 -0.0440632551908 0.00839097425342 -0.0294313002378 -0.0997991263866 0.0859353020787 -0.0677446201444 0.0
0.110191464424 0.0548580177128 0.0701625049114 0.0715564191341 0.0493327863514 0.0318983122706 -0.0320984572172 -0.0857825800776 -0.00469679571688 0.0
-0.127081468701 0.0647676736116 0.00339770014398 -0.010457531549 -0.0871769115329 -0.041217174381 0.0212653968483 -0.0103167714551 0.00333106401376 0.0
-0.0372570976615 0.00601949822158 0.0324598923326 -0.0274570640177 -0.0872497707605 -0.0287503171712 0.0278817676008 0.11030600965 0.0696784108877 0.0
0.0395584776998 0.0484859198332 0.119371913373 0.0571712367237 0.0817200094461 -0.00458746403456 -0.0285976789892 0.116787232459 0.145258888602 0.0
0.0192893706262 0.11984936893 0.125083327293 -0.108000725508 0.0921053215861 -0.00520604429767 -0.126226663589 -0.0269198287278 -0.0204316619784 0.0
-0.0302437637001 -0.0450437813997 -0.0658108517528 -0.00979249551892 -0.11585252732 -0.0526689477265 -0.116075158119 -0.0682242140174 0.09113650769 0.0
-0.131977438927 -0.0886235609651 0.0609084516764 -0.0930556431413 -0.132539436221 0.0595120340586 -0.0576629936695 -0.0326957218349 0.083715878427 0.0
-0.00685685314238 -0.0369646809995 0.0262789968401 -0.00242566200905 0.0796663165092 0.0397269874811 -0.03687761724 -0.0649213343859 -0.0702828317881 0.0
0.00310399685986 -0.0455138795078 -0.0316636040807 0.00536116817966 -0.00356995151378 -0.0653156414628 -0.101375944912 -0.0867853313684 -0.0528155006468 0.0
-0.0238067097962 -0.0480628758669 0.0511993356049 0.0333609208465 -0.0547832213342 0.0632484257221 0.027757929638 0.0457938872278 -0.115805260837 0.0
0.0140036661178 0.0330563038588 -0.0112630724907 -0.0244789198041 0.0246519353241 -0.0851912051439 0.00324610015377 -0.0719399601221 0.010125445202 0.0
0.0674590393901 0.0574726611376 -0.0776963979006 0.0913590267301 -0.0605322085321 0.0325376987457 0.106170125306 0.184519916773 0.0659408569336 0.0
-0.105447024107 -0.00923560652882 -0.0249034762383 0.126152694225 0.0498514510691 -0.0984813123941 0.0468295291066 -0.076194472611 0.0404801443219 0.0
0.0660272240639 -0.0436626449227 -0.00267562246881 0.121604926884 -0.0804276838899 -0.0548103414476 0.0194697733968 0.0754467248917 0.0364943109453 0.0
0.145799189806 0.119787581265 -0.0144589496776 0.0613051094115 0.105079248548 0.0987093448639 0.0601408332586 0.150318875909 0.0474952608347 0.0
0.000979260774329 0.0167995840311 0.0458630882204 0.160868987441 -0.0377329476178 0.0283874813467 0.0556810572743 0.146454900503 0.048169452697 0.0
0.0542672686279 -0.0448158681393 -0.0441205054522 -0.0882465839386 -0.0411456674337 -0.0328885912895 -0.184904679656 -0.123783513904 -0.0725463852286 0.0
0.0623483546078 0.0108343493193 0.0544383861125 0.0747262984514 0.023885730654 -0.0423628427088 -0.0247960202396 -0.0658519640565 0.0748244300485 0.0
-0.0292690303177 0.0163837876171 -0.112047627568 -0.0751399770379 0.00995241478086 -0.0871748402715 0.00891895405948 -0.081353828311 0.100026138127 0.0
0.0729634016752 -0.0647470578551 -0.0356127470732 0.180132329464 -0.102766372263 0.0314915217459 -0.0173654928803 -0.0496031269431 -0.0348822027445 0.0
0.0888100862503 0.0886438265443 -0.0318925268948 -0.0325246565044 -0.0165426600724 0.00825166981667 0.0257783588022 -0.039434209466 -0.0860825553536 0.0
0.0437413044274 -0.0304257962853 -0.0501879714429 -0.061040263623 0.0325257517397 -0.105532854795 0.0381160862744 -0.0750784054399 -0.0540089271963 0.0
-0.048961378634 0.0372909530997 -0.0240768361837 0.0244271364063 0.0727419182658 -0.0940913558006 0.0591916069388 0.0237578339875 -0.0367050431669 0.0
0.0672259628773 0.0523855946958 -0.0116753075272 0.0456733740866 -0.0507567301393 -0.00242485431954 0.0981575474143 -0.0495556667447 0.0366452336311 0.0
-0.0330140143633 0.115647561848 0.0241825673729 0.113545171916 -0.047282975167 -0.00707994354889 0.0903021916747 0.0309043861926 0.0187329947948 0.0
-0.1146594733 -0.11614651233 -0.104734703898 -0.0741468966007 -0.0643201097846 0.00324254320003 0.0797945484519 -0.0787680968642 0.0572536326945 0.0
0.00508325872943 -0.0551162101328 -0.00628714915365 -0.0939561352134 -0.0972826555371 -0.00588602246717 -0.0738051682711 0.0599526390433 -0.020020512864 0.0
0.0554138273001 -0.0798453614116 0.0692142322659 -0.0523758605123 -0.0953800454736 -0.0226047579199 0.0801693946123 0.0441619679332 0.0143450330943 0.0969172
-0.00688340701163 -0.0439820401371 0.0168645251542 -0.0250032097101 0.113660573959 0.0344720520079 -0.0535034053028 -0.0226281937212 0.0891437307 0.0
-0.0397087037563 -0.065131649375 0.0055559030734 0.0216967388988 0.169680997729 0.16702529788 -0.20255279541 -0.159656360745 -0.077685393393 0.0
0.038673914969 -0.00141755281948 0.00171930540819 -0.0751743763685 -0.0973998457193 0.032863792032 -0.0384890325367 0.0644690468907 -0.00876728817821 0.0
0.00356174842454 -0.0773428529501 0.106246069074 -0.00390026485547 -0.246561154723 -0.114107258618 -0.153007626534 -0.120802767575 -0.103420257568 0.0
-0.0931688174605 -0.0153457969427 -0.0228610634804 -0.0896440520883 -0.148655205965 -0.0345278643072 0.0414847619832 -0.00669824983925 0.0266971830279 0.0
0.0471375994384 0.0664461702108 -0.104130730033 0.0732858404517 0.156568542123 0.0832061544061 -0.139367938042 -0.0578084401786 -0.0253758877516 0.0
0.0267419479787 -0.0844812393188 0.041062258184 -0.129179686308 0.181267172098 -0.147767022252 0.114137932658 0.270135879517 0.233472988009 0.0
0.0572576336563 -0.000761204573791 -0.0296512972564 0.218722268939 0.0279266517609 0.125124692917 0.0971974059939 -0.121964551508 0.125763237476 0.0
0.198872327805 0.0520080327988 0.0198007170111 0.153812974691 -0.0252957325429 0.0763694271445 0.0626891106367 0.0410522483289 -0.0824950113893 0.0
0.0103525072336 -0.136781543493 -0.133125737309 -0.0749759525061 -0.141885966063 -0.0692862570286 0.166831821203 -0.0388731174171 -0.0462819039822 0.0
0.078072682023 0.105909086764 0.000968699809164 -0.126749545336 -0.0544951111078 -0.052784640342 0.212046384811 0.12516567111 -0.112249732018 0.0
0.0595737993717 0.0154150435701 0.0799936056137 0.0922222360969 -0.0115229459479 -0.0630606859922 -0.0338653251529 0.0665126815438 0.0144388489425 0.0
-0.154780834913 -0.100542187691 0.151721686125 -0.111349835992 0.15758907795 0.104420483112 -0.0819349214435 -0.02852743119 -0.0825003385544 0.0
-0.0511136092246 -0.0265683569014 0.012038603425 -0.0661898702383 0.0213682502508 0.0900798365474 -0.112783610821 -0.135899454355 -0.0565562210977 0.0
0.182914614677 0.164314776659 -0.0625398159027 0.0618740804493 -0.0878463387489 0.0799936801195 0.0125802494586 -0.0976761132479 -0.151667490602 0.0
0.167810693383 -0.0373709797859 -0.0989827886224 -0.145730480552 -0.184994325042 -0.247989147902 0.116586111486 -0.0752064138651 0.0530545189977 0.0
-0.070648893714 -0.00939202494919 -0.138509199023 -0.0418075993657 0.11018268019 0.0206473879516 -0.0666957497597 -0.195399686694 -0.149153083563 0.0
-0.0183638129383 0.0195780918002 -0.143002569675 0.104059405625 0.109219439328 0.0506873838603 0.00707020051777 -0.160497993231 0.0521400794387 0.0
0.0201227162033 -0.264217793941 -0.127435982227 0.0468701347709 -0.218905687332 0.103564612567 0.134289994836 -0.0556946322322 -0.0060470784083 0.0
-0.121876120567 -0.0684027001262 -0.204022213817 -0.0368061251938 0.030683439225 0.0324360728264 0.169102281332 -0.0566734448075 -0.0202176570892 0.0
0.365359187126 0.154507309198 0.021721413359 0.193780437112 0.107755169272 0.0939634665847 -0.0355282723904 -0.100707396865 -0.0288046691567 0.0
-0.0557696148753 0.0389625020325 0.0788567587733 0.0995053425431 -0.0714272409678 -0.0649502947927 -0.0287262704223 0.105515353382 -0.0940769985318 0.0
-0.125217810273 0.00410933699459 0.0105845313519 -0.101305134594 -0.0599175840616 0.0108471605927 0.0592897757888 0.00538359070197 -0.0917609483004 0.0
0.0214819572866 -0.014945384115 0.0734585151076 -0.00752195809036 -0.0662806332111 0.190046727657 -0.0680785477161 -0.0635780990124 0.0762686654925 0.0
0.0220912471414 0.0794783458114 0.0152768781409 -0.0635435506701 -0.080313295126 0.0184070747346 -0.0300016272813 0.106973059475 -0.1244571805 0.0
-0.110088698566 0.118151299655 -0.0117152314633 0.0140709709376 -0.107362210751 -0.0951495915651 0.0660270825028 0.0351741947234 -0.0164223220199 0.0
-0.0220310613513 -0.057829901576 0.0161852221936 0.0681622996926 0.0644067898393 -0.0360033996403 -0.0119630256668 -0.0453527607024 -0.018953923136 0.0
0.0127616077662 -0.0455455034971 -0.127547830343 -0.166465044022 -0.0373334474862 -0.046432826668 0.0230750404298 0.0292055290192 -0.0230883490294 0.0
-0.0642159953713 -0.0967421978712 -0.0803924128413 -0.11095918715 0.0440740734339 0.129001393914 0.064543351531 0.129502594471 0.12725199759 0.0
-0.104936212301 -0.0332891084254 0.251657873392 -0.0741873383522 0.121207199991 -0.199132010341 -0.123762153089 0.0227958746254 -0.00694064982235 0.0
-0.0976963192225 0.0744074955583 0.0131239807233 -0.0889393314719 -0.148848429322 -0.120755873621 0.0286849681288 -0.0783210471272 -0.00981790851802 0.0
-0.13779732585 0.0666883736849 -0.0115501470864 -0.00175236491486 0.149641260505 0.225417479873 -0.0980544537306 -0.164214685559 -0.0127859134227 0.101379
-0.0386662222445 -0.0841869041324 0.00247110100463 0.0526221729815 -0.0666527450085 -0.0352423265576 -0.067524291575 -0.0413209497929 -0.0658728405833 0.0
0.106655061245 -0.0652251765132 -0.076245829463 -0.0604411885142 -0.120200254023 -0.0972033217549 -0.145874008536 -0.256426602602 0.0677448809147 0.0
0.0734837129712 0.039748609066 -0.104057580233 -0.0161362048239 -0.00239793420769 0.0408422574401 -0.00579780107364 -0.069675989449 -0.0130827100947 0.0
-0.059817854315 0.0420189127326 -0.0877872109413 0.0577376298606 0.129624098539 0.0920813679695 -0.0505832619965 0.110093325377 0.022973049432 0.0
-0.104007020593 -0.0107166236266 0.0660667642951 0.126003935933 0.123073011637 0.149943605065 0.0852039456367 0.138409778476 0.215680658817 0.0
-0.0308678969741 -0.175399795175 -0.0806170031428 0.143219694495 0.0962075069547 0.255608618259 0.108114302158 0.0872930362821 0.194298163056 0.0
-0.121080867946 0.0836337432265 0.158662289381 0.135107696056 -0.00987699907273 0.0398260429502 0.0347297787666 -0.0475304014981 0.152665793896 0.0
-0.147429510951 -0.0638082697988 -0.0868387818336 0.333601862192 0.125010296702 0.125598594546 0.222421854734 0.0369144454598 0.0269732717425 0.0
-0.155019327998 -0.0941783413291 -0.135388359427 -0.050031773746 -0.275858819485 -0.0369691252708 -0.0691212266684 -0.151494860649 -0.199880540371 0.0
-0.148088917136 -0.0960977226496 -0.190854266286 0.0936254188418 0.186340659857 0.244982972741 -0.0489994511008 -0.127985060215 -0.100263118744 0.0
-0.276680707932 -0.329226493835 -0.258102506399 0.106229163706 0.127555713058 0.0889584198594 -0.0123055418953 -0.0820258185267 -0.132129341364 0.0
-0.0337940752506 0.0205211006105 -0.0372396595776 -0.0469825267792 0.0840175673366 0.0198040381074 -0.00177330814768 0.00925039220601 -0.0884770527482 0.0
-0.231729790568 -0.269935518503 -0.0540756508708 -0.0644509270787 -0.0359142497182 -0.0225591566414 -0.0544092282653 -0.0984152927995 0.0191767811775 0.0
-0.258957028389 -0.382728755474 -0.291060984135 0.0756704509258 -0.158080548048 0.0941217169166 0.0465699508786 -0.12522482872 0.0113581111655 0.0
0.147526904941 0.0964559242129 -0.139199852943 0.0302792992443 -0.115715824068 -0.131842523813 0.076195128262 -0.158189505339 -0.0638634860516 0.0
-0.099295578897 0.078901797533 0.111038058996 0.186832115054 0.189221456647 0.0810040682554 0.227339968085 -0.0391029417515 -0.124299675226 0.0
-0.0176455937326 -0.024758182466 0.00939392950386 0.166596278548 0.107501007617 0.218588724732 -0.102485165 -0.0375846661627 0.141867443919 0.0
-0.0275320988148 -0.195228084922 -0.243902340531 -0.126866489649 -0.160092160106 -0.0466772764921 -0.183848053217 -0.108982123435 0.102230615914 0.0
-0.184544026852 -0.296906650066 -0.118205495179 0.134591579437 0.127660065889 0.197688743472 0.0810773894191 -0.0610684193671 0.0926617160439 0.0
-0.222445681691 -0.35986995697 -0.281066507101 0.285203933716 0.152031779289 0.0412552207708 0.105375193059 -0.0390089377761 0.0778406262398 0.0
-0.126091986895 -0.0576585754752 -0.129178673029 -0.178179860115 -0.0954092368484 -0.0742587223649 0.102185502648 0.00545756844804 0.051070895046 0.0
-0.0551461279392 0.0681274160743 -0.0565676130354 -0.0489286892116 -0.0103942546993 -0.0886042118073 -0.0548686981201 0.0597234480083 0.0549375340343 0.0
-0.073218524456 -0.18985684216 -0.0387027524412 0.0709016546607 0.118254818022 0.00135776551906 0.0638517066836 0.103085376322 0.0694501772523 0.0
-0.0110124889761 -0.104244485497 -0.0268622711301 -0.0463521070778 -0.0999766737223 -0.0150205111131 -0.0589590109885 -0.0824213549495 -0.0203642249107 0.0
-0.285251438618 -0.187630936503 -0.321146517992 0.181448221207 -0.118054687977 0.00321553158574 0.056920722127 0.0363975949585 -0.0934397503734 0.0
0.0237612556666 -0.133880361915 -0.00672801490873 0.0261503942311 0.106518447399 0.158741742373 -0.0133628491312 0.0535939149559 0.051446530968 0.0
-0.12888649106 -0.110622107983 -0.102959379554 0.143573924899 0.252866148949 0.191577836871 0.179865837097 0.120567671955 0.0224145110697 0.0
-0.0470479056239 -0.111960753798 0.0191115885973 -0.0556970760226 0.0701173692942 0.0945475026965 0.00569532578811 -0.0338631570339 0.134402543306 0.0
-0.114114180207 -0.0355110876262 0.0156967286021 -0.042889367789 0.00350174750201 0.0383567921817 -0.00134349334985 -0.0388702228665 0.128845885396 0.0
-0.240436166525 -0.333877205849 -0.356607377529 0.245906323195 0.0608756951988 0.103451244533 0.111836351454 0.156025543809 0.163321405649 0.0
-0.197277367115 -0.115586720407 0.0144035397097 0.0630538836122 0.00830413494259 0.00270261103287 -0.0677419826388 -0.0601986944675 -0.0191955566406 0.0
-0.14841529727 -0.231573030353 -0.0572669096291 0.028693055734 0.0259016007185 -0.0406632609665 0.0399585142732 -0.0604868493974 0.11830830574 -0.0437336
-0.000507206830662 -0.0907730981708 -0.0548243448138 0.0441246964037 0.0478770025074 -0.0662277638912 0.0498196557164 -0.0624070055783 -0.0776194706559 0.0
0.0959979146719 0.0640238001943 -0.057081695646 -0.106864854693 -0.111841596663 -0.0787926241755 -0.152368053794 0.0836885347962 0.0393085628748 0.0
-0.0370297767222 -0.0875936895609 -0.0128604816273 0.0466761998832 -0.0475498512387 0.014444489032 -0.0793554112315 -0.0126375500113 0.0574015341699 0.0
0.0453100651503 0.0294391009957 -0.133683562279 0.167752951384 0.213995993137 0.0261425580829 0.00132461986504 0.238157749176 0.0623947679996 0.0
-0.129330322146 0.0102419098839 -0.00559224188328 -0.060971044004 0.0588861815631 0.100092172623 -0.0136851044372 0.163151025772 0.0108938831836 0.0
-0.117622122169 -0.0809859409928 -0.182003214955 0.13772675395 0.102370753884 0.121374756098 -0.110027961433 0.0971087887883 0.069111995399 0.0
0.00751957297325 -0.0539393536747 -0.176480606198 0.123920343816 -0.0167180094868 0.0314684361219 -0.0730133652687 -0.0916017740965 0.150736197829 0.0
-0.161700248718 -0.0945913791656 -0.114283397794 0.175006136298 -0.0641977712512 -0.0220976099372 0.0322545133531 -0.0922827646136 0.0509914644063 0.0
-0.0631727352738 -0.246392264962 -0.0576225109398 -0.055092420429 -0.0692118555307 -0.0151271335781 0.00476450333372 -0.194951623678 0.0592947266996 0.0
-0.121772460639 -0.146240741014 -0.168728545308 0.109569229186 0.106714777648 -0.0220705773681 -0.109290264547 -0.135252863169 -0.0543520115316 0.0
-0.115312844515 -0.165594503284 -0.123976580799 0.169892057776 0.0924243628979 0.129908263683 0.164321914315 0.00563279492781 0.0323234945536 0.0
-0.0751798674464 0.0172145664692 -0.0414910316467 0.0148908337578 0.066799916327 0.00131981738377 0.0683405399323 -0.0326262973249 -0.0464740991592 0.0
-0.195263281465 -0.259402215481 -0.13039277494 0.0344068966806 0.0945777073503 -0.0761769413948 -0.0537822693586 -0.186417803168 -0.0318147689104 0.0
-0.26032602787 -0.197393685579 -0.16062027216 0.270871281624 0.124703228474 0.195977881551 -0.0274164192379 -0.0365910492837 -0.00303010223433 0.0
0.122015684843 -0.0254911351949 0.0562251769006 -0.0262922234833 -0.0115468241274 -0.0841694027185 -0.0140454890206 -0.0562570020556 -0.0354283340275 0.0
0.0890832841396 -0.0204629637301 0.0204477831721 0.158526778221 0.17231592536 0.0713057368994 0.144429340959 -0.0617448948324 0.0498466230929 0.0
-0.131755232811 -0.198354750872 -0.10954670608 0.0899182185531 0.0960771590471 0.0875854343176 -0.0243203993887 0.0431432649493 0.0433672778308 0.0
-0.197702005506 -0.252672642469 -0.130188032985 -0.0234638210386 -0.0567979030311 0.0138323558494 -0.0364045836031 -0.0362779609859 -0.0760129392147 0.0
-0.149622425437 -0.196680441499 -0.0476023294032 0.169903486967 0.0268785692751 -0.00682902755216 0.120060585439 -0.0151450876147 0.168069660664 0.0
-0.16708356142 -0.201378405094 -0.150518134236 0.0273244045675 0.025897860527 0.201580032706 0.106295600533 0.0460572503507 -0.0453548803926 0.0
-0.157593682408 -0.0918387770653 -0.0894336029887 -0.137181892991 -0.151831746101 -0.0902488976717 0.142258107662 0.110715143383 -0.0646296665072 0.0
-0.0252581033856 0.00243344134651 0.033236309886 -0.0249866507947 -0.0413136966527 -0.0848096311092 0.0490131601691 -0.0252515580505 -0.0838459953666 0.0
-0.0703928098083 -0.0738852396607 -0.14837808907 0.0588573403656 -0.0309182852507 -0.0636599883437 0.0417538508773 -0.136998727918 0.0876383706927 0.0
-0.0919344648719 0.0712929069996 0.0251838285476 0.117903389037 0.0108265373856 -0.0141645539552 0.0609362199903 -0.0656091496348 -0.114411130548 0.0
-0.159437447786 -0.289570301771 -0.249828651547 0.17647215724 0.0220150221139 -0.019307712093 0.0821487382054 -0.0603124685585 0.0645839050412 0.0
-0.0323596745729 -0.0682959184051 0.0203839316964 0.100451059639 0.00554189970717 0.126852750778 0.174195632339 0.00202425266616 0.0250722486526 0.0
-0.0622387044132 -0.0874826014042 -0.0224602743983 0.132868528366 0.178196668625 0.184293612838 0.0807908177376 0.197134718299 0.144958928227 0.0
-0.082055516541 -0.0213131960481 0.0382039807737 -0.134386271238 0.0236347727478 0.122857660055 -0.0607819594443 -0.0819635093212 0.232221886516 0.0
-0.12618522346 -0.0520740747452 -0.00960941426456 -0.012681373395 -0.00475253164768 0.00855570286512 0.0820197165012 -0.0122935138643 0.0714607387781 0.0
-0.186873868108 -0.367103666067 -0.299723982811 0.194461002946 0.00861233472824 0.193045765162 0.247322052717 -0.0197100527585 0.21222692728 0.0
-0.0376746878028 -0.096502147615 -0.14661988616 -0.0233960486948 -0.075863443315 0.141530096531 0.00726189697161 -0.0712630003691 0.0916306078434 0.0
-0.136145338416 -0.213155508041 -0.147023618221 0.110420539975 -0.0671338811517 0.0857016295195 0.0361171811819 -0.0673317462206 -0.00558424787596 0.0742898
0.0451513119042 -0.0826135203242 -0.0274693630636 0.0587994083762 0.0576007924974 0.0235532205552 0.0973374694586 -0.0284534934908 0.0432206429541 0.0
-0.059034626931 0.0691060721874 0.00536886043847 -0.00373809668235 -0.0480510368943 -0.138716772199 0.0293178707361 0.161158725619 0.0741810798645 0.0
-0.0621026568115 -0.0399535112083 0.112268619239 0.00655026594177 0.0828966200352 0.0714259669185 -0.081333450973 -0.0879407972097 0.0967891588807 0.0
-0.0278187915683 -0.0238796491176 0.100374646485 -0.113962806761 -0.148692876101 0.0650465935469 -0.049334667623 0.119241446257 -0.0351871140301 0.0
-0.0937894061208 0.00181640870869 -0.0603952854872 0.029098123312 0.0329352021217 -0.00600568018854 -0.0662805214524 -0.147436857224 -0.135674849153 0.0
0.115884907544 0.0323708802462 -0.077461771667 -0.0457384549081 -0.0486996173859 -0.0930956974626 0.080360725522 0.0321661680937 0.0168548449874 0.0
-0.0541652813554 -0.104420267045 -0.117782689631 -0.032886967063 -0.0729724317789 0.00210145441815 0.00995202641934 -0.0176901780069 0.0504757761955 0.0
-0.0752977877855 0.0804874449968 -0.0149534093216 -0.0348405092955 -0.00442356290296 0.0196660645306 -0.0203743185848 -0.0842185914516 0.0631006211042 0.0
0.0652348399162 -0.0130642801523 -0.0745565593243 0.0829410925508 0.088183157146 -0.0190199539065 0.0275239944458 0.0592288933694 -0.0696470439434 0.0
-0.135687470436 0.0827400386333 -0.0329047553241 -0.0375964865088 0.0384825766087 0.000833679630887 -0.0979478359222 0.0611218251288 0.00638257479295 0.0
-0.024496095255 -0.00603439239785 0.00702379271388 0.00722804293036 0.0341498292983 -0.00111632852349 -0.0344877764583 0.101623825729 -0.0669074356556 0.0
-0.0913711190224 -0.0867089480162 0.016429528594 -0.0521849952638 -0.0308072138578 -0.069072060287 0.0481240078807 0.0218043699861 0.08954308182 0.0
-0.100388072431 -0.00877838674933 0.143163472414 -0.112225152552 -0.0348080843687 -0.0622881501913 -0.0824044346809 0.0900941491127 -0.0743811056018 0.0
-0.0238289814442 0.0342135727406 0.0237120818347 -0.0751731991768 0.0834301784635 -0.0882702693343 -0.00942225381732 0.0574281476438 -0.15156057477 0.0
0.082009896636 0.0721361041069 0.0605753548443 0.0088047189638 -0.0491021350026 0.100882358849 0.0657080337405 -0.0404508411884 0.0457547083497 0.0
-0.0814581662416 0.0562796667218 0.0870403721929 -0.10988394171 0.0819170102477 0.00299719464965 -0.128623023629 0.0335973389447 -0.113070294261 0.0
-0.0502550080419 0.00725619029254 0.0141461836174 -0.134705737233 0.0933026224375 0.0259130559862 -0.0825419351459 0.0216523837298 -0.094111353159 0.0
-0.0576993636787 0.0826454162598 0.110637187958 -0.0282883588225 0.0874209553003 0.0232291724533 -0.0181795898825 0.141477033496 -0.166380211711 0.0
-0.0713786333799 -0.00965919625014 0.0323284715414 -0.0626033768058 -0.00640605436638 -0.0970856845379 0.0586583502591 0.0630879923701 0.0894426479936 0.0
-0.176390945911 0.136944323778 0.00672610336915 -0.0843336880207 0.0933614224195 -0.106892295182 -0.0810721963644 0.245938196778 -0.057284783572 0.0
-0.0564733184874 0.0182489361614 0.0290815383196 -0.116427883506 0.100237883627 0.0479090102017 0.00524708814919 0.0785398259759 -0.0152587080374 0.0
0.0298748519272 -0.00251252343878 0.030314154923 -0.0696774274111 0.0464124977589 0.0515953749418 0.0741025730968 -0.061319001019 0.0208491273224 0.0
0.0573318228126 -0.106750890613 -0.0655122250319 0.0117427343503 0.0245553720742 -0.0750809535384 0.0190477669239 0.0443890206516 -0.0113745247945 0.0
-0.00788415037096 0.106261327863 -0.047489579767 0.0969780310988 0.0551868081093 -0.0590920075774 0.109258905053 0.0587565302849 0.125399574637 0.0
0.0337632335722 -0.0844442248344 0.0249317213893 -0.0342574454844 -0.0374597944319 -0.0636367201805 0.00560946762562 -0.0475819483399 0.0603806935251 0.0
-0.107308402658 0.0864637717605 0.100065007806 -0.132645010948 0.0476122573018 -0.000526631716639 0.0587371215224 -0.0399306342006 0.0455488488078 0.0
0.141907438636 0.113317862153 -0.0151135036722 0.00929199624807 0.0433783642948 0.0240385681391 -0.0031421110034 -0.0360093042254 -0.0441406555474 0.0
0.11412409693 -0.115485735238 0.0523006469011 -0.0371611081064 -0.142744019628 0.0310536362231 0.0517385229468 -0.124500893056 0.0400011949241 0.0
-0.000770583865233 -0.00935131497681 0.0344625525177 -0.0520408786833 -0.0576331987977 -0.0358530580997 0.0765936374664 -0.116082176566 -0.0405421443284 0.0
-0.0798560157418 0.170180872083 0.0647047162056 -0.15701417625 -0.00836539920419 -0.0838449075818 -0.0522214062512 0.0363631434739 0.0951002836227 0.0
-0.0545809492469 0.0541106499732 -0.0872985646129 -0.034790225327 0.137950539589 0.0110883414745 -0.05925649032 0.129928141832 -0.108240358531 0.0
0.054136954248 0.184376969934 -0.0689199641347 -0.0188715811819 0.0461277887225 -0.0658896863461 0.0397085547447 0.130029156804 -0.124351292849 -0.00812874
0.0603738315403 0.00238148495555 0.0334412418306 -0.0822279378772 -0.00806185416877 0.0182037334889 0.0785994902253 -0.0674636885524 -0.066384896636 0.0
0.0757909342647 -0.0078713549301 -0.128349170089 0.0373716875911 -0.0175717454404 0.00743206031621 -0.0483882240951 -0.0717553794384 0.0157979801297 0.0
0.0116685917601 0.081988312304 -0.0333670563996 0.0592842698097 -0.0921521931887 -0.0637376457453 -0.021485067904 0.0593420378864 -0.030194927007 0.0
0.0589984841645 0.0336564779282 0.0762161463499 0.0910388603806 -0.032249789685 0.0591438189149 0.134456142783 0.102852910757 0.0188945364207 0.0
0.0475988350809 -0.00184826855548 0.00508281169459 0.0345416031778 -0.0898424834013 -0.0543166585267 -0.0945238247514 -0.0152852190658 0.0613043904305 0.0
0.0701647028327 -0.0314240455627 -0.0352141410112 -0.0126744555309 0.0171689614654 -0.00730814132839 -0.0810691416264 -0.0600906647742 -0.0548304505646 0.0
0.0358643122017 -0.0477280430496 -0.0343819595873 -0.0813550055027 -0.120490036905 -0.124031923711 -0.101041011512 -0.0220086518675 -0.0810853913426 0.0
-0.036151625216 0.0624338723719 -0.00431794766337 -0.0684040337801 0.0827552601695 0.0351357869804 0.0721262395382 0.0670630782843 -0.0704801231623 0.0
-0.034933000803 0.00732535729185 -0.109106190503 -0.0315993875265 -0.0343648940325 0.014466390945 -0.018591336906 -0.027188712731 0.024509081617 0.0
-0.0255465786904 -0.0108679700643 0.0796748399734 -0.0525633208454 -0.0339861959219 0.034233096987 -0.0116709750146 0.0945525318384 0.0428610481322 0.0
0.0358909517527 0.0430031120777 -0.0789434686303 -0.0614969618618 -0.0696622803807 -0.126550942659 0.0365287065506 0.0401846803725 0.0399772189558 0.0
-0.0342793650925 -0.0270179286599 -0.00283683883026 0.037634011358 0.0132970698178 -0.0490497872233 -0.0687974542379 -0.0441561155021 -0.0408875569701 0.0
0.0847002565861 0.0172751713544 0.0319015458226 -0.0936307832599 0.000944588682614 -0.019347788766 -0.0236805938184 -0.0405847989023 0.0346126295626 0.0
0.116399884224 0.100656874478 0.00713883107528 0.00705564254895 0.0623367317021 -0.0462064854801 0.112898007035 0.0179379284382 -0.096606887877 0.0
0.111604332924 -0.0882572606206 -0.0430328920484 0.0605032891035 -0.00451659597456 -0.050820581615 0.0757887735963 -0.0885851308703 0.0256624557078 0.0
0.0115564800799 0.127839997411 0.112934522331 -0.0523416921496 -0.0666900798678 0.0281319990754 -0.0204896014184 -0.00349676329643 -0.0154311554506 0.0
0.166785255075 -0.0376080833375 -0.0431481599808 -0.0996206924319 -0.0222443379462 -0.113364212215 -0.0996112078428 -0.0547741092741 -0.00854118075222 0.0
0.169726461172 0.0964545086026 0.0208641253412 -0.0240803156048 0.0336835496128 -0.034137096256 0.107722982764 0.0946177989244 -0.0506034009159 0.0
-0.0739069059491 -0.00786649622023 -0.0862660557032 -0.0196213889867 -0.10457059741 0.0400005616248 0.0885103195906 0.0490282736719 0.00235908897594 0.0
-0.00907428842038 -0.132620692253 -0.0802123621106 -0.0141748515889 0.0381807349622 -0.0655668154359 0.0556634478271 -0.0703749805689 -0.00342563912272 0.0
0.0579111874104 0.13723731041 0.0783528983593 0.0277054496109 -0.089053414762 -0.00278148497455 0.00493141775951 0.0748832374811 -0.024493208155 0.0
-0.0616477243602 0.0505917072296 -0.00971450284123 -0.0233103707433 -0.0047103902325 0.0375791490078 0.0969908162951 -0.0738903060555 0.0228166915476 0.0
0.0415791980922 -0.00437198532745 -0.0481508634984 -0.0907707959414 0.0191120002419 -0.0270892251283 -0.0524837858975 0.131250113249 0.0124550098553 0.0
-0.0360849052668 -0.0961614102125 0.0109500819817 0.00372007745318 -0.0923671647906 -0.0109715070575 0.0387695133686 -0.0187358781695 -0.0493798814714 0.0
0.0785690620542 -0.000262021727394 -0.125616446137 -0.0351288430393 0.036490984261 -0.0646370947361 0.0727292597294 0.0597630031407 0.02784409374 0.0
0.0207804776728 -0.0497123636305 -0.0527717359364 0.0551697723567 -0.0426464378834 0.00953134987503 0.0807024091482 0.105066567659 0.108024053276 0.0
-0.0399980098009 -0.0729020163417 -0.0201078336686 -0.115382164717 -0.085953630507 0.0473167747259 -0.000784819945693 -0.105104245245 -0.0815598517656 0.0
0.0138070965186 0.0368361212313 -0.0156559310853 -0.06269967556 -0.0124796442688 0.0712934136391 -0.098978638649 0.0572782494128 0.0344646833837 0.0
-0.0359856002033 -0.0962824374437 0.0672981366515 -0.0703067481518 -0.0143603421748 -0.0848959162831 -0.0253406669945 -0.0323808789253 -0.0907384082675 0.0
0.131775334477 -0.0581353157759 -0.0787832587957 0.0211548581719 -0.100681819022 -0.0689364522696 0.0875709429383 -0.0320197567344 -0.0369028784335 0.0
0.0559916496277 0.0133023438975 0.00738295074552 0.0505423992872 0.0279128644615 0.00403792550787 -0.00104519794695 0.0331425480545 -0.083337187767 0.0
0.0267051402479 -0.00949069205672 0.0188519023359 0.0519906245172 0.0331597924232 -0.128964021802 0.0331978350878 -0.000112826601253 -0.115165024996 -0.0937663
0.00469944346696 0.0428256690502 -0.0420317426324 0.066983781755 -0.0332885235548 0.112194158137 -0.102599218488 0.0175779704005 0.145091354847 0.0
0.270834088326 0.0993085876107 -0.0294119268656 0.264527380466 -0.0964097008109 -0.181074872613 -0.0532175116241 -0.231825754046 -0.203729450703 0.0
-0.104383178055 -0.147321388125 -0.0475637242198 0.0448216572404 -0.0462750568986 -0.0184950269759 -0.0916116833687 -0.0693094581366 -0.0356300398707 0.0
-0.114768669009 0.137026146054 -0.000490360602271 -0.2241397053 -0.058140207082 -0.0838579311967 -0.184170231223 0.0184982456267 -0.0384717471898 0.0
0.0248105321079 0.0841929763556 -0.139129728079 0.112152345479 0.0947832986712 -0.146348267794 -0.0249038673937 0.0997799783945 -0.0364423841238 0.0
0.0882220640779 0.219108387828 0.0388449877501 0.00579221174121 0.115408688784 0.163101240993 -0.119162142277 -0.155416756868 -0.106350548565 0.0
0.00253883842379 -0.106593564153 -0.118305169046 -0.181226834655 -0.0394705757499 -0.127337679267 0.173654988408 -0.0552369579673 0.123485587537 0.0
-0.111260339618 -0.0630632713437 -0.0765319019556 -0.0586939863861 0.020549222827 0.0844680145383 0.077317610383 0.222081080079 0.0995751917362 0.0
-0.0557211041451 0.0962451323867 0.210072755814 0.108203522861 0.0906910672784 0.0438220202923 -0.0941017046571 0.0538922846317 -0.0609646104276 0.0
-0.0165517888963 -0.0431338474154 -0.0223707761616 -0.258453935385 -0.193254619837 -0.183183699846 -0.13912242651 0.117152325809 -0.129883944988 0.0
-0.228636190295 0.138060212135 0.277854144573 -0.16320745647 0.0363635793328 0.20053781569 -0.0702711865306 0.0452531799674 -0.0333817340434 0.0
-0.0739952549338 -0.00105371314567 -0.0932522937655 -0.0275313500315 0.0666928887367 0.0126573769376 0.00419574370608 0.0868002846837 -0.059823717922 0.0
-0.106028541923 0.0501387305558 0.1191746369 0.111499033868 0.18762716651 0.271014153957 0.00100079516415 -0.350057721138 -0.0563841275871 0.0
0.0446694605052 -0.027525646612 -0.0792311131954 -0.0422346107662 0.00654131872579 0.1084779948 -0.131561219692 -0.21206946671 -0.124654822052 0.0
0.0133137525991 -0.107896074653 0.0364185459912 -0.0279380660504 0.0891010016203 0.167462930083 0.0645131096244 -0.00387135427445 -0.0947739332914 0.0
-0.155094251037 0.0279913563281 -0.033017706126 -0.0820502191782 -0.162403821945 -0.259450167418 0.19955816865 0.375134199858 0.122365668416 0.0
-0.114817939699 0.0810949876904 -0.140570059419 0.229918047786 0.255050688982 -0.0694974660873 -0.0329499058425 -0.205798611045 -0.169270440936 0.0
0.0342707969248 -0.177949309349 -0.0750700160861 0.144334971905 -0.00636221561581 0.053094394505 -0.110106214881 -0.172843366861 0.0698725581169 0.0
-0.0619476847351 -0.0496373735368 -0.0653906837106 -0.199686437845 -0.00783345848322 -0.195693790913 -0.0826426148415 0.141417756677 -0.347420215607 0.0
-0.00780277512968 -0.119655914605 -0.167612329125 -0.0581256449223 -0.0528343841434 -0.119507886469 0.00430531520396 7.96553722466e-05 -0.124503448606 0.0
0.0564362108707 0.237397491932 -0.148832067847 -0.0971437171102 0.171427577734 0.331032544374 -0.108462102711 -0.101557195187 0.0536627285182 0.0
-0.0345299206674 0.0796283334494 -0.0552444010973 0.0607304647565 -0.0506789647043 -0.0199437625706 0.0820390805602 0.0875322818756 0.0605547018349 0.0
0.0041774334386 -0.0760421156883 -0.101039409637 -0.0882279202342 -0.167545154691 -0.0249597877264 0.0827378481627 -0.0095442738384 -0.0385056324303 0.0
-0.113187909126 0.0955799147487 -0.0685213729739 0.108052276075 -0.0817120820284 -0.0307370889932 -0.0501069873571 -0.0713958963752 -0.170684397221 0.0
0.0530560836196 0.0817705616355 -0.0149775911123 -0.0250098947436 -0.0446490757167 -0.17757153511 -0.16374771297 -0.244840502739 -0.151022091508 0.0
-0.0621939860284 0.098403275013 -0.04197781533 -0.0892965644598 0.0132366046309 -0.0544396750629 -0.0820346847177 -0.0232611708343 0.090855576098 0.0
0.087195508182 -0.0515332259238 0.00345870526507 -0.103483326733 -0.098298586905 -0.0931534022093 0.020097495988 0.0333474949002 0.0764818862081 0.0
-0.00341563043185 0.179725006223 0.106666661799 0.010066613555 -0.0110688973218 0.003798852209 0.0425925627351 -0.28902387619 0.0544631518424 0.0
0.0413437597454 -0.0471969023347 -0.0200553517789 0.0801853612065 -0.0612002909184 -0.0654709264636 0.125017940998 -0.079781986773 0.0131974341348 0.0
-0.0255198851228 -0.118999369442 -0.0124178333208 0.00267303641886 -0.215687081218 -0.011008836329 0.0215294640511 -0.0247815866023 0.352475523949 0.0
0.0226950161159 -0.0570068284869 0.0406858548522 -0.0332672260702 0.101585008204 0.0147583233193 -0.132635220885 -0.0245762467384 -0.151698574424 0.0
0.0279280953109 0.0270849242806 0.0190203525126 -0.0911694169044 -0.071474134922 0.0969699844718 -0.179869636893 -0.286339998245 -0.0634867176414 0.124771
0.0759817585349 -0.0811282098293 -0.0308500919491 0.0100827291608 -0.0803844183683 -0.0703586339951 0.0810537934303 -0.0155943641439 0.020137488842 0.0
-0.0629932209849 -0.027574909851 0.0680888965726 -0.0834889933467 0.0450830422342 -0.0544348806143 0.0826475918293 0.15919162333 -0.00233096745797 0.0
0.0510879121721 0.0269060172141 -0.019543139264 -0.0572999566793 -0.0303960070014 -0.0771849825978 -0.0965700820088 -0.0837118923664 0.0391103327274 0.0
0.0792578756809 -0.0334381498396 -0.0592153705657 -0.026046000421 -0.0606793351471 -0.0911644995213 -0.0288690850139 0.0401447601616 -0.019530326128 0.0
-0.132889792323 0.0122279589996 0.0518715344369 -0.0846253857017 -0.0791719257832 0.0779422074556 -0.00985270086676 -0.102231413126 -0.0712678357959 0.0
0.0993318632245 -0.0784113705158 0.0214710868895 -0.039853438735 0.0291272327304 0.0923899486661 -0.0697783157229 -0.0533616840839 0.0504779703915 0.0
0.0136526590213 0.00829494930804 0.0483998432755 0.06664724648 -0.0387054011226 -0.0725011974573 -0.0698578581214 0.0555193573236 -0.0689146146178 0.0
-0.0497673116624 -0.117878034711 -0.108324557543 -0.0991021543741 -0.131502538919 0.0205074027181 -0.0472114570439 -0.082282833755 0.0655972361565 0.0
0.0701531395316 -0.118114113808 -0.0136822210625 0.123154573143 -0.0521459169686 -0.0500925891101 0.0548844188452 0.0339936204255 0.170699074864 0.0
0.0010409624083 0.0128694754094 0.0275181923062 0.00827009417117 0.143173754215 0.102089330554 -0.0121749155223 0.0820969045162 0.088502086699 0.0
0.015954958275 0.108314990997 -0.0572136007249 -0.0552420914173 -0.0764790102839 -0.128807291389 0.0529201701283 0.0108383418992 -0.0480977185071 0.0
-0.0583921596408 0.0898031666875 0.0421746484935 -0.0233899988234 0.0345492623746 0.0505405142903 0.0152544416487 3.60155609087e-05 0.0140704261139 0.0
0.140821263194 0.0225222893059 0.122182063758 -0.0196684952825 -0.0836586207151 -0.0898937955499 -0.00288090761751 -0.00401502894238 -0.0299027338624 0.0
0.0592482499778 0.0196712315083 0.0367182195187 0.0793675929308 -0.0994137823582 0.0380769073963 0.137054219842 -0.0724352225661 -0.0763301774859 0.0
0.0417439714074 -0.0491216666996 0.0869871750474 0.0763135552406 0.0307823661715 0.0401654429734 -0.0693199783564 -0.0916238054633 -0.0666136816144 0.0
0.0615589022636 -0.0375786349177 0.094450764358 -0.0938980430365 0.0871482491493 0.0915857627988 -0.0777813643217 0.0980400517583 -0.0104065872729 0.0
0.11432082206 0.0560424625874 0.0830136239529 0.0649097263813 0.0968841314316 -0.0310591310263 0.000949180393945 0.0195587985218 -0.0476060397923 0.0
-0.00384681997821 -0.033106636256 0.175432875752 0.0511578768492 0.0272147767246 0.103068999946 -0.145970180631 -0.000759742979426 -0.0291430931538 0.0
-0.0192322116345 -0.111077092588 0.0583772882819 -0.0486442297697 0.0110685527325 0.0100691691041 -0.00199602055363 -0.0293996650726 0.0601670816541 0.0
0.0104975486174 -0.0329656936228 -0.0860358029604 -0.0155949760228 -0.0284712333232 0.0468095391989 0.0230092983693 0.068470671773 -0.0506525821984 0.0
-0.00903521478176 0.0205591320992 0.0448913127184 0.00341089675203 -0.0440263040364 -0.107994392514 0.0290577709675 0.0618937276304 0.0626680403948 0.0
0.0956673026085 0.092937797308 0.0179175436497 -0.0739450231194 -0.0701170563698 0.0230044461787 -0.015067785047 0.0145144835114 0.0854212790728 0.0
-0.0681546330452 0.0184400398284 0.0195453297347 -0.0578160732985 0.0340856947005 0.00345986639149 0.0877930894494 0.0981881767511 0.00676679005846 0.0
-0.0252929311246 -0.106512516737 -0.0476192571223 0.0956798642874 -0.0610310956836 -0.125517144799 0.131254702806 0.0278835166246 -0.0986588746309 0.0
0.0479724630713 -0.15973983705 0.113497361541 0.118080459535 -0.0450127907097 0.00107270781882 0.00065365084447 -0.127872541547 -0.0045845201239 0.0
-0.00847266707569 -0.0850317850709 0.0199348479509 -0.118857882917 -0.0525302253664 -0.00871370360255 0.0288254413754 0.048483081162 0.0233343653381 0.0
0.100016973913 0.1264103055 0.150558724999 0.0817397385836 0.0935638844967 0.134908556938 -0.0265702884644 0.0263745561242 0.0852423459291 0.0
-0.115632049739 -0.0692551061511 0.01761402376 0.0316808223724 0.0384741984308 -0.00147053867113 -0.0841783508658 -0.117209479213 0.0308794658631 0.0
-0.0631820037961 -0.0500212013721 -0.0464618094265 -0.0835386142135 0.0300708618015 0.0393298082054 -0.064236946404 0.0573095567524 -0.0718348920345 0.0
0.0652299895883 0.0686506703496 0.156947985291 0.0569251812994 -0.0820969864726 0.127121865749 -0.061045024544 -0.0473463870585 -0.0949107855558 0.0
-0.0150830633938 -0.0641519352794 -0.0421876944602 0.0751975551248 -0.130053788424 -0.00402117101476 0.098649777472 -0.0115097500384 -0.0559367984533 0.0
0.0746166110039 -0.0166538842022 0.0740966275334 0.027551010251 0.0126271815971 -0.0803932473063 -0.0958515554667 0.0318665765226 -0.0291731022298 -0.0695925
0.0974802672863 -0.0813958868384 -0.0836744979024 0.0371076837182 0.0755007043481 0.0197204127908 0.0469818040729 0.0210461430252 0.067710287869 0.0
-0.0933440849185 0.0545694194734 -0.088346131146 0.0243428610265 -0.0173781197518 -0.141956657171 -0.0926898643374 0.0245242267847 -0.0502447746694 0.0
0.0278833303601 0.0688087120652 0.0480766519904 0.00228181038983 0.00282473163679 0.0177877116948 -1.00747056422e-05 0.0387011356652 0.0233642049134 0.0
-0.019931409508 -0.0952903777361 0.0462419241667 -0.118434883654 -0.0716614201665 0.0559666417539 0.0505848824978 0.0385358184576 -0.00413890555501 0.0
-0.00867793802172 -0.0566797330976 0.0244053844362 -0.0412282906473 -0.100397191942 -0.0305768977851 0.0700689032674 -0.120491489768 0.0805652812123 0.0
0.00414751609787 -0.0599196776748 0.0337702929974 -0.104782067239 0.00506903836504 -0.0872591808438 0.0165544264019 -0.087788335979 -0.0967578589916 0.0
0.181927740574 -0.0600102618337 0.00630884803832 0.0453527607024 -0.0439907163382 -0.0493700578809 0.0161152780056 -0.114778086543 0.00576866604388 0.0
0.0579174570739 -0.00135700043757 0.0640774294734 -0.00939796678722 0.107891246676 -0.0317128710449 0.0316737741232 0.108568362892 0.0708415806293 0.0
-0.0423222184181 0.0677504763007 0.0561928600073 0.0320652350783 0.0916480273008 -0.0722201094031 0.0399282686412 0.0703923031688 0.0567828081548 0.0
0.0386513136327 -0.0259364042431 0.0674273967743 0.0342793911695 -0.0502103045583 -0.0917655751109 -0.040190204978 0.0190410036594 0.0614704973996 0.0
0.0538059175014 0.0407556034625 0.129119813442 -0.0617555305362 -0.0687844753265 -0.0420238003135 -0.0234395898879 -0.110139213502 -0.0425487607718 0.0
-0.0901469737291 0.0620407238603 -0.0955756828189 0.0632897019386 0.0840063542128 0.028753625229 0.0665076524019 0.0909572467208 0.0520589798689 0.0
0.0882542282343 0.11284198612 -0.0746078714728 -0.0376338027418 0.154522925615 -0.15047724545 -0.00129176315386 0.188240602612 -0.0542872101068 0.0
-0.0181678663939 0.191600710154 0.0441085658967 -0.119565702975 0.0757722482085 -0.0530998744071 -0.10618443042 0.101320073009 0.0533924326301 0.0
0.017906004563 0.0508105047047 -0.0473398342729 -0.0601837486029 0.067494481802 0.00224687973969 0.00171292782761 0.0640069320798 -0.00149895332288 0.0
-0.0108880670741 -0.0931116566062 -0.0315055251122 -0.0209175162017 -0.0593633539975 0.107811622322 -0.00131218333263 0.0567032918334 0.0143187455833 0.0
0.00913448724896 0.00369697646238 -0.0148603422567 -0.0780179649591 -0.0113754291087 -0.083041280508 -0.0182373858988 -0.0261009391397 -0.104517214 0.0
0.00397938583046 0.214885875583 -0.0273956600577 -0.0792936235666 0.12472768873 -0.0792353749275 -0.0243231356144 0.124260351062 -0.0991153791547 0.0
0.0608259178698 0.0202072672546 -0.0129041187465 0.0145370038226 0.0637884587049 -0.0741778761148 -0.00423245644197 -0.0122891571373 0.0387030318379 0.0
0.0399722196162 -0.058370359242 0.0174466893077 -0.0423137880862 -0.0523173809052 0.0701721683145 -0.000926790817175 0.103928349912 0.13491101563 0.0
-0.034337375313 0.065222851932 0.0769072771072 -0.0572735443711 0.112065948546 -0.0391296222806 0.00829715933651 0.0270370449871 -0.113485775888 0.0
0.0639389529824 0.0464773252606 0.0955842882395 -0.00372130819596 0.0458988584578 0.0620427019894 0.00985377468169 -0.0275414716452 0.0188448019326 0.0
-0.00762607622892 0.0136810829863 0.0678272768855 0.0194687452167 -0.000398133095587 0.0133114056662 -0.0238954219967 -0.0980050116777 0.0577632598579 0.0
-0.0363750196993 -0.0145468376577 0.0558767020702 -0.017061971128 0.158059865236 0.0324788466096 0.0639654546976 0.0991049930453 0.0168890934438 0.0
-0.0984235405922 0.0625896453857 -0.0916702076793 -0.106493867934 -0.091515339911 -0.128912940621 0.0343944653869 0.16817240417 -0.0191737003624 0.0
0.00252118357457 0.0597808174789 0.0250897072256 -0.0491145700216 0.0250577125698 -0.0280087813735 -0.139193430543 0.026446165517 -0.0778845623136 0.0
-0.017425371334 -0.00459504593164 -0.0206865165383 0.0911420881748 0.0344630591571 0.0573967024684 -0.0425858423114 -0.134806469083 0.0131142223254 0.0
0.129930913448 0.126352697611 0.0722960084677 0.0801295265555 -0.0210812333971 -0.0884193554521 0.101966708899 0.0306444000453 -0.0484247580171 0.0
0.0684244707227 -0.111699342728 0.0794814452529 0.055441532284 -0.00686619803309 0.0519458390772 -0.0318170152605 0.0213065072894 -0.0680162236094 0.0
0.0440868698061 0.105016008019 -0.0184077452868 -0.185789078474 0.0909027829766 -0.141802191734 -0.18718329072 0.163821086287 -0.11637634784 0.0
0.0760510489345 0.0726652145386 -0.00690582115203 0.0205248706043 0.105624862015 0.0108047584072 -0.0242937803268 0.0289814919233 0.0438342429698 0.0
0.024757316336 0.0955918952823 0.00362193048932 0.000988035812043 0.106375358999 -0.023014543578 -0.112351104617 0.0984062701464 -0.142108500004 0.0471918
0.00741692399606 -0.0329894647002 0.053466796875 0.0511548258364 -0.00767088774592 0.0570802614093 0.0371358655393 -0.0232136603445 0.0652154684067 0.0
0.134495720267 0.00814838241786 -0.0792988985777 0.0235984753817 -0.0355576612055 -0.0507194139063 -0.103591158986 -0.0891806930304 -0.15337395668 0.0
-0.0343397594988 -0.0637393146753 0.0862108245492 -0.0867145583034 0.0715839862823 0.00789538118988 -0.042986292392 0.0272324047983 -0.0382456295192 0.0
-0.0254030227661 -0.06827557832 0.082324154675 -0.10751619935 -0.122725240886 -0.0626540482044 -0.0249541737139 0.00585547275841 0.00602494738996 0.0
-0.101255767047 0.0353755243123 -0.0473366416991 -0.113513104618 0.00370358582586 -0.0427385419607 0.0209167450666 0.0162026379257 0.0897893831134 0.0
-0.0726400539279 -0.0858076587319 0.0336225070059 -0.0207171458751 -0.0273727625608 -0.0544007122517 -0.0367908664048 -0.0262260381132 -0.0614183135331 0.0
0.00905915722251 -0.0738483145833 -0.08454670012 0.0729251280427 -0.053180437535 0.00843767821789 -0.0254643037915 0.0280433837324 -0.0347607582808 0.0
-0.0666479766369 -0.0929948538542 0.0343480706215 -0.0198772288859 -0.00142208393663 0.0361437126994 -0.112091377378 -0.0546758882701 0.10902941972 0.0
-0.000596909900196 0.0648157894611 0.125339999795 -0.0648915246129 -0.111745908856 0.0288147889078 0.0617415942252 -0.0739125609398 -0.0421797484159 0.0
0.0832491219044 -0.0761470645666 -0.0674712136388 0.0406021587551 -0.127734571695 0.00187647982966 -0.0695561021566 -0.00800190214068 -0.0255442373455 0.0
-0.0592624470592 -0.0201283115894 -0.0257069841027 0.0349626094103 -0.132028236985 0.0169228147715 -0.0608246661723 -0.0754531696439 -0.0603928007185 0.0
-0.0493635646999 0.0864387303591 0.0652937218547 0.0350157469511 -0.0084580834955 0.0832240059972 -0.081498041749 0.058388158679 -0.0882985144854 0.0
0.0971113294363 0.0554570369422 -0.00307759898715 -0.0186708904803 0.12154315412 0.024695796892 -0.109250053763 -0.142559453845 -0.105747565627 0.0
-0.0144294053316 -0.0248951036483 0.0353661701083 0.0617565996945 0.0404912531376 0.0601924546063 -0.0685662031174 -0.101760819554 -0.108505174518 0.0
-0.00341467978433 0.121059574187 0.0294074341655 -0.0618845000863 0.111079588532 0.12812615931 -0.136852115393 -0.104663774371 0.0510473363101 0.0
-0.0690221786499 -0.0379027016461 -0.0936565324664 0.0544042102993 0.0755399987102 0.00893457792699 -0.000889979011845 0.0296561140567 0.122509092093 0.0
-0.0905769467354 0.0959065780044 0.0850614905357 0.123008705676 0.0720074772835 0.0445952787995 -0.0671732351184 -0.0730797424912 -0.0436983853579 0.0
-0.00636643264443 0.00236652279273 -0.117564477026 -0.0902084261179 -0.0635251775384 -0.0202259365469 -0.157252803445 -0.106845855713 0.0337454080582 0.0
-0.11386410892 0.108674690127 0.0936694592237 -0.109976820648 -0.0309800002724 0.0838631018996 -0.158939346671 0.0911390408874 0.0815952941775 0.0
0.0435178615153 0.0871687829494 0.0520760454237 -0.0285341124982 0.0346809476614 0.0883425027132 0.0199251603335 0.041813492775 0.00722583057359 0.0
-0.0154175572097 0.0381201468408 0.0970127359033 0.0550553686917 -0.0189673025161 0.076884418726 -0.0147128328681 -0.222148880363 -0.00896020326763 0.0
0.0455148145556 0.0624171383679 0.0771207734942 0.0808020830154 -0.0139291863889 0.0644408985972 -0.0540088638663 0.0805344507098 -0.0204696599394 0.0
0.0092212529853 0.0737117603421 0.0102771054953 -0.0367234162986 0.0436481647193 -0.066258944571 0.0317728444934 -0.00189197435975 0.0783737078309 0.0
-0.00468227267265 0.0904278978705 -0.0488090105355 -0.153817608953 0.129776626825 0.0637784972787 -0.148662477732 0.0847664996982 0.0942920893431 0.0
-0.0282843112946 0.210914596915 0.153087720275 0.0454082004726 -0.00882979296148 0.0279242098331 0.0120239146054 -0.0407756716013 -0.132421121001 0.0
-0.106714099646 -0.0785664096475 -0.0798659697175 -0.043200943619 0.00468872627243 0.0133542772382 0.0672271773219 -0.016799563542 -0.068158634007 0.0
-0.09221919626 0.0332147292793 0.0909613594413 -0.0492756813765 0.0738475099206 0.0547111369669 -0.0944291949272 0.00338883069344 -0.0409668833017 0.0
0.0182958692312 0.0517606884241 0.0540314428508 -0.0238428879529 0.00413593044505 -0.110443308949 0.0609038770199 -0.00582399545237 -0.12633305788 0.0
-0.0748926326632 0.0820976048708 -0.0516047775745 -0.00092431093799 0.130678370595 -0.0111904740334 -0.0196493472904 0.0403753072023 -0.0208347700536 0.0
0.112622953951 0.135790586472 0.0713652968407 0.0892650187016 0.117050684988 0.000926043372601 0.0958477631211 0.0658431723714 0.12379103899 0.0
0.090300604701 0.0291058383882 -0.0777675360441 0.00241986941546 -0.0681226029992 -0.0108575103804 -0.0558183565736 0.0840916633606 -0.0112249553204 0.0
0.0216068439186 -0.106386139989 -0.0577224269509 0.104484334588 -0.088607057929 -0.0727906450629 0.0318993404508 -0.0398351885378 -0.136307954788 0.000895926
0.085947804153 -0.0333814099431 0.0721151158214 0.0801392421126 -0.0650085583329 -0.0636421144009 0.00955056864768 -0.00432342616841 -0.0912113338709 0.0
0.0319702066481 0.0543322786689 -0.0997296869755 -0.0346998497844 0.0250533148646 0.041266977787 0.0662081763148 0.073448382318 -0.0262487046421 0.0
0.0551056191325 0.0439406819642 -0.0168133396655 -0.0831585898995 -0.0532831661403 0.0279197115451 0.0403743609786 0.0453946888447 0.0472857765853 0.0
-0.033049877733 0.00541095947847 0.092790775001 -0.0800381079316 -0.0543842352927 0.101134493947 -0.0514344088733 0.0723949670792 -0.0312216803432 0.0
-0.0676914453506 -0.0835251286626 0.0360783822834 -0.0276737455279 0.0325051508844 0.096466511488 0.0662117898464 -0.0675668120384 -0.0503220930696 0.0
-0.010443626903 0.101610653102 -0.0510370545089 0.0218960270286 -0.0554948486388 -0.151563167572 0.0988168343902 -0.0655092522502 -0.0882913395762 0.0
0.120827168226 0.0570578202605 0.00106269866228 0.113190099597 0.0732246339321 0.0284708365798 0.0285674706101 -0.0634744912386 -0.0288982596248 0.0
-0.0309333652258 -0.0285769235343 0.0351454690099 0.0156341902912 -0.0120741752908 -0.0176624506712 -0.0890569314361 -0.0312693975866 -0.0715644881129 0.0
0.0607881657779 0.0927608534694 -0.000197233573999 -0.0041990862228 0.107069276273 -0.0837423279881 0.104661695659 -0.00808477308601 0.0845255628228 0.0
0.05476327613 -0.00985312648118 -0.0604096986353 -0.0144217107445 -0.0351923145354 -0.0130599532276 0.0118483034894 -0.10092715919 0.0502453036606 0.0
0.141097962856 0.0999412611127 0.00219343486242 -0.0653921440244 -0.0985992252827 0.0498835518956 0.100008636713 0.0471127703786 0.0191289745271 0.0
-0.0478918142617 -0.0253192167729 -0.0708297789097 -0.0956215709448 0.00650426233187 0.0814064219594 0.0256828125566 -0.0977894961834 -0.0645860433578 0.0
0.0615746304393 -0.0313632190228 -0.0517011396587 -0.0222711209208 -0.0405278913677 0.00726358732209 -0.0196663811803 -0.0592421814799 0.0161461010575 0.0
0.0209569614381 0.0674963817 -0.131595775485 -0.0482868403196 -0.0653259009123 -0.0903922989964 -0.0615972839296 -0.000548137933947 0.0342924781144 0.0
0.0520251318812 0.0562978424132 0.071910277009 -0.0398174859583 0.113132663071 0.00566577212885 0.0521631129086 -0.0240191724151 -0.0199327357113 0.0
-0.0496826432645 0.0766211077571 -0.0394681245089 0.0419944226742 0.0180803667754 0.0174513868988 -0.0361880585551 0.0770589411259 -0.128134071827 0.0
-0.0558973997831 0.0814504623413 -0.0397779345512 -0.0452096685767 0.0915380716324 0.0332073718309 0.00303449202329 0.0283422395587 -0.0797641128302 0.0
0.05239585042 -0.0208294726908 0.147436439991 -0.0516007058322 0.0763162896037 -0.0841269791126 -0.0720096603036 0.0880439803004 -0.08059566468 0.0
-0.0242366343737 -0.0167314577848 -0.0860824212432 0.0416808351874 0.0176968127489 0.065255984664 0.0857822746038 0.0468587689102 0.0251423958689 0.0
0.0421822182834 -0.0288852900267 -0.0329938754439 -0.0828785076737 -0.0260813273489 0.00485949963331 0.0114036630839 0.00512598687783 0.0960006713867 0.0
-0.0488041825593 0.0724068507552 0.0984665602446 -0.00912158470601 -0.0426349565387 0.0513579696417 0.0685254260898 0.0671509131789 0.00907263439149 0.0
0.0778845995665 0.0065794987604 0.0136078242213 -0.0404409654438 0.0877996981144 0.0696652457118 -0.0460636019707 0.0103492122144 0.0244701765478 0.0
0.079404592514 -0.0303673148155 0.0650943294168 0.0154529185966 -0.0856038406491 -0.00937812589109 -0.0634532347322 0.0579026527703 0.00808434933424 0.0
0.0823421031237 0.0831945836544 0.00175309192855 0.0469440184534 -0.051293823868 -0.0197388790548 -0.00549246510491 -0.0597810260952 0.0787878856063 0.0
-0.0204177778214 0.0855847373605 0.070886336267 -0.105091996491 0.065611846745 -0.0317218005657 0.00449327286333 0.112238571048 0.00769060989842 0.0
0.064748339355 -0.0637512505054 0.0312106758356 -0.0275682192296 -0.0239773578942 0.0370553582907 -0.0365430675447 0.0440645031631 -0.101134642959 0.0
0.0774489715695 -0.05373788625 -0.0288316886872 0.0236558578908 0.076849475503 0.0439355671406 0.0583216361701 0.0283600632101 0.0707276836038 0.0
0.00564975803718 0.0607597380877 0.0638025328517 -0.0859133601189 0.0767408758402 0.0959361121058 -0.0237409304827 -0.036785505712 0.148744210601 0.0
0.0254592243582 0.0939605459571 -0.0681804120541 0.0257022883743 -0.0560730174184 -0.0395000614226 0.0788483470678 0.0333672203124 0.00794321857393 0.0
0.0243180450052 0.0735003948212 -0.047468777746 -0.109403207898 -0.0547430291772 -0.0885250270367 -0.0859193280339 0.0681219249964 -0.0792426094413 0.0
-0.0373232625425 -0.00404417375103 -0.0842103809118 -0.0330501422286 0.1171599105 0.0232742782682 -0.0119809219614 0.054094992578 -0.093493245542 0.0
0.0943139269948 0.070294521749 -0.0319626741111 -0.0371445566416 0.0168065540493 -0.0520403534174 0.0983762741089 -0.00950040388852 -0.0891795307398 0.0272221
-0.0792566090822 -0.0742746368051 -0.0298186577857 0.0234345439821 0.0348156169057 0.0654960125685 0.0307586174458 0.0978745743632 0.087363190949 0.0
0.204650074244 0.131078317761 -0.0726768821478 0.0407100915909 0.0177469626069 0.0163854602724 -0.150900840759 -0.187958702445 -0.180045813322 0.0
0.05146978423 0.0306847598404 -0.056921645999 0.00490007316694 -0.0664296373725 -0.0621510669589 -0.0110289948061 -0.0107835121453 0.0188528578728 0.0
0.0464232750237 -0.00750214094296 0.00203290418722 0.0345541834831 -0.179398149252 -0.136526331306 -0.104691170156 -0.00385076366365 0.11219189316 0.0
0.107269152999 -0.0104055842385 0.0686468780041 0.0462680980563 0.0281036887318 -0.0132240364328 -0.0453165434301 -0.00343119795434 -0.0228133108467 0.0
-0.137934714556 -0.0790592581034 0.113707944751 0.0640877336264 -0.0102066602558 -0.0578849464655 -0.0826271027327 -0.1227780357 -0.142354309559 0.0
0.155666843057 0.0965293869376 -0.0943225324154 -0.120529986918 0.156077459455 -0.163416489959 -0.11587254703 0.192644536495 -0.0609634444118 0.0
0.075063161552 0.0142822070047 -0.11403170228 -0.0838550925255 -0.0980640649796 0.0109893977642 0.0900405496359 -0.0853594839573 0.152023494244 0.0
-0.00546993454918 0.0135845979676 0.164865508676 -0.00175354501698 -0.113448858261 0.0125900479034 0.0774507075548 -0.149283483624 -0.0875538289547 0.0
0.084662206471 -0.0834513604641 -0.126010760665 -0.107420489192 -0.087165825069 -0.108726337552 0.00566603150219 -0.0206391569227 0.0354236252606 0.0
-0.0532719008625 -0.0988190248609 -0.0454003401101 0.123001553118 -0.163108184934 0.0245635472238 -0.000600536353886 -0.14403809607 -0.125427395105 0.0
0.0460760332644 0.0684319138527 0.0254985000938 -0.0139431823045 0.00418692175299 -0.0501811243594 0.0959879904985 0.0890435576439 0.0801370963454 0.0
0.116530694067 -0.0668049305677 0.0476506352425 0.10550827533 0.0708533599973 0.0688180848956 -0.185304448009 -0.0902268514037 -0.192829206586 0.0
0.0521047115326 0.0586157515645 0.0483118072152 0.0134397149086 0.0771429464221 -0.0685274153948 -0.13155926764 -0.16239823401 -0.144526198506 0.0
-0.0281949043274 0.0438016355038 -0.017818370834 -0.0612362250686 0.00362943205982 0.0241678208113 -0.0700503513217 -0.0659642070532 -0.0467894226313 0.0
-0.158169284463 0.0597960241139 -0.0849468633533 -0.0988631993532 -0.0138995088637 0.199551284313 0.166293382645 -0.0249425824732 0.21525259316 0.0
0.0183336976916 -0.0451062135398 0.0221629645675 0.0730649828911 0.120396479964 0.0328195393085 -0.100291341543 0.0251985676587 -0.146764546633 0.0
-0.0192331131548 0.142413362861 -0.0178254265338 0.0698600187898 0.0371790602803 0.0125528266653 -0.112189538777 -0.182631924748 0.0677097588778 0.0
0.0105697670951 0.0288480203599 0.061242505908 -0.0434069037437 -0.184855893254 0.154982864857 0.100609466434 -0.0472795702517 0.0240950249135 0.0
-0.0625384896994 0.15064406395 -0.0360376685858 0.0236079990864 -0.0173839014024 0.12062522769 -0.0431805923581 0.0419722534716 0.226954549551 0.0
-0.0204422418028 -0.0427001267672 0.165036037564 -0.00351343303919 0.0714227855206 0.0766012072563 -0.011813538149 -0.0862812623382 -0.20890969038 0.0
0.0188618600368 -0.0264057423919 -0.0846343934536 -0.0708225369453 0.0627425834537 0.0792687684298 -0.000476537097711 0.0675435960293 0.0529728680849 0.0
0.0850342661142 0.0411842018366 0.105689100921 0.00420053116977 -0.0487128645182 0.00386319728568 -0.0248234104365 0.0867416933179 0.0772730708122 0.0
-0.0937552824616 0.174960032105 0.0914203748107 -0.0421974398196 0.055546246469 0.0977374985814 -0.163164108992 -0.132852315903 0.102591693401 0.0
0.00582365551963 0.0752799138427 0.267322570086 0.0233936719596 0.000217504886677 -0.0980985835195 0.0084448447451 0.014853335917 -0.12860520184 0.0
0.0173206198961 -0.180334433913 -0.0714716389775 -0.00355800357647 -0.101258598268 0.0185608826578 0.0672936663032 -0.0640599131584 -0.0504332818091 0.0
-0.01014287211 0.0984732508659 -0.010049527511 -0.013821285218 -0.00213687773794 0.0435883440077 -0.053743943572 -0.0301610995084 0.0445902086794 0.0
0.145497411489 -0.0478475466371 -0.0299682058394 0.0133675942197 0.0581392720342 -0.00320372101851 -0.102158918977 0.0662001594901 -0.0631184801459 0.0
-0.142871186137 0.11878477782 0.0862748995423 -0.0673445388675 0.125800043344 0.125235915184 0.0305478591472 0.0265515763313 -0.00537689309567 0.0
0.330751895905 0.0482398346066 -0.00798162724823 -0.0301756318659 0.0291580893099 -0.00146040646359 -0.0435850471258 0.135300055146 0.0570330359042 0.0
0.0353866666555 0.0339105986059 0.045750387013 -0.00523848785087 -0.0334481298923 -0.11337697506 -0.0770986974239 -0.124913722277 -0.026772543788 0.0
-0.150117769837 -0.0757747069001 0.033293582499 0.107782244682 -0.0973810628057 0.00603786762804 0.0368107929826 -0.0727349221706 -0.188967451453 -0.0782333
0.104497894645 -0.0210120454431 -0.067116625607 -0.0327134430408 -0.0070354831405 0.0826837718487 0.0226470213383 0.0590419434011 0.0706518888474 0.0
0.0365139693022 0.156216949224 -0.0382705368102 0.124181747437 -0.0597561150789 -0.0452471375465 -0.0127198202536 -0.0750576034188 -0.0567476265132 0.0
0.0942866131663 0.019159598276 0.012974774465 -0.0552646927536 0.0317741632462 -0.0739807859063 0.0944826900959 0.0477725937963 0.0525058433414 0.0
-0.0499194301665 0.109431803226 -0.0524757653475 -0.0699965879321 0.0724609494209 0.0664251372218 0.0451824404299 -0.0277572572231 -0.0589767582715 0.0
-0.0191315189004 -0.054629329592 -0.0709316655993 -0.0473429746926 -0.00125577149447 0.0376862473786 -0.0733113959432 -0.0611418560147 -0.14100253582 0.0
-0.00924474280328 0.0270687788725 -0.087571464479 0.123471237719 -0.0569607056677 0.0532142259181 0.217613309622 -0.0697897449136 -0.100754410028 0.0
0.0405719652772 0.0899974554777 -0.143914744258 0.102694362402 -0.0507823191583 -0.133636549115 0.112979151309 0.010629880242 -0.00742352986708 0.0
-0.103478558362 -0.100457236171 -0.027472211048 -0.0741878375411 0.0915820598602 -0.0561379082501 -0.032213781029 0.0662300735712 -0.109076693654 0.0
-0.0663651376963 -0.0136953676119 0.009486079216 0.033634275198 -0.0104527864605 -0.037505980581 -0.0637990236282 0.15254496038 -0.0196273047477 0.0
0.170772612095 0.152048930526 0.0176059249789 -0.0251511167735 0.0571877770126 -0.0670237988234 0.114516794682 0.114034995437 -0.100612930954 0.0
-0.0547122918069 0.149837911129 0.00293262442574 0.0729039162397 0.0343563705683 -0.131171062589 0.17750826478 0.165034353733 -0.243282884359 0.0
-0.0555285140872 -0.039952326566 -0.0214988235384 -0.00769126228988 -0.0817174315453 -0.0855619460344 -0.0897160023451 0.020442282781 -0.0409106165171 0.0
-0.00379362422973 -0.0458994954824 -0.147763371468 -0.0593068599701 -0.0654176175594 0.0312494132668 -0.0591578707099 -0.00268881814554 0.0074884169735 0.0
-0.0667377188802 -0.075229562819 0.137797221541 0.0331655219197 0.0310314670205 0.177427619696 0.0720621719956 0.0941845178604 0.0401752851903 0.0
-0.19837141037 0.00420913193375 0.0180761646479 -0.0120486440137 -0.0795665457845 0.04216260463 -0.0122034102678 -0.0423339791596 -0.140373542905 0.0
-0.0958334356546 0.0461527593434 0.0302975066006 -0.224043771625 -0.223181411624 -0.0149066746235 0.0195608250797 0.052682749927 -0.0997808948159 0.0
0.124252527952 0.104369319975 -0.0704593583941 -0.0141544444486 0.0220670253038 -0.125589594245 0.00869819428772 -0.00187214149628 -0.0708511248231 0.0
-0.0252607725561 -0.116816096008 -0.0567814037204 0.025617107749 -0.113064199686 0.0900840982795 0.1237212345 -0.018286075443 0.123812802136 0.0
-0.00614651013166 0.17472986877 0.0657417848706 0.0737934336066 -0.0219291280955 -0.154187932611 0.0961358100176 -0.0993571802974 -0.111305989325 0.0
-0.0731054544449 0.037928249687 0.0732431188226 -0.0332929939032 0.0811700075865 0.161228239536 -0.144946232438 0.057593613863 0.00591994309798 0.0
-0.183011502028 0.0016752515221 0.0112049467862 -0.220696762204 -0.116219356656 -0.0579195618629 -0.0585966520011 -0.0993678420782 -0.180630743504 0.0
0.0448816306889 0.0613152869046 -0.0603673122823 -0.0434415824711 0.0655852034688 0.0404993332922 0.00502987857908 0.00205024005845 0.0670124962926 0.0
0.0244636908174 0.0376137569547 -0.0080450354144 -0.00830197520554 -0.0260319001973 0.0620925165713 -0.107747077942 -0.0102071212605 0.16581146419 0.0
-0.0485410541296 -0.0859614312649 0.0297670960426 -0.0593475848436 0.0299439337105 -0.00812367349863 -0.0214528664947 0.0105413636193 0.0552212782204 0.0
-0.0587154217064 -0.0529022738338 -0.0686600506306 -0.143673658371 -0.113736025989 0.0778841748834 -0.0337335914373 -0.0649858415127 0.027844870463 0.0
0.149829238653 0.0708810985088 -0.0146194575354 0.0261291544884 0.0135181043297 -0.0491276048124 0.0495940335095 0.0201971717179 0.042001735419 0.0
-0.103764623404 -0.0921133309603 -0.0725737810135 -0.0176881216466 -0.0321963466704 0.0349776893854 -0.0970880910754 -0.0837965011597 -0.0426304712892 0.0
0.120966970921 0.0499726608396 -0.0317835249007 0.0649415850639 0.0719856098294 -0.065938167274 0.0107266530395 -0.120832271874 -0.0631794631481 0.0
0.0284451656044 0.0869691595435 0.067981235683 -0.0528758876026 -0.0242486670613 -0.0671614930034 0.008535659872 -0.072016954422 0.0339129418135 0.0
0.0321713536978 -0.137017831206 -0.135327324271 -0.197841659188 -0.103302277625 0.0307264998555 -0.247007712722 -0.0312007237226 0.2611104846 0.0
0.092320792377 -0.119969621301 -0.106771528721 0.188242092729 0.0924847722054 0.126533225179 0.0930275842547 -0.0266332533211 0.0591119602323 0.0
0.0643375068903 -0.170150235295 -0.00810730550438 0.143485918641 0.0592922978103 0.0120767652988 0.055416084826 0.160059675574 -0.0753152370453 0.0667246
0.0861630141735 0.0292996428907 -0.0701911374927 0.0356153994799 0.0194143932313 -0.0637679174542 0.0292238555849 -0.0591182783246 -0.0692538395524 0.0
0.0411490648985 -0.0361980758607 0.0833651870489 -0.0401717461646 -0.154081359506 -0.118313886225 -0.00223164237104 -0.0105804856867 0.02474998869 0.0
-0.0734859406948 -0.0285025648773 0.103549450636 0.0407405123115 -0.0548477582633 0.0823780074716 0.0285053215921 -0.101462550461 -0.0166067946702 0.0
0.0478671230376 0.0986314341426 -0.0215847399086 0.0162493158132 -0.0232481639832 0.0740210413933 0.12180429697 0.0756370201707 0.100756540895 0.0
-0.0753410458565 0.0975203886628 0.0438221134245 -0.0579427108169 -0.0588916540146 -0.0252423323691 -0.0218855328858 0.00966367311776 -0.101769283414 0.0
0.0172896906734 -0.00926157087088 0.114805601537 -0.0398599542677 -0.00644966121763 0.0808502063155 -0.0498502589762 0.0729140788317 0.142966479063 0.0
-0.0235337484628 -0.109162896872 -0.055148281157 -0.0681491792202 -0.0824874341488 0.070064380765 0.0401742495596 -0.0327565781772 0.0232745930552 0.0
0.0844174623489 0.0242197010666 -0.0773608908057 -0.00334308948368 -0.029136845842 -0.0615270920098 -0.0301170777529 -0.0787545368075 -0.0741735175252 0.0
-0.114869698882 -0.0279918927699 0.0575846545398 0.0082463780418 0.0316427797079 0.0269638393074 0.0829405859113 0.110602371395 0.126305788755 0.0
-0.0972989350557 -0.134698271751 0.00864842161536 -0.0436100512743 0.123979382217 0.0574143156409 0.0436167046428 -0.0817317962646 0.0544979460537 0.0
-0.045056309551 0.0325286574662 -0.0597417503595 -0.0245115663856 0.0132794119418 0.00875561032444 0.0126794651151 0.0827570185065 -0.00222314195707 0.0
0.0724459141493 0.0636573061347 0.0478355661035 -0.0929468125105 0.0412710756063 0.084862716496 0.0386748164892 0.0726039931178 0.0248647388071 0.0
0.0824673101306 0.045672647655 -0.0122006610036 -0.0663906410336 0.0126802409068 -0.0423688739538 0.0754284858704 0.0577641427517 -0.0491850562394 0.0
0.0368025861681 -0.0861361399293 -0.0748994350433 0.0901036262512 -0.159192726016 -0.0106550976634 0.102031707764 -0.100429430604 0.0373909398913 0.0
-0.128538370132 -0.00214956747368 0.10889083147 0.0548118390143 -0.0367345288396 0.0614638924599 -0.108601890504 0.0781861394644 0.0255207233131 0.0
-0.0504048205912 0.01469564531 -0.0128513649106 -0.0513015724719 0.00873577781022 0.122100122273 -0.0377039685845 -0.000758418173064 0.0430583693087 0.0
0.0388528816402 0.0884225741029 0.18843819201 0.0137502113357 -0.0870749875903 0.0198120381683 -0.0463819056749 -0.0606357902288 0.104378759861 0.0
0.114179559052 0.0550242513418 0.18464808166 0.016765743494 -0.0815232172608 0.00971881579608 0.00785161741078 -0.0733777135611 -0.0174747910351 0.0
-0.0117212766781 -0.00297197047621 -0.172948569059 0.0836549252272 0.0279474295676 -0.0820309519768 -0.00705712055787 0.0205738265067 -0.0265413280576 0.0
-0.0194104593247 -0.176095843315 -0.000172357846168 -0.0229418221861 0.0836937874556 0.0830600187182 0.144772052765 0.00110822240822 0.170600965619 0.0
0.0215974263847 -0.0729773789644 0.0186466928571 -0.0569707378745 -0.115088038146 0.0771648064256 -0.065116263926 -0.0839985534549 0.0569901131094 0.0
-0.021325243637 -0.0119091533124 0.0468660108745 0.089958935976 -0.0549612678587 0.0748766288161 0.0237920619547 -0.00499444548041 0.101254425943 0.0
-0.114859171212 0.0494456253946 0.0364564657211 -0.0194970350713 0.0321089401841 0.0138093754649 -0.0669809728861 -0.0244088731706 0.0426745116711 0.0
0.00410855235532 -0.0777964442968 -0.0230391863734 0.0324997790158 0.00442446256056 0.000937874021474 -0.0169295202941 -0.0781790241599 0.0913747996092 0.0
-0.0725899264216 -0.138195812702 -0.131490960717 -0.130462408066 -0.150611743331 -0.0737631246448 0.178118512034 0.109803728759 0.151722759008 0.0
-0.0183614324778 0.0627975016832 0.0902234986424 0.019533213228 -0.045897141099 -0.104741051793 -0.120253100991 0.0731288120151 -0.0696975365281 0.0
-0.0811424851418 0.091010145843 0.158161759377 -0.0215112883598 0.045742277056 0.00166670582257 -0.126341298223 0.0270538497716 0.0651957988739 0.0
-0.00468912441283 0.0168887265027 -0.0962081477046 -0.125638112426 0.0519655570388 0.0393507666886 -0.0562502034009 0.102307766676 0.0785916149616 0.0
-0.02094011195 -0.11221973598 -0.0422278977931 -0.123679377139 0.088500648737 0.0141651686281 -0.146319508553 -0.13166128099 0.0751596316695 0.0
0.116717495024 -0.0916831716895 -0.0909627079964 0.0168866217136 -0.0396071262658 0.0654765591025 0.138720825315 0.0581040903926 -0.0104880910367 0.0
-0.0355869531631 -0.014486704953 0.107445858419 0.0326040573418 -0.145453900099 0.00620530219749 0.018304431811 -0.0516584403813 0.0828479900956 0.0
0.168804332614 0.0699662938714 0.0185849480331 0.0402390882373 -0.0576023422182 0.0549251846969 -0.0368896350265 0.0126499636099 0.0323150716722 0.0878168
-0.0210204292089 0.0849945098162 -0.0564405582845 -0.00412841886282 0.0522841699421 -0.0042775622569 -0.0837408676744 0.0608109757304 -0.0507210716605 0.0
-0.0247990284115 0.0483280308545 -0.0460730828345 0.0796463117003 -0.0274292193353 -0.00744114490226 0.091399140656 -0.0577558204532 -0.0527482293546 0.0
-0.0991248190403 0.0387463867664 -0.0250878874213 -0.0782351046801 -0.00127311656252 0.00479782186449 -0.0193639863282 0.0847984775901 0.0105731897056 0.0
0.0480807088315 -0.0614280700684 0.061444375664 0.10285679251 -0.100882172585 -0.021603314206 0.0200993381441 -0.102936819196 0.0896318629384 0.0
-0.0416211858392 -0.0376121476293 -0.00386329251342 -0.089746311307 0.0642700716853 -0.0448452234268 -0.0335887223482 0.0230302587152 0.0320126451552 0.0
0.0290074776858 -0.0969525873661 0.0334298834205 0.0697343870997 -0.0384128764272 0.0994613319635 -0.0609049499035 0.0796152278781 -0.0383906848729 0.0
-0.111711449921 -0.032344635576 0.0302779506892 -0.0335061475635 0.0243256725371 0.0526286885142 0.0371651649475 -0.0446453951299 0.0526915378869 0.0
0.0411861538887 0.00917374435812 -0.0419964008033 -0.053849093616 0.0215807855129 0.0851436778903 0.0476569533348 0.0702569633722 0.0927087366581 0.0
0.0458999909461 -0.0043676821515 0.00855535175651 -0.0222148466855 -0.0522584691644 0.0497819520533 -0.0648317188025 0.038107380271 0.00628271978348 0.0
-0.0354512445629 0.048798546195 4.58889044239e-05 0.0512172989547 -0.103039517999 0.0089818071574 -0.102402590215 -0.109637930989 -0.117101840675 0.0
-0.0585784055293 -0.00692523503676 0.103602774441 0.0674546211958 0.0165741220117 -0.0649977773428 -0.0195094067603 -0.0732962191105 -0.0709776505828 0.0
0.0408139005303 -0.0547503456473 0.045445561409 0.0535236373544 0.00231405370869 -0.0835483148694 -0.042592741549 0.0254820883274 0.0747231245041 0.0
-0.0134979216382 0.0455830320716 -0.0218887813389 -0.0300746634603 -0.00886142998934 0.0115534132347 -0.00466906419024 0.0269117578864 -0.0465255565941 0.0
-0.064682148397 0.093036532402 -0.0430392362177 -0.00429786369205 0.0482447482646 -0.072235301137 0.0870865359902 -0.0808557271957 0.00648770108819 0.0
-0.0342374667525 0.0425857305527 -0.0380860716105 -0.0910267978907 0.0614404827356 -0.091593965888 0.0342398732901 0.029173059389 -0.0385515391827 0.0
-0.0425449945033 0.0632739067078 0.0778100267053 -0.0872528702021 -0.0437227711082 0.0686166211963 -0.024502152577 0.00296496762894 -0.00404223613441 0.0
-0.00189887243323 0.0111609036103 -0.0368377305567 -0.0910966023803 0.0553244911134 0.0282592736185 -0.112254366279 -0.00370020023547 0.0641519203782 0.0
0.0195200555027 0.0770424231887 0.0878448113799 -0.0512451343238 -0.00224486668594 0.0923956930637 -0.0735767781734 0.0756387710571 0.154211521149 0.0
0.0114118242636 -0.0402778983116 0.00637222034857 -0.071671500802 0.060357991606 0.0729465857148 0.0586819723248 0.00586753198877 0.00746287638322 0.0
-0.0789561197162 -0.00668125320226 0.102697007358 -0.0649711862206 -0.0725463703275 0.110845334828 -0.0535890348256 0.0355259329081 0.0414538644254 0.0
-0.102846331894 0.0410551838577 0.079430885613 0.0613680705428 -0.0692183151841 0.0783649757504 -0.0237174853683 0.015990735963 0.00441255560145 0.0
-0.0342025458813 0.0815341249108 -0.0801214650273 0.032008972019 -0.0126340696588 0.0532925911248 0.0487591326237 -0.0764630883932 -0.0675193592906 0.0
0.0405748859048 -0.00593910785392 -0.0632399097085 -0.085251070559 -0.0636542886496 0.0700813904405 -0.0987571701407 0.00580693874508 0.0150525625795 0.0
-0.0544761456549 0.0421566478908 -0.00791392661631 -6.04407832725e-05 0.00723341479897 0.0214637089521 -0.0383230708539 -0.048088464886 0.00888777244836 0.0
-0.0654656365514 -0.0789142176509 -0.00775887677446 -0.0733337327838 -0.0820790380239 -0.0127492295578 -0.0222128406167 -0.00314834318124 0.043355204165 0.0
-0.0328576602042 -0.0405161269009 -0.0710115805268 -0.0745434612036 -0.0998315438628 -0.0867868810892 -0.0405454710126 0.0293477568775 -0.0275689959526 0.0
0.0287672039121 -0.0060318573378 -0.0166133493185 -0.00725339213386 0.0379505679011 0.0869390591979 -0.0813148394227 -0.0663760751486 0.0684097185731 0.0
-0.0846556425095 0.059969983995 0.0750686079264 0.0450306273997 0.0044039725326 -0.0881361365318 -0.0818818882108 0.017903059721 0.0198570955545 0.0
-0.0418482348323 0.0540348514915 -0.0990818813443 0.00724044349045 -0.00990383047611 -0.050638653338 -0.0285010151565 0.0610234551132 -0.0101512912661 0.0
0.0545506626368 -0.038868624717 0.149409145117 0.0359818413854 0.101134844124 0.0829631388187 0.0166790038347 -0.0505172535777 0.0880749970675 0.0
-0.0200352873653 0.0739321485162 0.0548313371837 -0.0501818209887 0.036900665611 -0.083447098732 -0.0771691277623 0.0686725974083 -0.0148174650967 0.0
-0.0664486959577 0.0985037088394 0.0254086926579 -0.0946216061711 0.00659900764003 0.101882517338 -0.0856220573187 0.0795580968261 -0.0618151165545 0.055902
-0.0108593935147 0.0522520579398 -0.0363796241581 -0.0126209789887 0.0199337117374 0.0507021583617 0.0260820277035 0.0224080625921 -0.0167143270373 0.0
-0.0361852385104 0.125699877739 -0.042103830725 -0.00877950526774 0.0379255488515 -0.16546754539 0.0205343961716 0.17555706203 -0.0200610384345 0.0
-0.0940873101354 -0.0498771332204 -0.0683410465717 -0.0734776929021 -0.0353958532214 0.101514324546 0.0923302769661 0.0912217199802 0.0784841924906 0.0
0.0343743152916 -0.0303521659225 0.00551600102335 -0.0524082742631 0.0245029404759 0.0554635897279 0.0944053679705 0.142466083169 0.080762706697 0.0
-0.00287311174907 -0.0757250264287 0.0333297066391 -0.0846834927797 -0.0476086176932 -0.0110568618402 -0.00674676522613 -0.0500844754279 -0.0688067376614 0.0
0.099663682282 0.00121215730906 0.0153980767354 -0.0167562626302 0.0907367765903 -0.0470188371837 0.0433631613851 0.0602683909237 -0.0272075310349 0.0
0.0797733217478 0.0146080469713 -0.0927517414093 -0.0234575364739 0.0526854246855 -0.0463057756424 -0.0691477283835 -0.132785379887 0.0367017239332 0.0
0.00101412972435 0.0316435135901 0.0496278218925 -0.0194624178112 0.0207163281739 -0.0423923954368 -0.0514220334589 0.070079356432 0.11434109509 0.0
-0.0236948393285 0.0569675043225 0.0135337943211 -0.0799842849374 0.0372021012008 0.00931592751294 0.0393580645323 0.0125319296494 -0.0512059256434 0.0
-0.0624977387488 -0.0255002304912 -0.0717360526323 -0.0181710105389 -0.0876333490014 -0.0797828659415 0.0362978391349 -0.130254969001 0.00146852748003 0.0
0.0413092672825 -0.0471347533166 0.073566891253 0.026578322053 0.0179418493062 -0.0523249171674 0.023741601035 0.111165866256 0.0401953682303 0.0
0.0743439719081 -0.0630337446928 0.00790250767022 0.00948194321245 0.0544991455972 -0.044700358063 -0.0977210104465 0.0217697974294 -0.0548029579222 0.0
0.0699459910393 0.115008980036 0.0248144976795 0.0290295835584 0.0849304422736 -0.0945920795202 -0.0507618077099 0.0320096723735 -0.0395236834884 0.0
-0.0588974803686 -0.00244908966124 0.0534475333989 -0.0641532689333 -0.034509755671 0.0335340276361 -0.0117378374562 -0.0114872055128 0.0301715880632 0.0
-0.0854775831103 -0.0535006374121 0.0415681824088 -0.01829014346 0.0357876680791 -0.0567575395107 -0.0890138596296 -0.0391609631479 -0.0473747886717 0.0
-0.130217015743 0.0265810191631 0.0232133120298 -0.0691266879439 0.0309545975178 0.097962424159 0.0570767596364 0.0673137754202 -0.0514919385314 0.0
0.0323701053858 0.0608359538019 -0.0858684852719 0.0587591081858 -0.019201060757 0.0374404452741 -0.0397940650582 0.0465180426836 0.0444194935262 0.0
0.142740368843 0.0886946767569 0.12451902777 0.0108805727214 0.0466837212443 -0.091907300055 -0.0736611485481 0.0487287007272 0.0227572210133 0.0
0.097911991179 0.100936017931 0.0572296343744 -0.0600058846176 0.00301626836881 -0.00353938248008 0.0897768735886 -0.106031946838 0.086105287075 0.0
0.101225942373 -0.0313215442002 0.0359149686992 -0.0156701467931 -0.04704888165 -0.081200145185 0.0354036986828 0.115869365633 -0.0371795110404 0.0
-0.117151752114 0.0110506881028 0.0947754383087 -0.147934168577 0.105530068278 -0.036821808666 0.0753359869123 0.172712504864 -0.102217935026 0.0
0.0155042512342 0.0995502173901 0.0917383283377 -0.101258680224 -0.0051936567761 -0.00351916649379 0.0432079210877 -0.0897252336144 -0.0550160706043 0.0
-0.00388000463136 -0.142424345016 0.0102187730372 0.0466963388026 -0.113412566483 -0.0900857523084 0.0206658840179 -0.087903663516 -0.0106818554923 0.0
-0.015120357275 0.06002991274 0.0639169290662 -0.0279593709856 0.060061853379 -0.00414405064657 0.0564215742052 -0.0525516197085 0.112516008317 0.0
-0.066557303071 -0.0104589900002 -0.117419250309 -0.0113180307671 -0.0860104113817 -0.041503649205 -0.0356756746769 0.110702112317 -0.0049386494793 0.0
0.0662403777242 0.0685490518808 0.0124870426953 -0.0426247268915 -0.10721141845 -0.0939119383693 -0.0704964995384 0.0818185508251 -0.0253030192107 0.0
0.099857904017 0.0589644014835 0.0346558578312 0.0773181319237 0.0448974408209 -0.0675999447703 -0.0827380940318 0.0593478083611 0.0776582360268 0.0
0.0255538690835 0.0863208398223 -0.0414575599134 -0.0765242576599 -0.0927196592093 0.0328210480511 0.0447946041822 -0.0536122024059 -0.0447861216962 0.0
0.0365309417248 0.0638054385781 0.0684376060963 -0.0737150385976 0.0220899693668 -0.0314179509878 0.041270673275 -0.0913892760873 -0.0384917519987 0.0
-0.0308988746256 0.0650893375278 -0.0415461398661 -0.0479947403073 -0.00552939111367 -0.112761549652 -0.0515082627535 0.101822786033 -0.0900849401951 0.0
0.0243273302913 0.0269867498428 0.0607342049479 -0.0557464286685 0.0331882573664 0.0872750803828 0.00106617389247 0.113227277994 0.0909665971994 0.0
0.0352488458157 -0.0545454770327 0.0919504836202 0.0706665292382 0.0920354947448 0.0618186891079 0.0538434498012 0.0632766932249 -0.0986899062991 0.0307989
0.102602399886 0.0067662158981 0.0350141003728 0.0870038121939 0.0473918691278 0.0212923195213 0.0702463537455 -0.0393720045686 -0.00207504164428 0.0
-0.148856967688 0.0135594792664 -0.0649636089802 -0.0667655691504 0.0832067281008 -0.0156273655593 -0.0461015664041 0.0451106540859 0.0927348211408 0.0
-0.0778549164534 0.0469471402466 0.0298388730735 0.00377047271468 -0.0611739754677 -0.0176166873425 -0.0935666188598 0.0916619822383 0.0179379023612 0.0
-0.0110797705129 0.0190338995308 -0.0158226452768 0.0449603721499 -0.00971363484859 -0.0423223115504 0.0634796842933 0.0651876628399 -0.0686580911279 0.0
0.0328373387456 -0.0536325722933 0.0600774846971 0.0432372875512 -0.0973867177963 -0.00273423432373 -0.0889428406954 -0.105267249048 -0.0730039104819 0.0
-0.000964601757005 -0.0273367464542 0.122975617647 -0.0687050372362 0.0794795230031 0.0979930460453 -0.0974451825023 -0.110263340175 0.0923064127564 0.0
0.0352895893157 -0.0485347099602 -0.108078457415 -0.0750923231244 -0.0288589596748 0.108706407249 -0.0749490708113 0.0756714344025 -0.105171479285 0.0
0.0238950941712 0.00541491061449 -0.0434201769531 -0.0573320239782 0.00358418747783 0.0751938894391 -0.0119895441458 0.0540756173432 0.0445637181401 0.0
0.0634439662099 -0.0933481305838 -0.0248753726482 0.0357192084193 -0.0293681416661 0.0393292494118 0.0471585690975 0.072134308517 -0.0537049546838 0.0
-0.0274376422167 -0.066445581615 -0.154021665454 -0.0624409206212 -0.0504005290568 -0.0403456017375 -0.132700368762 0.0693044215441 0.045255612582 0.0
-0.0809731334448 0.0751827135682 -0.06367277354 -0.0558933727443 0.114847414196 0.106653742492 -0.0585967563093 0.0504208132625 0.0536727048457 0.0
0.0346437580884 0.00711304787546 -0.0318229049444 -0.087519519031 -0.0616488642991 0.0757672861218 -0.0332746692002 -0.00415046233684 0.0524262599647 0.0
0.0217870511115 0.0339314229786 -0.0453295335174 0.0531904101372 0.0343446470797 -0.0568014010787 0.0147840203717 0.00758642144501 0.0523786842823 0.0
0.0319734476507 -0.0198679454625 0.0377060472965 -0.146535351872 -0.0431120321155 0.0477520637214 -0.13487277925 -0.0257694739848 0.137880280614 0.0
0.0777366086841 0.0176719222218 0.134354695678 -0.0172686781734 0.0471767708659 -0.0609683208168 0.0730113238096 -0.0346860922873 -0.00514452345669 0.0
-0.0874654427171 -0.0771242082119 -0.0322468914092 -0.159334227443 0.11940728128 -0.0122313443571 -0.112921342254 0.162872865796 0.0117264380679 0.0
0.0135099887848 0.0190560892224 0.0572367757559 -0.0290494300425 -0.0271395072341 -0.0157734695822 -0.0691681206226 -0.0455285571516 0.0498899668455 0.0
0.0576607100666 0.108164682984 0.0287527646869 -0.0400607436895 0.116316176951 -0.0233346000314 -0.0478611215949 0.167138502002 -0.0286433026195 0.0
0.0603644959629 -0.0920465439558 0.0196797326207 -0.0232726950198 0.0207098480314 -0.00109603290912 0.0064311795868 0.13881662488 0.0548943020403 0.0
-0.0152235105634 0.135112330317 -0.0092953145504 -0.0757059156895 0.16377261281 -0.109559781849 -0.0255334060639 0.197242870927 -0.0974384322762 0.0
-0.00833843648434 -0.0897258520126 -0.0714917331934 0.0279804971069 -0.00672530662268 -0.083697527647 -0.0108397603035 0.0615774206817 0.0247819311917 0.0
0.0258898530155 -0.0449807681143 -0.0837209671736 0.072120077908 -0.0878419205546 0.0391921885312 -0.00947868637741 -0.0880126804113 0.101884178817 0.0
0.0177062302828 -0.093519359827 -0.104384928942 0.0186497028917 0.0661397129297 0.0895245969296 0.0154666379094 0.054646871984 -0.00547814229503 0.0
0.0228691287339 0.0425203628838 0.0398964397609 -0.00662754802033 -0.039868209511 -0.0364651866257 0.0668587759137 0.0351167209446 -0.126708969474 0.0
-0.012281906791 -0.150732800364 -0.0944789499044 0.0015221813228 -0.076101154089 0.0131563656032 0.0239596683532 0.0365963838995 0.0314309149981 0.0
0.0382221490145 -0.0449875220656 -0.0651862248778 -0.12837330997 0.0264858771116 0.0760410949588 -0.0763078331947 -0.0677689835429 -0.0150816943496 0.0
0.0318855457008 -0.000369226909243 0.102222651243 0.0120924003422 -0.00908573064953 0.0947897285223 0.0554737821221 -0.118688352406 0.000552032783162 0.0
0.0884113833308 -0.0983048975468 0.106774993241 -0.0658987909555 -0.0424219667912 0.0487736724317 -0.0128558967263 -0.0872313007712 0.0760666057467 0.0
-0.0580205246806 -0.100216954947 -0.0937738716602 -0.0830382928252 0.0271209236234 -0.104831390083 -0.0903218090534 -0.0647155344486 0.0451584458351 0.0
0.0778363719583 0.196669951081 -0.00978580582887 -0.0876934677362 0.148423850536 -0.059626929462 -0.0601105205715 -0.0309603940696 0.0851131677628 0.0
0.000250858807703 0.0297119002789 0.0835045352578 -0.0511192418635 0.0350444428623 0.022180320695 -0.0952104255557 -0.00410362379625 0.125340476632 0.0
0.0151932900771 0.0232506282628 -0.075760409236 -0.0124988872558 0.024229824543 -0.041566092521 0.0520195551217 -0.0126140499488 0.122875720263 0.0717632
0.030253212899 -0.0993472710252 -0.0463565960526 -0.0177297126502 -0.0136654572561 -0.012281733565 0.0720202699304 0.0683020055294 -0.0628949552774 0.0
0.0807546302676 -0.187481567264 -0.148668825626 0.00885906815529 -0.119721584022 -0.0358451008797 -0.22434104979 -0.0393115915358 0.0974942818284 0.0
-0.056227941066 -0.0860679075122 0.0138350902125 0.0526413917542 -0.0778677836061 -0.0269392430782 -0.0605015791953 -0.0915066897869 -0.108076378703 0.0
0.0751876309514 0.0844578668475 -0.0164643973112 0.0548257157207 0.0150600988418 -0.232715070248 -0.00347129628062 -0.0886040478945 -0.161451235414 0.0
0.00478494213894 0.0450427494943 0.0335084311664 -0.0275317784399 -0.0617386028171 0.0812548175454 -0.0794759392738 0.0361792109907 0.0232705269009 0.0
0.0990953221917 -0.0218128412962 0.00325908698142 0.121799744666 -0.0602307766676 -0.0130106341094 0.0163556672633 -0.00385396089405 -0.0730698257685 0.0
0.0259718075395 -0.125652134418 -0.138125836849 0.250937730074 0.149755880237 -0.085091330111 0.0102739566937 -0.00387523556128 0.0366043932736 0.0
-0.0969799906015 0.0968674123287 0.0265231523663 0.137214049697 0.266384392977 0.107479691505 0.0730801075697 -0.0225428100675 0.0474111251533 0.0
-0.178954824805 0.0750645399094 0.0871463119984 -0.293454200029 -0.0194828435779 -0.0141692254692 -0.0649149790406 0.0430540330708 -0.0722292214632 0.0
0.199050992727 0.236078426242 -0.0799305811524 0.123058207333 -0.0347768627107 -0.226210266352 0.103038519621 0.0907887518406 -0.234332382679 0.0
-0.0136397685856 0.156032949686 0.0519039258361 -0.0105568617582 0.113161414862 -0.077979311347 0.132241249084 0.00059555954067 -0.159662395716 0.0
0.0024614285212 -0.058793887496 -0.0346140861511 0.00143760652281 -0.0628993660212 0.0705942437053 0.0340828299522 -0.0836149007082 0.0943607613444 0.0
-0.116774506867 -0.169023111463 0.199478790164 -0.171788707376 -0.209573432803 -0.00727966381237 -0.10920933634 -0.0850014984608 -0.0938642472029 0.0
0.0160588249564 -0.0419048927724 0.0812834426761 0.061409201473 0.084982201457 0.0132258795202 0.151839911938 0.107074126601 0.171141505241 0.0
-0.11493512243 0.0597339682281 -0.0222840104252 -0.0777692496777 0.086738191545 0.086024902761 0.127053678036 0.116476029158 -0.112403415143 0.0
0.265998721123 0.223287597299 0.193844690919 -0.0935930460691 0.115365497768 0.0103424238041 -0.0547550246119 0.2176861763 -0.0309408716857 0.0
0.265154182911 0.0420940294862 -0.146293401718 0.0672601312399 -0.0636741444468 -0.0147615419701 -0.085582241416 -0.153548836708 -0.00706648081541 0.0
-0.0654153525829 -0.231784507632 -0.0375628918409 0.0105309709907 0.0926954895258 -0.0624074265361 0.170821964741 0.159334585071 0.0586370825768 0.0
0.159330159426 0.339593619108 -0.0781269520521 0.0841909199953 0.138851076365 -0.0952302739024 0.0268772114068 -0.0831082239747 -0.127099245787 0.0
-0.0787502527237 -0.160712257028 0.0318110622466 0.0672914907336 0.0744189620018 0.0868669301271 -0.165378794074 0.0596563443542 0.08503549546 0.0
-0.0487042851746 0.164174228907 0.0558513514698 -0.241577625275 -0.0281918868423 -0.186537578702 -0.0587591789663 -0.151349261403 0.0377249866724 0.0
-0.0616122968495 0.037245310843 0.0550562702119 0.0568487532437 0.0152773018926 0.0654980838299 -0.0522919036448 0.0555035434663 -0.00711817620322 0.0
0.00431098369882 -0.0104492008686 0.157973125577 0.0888748466969 -0.029849331826 0.0819367021322 -0.0781562030315 0.00888517126441 -0.0148237766698 0.0
-0.0346755795181 -0.0961378663778 -0.125859066844 0.0203383900225 -0.0567472092807 0.128313660622 0.0631821155548 0.0751913413405 0.145337402821 0.0
-0.0415917672217 -0.0331794209778 -0.0800196453929 -0.0513179153204 0.0758008733392 0.122605413198 -0.0804488733411 -0.0694293305278 0.0564163587987 0.0
0.0391667187214 -0.0932983607054 -0.0592988654971 0.0244332924485 -0.0436155758798 -0.0690899789333 0.178520545363 0.0675904452801 -0.0113717531785 0.0
-0.0676134154201 -0.227028384805 -0.120419286191 -0.180827662349 -0.192177951336 -0.0170200131834 -0.0202962122858 0.0368014201522 0.0030486213509 0.0
0.123028308153 -0.0237366631627 -0.135940730572 0.124029844999 -0.00792054552585 -0.0627698302269 -0.114348106086 -0.20570833981 -0.0998625904322 0.0
0.0395331121981 -0.0412150919437 -0.079780139029 -0.0179184190929 0.0117778619751 -0.0103458985686 0.0694386363029 -0.0271924734116 -0.0144995516166 0.0
-0.0597071871161 -0.0864006578922 -0.13628923893 -0.0980424806476 -0.174160346389 0.142893791199 -0.00415047956631 0.174041479826 0.358364194632 0.0
-0.0908417627215 -0.0562055855989 -0.121839299798 0.0731674060225 0.0692472755909 -0.0144679080695 0.177966117859 -0.0125989615917 0.0189975053072 0.0
-0.13731944561 -0.116582430899 -0.0716118887067 -0.08126989007 0.0142859742045 0.0535626932979 5.09206765855e-05 0.142548024654 -0.0393878854811 0.0229903
-0.078689865768 0.0549132600427 0.0519356019795 0.0731723681092 -0.030060660094 0.0596016794443 0.0563709326088 -0.021379603073 -0.0421822331846 0.0
0.0222857035697 0.0216784682125 0.0123595269397 -0.08996193856 -0.10339037329 0.0888172760606 0.0436505004764 0.091013468802 0.0795679464936 0.0
0.0754470899701 -0.0888811349869 -0.0308201313019 0.063644580543 -0.0625121891499 0.0657676532865 -0.0896041169763 -0.0568736568093 -0.0225453991443 0.0
-0.0191690977663 -0.0568463429809 0.0608618929982 0.0124921612442 -0.0936680361629 0.0283563453704 0.0011070453329 -0.0722794905305 0.059354763478 0.0
0.0238108709455 -0.0315435230732 0.0592241212726 0.0199031475931 0.0620586834848 0.053371630609 0.0634189248085 0.0010881817434 -0.0747118294239 0.0
0.0584553740919 -0.0553537085652 0.0034873757977 0.00121535349172 -0.0214143674821 -0.000871461059432 0.0422795340419 -0.0795558765531 -0.0568112172186 0.0
0.0443885847926 -0.0117743723094 0.00261383410543 0.0478172488511 0.0929799154401 0.0558129139245 -0.0593220219016 0.0386443436146 0.0327163524926 0.0
0.0521686673164 0.045512445271 0.0568742752075 0.0851751342416 0.0633295401931 0.0259155724198 -0.0479927062988 0.0540813729167 -0.0100959232077 0.0
-0.0838288143277 -0.0604368671775 -0.0853812471032 0.0199393965304 -0.0318127945065 -0.0521230101585 -2.45689589065e-05 0.0336504392326 -0.0267007425427 0.0
0.063644811511 0.080503731966 0.0313489660621 0.042421169579 -0.0931455269456 -0.0986769497395 0.0393893420696 -0.0395869351923 -0.0669606029987 0.0
0.0614820644259 -0.0636627301574 -0.0295302309096 -0.0946788862348 0.0886577516794 -0.060415931046 0.055040743202 0.0213217772543 -0.0188009236008 0.0
0.00898301228881 0.0967614203691 0.0548750832677 -0.0689280927181 0.0679076462984 0.000620976788923 -0.0144370561466 0.0220920667052 -0.0708136707544 0.0
-0.0424624793231 0.0418754406273 -0.025770297274 -0.0181309450418 0.065422527492 0.000463715492515 -0.0692016705871 -0.0641659125686 -0.0876253470778 0.0
0.0517041571438 0.0585994012654 0.013305792585 0.0130272135139 -0.0872967913747 -0.0140135269612 -0.0692553669214 -0.0336511544883 -0.0705647915602 0.0
0.0500935390592 -0.0318989045918 0.0264272801578 -0.0706644877791 -0.01505107712 -0.0499786697328 -0.089075550437 0.0460397005081 0.00579812331125 0.0
0.0724523589015 0.0463678129017 0.00791113637388 0.0767957642674 0.00493543921039 0.057561352849 -0.00435341242701 -0.0156377665699 -0.0287377983332 0.0
-0.0599988773465 0.0257492791861 -0.0551073998213 -0.00901699997485 0.0633492693305 0.0187750142068 0.0060472311452 0.0931912437081 0.0775909274817 0.0
-0.0192988961935 -0.0854891762137 0.041988901794 0.076688721776 -0.00668937712908 -0.060614079237 -0.0201982930303 -0.0526681914926 0.069815851748 0.0
-0.068914949894 -0.0272444095463 0.0694140568376 0.0515518039465 0.0813017636538 0.0461054928601 -0.0142202563584 -0.0419617407024 -0.016281273216 0.0
-0.0491250939667 -0.0640579685569 0.0445237457752 0.0657076761127 0.0717723146081 0.0160543806851 0.027019277215 -0.0203927736729 0.00143757159822 0.0
-0.0463571511209 -0.0270567052066 -0.0196022298187 -0.0365029759705 -0.0859297737479 0.0214926190674 -0.0271190367639 -0.077137991786 0.041849065572 0.0
-0.00399919366464 0.0889477431774 -0.0927989184856 -0.0427026487887 0.0756414532661 0.0643616765738 0.0929534584284 -0.0320629328489 0.0595135465264 0.0
0.049554143101 -0.0383053533733 -0.0782503858209 -0.083080612123 -0.0627799928188 -0.0799310058355 0.0135670294985 0.0403391644359 0.048087015748 0.0
-0.0506620965898 -0.0371216498315 0.00783735141158 0.0722575262189 0.0730634331703 -0.0888598710299 0.0247568301857 -0.0101117119193 -0.0159563831985 0.0
-0.0560726113617 -0.0426302663982 0.0312690995634 -0.0393189787865 -0.0207220409065 0.0539395995438 -0.0158162117004 -0.00418704003096 0.029104501009 0.0
-0.0235974006355 0.00166142266244 0.0607603937387 -0.0817870125175 -0.0822644606233 0.0581785328686 -0.0623608529568 0.0750685483217 0.00639546802267 0.0
0.00877459999174 0.0528709925711 0.0681225284934 0.0439802184701 0.00328556541353 -0.0171311367303 -0.0202936008573 0.0761365219951 -0.0729320645332 0.0
-0.0957006663084 -0.0499136932194 0.0350379236042 -0.00068315648241 0.0184034015983 -0.0323097966611 -0.0329450108111 -0.0699076652527 -0.0177346169949 0.0
0.0967583730817 0.0822595134377 -0.00313070020638 -0.0162516757846 0.0949784517288 -0.0382039956748 -0.00442526675761 0.0817864015698 0.0099722770974 0.0
0.00844441819936 -0.034563343972 -0.0271151494235 -0.0464741550386 0.0747801065445 -0.0409216843545 -0.0720997750759 -0.0541822127998 -0.0154214343056 0.0
0.0742663815618 -0.0982234477997 0.0624041184783 -0.0211684051901 -0.0701363682747 -0.0294397752732 -0.0449867174029 0.0483313836157 -0.0256545748562 0.0
-0.0692036449909 0.0150248380378 -0.048186916858 0.0256303027272 -0.0757565647364 0.0104103721678 0.0739630684257 -0.0334443375468 0.0154874408618 0.0170039
0.0252530369908 -0.0222857650369 0.0864170864224 0.0867086499929 0.101311072707 0.0492423400283 0.039640430361 -0.00959559343755 -0.0435513593256 0.0
-0.068522118032 -0.017224367708 0.0738594159484 0.0674338266253 -0.0301201771945 -0.092712238431 -0.0086831189692 -0.0640347227454 0.031644847244 0.0
-0.0733159705997 -0.04361423105 -0.0342624858022 -0.028763493523 0.0445624813437 -0.0208710525185 -0.0506191253662 0.0364024713635 0.0764565095305 0.0
-0.007216705475 -0.0209488458931 0.0333591550589 0.0934684351087 0.00583975063637 -0.0205529350787 0.0533434376121 -0.0483078509569 -0.0249318126589 0.0
0.0522614717484 -0.0012210116256 -0.0387441962957 0.0321661196649 -0.0193063654006 -0.0927710980177 0.0327473469079 -0.0547339133918 0.0326393246651 0.0
0.0734938532114 -0.0168470852077 0.0439114682376 0.118083566427 0.036934312433 -0.0840220153332 0.147073805332 0.0130453063175 -0.0908817946911 0.0
-0.00287291663699 0.00605327216908 0.0372443161905 -0.0519698411226 0.0243696887046 -0.0789392665029 -0.0101868249476 0.10401686281 0.0241403002292 0.0
-0.010802205652 -0.0033090764191 0.0193015895784 0.085291326046 -0.0946260616183 -0.0618407651782 0.0119168506935 -0.0170249678195 0.018204651773 0.0
-0.0759656205773 -0.0186955127865 0.0536085367203 0.0125165404752 -0.0674741789699 0.0731170848012 -0.0957341119647 -0.0705617889762 -0.0929124578834 0.0
0.0470948442817 0.0784773379564 -0.080881498754 -0.10859375447 -0.0761194303632 -0.0593262352049 -0.0984415560961 -0.00955736078322 -0.0688583552837 0.0
0.0516544356942 -0.0365087240934 0.0337892025709 -0.00268181716092 -0.0641902014613 -0.1325648278 -0.0933292433619 0.000787810888141 -0.0733468458056 0.0
0.00224070716649 -0.0885144993663 -0.0379851125181 0.0522862151265 0.0871681049466 -0.0919054076076 0.0575865469873 -0.0861250907183 0.0524477213621 0.0
-0.0522045604885 -0.0690748021007 -0.0213152132928 0.0393793024123 0.0448482967913 -0.00792455952615 -0.0034266198054 0.0374903269112 0.00814347341657 0.0
-0.0752728953958 -0.0304338615388 0.00299174478278 0.0586435981095 -0.0654810443521 0.014388195239 0.0466580539942 0.0843780860305 0.0716306269169 0.0
-0.0297996867448 0.114562183619 0.093337893486 -0.00333132222295 0.0826445519924 0.0304414834827 0.0403175465763 -0.0416098460555 -0.125382676721 0.0
0.0884952619672 0.149112865329 0.0362328402698 0.0366627089679 0.0505234599113 0.0346161536872 -0.0495056770742 -0.0636274442077 -0.00299545610324 0.0
-0.102036185563 -0.0165486019105 -0.0285778474063 -0.0561824887991 -0.0501352660358 -0.0081251822412 -0.0869019329548 0.0273123346269 0.0172409247607 0.0
0.0617873519659 0.0315375067294 -0.0655055567622 -0.0113151166588 -0.0712576955557 -0.0442342087626 -0.0864504128695 0.0255081579089 0.0572588592768 0.0
-0.011561576277 -0.00740068452433 0.00433416804299 -0.137769266963 -0.128877207637 -0.0144181214273 -0.0402819141746 0.0349294058979 -0.105912767351 0.0
-0.0445651449263 0.133820295334 0.0550379157066 -0.019783385098 -0.00812435522676 0.0659577101469 0.0181296057999 -0.0762699022889 -0.00890344195068 0.0
0.00984577834606 -0.0104750739411 0.132334455848 -0.0440806634724 -0.00753881735727 -0.0155973909423 0.114591434598 -0.128118008375 -0.0874363258481 0.0
-0.0374788939953 -0.0205264315009 -0.062374830246 0.0624766238034 -0.0131126474589 -0.0429905876517 0.0594206638634 -0.0615356452763 -0.0633846521378 0.0
-0.0169624648988 -0.0760571956635 -0.0754509568214 -0.0354797393084 0.0526091493666 0.0505767837167 0.0170236546546 -0.0148986885324 0.0700788423419 0.0
0.0855084508657 0.00661429250613 -0.00327963382006 -0.056775379926 0.109343744814 0.0361606031656 0.0411759838462 0.0388080663979 -0.06984256953 0.0
-0.158337369561 0.0736936926842 0.139479532838 -0.151754200459 -0.102250978351 0.00237611006014 0.021490836516 0.098267160356 -0.0777387842536 0.0
0.0152749400586 0.0773804560304 0.0175821539015 0.0137762604281 0.0459609143436 0.0419812351465 -0.0608443804085 0.0835651010275 0.0917010977864 0.0
-0.104350589216 0.0426069796085 0.125988170505 0.0045941141434 0.0649336352944 -0.0262892469764 0.0023636915721 -0.0981048345566 0.0589409172535 0.0
0.03429505229 0.0211986266077 0.00368967372924 -0.0514049232006 -0.120796300471 0.0181333422661 -0.0317640863359 -0.090087339282 -0.116061061621 0.0
0.077207967639 0.0796077772975 -0.0596929863095 -0.0382139198482 -0.0321297720075 0.0934197753668 -0.101837389171 0.114898256958 0.0533320568502 0.0
-0.067390166223 0.00528976554051 -0.0563655644655 0.0576946027577 0.147724539042 0.00490354234353 0.0834060534835 0.144581973553 0.1014072299 0.0
0.0375461392105 -0.0215778984129 -0.00556067749858 0.0743902698159 -0.0158896092325 0.0155201824382 0.0307894218713 0.119962528348 -0.0700826942921 0.0
0.0917143449187 0.0863873064518 -0.00771644199267 0.0476373247802 0.042430780828 0.0439099371433 0.0770030319691 -0.000415049667936 -0.0197690613568 -0.0149732
-0.0737853720784 -0.0854726731777 -0.108207643032 -0.00327299279161 0.00846517179161 -0.0154290553182 0.087682440877 -0.00600379426032 -0.0279104653746 0.0
-0.0340752638876 -0.0863311141729 0.174458682537 -0.0710473805666 -0.0946157351136 0.0652270317078 -0.0120182652026 -0.0182174853981 -0.0776261091232 0.0
0.00404608156532 -0.0211967676878 0.0224676840007 0.0910339653492 0.0609215013683 0.0568843148649 0.0136199528351 -0.047872453928 0.0568790398538 0.0
-0.0899188295007 -0.036511272192 0.0589836351573 -0.0940580293536 0.0142849776894 0.0735683366656 -0.0579403266311 -0.00866624247283 0.16149674356 0.0
-0.0846004337072 0.0334768481553 -0.0180698111653 0.073872372508 -0.110022857785 -0.0713719949126 -0.0615338720381 -0.0602439194918 -0.0411126315594 0.0
-0.0432200431824 0.0163709055632 0.0374248474836 0.0299886390567 -0.00713896937668 0.051272764802 -0.0269705876708 -0.0648101642728 0.125437825918 0.0
-0.10688431561 -0.0966972261667 0.0750723704696 -0.0576162077487 0.0681208148599 -0.0706834569573 -0.087473243475 -0.021174216643 -0.109941355884 0.0
-0.115217596292 0.0567608177662 -0.0377428121865 0.0663960427046 0.0602958165109 -0.12109220773 -0.0437666960061 -0.0477302074432 -0.0818875953555 0.0
-0.0235258713365 0.00245279609226 -0.0704074800014 -0.0400822013617 -0.134231254458 -0.124638624489 0.0327128693461 0.0785062238574 -0.0283965989947 0.0
-0.131414234638 -0.0176270920783 -0.00836175587028 -0.0358253568411 -0.111110329628 0.0745263472199 0.090264454484 -0.068150088191 -0.0413078255951 0.0
-0.0749214366078 -0.0434505417943 -0.0332714989781 0.0251523703337 0.0218178518116 -0.0192059017718 0.0681952312589 -0.0578517504036 0.00700161512941 0.0
0.0550831593573 -0.0134136639535 0.0650468096137 -0.0372378230095 0.0508070141077 0.0665729269385 0.0649683326483 -0.0337704457343 0.0350227616727 0.0
0.0319866463542 -0.121805630624 0.0745591595769 0.0407695174217 0.0328696593642 -0.0731574222445 -0.0986383408308 -0.141896799207 -0.0477778203785 0.0
0.0587349534035 0.0607615150511 -0.0638331398368 -0.0491188690066 -0.00323756365106 -0.0167730487883 0.0804610848427 -0.0131213832647 0.0592267252505 0.0
-0.0103411171585 -0.0762878134847 -0.0347712673247 -0.0454771108925 -0.053537748754 0.0531884245574 -0.0232283640653 0.0757303535938 0.000664366700221 0.0
-0.0534054003656 0.00947629008442 0.0151720391586 0.108228676021 0.0843363925815 -0.00538465101272 0.0550712272525 -0.00374761270359 -0.0693834125996 0.0
-0.0620998032391 -0.0338213816285 0.13431404531 -0.109154582024 -0.115946687758 0.037998136133 -0.177083790302 -0.0240318067372 -0.143325805664 0.0
0.0376157537103 -0.0931961461902 0.126995176077 -0.0231302436441 -0.0205723736435 0.00276946299709 -0.0857091993093 -0.0916224047542 0.133995652199 0.0
-0.123649843037 -0.122969284654 -0.0947319567204 -0.0569175779819 0.00192112487275 0.0380841754377 -0.0117527684197 -0.0439326912165 0.0817288085818 0.0
-0.0213912799954 -0.00508945761248 -0.0757862403989 0.0592557452619 -0.0666956529021 0.0278346929699 0.103301666677 0.0262476466596 0.137214526534 0.0
-0.0249989368021 -0.172302156687 0.077439673245 -0.0968076735735 -0.158709689975 -0.0747106969357 0.0321599766612 -0.0993369743228 -0.0382471568882 0.0
-0.024907073006 -0.0436100997031 -0.0671624615788 0.0376723222435 -0.0747496262193 0.0936919674277 0.0731953531504 0.0635788366199 0.0790099948645 0.0
