convolution,  5 3
-0.0995359271765 -0.249708145857 0.0363751016557 0.267736852169 -1.11404764652 1.07343232632 -0.265519827604 -0.883431971073 0.891315460205 0.143113
-0.10628709197 0.492943495512 -0.486018449068 -0.43314281106 -0.163880541921 -0.271620988846 -0.353551387787 0.127680808306 0.214411705732 -0.00978487
-0.593529522419 -0.880491793156 -0.0936031341553 0.467887878418 0.288234710693 0.617674946785 -0.394236296415 0.467684537172 -0.0831812694669 0.163277
-0.519253671169 -0.0474220179021 1.16979932785 -0.537239134312 -0.589066445827 0.203954041004 -0.443831861019 -0.477712988853 0.385544806719 -0.189052
0.128208383918 0.379713565111 0.32826218009 0.895971953869 0.0881048664451 -0.287733972073 -0.577239334583 -1.36691820621 -0.854042589664 0.6414
0.095943748951 0.409501224756 0.457402020693 -0.832099616528 0.679066896439 0.577644586563 -0.717283070087 -0.142457082868 0.0963490977883 -1.31605
-0.573761045933 -0.58174175024 -0.67003852129 -0.0292539522052 0.309960633516 0.114318601787 0.737671971321 0.159233897924 -0.519956827164 -0.159993
-0.563556134701 0.372999608517 0.0590696707368 -0.035234875977 -1.44655478001 -0.687408924103 0.550503492355 1.11908495426 0.544088721275 -0.017374
0.663945496082 0.320457965136 -0.437124997377 0.969949185848 0.410204827785 -1.06088066101 0.514542400837 -0.246266439557 -0.878566145897 -1.57327
0.147378638387 -0.157456159592 -0.121738158166 0.842306852341 1.47059166431 0.922636151314 -1.42086195946 -0.149600073695 -1.41869914532 -1.84153
-0.0361130461097 -0.327627658844 -0.0874167978764 -0.664878427982 0.152686133981 0.120224818587 0.564240694046 0.335344344378 1.19066762924 -3.25821
0.558315515518 -0.343238204718 0.406304746866 -0.545062839985 0.210214808583 -0.0609910227358 -0.285257041454 -0.51457542181 -0.239481687546 1.17054
0.291420131922 -1.44853937626 -0.168103963137 0.558654427528 0.250157386065 0.249151408672 0.0726737082005 0.138676449656 -0.28195682168 0.108871
-1.44909346104 -0.971226036549 0.667828798294 -0.415170252323 -0.368838727474 -0.0920000076294 0.826252877712 0.415720134974 -0.1098478809 0.955435
-0.474220275879 -0.352063268423 -0.29769936204 0.430275410414 0.109031245112 -0.293213695288 -0.311476737261 0.337837845087 -0.433220893145 -0.0132475
-0.278637945652 0.246993288398 0.0797269195318 -0.359484136105 0.0848775804043 0.308036714792 1.44981646538 -1.69287610054 -0.889763176441 1.22899
