convolution,  5 3
0.0199044216424 0.0
-0.0606625750661 0.0
0.0328684970737 0.0
0.0886991098523 0.0
-0.156761914492 0.0
-0.0915627479553 0.0
0.0530518367887 0.0
-0.0784246996045 0.0
0.0153251597658 0.0
-0.124608807266 0.0
-0.114242553711 0.0
-0.162826940417 0.0
0.0239813141525 0.0
-0.143801569939 0.0
0.0555875338614 0.0
0.0173312425613 0.0
-0.037118088454 0.0
-0.024742430076 0.0
0.235505774617 0.0
0.0925792977214 0.0
-0.0651808902621 0.0
0.0767282918096 0.0
0.106704585254 0.0
0.118725962937 0.0
0.110874839127 0.0
0.09779907763 0.0
-0.0938609838486 0.0
0.174512371421 0.0
-0.127847224474 0.0
-0.120890080929 0.0
0.0667934268713 0.0
-0.112724766135 0.110482
-0.00399523507804 0.0
-0.00535326404497 0.0
-0.00610028253868 0.0
0.00715395295992 0.0
-0.00430453428999 0.0
0.00964532606304 0.0
-0.00551719265059 0.0
0.0135877802968 0.0
0.00289765163325 0.0
-0.000536087027285 0.0
0.00381126906723 0.0
-0.00695333257318 0.0
-0.00040254771011 0.0
0.00413603335619 0.0
-0.00219115475193 0.0
0.00716503662989 0.0
0.00718509405851 0.0
0.00560366222635 0.0
-0.000844557012897 0.0
-0.014963446185 0.0
0.00132422300521 0.0
0.0062406831421 0.0
-0.00337986228988 0.0
-0.0117009282112 0.0
-0.0190831962973 0.0
-0.00949233211577 0.0
0.0014561660355 0.0
-2.41429934249e-05 0.0
0.0224708579481 0.0
-0.00751192262396 0.0
0.00235208403319 0.0
0.00978662725538 0.00017813
0.0410339795053 0.0
-0.0550361685455 0.0
0.0504569970071 0.0
0.0624770708382 0.0
-0.130415245891 0.0
-0.090445548296 0.0
0.0478664711118 0.0
-0.0641018077731 0.0
0.0250003188848 0.0
-0.12150503695 0.0
-0.0994258821011 0.0
-0.135839760303 0.0
0.00273346807808 0.0
-0.145363777876 0.0
0.0647821351886 0.0
0.036248229444 0.0
-0.0117075126618 0.0
-0.0384136475623 0.0
0.189743205905 0.0
0.0747669041157 0.0
-0.0853267014027 0.0
0.0628804340959 0.0
0.113413646817 0.0
0.0870411843061 0.0
0.110490731895 0.0
0.0926151350141 0.0
-0.0991474464536 0.0
0.1557867378 0.0
-0.0965329632163 0.0
-0.0993035286665 0.0
0.0465639568865 0.0
-0.068540841341 0.0735947
-0.0259371418506 0.0
-0.0409001521766 0.0
0.152459233999 0.0
-0.041165471077 0.0
0.0293733347207 0.0
0.0139754815027 0.0
0.0808898285031 0.0
-0.00758838932961 0.0
0.136553317308 0.0
-0.0233408287168 0.0
-0.0481478758156 0.0
-0.020898822695 0.0
0.196727067232 0.0
-0.0174451377243 0.0
0.162981495261 0.0
0.0396380163729 0.0
0.0810382664204 0.0
-0.0609773211181 0.0
0.0710942149162 0.0
0.162841185927 0.0
-0.0234833806753 0.0
0.0956000611186 0.0
0.0466798394918 0.0
0.307245880365 0.0
0.465574413538 0.0
0.145444080234 0.0
-0.0105304112658 0.0
0.0167026910931 0.0
-0.0516478419304 0.0
0.0461310856044 0.0
0.109783679247 0.0
-0.00447544362396 0.0264609
1.26081995404e-05 0.0
-0.0101445047185 0.0
0.0116546265781 0.0
-0.00712891528383 0.0
-0.0138890100643 0.0
-0.00663057714701 0.0
-0.00709847873077 0.0
-0.0274940337986 0.0
-0.0152337597683 0.0
0.00105511269066 0.0
0.0138160698116 0.0
-0.000494999811053 0.0
0.00251407618634 0.0
-0.000567147508264 0.0
-0.000903088366613 0.0
-0.00755252782255 0.0
-0.00422209082171 0.0
-0.0176495630294 0.0
0.0115453181788 0.0
0.00315402145498 0.0
0.00329267815687 0.0
0.00161466619466 0.0
0.00737910950556 0.0
-0.00776120880619 0.0
-0.0156454183161 0.0
-0.00544877722859 0.0
-0.0131725240499 0.0
0.000189125232282 0.0
0.00091276387684 0.0
-0.00282641546801 0.0
0.00452636927366 0.0
-0.00981314945966 -3.52264e-05
-0.0201578568667 0.0
0.00857522897422 0.0
0.0261754579842 0.0
-0.0570923537016 0.0
0.0922283604741 0.0
0.0582100898027 0.0
0.00104215054307 0.0
0.0344650037587 0.0
0.0365917123854 0.0
0.0563713945448 0.0
0.0331438183784 0.0
0.0639493986964 0.0
0.080144315958 0.0
0.0810877084732 0.0
0.0372823514044 0.0
-0.013952832669 0.0
0.0468286462128 0.0
-0.0223627947271 0.0
-0.103185974061 0.0
0.0239236075431 0.0
0.0563270635903 0.0
-0.00163110927679 0.0
-0.0223936270922 0.0
0.0812653675675 0.0
0.106711886823 0.0
0.0173928905278 0.0
0.0490681417286 0.0
-0.124369032681 0.0
0.0251418445259 0.0
0.0835915878415 0.0
0.0209882482886 0.0
0.0612765289843 -0.028554
-0.000690357410349 0.0
0.000971768517047 0.0
-0.0191455911845 0.0
0.0108465403318 0.0
-0.00643709208816 0.0
0.0137808583677 0.0
0.00616078218445 0.0
0.0151780126616 0.0
-0.00335387326777 0.0
3.65531705029e-05 0.0
-0.0157736297697 0.0
0.027612356469 0.0
-0.0129975555465 0.0
0.013097810559 0.0
-0.00529024330899 0.0
0.00595260318369 0.0
0.00403905520216 0.0
0.00099110591691 0.0
0.0153220202774 0.0
-0.000229048469919 0.0
-0.00448659062386 0.0
-0.00634128740057 0.0
0.00696618016809 0.0
-0.00459026964381 0.0
-0.0164783224463 0.0
-0.0075180507265 0.0
-0.00951732974499 0.0
0.0166292898357 0.0
0.0100906100124 0.0
-0.0037083576899 0.0
-0.00669710431248 0.0
-0.00443134084344 0.000436529
0.06510322541 0.0
-0.146826401353 0.0
0.0980144143105 0.0
0.147773087025 0.0
-0.309577196836 0.0
-0.187700808048 0.0
0.119318790734 0.0
-0.189744576812 0.0
0.0644735768437 0.0
-0.342863291502 0.0
-0.254752874374 0.0
-0.396460026503 0.0
0.0603621900082 0.0
-0.345652908087 0.0
0.115054875612 0.0
0.0764871686697 0.0
-0.0772344395518 0.0
-0.0947407782078 0.0
0.458069562912 0.0
0.198899373412 0.0
-0.168728932738 0.0
0.125751525164 0.0
0.267667412758 0.0
0.280437409878 0.0
0.311569422483 0.0
0.201525971293 0.0
-0.237234249711 0.0
0.376477837563 0.0
-0.280315816402 0.0
-0.237708389759 0.0
0.0884882137179 0.0
-0.233455479145 0.233445
-0.00899726897478 0.0
-0.00506701506674 0.0
-0.00267245946452 0.0
0.0012507638894 0.0
-0.00322849745862 0.0
0.0131559437141 0.0
0.00549154309556 0.0
-0.0137814860791 0.0
0.00182443240192 0.0
-0.0165798850358 0.0
-0.0108051300049 0.0
-0.00269839679822 0.0
0.00124210049398 0.0
-0.0117215858772 0.0
0.00317109539174 0.0
-0.00220453902148 0.0
-0.00614467170089 0.0
-0.00778197497129 0.0
-0.0117024416104 0.0
-0.00333057204261 0.0
0.00138383393642 0.0
-0.0072419741191 0.0
-0.00292949914001 0.0
-0.0086449701339 0.0
-0.00252362014726 0.0
-0.0136962682009 0.0
0.0118652572855 0.0
0.0100929681212 0.0
0.000946330197621 0.0
0.0149542260915 0.0
-0.00191600562539 0.0
-0.00192224083003 -1.05817e-06
0.00571891712025 0.0
-0.0230125933886 0.0
-0.00917153898627 0.0
0.00153296068311 0.0
-0.000354386866093 0.0
-0.00705999881029 0.0
-0.00659805489704 0.0
-0.012404625304 0.0
-0.0214873887599 0.0
-0.0128998486325 0.0
0.00802693702281 0.0
0.000889475340955 0.0
0.00619290256873 0.0
-0.000469327438623 0.0
-0.00630261236802 0.0
-0.00228150840849 0.0
-0.0164808761328 0.0
0.000506232492626 0.0
0.00357213267125 0.0
-3.36103003065e-05 0.0
0.013136732392 0.0
0.00951211992651 0.0
-0.00725445663556 0.0
0.00255412212573 0.0
-2.36249470618e-05 0.0
-0.00562395481393 0.0
-0.00250212172978 0.0
0.00438207387924 0.0
-0.000608704751357 0.0
0.00934066995978 0.0
-0.0163525398821 0.0
0.000262491637841 -0.00260126
-0.0349481143057 0.0
0.00498311920092 0.0
0.0772461593151 0.0
-0.0830263420939 0.0
0.132043153048 0.0
0.105010442436 0.0
0.0168988741934 0.0
0.0737504437566 0.0
0.0879336819053 0.0
0.0729100555182 0.0
0.0475944168866 0.0
0.080384619534 0.0
0.133266150951 0.0
0.0973216742277 0.0
0.0825549513102 0.0
-0.00772053701803 0.0
0.0977999716997 0.0
-0.0484116375446 0.0
-0.122509472072 0.0
0.0802839994431 0.0
0.0590536668897 0.0
0.00598619086668 0.0
-0.0597342401743 0.0
0.156440228224 0.0
0.246436595917 0.0
0.0210591368377 0.0
0.0433085747063 0.0
-0.150530591607 0.0
0.0433962121606 0.0
0.130890265107 0.0
0.0454398840666 0.0
0.0512948855758 -0.0375199
0.0739343687892 0.0
-0.116769090295 0.0
0.0660728439689 0.0
0.142761990428 0.0
-0.27231618762 0.0
-0.188396453857 0.0
0.0864270031452 0.0
-0.146020412445 0.0
0.05564738065 0.0
-0.238324210048 0.0
-0.234567224979 0.0
-0.343033790588 0.0
0.0391626916826 0.0
-0.282458692789 0.0
0.0957726016641 0.0
0.0795863196254 0.0
-0.0790320560336 0.0
-0.0706018283963 0.0
0.41496604681 0.0
0.184098407626 0.0
-0.141429334879 0.0
0.125068202615 0.0
0.212969914079 0.0
0.250542074442 0.0
0.237598404288 0.0
0.192276626825 0.0
-0.20335572958 0.0
0.347041755915 0.0
-0.228369385004 0.0
-0.1987734586 0.0
0.0691420286894 0.0
-0.186040580273 0.194966
-0.000869188981596 0.0
0.00601513357833 0.0
0.00690485956147 0.0
0.000164053330082 0.0
-0.000423735560616 0.0
-0.0116807678714 0.0
0.0285345707089 0.0
-0.0128198061138 0.0
-0.0144304679707 0.0
-0.00206336914562 0.0
-0.000176291519892 0.0
-0.00189326738473 0.0
0.0199510660022 0.0
0.00771904503927 0.0
-0.024059664458 0.0
-0.0128211872652 0.0
0.00786776468158 0.0
-0.00531779648736 0.0
0.011855863966 0.0
-0.000432969332905 0.0
-0.00342923123389 0.0
-0.00797419156879 0.0
-0.0154311731458 0.0
-0.0182231720537 0.0
-0.00740486569703 0.0
0.00916192959994 0.0
-0.00314041483216 0.0
-0.0131146674976 0.0
0.00241797952913 0.0
0.00229205493815 0.0
-0.0024797571823 0.0
0.00465616350994 -3.07968e-06
-0.22514423728 0.0
0.125536516309 0.0
0.236387088895 0.0
-0.448470026255 0.0
0.713285148144 0.0
0.447786390781 0.0
0.0543457530439 0.0
0.261612504721 0.0
0.299164861441 0.0
0.436635315418 0.0
0.306551098824 0.0
0.566452622414 0.0
0.537715554237 0.0
0.620606780052 0.0
0.285892754793 0.0
-0.0253308266401 0.0
0.413796246052 0.0
-0.139176800847 0.0
-0.765768826008 0.0
0.207016885281 0.0
0.265313118696 0.0
-0.0472911447287 0.0
-0.347146868706 0.0
0.57438480854 0.0
0.922946274281 0.0
0.0372536964715 0.0
0.332919210196 0.0
-0.774621665478 0.0
0.303414255381 0.0
0.671105861664 0.0
0.135024994612 0.0
0.372380584478 -0.220215
0.0111024966463 0.0
-0.00847012922168 0.0
-0.00947650149465 0.0
0.0100823771209 0.0
0.00497547071427 0.0
0.00104406138416 0.0
0.00396098988131 0.0
0.00253251916729 0.0
0.00080301752314 0.0
-0.0030565711204 0.0
-0.0113797718659 0.0
0.0139360195026 0.0
0.00696152169257 0.0
0.0185502860695 0.0
-0.00912237539887 0.0
-0.00779491197318 0.0
-0.0104562845081 0.0
-0.0134838009253 0.0
-0.0196075998247 0.0
0.00408502854407 0.0
-0.00267746555619 0.0
0.0176523886621 0.0
0.00165803532582 0.0
-0.00606662128121 0.0
0.0227853450924 0.0
-0.00413707876578 0.0
0.00883006490767 0.0
-0.00694464659318 0.0
0.0027657917235 0.0
0.00834169518203 0.0
0.010429950431 0.0
0.020231468603 -0.00127937
-0.0116748614237 0.0
0.00728451739997 0.0
0.0203371085227 0.0
-0.0295519679785 0.0
0.0168912801892 0.0
0.0213655121624 0.0
0.0162885673344 0.0
0.0168428681791 0.0
0.0020916541107 0.0
0.037738841027 0.0
0.0195489320904 0.0
0.0358371213078 0.0
0.0214353688061 0.0
0.0325151309371 0.0
0.00451780436561 0.0
-0.0213946811855 0.0
0.0122470567003 0.0
-0.00117079599295 0.0
-0.0402258187532 0.0
-0.0101482523605 0.0
0.0178480260074 0.0
-0.00822516251355 0.0
-0.016589358449 0.0
0.00965035241097 0.0
0.0228508897126 0.0
-0.0102504547685 0.0
0.00445349793881 0.0
-0.0364942736924 0.0
0.00207452359609 0.0
0.0515901260078 0.0
-0.00550045724958 0.0
0.0164399687201 -0.0148831
-0.00235176505521 0.0
-0.00767947407439 0.0
-0.00457476032898 0.0
0.0113854315132 0.0
0.00824783090502 0.0
-0.00740792416036 0.0
-0.00896230433136 0.0
-0.00205509946682 0.0
-0.0152063984424 0.0
-0.000310734059894 0.0
-0.00998826790601 0.0
-0.0171477049589 0.0
-0.00992044527084 0.0
-0.00627164309844 0.0
-0.00393966399133 0.0
-0.00334808789194 0.0
0.00255337147973 0.0
-0.0205804910511 0.0
-0.0075773652643 0.0
-0.00792296417058 0.0
0.00892788916826 0.0
0.001266892883 0.0
0.00107285799459 0.0
0.0169065594673 0.0
-0.00187285244465 0.0
-0.0133641827852 0.0
-0.00269102863967 0.0
0.0075713689439 0.0
0.000156241934747 0.0
0.00356491841376 0.0
0.00645808177069 0.0
-0.00908248964697 -0.00324765
-0.00197295937687 0.0
-0.00578239001334 0.0
-0.0201747249812 0.0
-0.000230600708164 0.0
0.00111050554551 0.0
0.00105278810952 0.0
-0.0164317972958 0.0
0.000684842292685 0.0
0.0187581982464 0.0
0.0103885484859 0.0
0.0184255000204 0.0
-0.00401554163545 0.0
-0.00637956475839 0.0
-0.0157025363296 0.0
-0.0088915117085 0.0
0.0129394102842 0.0
-0.00259806029499 0.0
0.00398533931002 0.0
0.00738114537671 0.0
0.00812757760286 0.0
-0.00347708095796 0.0
0.00723133608699 0.0
0.00409114919603 0.0
0.00456621823832 0.0
-0.0049515995197 0.0
-0.00732761248946 0.0
-0.000444645178504 0.0
0.00393254635856 0.0
-0.00508759357035 0.0
-0.0127095552161 0.0
-0.00372462207451 0.0
-0.0267051514238 7.29847e-05
-0.01209997572 0.0
-0.00584046402946 0.0
-0.00303635769524 0.0
-0.00694382982329 0.0
-0.00320162018761 0.0
0.0193775389344 0.0
0.00600741291419 0.0
-0.00366968591698 0.0
-0.00200351397507 0.0
-0.00847339816391 0.0
0.000807965989225 0.0
-0.0107674989849 0.0
-0.0242576822639 0.0
-0.00351442233659 0.0
-0.00698046945035 0.0
-0.00943536590785 0.0
0.0142867770046 0.0
0.000335741671734 0.0
0.00682702753693 0.0
-0.0139940259978 0.0
-0.0146316820756 0.0
-0.00214309873991 0.0
-0.00428785197437 0.0
-0.012590335682 0.0
0.0154597181827 0.0
0.0121178403497 0.0
-0.00764335179701 0.0
-0.00412850407884 0.0
0.00919611286372 0.0
-0.0157689657062 0.0
-0.00533509952947 0.0
-0.00243805698119 0.000480946
0.0280595570803 0.0
-0.079813875258 0.0
0.0587191618979 0.0
0.0716931670904 0.0
-0.163131073117 0.0
-0.069982022047 0.0
0.0541820302606 0.0
-0.0758679956198 0.0
0.0320356078446 0.0
-0.140559673309 0.0
-0.124669231474 0.0
-0.178211241961 0.0
0.0354210399091 0.0
-0.147862970829 0.0
0.076304346323 0.0
0.0422342456877 0.0
-0.0139203192666 0.0
-0.0157925393432 0.0
0.201768592 0.0
0.113969199359 0.0
-0.0574325025082 0.0
0.059982560575 0.0
0.102502793074 0.0
0.108875371516 0.0
0.129117503762 0.0
0.112269505858 0.0
-0.0775014981627 0.0
0.164551436901 0.0
-0.110311537981 0.0
-0.0979497432709 0.0
0.0575911700726 0.0
-0.0956778898835 0.0578897
-0.00756405387074 0.0
-0.0152452047914 0.0
-0.0106341997162 0.0
0.00331239821389 0.0
0.014930059202 0.0
0.00142526486889 0.0
0.00948164984584 0.0
0.000762842071708 0.0
-0.00529932929203 0.0
-0.00174360629171 0.0
-0.0125092025846 0.0
0.00105090090074 0.0
-0.00846138875932 0.0
-0.0128094824031 0.0
0.00560624245554 0.0
0.0112711554393 0.0
0.00958730559796 0.0
0.0113973096013 0.0
-0.0014110741904 0.0
0.000610838469584 0.0
0.0144658377394 0.0
-0.00157934101298 0.0
0.00211821147241 0.0
-0.00812619831413 0.0
-0.00743329105899 0.0
-0.00435663294047 0.0
0.000284236099105 0.0
-0.0133258895949 0.0
-0.00806139688939 0.0
-0.001703740214 0.0
-0.00446109334007 0.0
-0.0147336572409 -0.00032428
0.0365584976971 0.0
-0.0750688537955 0.0
0.0382491312921 0.0
0.0902149826288 0.0
-0.173701971769 0.0
-0.0957072526217 0.0
0.052368145436 0.0
-0.113794900477 0.0
0.0480649918318 0.0
-0.174866735935 0.0
-0.145279482007 0.0
-0.221255928278 0.0
0.0457459129393 0.0
-0.187932804227 0.0
0.0648510158062 0.0
0.0261799227446 0.0
-0.0347950048745 0.0
-0.0427065715194 0.0
0.249621391296 0.0
0.115042090416 0.0
-0.104015670717 0.0
0.0691846087575 0.0
0.13891543448 0.0
0.154471337795 0.0
0.170374795794 0.0
0.117154106498 0.0
-0.135133624077 0.0
0.215672463179 0.0
-0.149977609515 0.0
-0.131195247173 0.0
0.0471123047173 0.0
-0.124875329435 0.121672
-0.00523321051151 0.0
0.00025985809043 0.0
0.00748276431113 0.0
-0.00266182492487 0.0
-0.00504594948143 0.0
0.00124916562345 0.0
0.0120034515858 0.0
-0.00473768822849 0.0
-0.000352568196831 0.0
-0.000500957015902 0.0
0.00305051868781 0.0
0.0133817093447 0.0
-0.00456751696765 0.0
0.00964967999607 0.0
-0.00671696476638 0.0
0.000511232821736 0.0
-0.00349260820076 0.0
-0.00625251466408 0.0
0.00123172916938 0.0
0.00403637718409 0.0
-0.0106916101649 0.0
0.00897845905274 0.0
-0.0155380927026 0.0
0.000594286306296 0.0
-0.00929521303624 0.0
0.00604561343789 0.0
0.00373348663561 0.0
-0.00483136437833 0.0
-0.0130550032482 0.0
-0.0114567847922 0.0
-0.00250740884803 0.0
-0.0120582766831 -0.000501347
-0.0017863358371 0.0
-0.0162849035114 0.0
-0.00380625994876 0.0
-0.00719610136002 0.0
0.00245410203934 0.0
0.0110889561474 0.0
-0.000705506070517 0.0
0.00454422459006 0.0
-1.68339774973e-05 0.0
-0.00269858143292 0.0
0.00145085412078 0.0
0.00340305943973 0.0
-0.0117873903364 0.0
0.0124320909381 0.0
-0.0033250732813 0.0
-0.0157378297299 0.0
-0.0102649023756 0.0
-0.0127398017794 0.0
-0.0103649357334 0.0
-0.00356719922274 0.0
-0.0116442665458 0.0
0.0165475737303 0.0
-0.0127032650635 0.0
-0.00124804629013 0.0
0.00932946335524 0.0
0.00120817113202 0.0
0.00664830300957 0.0
-0.00167941686232 0.0
0.0092681189999 0.0
-0.0153025416657 0.0
-0.00219828938134 0.0
-0.00621545221657 -0.000313906
0.00253906054422 0.0
0.0120929591358 0.0
-0.00780896330252 0.0
0.00307901250198 0.0
-0.0111774997786 0.0
-0.00727094849572 0.0
0.00693383673206 0.0
-0.00665979878977 0.0
-0.00669943727553 0.0
-0.0174391437322 0.0
-0.00415511149913 0.0
-0.00561005435884 0.0
-0.0153645044193 0.0
0.00265830312856 0.0
0.00563708599657 0.0
0.00626895623282 0.0
-0.00700405333191 0.0
0.00304516940378 0.0
-0.0264963880181 0.0
-0.0162490718067 0.0
-0.00329986936413 0.0
0.0133228274062 0.0
-0.00514020258561 0.0
0.00536406505853 0.0
0.00744059169665 0.0
0.000532956328243 0.0
0.00508442800492 0.0
0.00329916574992 0.0
-0.00195393757895 0.0
-0.00338267022744 0.0
-0.0135870082304 0.0
-0.0195111725479 -0.00156987
0.0241669267416 0.0
0.0091638751328 0.0
-0.0185024421662 0.0
0.0094383796677 0.0
-0.0101962648332 0.0
-0.0127615854144 0.0
-0.00540189491585 0.0
-0.0124497665092 0.0
-0.0130751021206 0.0
0.00342271337286 0.0
-0.00352129060775 0.0
-0.0200648922473 0.0
-0.000906138797291 0.0
-0.00734764616936 0.0
0.000921816914342 0.0
-0.0025316902902 0.0
0.00175520672929 0.0
-0.0136494990438 0.0
0.00650611380115 0.0
-0.000905368942767 0.0
-0.00103158992715 0.0
-0.00394780142233 0.0
-0.00225034216419 0.0
0.0027081342414 0.0
0.00789122469723 0.0
0.000675476097967 0.0
-0.0125551847741 0.0
-0.021177738905 0.0
-0.00579654751346 0.0
-0.00332503393292 0.0
0.00357773248106 0.0
-0.00443851016462 -0.00164089
0.0387196801603 0.0
-0.0960131213069 0.0
0.0606768205762 0.0
0.0831570476294 0.0
-0.20010997355 0.0
-0.123565651476 0.0
0.0675553679466 0.0
-0.118619225919 0.0
0.0572920702398 0.0
-0.234920069575 0.0
-0.160079598427 0.0
-0.25430431962 0.0
0.032496124506 0.0
-0.210752919316 0.0
0.0878731012344 0.0
0.0375546067953 0.0
-0.062877625227 0.0
-0.0725721120834 0.0
0.297003895044 0.0
0.125637277961 0.0
-0.117071382701 0.0
0.102920785546 0.0
0.177153781056 0.0
0.176290541887 0.0
0.208461031318 0.0
0.11450176686 0.0
-0.148092612624 0.0
0.241579890251 0.0
-0.183157876134 0.0
-0.14920823276 0.0
0.042736839503 0.0
-0.156061679125 0.137001
-0.00525672361255 0.0
-0.00351587170735 0.0
0.0112121514976 0.0
0.0117381345481 0.0
-0.027162399143 0.0
-0.0139906834811 0.0
0.00880993995816 0.0
-0.00868408475071 0.0
-0.0157739929855 0.0
0.00231129000895 0.0
0.0019573266618 0.0
-0.0156511515379 0.0
-0.0108484961092 0.0
-0.0227508638054 0.0
0.00653850473464 0.0
-0.00138895958662 0.0
-0.0182121675462 0.0
-0.0148187084123 0.0
0.0328864268959 0.0
0.00190260470845 0.0
-0.00771810347214 0.0
0.00818380434066 0.0
0.0166909918189 0.0
0.0119135053828 0.0
0.00652188388631 0.0
0.0154540538788 0.0
-0.0067529771477 0.0
0.0177316814661 0.0
-0.00124589540064 0.0
-0.00907399505377 0.0
0.00713515887037 0.0
-0.00220156367868 0.0118889
-0.020490070805 0.0
0.00707487761974 0.0
0.00573703786358 0.0
-0.00195608707145 0.0
-0.00374467880465 0.0
-0.0157510340214 0.0
-0.00713047664613 0.0
-0.0191053710878 0.0
0.0039650965482 0.0
0.00428551156074 0.0
0.00800410471857 0.0
-5.88059047004e-05 0.0
-0.018518678844 0.0
-0.00222552358173 0.0
0.00283163646236 0.0
0.00262708053924 0.0
-0.00105821469333 0.0
-0.00121909053996 0.0
0.0150531381369 0.0
-0.0201783124357 0.0
0.00265296385624 0.0
-0.0166682563722 0.0
-0.00827139895409 0.0
-0.00367381423712 0.0
-0.00251161539927 0.0
0.00278991064988 0.0
-0.002181698801 0.0
0.0141435554251 0.0
0.00620699999854 0.0
0.000598289247137 0.0
-0.00338619272225 0.0
-0.0213885661215 -0.00123551
0.104074724019 0.0
-0.171594187617 0.0
0.0906188264489 0.0
0.174514174461 0.0
-0.361450493336 0.0
-0.233836904168 0.0
0.110506989062 0.0
-0.205551803112 0.0
0.0777508094907 0.0
-0.336802631617 0.0
-0.283607125282 0.0
-0.413219809532 0.0
0.0482123941183 0.0
-0.389294028282 0.0
0.14106091857 0.0
0.0769539996982 0.0
-0.0943708047271 0.0
-0.053823158145 0.0
0.564892292023 0.0
0.222123354673 0.0
-0.196633160114 0.0
0.176881402731 0.0
0.319212257862 0.0
0.306196540594 0.0
0.305240631104 0.0
0.254913449287 0.0
-0.260063976049 0.0
0.44803583622 0.0
-0.296112626791 0.0
-0.277775764465 0.0
0.116167724133 0.0
-0.242874890566 0.235205
0.00185392785352 0.0
0.00372302415781 0.0
0.0100328857079 0.0
-0.00606063567102 0.0
0.00836320128292 0.0
0.00340199866332 0.0
-0.000962448481005 0.0
0.0142189953476 0.0
0.003769738134 0.0
-0.00343221519142 0.0
0.00612208386883 0.0
-0.00834852457047 0.0
-0.0064032911323 0.0
0.0174801554531 0.0
0.00882301293314 0.0
-0.0212796609849 0.0
0.00760564114898 0.0
-0.00225433614105 0.0
0.00934553239495 0.0
0.00331399752758 0.0
-0.00409337505698 0.0
-0.010359570384 0.0
0.00698733050376 0.0
0.00724928127602 0.0
-0.0181544236839 0.0
0.0066033564508 0.0
-0.0125714037567 0.0
0.000525431882124 0.0
-0.00427520787343 0.0
0.00109454675112 0.0
-0.0171801149845 0.0
-0.00848140846938 -0.00174838
0.0056007662788 0.0
-0.00118776597083 0.0
-0.0085751209408 0.0
-0.0081479139626 0.0
0.00139234971721 0.0
0.00218540849164 0.0
-0.0189923960716 0.0
-0.00867131818086 0.0
-0.00583532266319 0.0
-0.0150080211461 0.0
-0.0161895360798 0.0
-0.00412159925327 0.0
-0.0039275335148 0.0
-0.0118820946664 0.0
-0.00679325126112 0.0
0.00308916484937 0.0
-0.00165977573488 0.0
0.0126872751862 0.0
-0.00333518884145 0.0
-0.00117883924395 0.0
0.00339563447051 0.0
0.0079345125705 0.0
-0.00141774059739 0.0
0.00287039740942 0.0
-0.0101571120322 0.0
-0.00351036922075 0.0
-0.00435710465536 0.0
0.00633080583066 0.0
-0.00744598824531 0.0
0.00326874060556 0.0
0.0134681621566 0.0
0.00239785807207 -0.000261257
0.0721307098866 0.0
-0.123270124197 0.0
0.0546186193824 0.0
0.115902908146 0.0
-0.25850468874 0.0
-0.161207318306 0.0
0.0758438706398 0.0
-0.128817662597 0.0
0.0644868090749 0.0
-0.247007936239 0.0
-0.211403444409 0.0
-0.319765001535 0.0
0.0496635138988 0.0
-0.255444914103 0.0
0.103983871639 0.0
0.0708300545812 0.0
-0.0543229393661 0.0
-0.0567991472781 0.0
0.361152142286 0.0
0.177735716105 0.0
-0.141182497144 0.0
0.10826793313 0.0
0.18534193933 0.0
0.242748335004 0.0
0.230658277869 0.0
0.163800686598 0.0
-0.179786637425 0.0
0.29452252388 0.0
-0.221853271127 0.0
-0.162701115012 0.0
0.0765572786331 0.0
-0.175363719463 0.165272
-0.00346779613756 0.0
0.00279605714604 0.0
-0.00834159459919 0.0
-0.00897634774446 0.0
0.0135923149064 0.0
-0.0083927353844 0.0
-0.000682747224346 0.0
0.0104380846024 0.0
-0.000372647657059 0.0
-0.00590093201026 0.0
-0.0032589668408 0.0
0.0117536392063 0.0
0.00132664619014 0.0
-0.00413425872102 0.0
0.00635085068643 0.0
-0.00899578910321 0.0
-0.00448625953868 0.0
0.00125302234665 0.0
0.00711609423161 0.0
0.00267246668227 0.0
-0.00650446116924 0.0
0.0105658499524 0.0
-0.00164117175154 0.0
-0.00997351389378 0.0
-0.0124662835151 0.0
-0.00529351970181 0.0
-0.00214617466554 0.0
-0.00405184505507 0.0
0.00710036419332 0.0
0.00832449365407 0.0
-0.00784927327186 0.0
-0.00385562260635 0.000121658
0.0140100670978 0.0
-0.00370245939121 0.0
-0.00149715330917 0.0
-0.0136388782412 0.0
0.000646667846013 0.0
0.00919229630381 0.0
0.00214354111813 0.0
0.000949693785515 0.0
-0.00193212635349 0.0
0.00854713656008 0.0
-0.00331017188728 0.0
-0.0143663575873 0.0
-0.000468955840915 0.0
-0.00723110465333 0.0
-0.00337332626805 0.0
-0.00762262241915 0.0
0.00813512783498 0.0
-0.000511856516823 0.0
-0.00542508158833 0.0
0.0060925912112 0.0
0.00253251753747 0.0
-0.0183551311493 0.0
-0.00704751024023 0.0
-0.0112036969513 0.0
-0.00656194938347 0.0
0.000313977507176 0.0
-0.0145771959797 0.0
0.0042576091364 0.0
-0.0084567014128 0.0
-0.00824430584908 0.0
-0.0130658978596 0.0
-0.00625431723893 -2.10817e-06
0.0917732864618 0.0
-0.164869755507 0.0
0.0990044549108 0.0
0.1751704216 0.0
-0.373060971498 0.0
-0.221376940608 0.0
0.10115673393 0.0
-0.178028285503 0.0
0.0675674974918 0.0
-0.297478288412 0.0
-0.288388460875 0.0
-0.407493472099 0.0
0.0389047637582 0.0
-0.377046316862 0.0
0.134740650654 0.0
0.081942640245 0.0
-0.0841164067388 0.0
-0.0742557346821 0.0
0.532961666584 0.0
0.245296910405 0.0
-0.198077395558 0.0
0.174682438374 0.0
0.29121157527 0.0
0.300570935011 0.0
0.27368247509 0.0
0.240370810032 0.0
-0.225088998675 0.0
0.444102376699 0.0
-0.29577589035 0.0
-0.258840084076 0.0
0.118212610483 0.0
-0.234996810555 0.24796
0.160123422742 0.0
-0.276106745005 0.0
0.152447149158 0.0
0.268958181143 0.0
-0.591406464577 0.0
-0.376626133919 0.0
0.184693321586 0.0
-0.314133673906 0.0
0.105650760233 0.0
-0.497406542301 0.0
-0.452446430922 0.0
-0.674812138081 0.0
0.101670846343 0.0
-0.574165761471 0.0
0.203780293465 0.0
0.123036421835 0.0
-0.133511200547 0.0
-0.124404832721 0.0
0.853546202183 0.0
0.38607993722 0.0
-0.286892443895 0.0
0.266248494387 0.0
0.450452595949 0.0
0.497958391905 0.0
0.485932558775 0.0
0.384450286627 0.0
-0.386793762445 0.0
0.671662867069 0.0
-0.48013690114 0.0
-0.412989467382 0.0
0.165915444493 0.0
-0.383426398039 0.367448
-0.00404991302639 0.0
0.00428150035441 0.0
-0.00290908222087 0.0
0.00686540221795 0.0
-0.00291002495214 0.0
-0.0139892650768 0.0
-0.000913948926609 0.0
0.00747206062078 0.0
0.00284313503653 0.0
0.0139225786552 0.0
0.00163355655968 0.0
0.0108844842762 0.0
-0.0055994107388 0.0
0.00503141246736 0.0
-0.0253583360463 0.0
-0.00800439808518 0.0
0.00795787200332 0.0
0.00793157890439 0.0
0.0186207182705 0.0
-0.00782902352512 0.0
-0.00629463186488 0.0
0.00163764017634 0.0
0.0141901727766 0.0
-0.00835980661213 0.0
-0.0191625393927 0.0
-0.0128167504445 0.0
0.0176196321845 0.0
0.022584952414 0.0
0.012538135983 0.0
-0.00913902930915 0.0
0.00227586342953 0.0
0.00255495402962 -0.000941664
-0.00869720242918 0.0
0.00691576907411 0.0
-0.0175877846777 0.0
-0.0175607148558 0.0
-0.000771301332861 0.0
0.00293569033965 0.0
0.00321630388498 0.0
-0.0128640355542 0.0
-0.00404781242833 0.0
-0.0111460760236 0.0
0.000423843914177 0.0
0.0124600930139 0.0
-0.00436963886023 0.0
0.00362389697693 0.0
-0.0131691880524 0.0
0.00268005067483 0.0
-0.00315379933454 0.0
-0.0179882477969 0.0
-0.00258650095202 0.0
0.00378846470267 0.0
0.00385818933137 0.0
0.00165209174156 0.0
-0.00180256727617 0.0
-0.00220317253843 0.0
-0.00264010298997 0.0
0.0181634277105 0.0
-0.0112912133336 0.0
0.00470123672858 0.0
0.00763965956867 0.0
0.0110324230045 0.0
-0.00345663377084 0.0
0.00407628342509 -0.00127347
0.0352431423962 0.0
-0.0693799257278 0.0
0.0338119640946 0.0
0.0657211616635 0.0
-0.134684741497 0.0
-0.0706061050296 0.0
0.0400046631694 0.0
-0.0725179240108 0.0
0.030171552673 0.0
-0.157477959991 0.0
-0.0979223623872 0.0
-0.153613880277 0.0
0.0384205020964 0.0
-0.13274204731 0.0
0.0755477696657 0.0
0.0390805378556 0.0
-0.034964133054 0.0
-0.0447850860655 0.0
0.178678035736 0.0
0.0711609646678 0.0
-0.0767846927047 0.0
0.0535352677107 0.0
0.0975658670068 0.0
0.118051931262 0.0
0.129295796156 0.0
0.0702462568879 0.0
-0.092100828886 0.0
0.154957309365 0.0
-0.110681600869 0.0
-0.084626801312 0.0
0.0439006313682 0.0
-0.10617839545 0.0717838
0.0578018575907 0.0
-0.12193801254 0.0
0.072954505682 0.0
0.103651247919 0.0
-0.233460754156 0.0
-0.141431108117 0.0
0.0596691407263 0.0
-0.117584481835 0.0
0.0468918606639 0.0
-0.229212850332 0.0
-0.191125631332 0.0
-0.293874323368 0.0
0.0427223667502 0.0
-0.246441945434 0.0
0.0946083813906 0.0
0.0453087575734 0.0
-0.0325979702175 0.0
-0.0689623132348 0.0
0.31532022357 0.0
0.156377077103 0.0
-0.144754052162 0.0
0.103669889271 0.0
0.198652938008 0.0
0.216168820858 0.0
0.222533851862 0.0
0.15197943151 0.0
-0.167844414711 0.0
0.284337490797 0.0
-0.199068903923 0.0
-0.18169426918 0.0
0.0746984854341 0.0
-0.15329298377 0.144452
-0.00385830481537 0.0
-0.0121781472117 0.0
0.00105900841299 0.0
-0.00265457550995 0.0
0.0138677908108 0.0
0.00321409595199 0.0
-0.000612797681242 0.0
-0.00171967525966 0.0
0.00885020475835 0.0
0.0110527658835 0.0
-0.00815405324101 0.0
0.0145107358694 0.0
0.00948370713741 0.0
-0.0123877916485 0.0
-0.00874616764486 0.0
-0.011802168563 0.0
-0.00109517981764 0.0
-0.0074123442173 0.0
-0.0275161415339 0.0
-0.0112448493019 0.0
0.00667500915006 0.0
0.0101429922506 0.0
0.000857041741256 0.0
0.0025676228106 0.0
0.0122223570943 0.0
-0.0066275447607 0.0
0.017799468711 0.0
-0.00724305165932 0.0
0.00834858883172 0.0
-0.00513732945547 0.0
0.00874881073833 0.0
0.00090745696798 -0.00484953
-0.0154791874811 0.0
-0.0117142843083 0.0
0.0416425131261 0.0
-0.0395552292466 0.0
0.030416270718 0.0
0.0112995319068 0.0
0.0255343653262 0.0
0.0116156488657 0.0
0.0574428029358 0.0
0.00694206962362 0.0
0.000181151393917 0.0
0.0160209368914 0.0
0.0842963010073 0.0
0.0268527511507 0.0
0.0710370764136 0.0
0.0113209374249 0.0
0.0461544468999 0.0
-0.0362449362874 0.0
-0.0157313682139 0.0
0.0544785037637 0.0
0.00767579954118 0.0
0.0209786146879 0.0
-0.0077951666899 0.0
0.120077468455 0.0
0.190938785672 0.0
0.0477709025145 0.0
0.00523103959858 0.0
-0.026766108349 0.0
-0.0195599906147 0.0
0.0565869547427 0.0
0.0470108129084 0.0
0.016541454941 -0.0140035
0.125962197781 0.0
-0.236405864358 0.0
0.131068617105 0.0
0.243541911244 0.0
-0.553757369518 0.0
-0.339738309383 0.0
0.162641346455 0.0
-0.271690428257 0.0
0.0814638286829 0.0
-0.463010013103 0.0
-0.417655587196 0.0
-0.633594274521 0.0
0.0850386172533 0.0
-0.538692295551 0.0
0.174200698733 0.0
0.123923517764 0.0
-0.131142824888 0.0
-0.122890166938 0.0
0.774037063122 0.0
0.355157703161 0.0
-0.258014023304 0.0
0.254909873009 0.0
0.43505525589 0.0
0.473036587238 0.0
0.455116897821 0.0
0.337512224913 0.0
-0.364494800568 0.0
0.623595774174 0.0
-0.442379415035 0.0
-0.388957202435 0.0
0.15886297822 0.0
-0.346720010042 0.366398
0.0127103114501 0.0
-0.000823086476885 0.0
0.00174938736018 0.0
-0.0104648731649 0.0
0.00736788706854 0.0
-0.00414171209559 0.0
-0.00644244253635 0.0
-0.00186582677998 0.0
-0.00776433572173 0.0
0.0176650155336 0.0
-0.00968762300909 0.0
-0.023909330368 0.0
-0.0051268003881 0.0
-0.00519412290305 0.0
0.0123751461506 0.0
-0.0165157616138 0.0
-0.0117813805118 0.0
-0.00778992986307 0.0
-0.0084024798125 0.0
-0.00262405816466 0.0
-0.0130591997877 0.0
0.0103124920279 0.0
-0.00842036679387 0.0
-0.00313706113957 0.0
0.007917214185 0.0
-0.0188873596489 0.0
-0.00235105142929 0.0
0.0127768898383 0.0
-0.00110807910096 0.0
-0.0111107062548 0.0
0.00532458443195 0.0
-0.00320964097045 -0.00113831
0.00178779440466 0.0
0.00211623031646 0.0
-0.00226633856073 0.0
0.0132173607126 0.0
-0.00894811656326 0.0
-0.0153634259477 0.0
-0.00114208599553 0.0
-0.00647686142474 0.0
-0.00188315927517 0.0
0.0081161018461 0.0
0.010711632669 0.0
0.00371410790831 0.0
-0.00697971694171 0.0
-0.000811012170743 0.0
-0.0083703994751 0.0
0.00974303856492 0.0
0.00244800117798 0.0
0.0232117865235 0.0
0.0241640657187 0.0
-0.00938107818365 0.0
-0.00861859042197 0.0
-0.00255669257604 0.0
0.00022930567502 0.0
-0.00579136051238 0.0
0.00212659174576 0.0
-0.0113812265918 0.0
0.00726999295875 0.0
0.00769491214305 0.0
0.0169244650751 0.0
-0.00645586242899 0.0
-0.0113586336374 0.0
-0.00334037770517 0.00243894
-0.015440043062 0.0
0.0215258188546 0.0
0.0269178971648 0.0
-0.0394456125796 0.0
0.0645234063268 0.0
0.0439200550318 0.0
0.0136204892769 0.0
0.00809359177947 0.0
0.0303106438369 0.0
0.0553594380617 0.0
0.017704712227 0.0
0.0547322593629 0.0
0.0598172731698 0.0
0.0626226365566 0.0
0.0372891016304 0.0
-0.0182387530804 0.0
0.0285216253251 0.0
-0.0102839106694 0.0
-0.0651213303208 0.0
0.0366265885532 0.0
0.0188467875123 0.0
-0.0194980632514 0.0
-0.0264787692577 0.0
0.0834437981248 0.0
0.112637206912 0.0
0.0167396236211 0.0
0.0315635576844 0.0
-0.0737027451396 0.0
0.0177696794271 0.0
0.0622065365314 0.0
0.0122022852302 0.0
0.0329426079988 -0.0183033
0.00237655709498 0.0
-0.0142457298934 0.0
-0.00496327970177 0.0
0.0187358632684 0.0
-0.00168116996065 0.0
0.00982237048447 0.0
0.00564912008122 0.0
0.00504061067477 0.0
-0.00668777385727 0.0
0.00307735567912 0.0
0.00151872180868 0.0
-0.02312332578 0.0
-0.00544825382531 0.0
0.008186343126 0.0
-0.00581882009283 0.0
-0.0152743486688 0.0
-0.00630598934367 0.0
0.00137788557913 0.0
0.00491935526952 0.0
0.00553781259805 0.0
0.00154622213449 0.0
0.0100306132808 0.0
-0.00652375956997 0.0
-0.00194330466911 0.0
0.00372094870545 0.0
-0.00488740531728 0.0
0.0187557786703 0.0
-0.00933169946074 0.0
-0.00340488227084 0.0
-0.0113965924829 0.0
0.0169445723295 0.0
-0.00175314035732 7.2343e-06
-0.0108158364892 0.0
-0.015316169709 0.0
-0.00479199411348 0.0
0.005381106399 0.0
-0.00615922175348 0.0
5.66350026929e-05 0.0
-0.00792522635311 0.0
-0.010264149867 0.0
0.00766748609021 0.0
0.00362048391253 0.0
-0.00872434489429 0.0
0.00105542014353 0.0
-0.00503898365423 0.0
-0.00705880764872 0.0
-0.00874011963606 0.0
-0.0246814377606 0.0
-0.00539015699178 0.0
-0.000981781515293 0.0
0.000206018099561 0.0
-0.00148928817362 0.0
0.00254737283103 0.0
0.0016729721101 0.0
-0.00278481352143 0.0
0.00662004388869 0.0
0.00517045194283 0.0
-0.0251088701189 0.0
0.00642542447895 0.0
-0.00442400155589 0.0
-0.00398465199396 0.0
-0.00466928165406 0.0
-0.0093818185851 0.0
-0.00441580172628 8.55869e-06
0.0249304920435 0.0
-0.0489944629371 0.0
0.109874531627 0.0
0.0412426479161 0.0
-0.0943229049444 0.0
-0.0648660063744 0.0
0.0963218659163 0.0
-0.0388318412006 0.0
0.0892205163836 0.0
-0.0765901580453 0.0
-0.103561602533 0.0
-0.0875112116337 0.0
0.0975698009133 0.0
-0.105444349349 0.0
0.130565047264 0.0
0.044607270509 0.0
0.00784381106496 0.0
-0.0358192026615 0.0
0.206449195743 0.0
0.159946039319 0.0
-0.0649691522121 0.0
0.0964870750904 0.0
0.108797565103 0.0
0.245575428009 0.0
0.292211174965 0.0
0.150087997317 0.0
-0.0698890611529 0.0
0.164577677846 0.0
-0.0870857536793 0.0
-0.0680359378457 0.0
0.091414436698 0.0
-0.0864358395338 0.0664933
-0.013720722869 0.0
0.00539687415585 0.0
-0.00537748774514 0.0
0.000381131249014 0.0
-0.0040702377446 0.0
0.0123588340357 0.0
-0.00498806266114 0.0
-0.000423820805736 0.0
-0.00491446256638 0.0
0.00644908379763 0.0
0.000200424387003 0.0
-0.0092961397022 0.0
-0.00522630102932 0.0
-0.0271167773753 0.0
0.0118660489097 0.0
0.00881896633655 0.0
-0.00649318518117 0.0
-0.00196799472906 0.0
-0.00357079762034 0.0
0.000301666819723 0.0
-0.00282896915451 0.0
0.00414457637817 0.0
-0.0216233842075 0.0
-0.00735946046188 0.0
0.00336405076087 0.0
0.00438414700329 0.0
-0.0157238859683 0.0
-0.00645769620314 0.0
0.00473622884601 0.0
0.00527565414086 0.0
0.000818316999357 0.0
0.00950540602207 -0.000872038
0.00410247081891 0.0
-0.000345495936926 0.0
-0.0135781364515 0.0
0.00539854122326 0.0
-0.0127534065396 0.0
0.00115241087042 0.0
-0.0120409196243 0.0
0.0240772049874 0.0
0.00233620288782 0.0
0.0147000709549 0.0
0.00783587060869 0.0
0.00708490144461 0.0
-0.00894628372043 0.0
-0.00553885428235 0.0
0.00292544462718 0.0
-0.00681145815179 0.0
-0.00393765140325 0.0
-0.00327047356404 0.0
0.0122494501993 0.0
0.000662131991703 0.0
0.00434576487169 0.0
-0.00529811764136 0.0
0.000210771118873 0.0
-0.0145826824009 0.0
-0.00452730385587 0.0
0.000545655260794 0.0
-0.00381202367134 0.0
0.0115391789004 0.0
-0.0105053531006 0.0
0.000110094057163 0.0
-0.0107164382935 0.0
0.00289932289161 0.000200457
0.0677538961172 0.0
-0.122459463775 0.0
0.0822836011648 0.0
0.128890991211 0.0
-0.259082406759 0.0
-0.139668494463 0.0
0.0986002907157 0.0
-0.119944438338 0.0
0.0463673919439 0.0
-0.249033614993 0.0
-0.208115950227 0.0
-0.290843427181 0.0
0.0582596920431 0.0
-0.269584625959 0.0
0.108762323856 0.0
0.0519587695599 0.0
-0.0613446161151 0.0
-0.0572700612247 0.0
0.378838866949 0.0
0.165000721812 0.0
-0.144693762064 0.0
0.106814526021 0.0
0.207222178578 0.0
0.214233919978 0.0
0.220376983285 0.0
0.177482768893 0.0
-0.176726549864 0.0
0.315903037786 0.0
-0.201131075621 0.0
-0.197056993842 0.0
0.0757318586111 0.0
-0.175854116678 0.16361
0.000646893051453 0.0
0.00877710804343 0.0
-0.0175970923156 0.0
0.000258583080722 0.0
-0.00626706983894 0.0
-0.00898934155703 0.0
0.00652130460367 0.0
-0.0081104170531 0.0
-0.0174804516137 0.0
0.0108558544889 0.0
0.0111623397097 0.0
0.0113234808668 0.0
0.000676516443491 0.0
-0.005027144216 0.0
0.00107234774623 0.0
-0.0124854883179 0.0
-0.00796442292631 0.0
0.00880317948759 0.0
-0.00322960945778 0.0
-0.0106088416651 0.0
0.00546323694289 0.0
0.00736767612398 0.0
0.00667834468186 0.0
-0.00923368055373 0.0
-0.0134311662987 0.0
-0.0100792497396 0.0
0.0162963308394 0.0
0.00859629549086 0.0
0.00374315562658 0.0
0.000856178288814 0.0
0.011612358503 0.0
0.00568936578929 -0.000888964
0.0352938883007 0.0
-0.0470778793097 0.0
0.0311238616705 0.0
0.0580013468862 0.0
-0.109969966114 0.0
-0.0701465979218 0.0
0.0407889783382 0.0
-0.0612306036055 0.0
0.0408042110503 0.0
-0.103678181767 0.0
-0.078997515142 0.0
-0.127920135856 0.0
0.0168908275664 0.0
-0.117362223566 0.0
0.0467993840575 0.0
0.00928456056863 0.0
-0.0310518238693 0.0
-0.0121853388846 0.0
0.173508793116 0.0
0.0674956738949 0.0
-0.0725071579218 0.0
0.0560025051236 0.0
0.0741088017821 0.0
0.104255639017 0.0
0.0867248624563 0.0
0.0794763639569 0.0
-0.0774106606841 0.0
0.137420192361 0.0
-0.0975504219532 0.0
-0.0885137096047 0.0
0.0454609394073 0.0
-0.0722149312496 0.0830614
0.00263805314898 0.0
0.00593207823113 0.0
-0.000356572651071 0.0
0.0183555912226 0.0
0.00581596279517 0.0
0.00384898018092 0.0
0.0037354521919 0.0
0.00883006118238 0.0
-0.0164573602378 0.0
0.0039761569351 0.0
0.000461849587737 0.0
-0.0208196006715 0.0
-0.00857203826308 0.0
-0.00152174045797 0.0
-0.0005892443005 0.0
0.00667815376073 0.0
-0.00355513929389 0.0
0.00508928624913 0.0
-0.00660543190315 0.0
0.00778028834611 0.0
0.0176890492439 0.0
-0.00894385483116 0.0
-0.000998025177978 0.0
0.0126268547028 0.0
-0.00251567945816 0.0
-0.00911563634872 0.0
-0.0125672705472 0.0
0.00111043197103 0.0
-0.000212749713683 0.0
-0.00888733752072 0.0
-0.00337150017731 0.0
0.00844507012516 -0.00241754
-0.0442138835788 0.0
-0.00863832700998 0.0
0.0806058272719 0.0
-0.0722870528698 0.0
0.106654517353 0.0
0.0741981863976 0.0
0.0344846658409 0.0
0.0342479199171 0.0
0.0746443420649 0.0
0.0319364406168 0.0
0.0248529892415 0.0
0.0824389457703 0.0
0.116241253912 0.0
0.0963756367564 0.0
0.0846617892385 0.0
-0.0073807798326 0.0
0.0717385262251 0.0
-0.0303423069417 0.0
-0.104110822082 0.0
0.0878233835101 0.0
0.0285909827799 0.0
0.0108033679426 0.0
-0.0509166046977 0.0
0.160817936063 0.0
0.242371976376 0.0
0.052071172744 0.0
0.0280647147447 0.0
-0.111873790622 0.0
0.0226815212518 0.0
0.105553738773 0.0
0.0478011295199 0.0
0.0501752085984 -0.0243621
-0.150996029377 0.0
0.0776733160019 0.0
0.165703505278 0.0
-0.305677592754 0.0
0.488331586123 0.0
0.331442058086 0.0
0.0289032217115 0.0
0.189259797335 0.0
0.203178957105 0.0
0.291305840015 0.0
0.194927766919 0.0
0.366835057735 0.0
0.376254230738 0.0
0.416007369757 0.0
0.194027453661 0.0
-0.0133902160451 0.0
0.265762120485 0.0
-0.0902114212513 0.0
-0.528994381428 0.0
0.142202019691 0.0
0.173762440681 0.0
-0.0370041579008 0.0
-0.224978610873 0.0
0.400965332985 0.0
0.626745283604 0.0
0.0224350411445 0.0
0.200844660401 0.0
-0.520466566086 0.0
0.191017091274 0.0
0.455088675022 0.0
0.101460076869 0.0
0.239691376686 -0.149575
0.00223729107529 0.0
-0.00971606746316 0.0
-0.00505003379658 0.0
-0.0192451756448 0.0
0.00979795027524 0.0
0.00373574439436 0.0
0.00046050111996 0.0
-0.0144933201373 0.0
-0.00208889413625 0.0
-0.0126358903944 0.0
-0.000544768234249 0.0
-0.0156808570027 0.0
0.00518333213404 0.0
-0.0131605463102 0.0
-0.00675116898492 0.0
0.00324917165563 0.0
-0.00375016289763 0.0
0.0244421605021 0.0
-0.00997349154204 0.0
0.0062329233624 0.0
-0.000667247339152 0.0
0.0174167789519 0.0
0.00722688902169 0.0
-0.00265861861408 0.0
0.000317348865792 0.0
-0.00800146255642 0.0
0.0051295645535 0.0
0.0177336204797 0.0
-0.00859237648547 0.0
0.00934059079736 0.0
0.00289578014053 0.0
0.0129160704091 0.00791607
-0.00610614940524 0.0
0.00849005859345 0.0
-0.0145060122013 0.0
-0.00501002278179 0.0
-0.0082179158926 0.0
0.00815401319414 0.0
0.0107565419748 0.0
0.00142550386954 0.0
-0.0173918884248 0.0
0.00193190586288 0.0
0.00266182655469 0.0
0.014721817337 0.0
-1.81854138646e-05 0.0
0.00130733370315 0.0
-0.0165721159428 0.0
-0.012045962736 0.0
0.00308477110229 0.0
-0.00219831848517 0.0
0.00250123441219 0.0
-0.00459403079003 0.0
-0.00127084902488 0.0
-0.00169994169846 0.0
0.014021679759 0.0
-0.00801020953804 0.0
-0.0066843717359 0.0
0.0010991950985 0.0
0.00271801906638 0.0
-0.0023755391594 0.0
-0.00627536606044 0.0
-0.0108551681042 0.0
0.0084570851177 0.0
0.00813126936555 -0.00113166
0.00321348407306 0.0
-0.00134965055622 0.0
0.0175744686276 0.0
-0.00541462935507 0.0
0.0138220535591 0.0
0.00120252696797 0.0
0.00272074551322 0.0
0.0137694822624 0.0
0.00046361159184 0.0
-0.000126333485241 0.0
-0.00278962869197 0.0
0.0105795171112 0.0
0.0188926383853 0.0
0.029613012448 0.0
0.00632085604593 0.0
-0.0047265579924 0.0
0.00466532632709 0.0
0.00406067678705 0.0
-0.0165642630309 0.0
-0.0211624726653 0.0
0.00920104701072 0.0
0.0132123222575 0.0
-0.010601577349 0.0
0.0226838961244 0.0
0.0168066825718 0.0
-0.000487633515149 0.0
0.00723994895816 0.0
-0.0261516273022 0.0
0.00264623970725 0.0
0.0121691450477 0.0
0.0113751422614 0.0
0.0208140946925 -0.00060647
-0.00705293891951 0.0
-0.00602807058021 0.0
0.00753139099106 0.0
0.0223711635917 0.0
-0.0110924914479 0.0
-0.00881111994386 0.0
0.00423062266782 0.0
0.0143880732358 0.0
0.00253837695345 0.0
0.00326202227734 0.0
0.00520435534418 0.0
-0.00448609841987 0.0
-0.011752362363 0.0
-0.00711089139804 0.0
-0.0236910525709 0.0
0.009894547984 0.0
-0.00471804756671 0.0
-0.000412417110056 0.0
-0.00937980785966 0.0
0.00407359655946 0.0
0.000108207401354 0.0
-0.0036643948406 0.0
-0.00114753877278 0.0
-0.0139391068369 0.0
-0.00506983185187 0.0
-0.0108738495037 0.0
-0.00513424957171 0.0
-0.00868098903447 0.0
0.00144917122088 0.0
0.00332510168664 0.0
-0.0107941376045 0.0
0.0116890985519 -6.21355e-05
0.0167378410697 0.0
-0.0190501101315 0.0
-0.000465702469228 0.0
-0.00362364482135 0.0
-0.00757751427591 0.0
-0.0165430177003 0.0
-0.0165467485785 0.0
-0.000697342737112 0.0
-0.00713805854321 0.0
-0.00817548111081 0.0
-0.0376072302461 0.0
-0.0251715313643 0.0
-0.0217530112714 0.0
-0.00480473041534 0.0
-0.0107858292758 0.0
-0.00939612556249 0.0
-0.0279553104192 0.0
0.00550703657791 0.0
0.0473446175456 0.0
0.0188681595027 0.0
0.00962533522397 0.0
0.00763619225472 0.0
0.021895783022 0.0
0.0143239460886 0.0
0.0143021121621 0.0
0.0261614900082 0.0
-0.0262760762125 0.0
0.0328973308206 0.0
-0.0335493460298 0.0
-0.00999956205487 0.0
0.0038871425204 0.0
-0.0285623501986 0.0430302
0.0286960750818 0.0
-0.0564755834639 0.0
0.0275182183832 0.0
0.0525216273963 0.0
-0.108679831028 0.0
-0.0822366401553 0.0
0.0333928763866 0.0
-0.0774994641542 0.0
0.0371080562472 0.0
-0.107501193881 0.0
-0.0899738073349 0.0
-0.132429867983 0.0
0.0148041807115 0.0
-0.118960373104 0.0
0.0635420456529 0.0
0.00346429483034 0.0
-0.0144307781011 0.0
-0.00736057106405 0.0
0.146124839783 0.0
0.0885593518615 0.0
-0.0630628988147 0.0
0.0388297475874 0.0
0.0788298621774 0.0
0.0953488871455 0.0
0.108311198652 0.0
0.0757169872522 0.0
-0.0719334259629 0.0
0.128297433257 0.0
-0.119215972722 0.0
-0.0744805037975 0.0
0.0189721491188 0.0
-0.0856415554881 0.0602832
