convolution,  5 3
-0.0257275886834 0.107305541635 0.0645060315728 0.0581622645259 -0.109954625368 -0.0894723087549 0.0960837975144 0.0599051006138 -0.138348549604 0.0
0.0543632432818 -0.122929401696 -0.0716337636113 0.00695463130251 0.0451418608427 -0.036790445447 -0.102205701172 -0.0819017663598 -0.0982694029808 0.0
-0.141344740987 -0.0203658621758 -0.107723727822 -0.0633313432336 -0.0166263952851 -0.132019266486 0.0457947552204 0.0653163865209 0.161424294114 0.0
-0.0242867954075 0.0914614722133 0.0590207725763 0.00450214510784 -0.0683399960399 -0.107660800219 0.034516684711 -0.00549357617274 0.0567080974579 0.0
-0.10492412746 -0.0807604044676 -0.0335653536022 0.180463701487 -0.0466430224478 0.0389725416899 0.0807603523135 0.0690618604422 -0.000544440408703 0.0
0.0734758973122 0.0402145311236 0.0459573380649 0.00809323694557 -0.150553330779 -0.0394232459366 -0.0567555762827 0.00390491192229 -0.0917440056801 0.0
0.0829572454095 0.0784229785204 0.0319026261568 0.0136514659971 0.118540793657 -0.0999579429626 -0.0729237422347 0.123620688915 0.103145383298 0.0
0.129812926054 -0.101598113775 -0.129987493157 -0.041737280786 -0.030956922099 -0.0914947763085 0.120741084218 0.0259433947504 0.1484695822 0.0
-0.000624713662546 -0.145632654428 -0.0941543728113 0.148654535413 0.018241269514 -0.125303223729 -0.0512676984072 -0.13355499506 -0.0209366548806 0.0
0.0418250449002 0.0533228479326 0.117742180824 0.188445582986 0.0400112122297 -0.0584363788366 -0.0937871560454 0.114428222179 0.16619771719 0.0
0.0125124854967 -0.0306800119579 0.0422091595829 -0.0663513541222 -0.0578160621226 -0.112737089396 -0.0358520820737 -0.0759645625949 -0.0549856983125 0.0
0.00252119917423 0.110057577491 0.0795299857855 0.0232915431261 -0.0895653441548 -0.0808132961392 -0.16150008142 0.0171591322869 -0.21143861115 0.0
-0.010618403554 -0.0953717678785 -0.00528360437602 0.0115509005263 -0.0277124438435 -0.147610038519 -0.136248767376 -0.0720308497548 0.0667544975877 0.0
-0.0530821457505 -0.0271915532649 -0.0243996568024 -0.137510240078 0.0137875201181 -0.0311110895127 0.0148206353188 -0.0549507215619 -0.0360581539571 0.0
0.12710134685 0.00322964275256 -0.0516160130501 0.0112972054631 0.0120287789032 0.127137392759 -0.0858888551593 0.120769038796 0.130131080747 0.0
-0.0326633043587 0.0652268528938 0.0514813773334 -0.103054136038 -0.0672513619065 0.095297396183 -0.159353986382 -0.0718111097813 -0.0354594253004 -0.0636416
-0.0586317144334 -0.143408954144 -0.123161226511 0.0364113822579 0.12249597162 0.114036686718 0.0826475918293 0.198434576392 -0.0172465890646 0.0
-0.101233519614 -0.112401634455 -0.113294973969 0.0885204672813 -0.0918880999088 -0.0672532021999 0.0449589192867 -0.0443407036364 0.058017488569 0.0
0.00702202459797 -0.0513653755188 0.0333704054356 -0.11045845598 -0.105498693883 0.0673610270023 0.0354630574584 0.00253500696272 -0.0439046174288 0.0
-0.0946856513619 -0.187517374754 -0.034808114171 0.0350451134145 -0.116178922355 -0.0521941334009 -0.167194634676 -0.0683717876673 0.00399708515033 0.0
0.00627213064581 0.184383034706 -0.187715232372 -0.0684615150094 -0.132847130299 -0.0654060170054 -0.00767200114205 0.0263188648969 -0.0469456426799 0.0
0.136938989162 0.00664150295779 -0.01356943883 -0.258468031883 -0.0659025460482 -0.0264692157507 -0.14617960155 0.0759927332401 0.164469242096 0.0
0.0808078795671 -0.012136016041 -0.0606455393136 -0.0373313687742 0.0136309200898 -0.0230610519648 0.000417149887653 0.0164692401886 -0.0321736298501 0.0
0.0993446931243 0.0473770834506 -0.00982974842191 -0.0885826125741 -0.0622200407088 0.0221048910171 -0.0815211012959 0.0554176643491 0.122672222555 0.0
0.105871737003 0.08754696697 -0.0111459996551 -0.038140039891 0.0771662816405 -0.00843561906368 -0.144041523337 -0.047017019242 -0.0686797127128 0.0
0.0560548938811 0.294458180666 -0.0846187546849 0.0249189902097 -0.0952370688319 -0.0998020768166 0.15773165226 -0.0353376455605 -0.0697722733021 0.0
0.166049599648 -0.123877808452 -0.0252826698124 0.0122307762504 0.0248053818941 0.144182309508 0.016821179539 0.311007112265 0.306038171053 0.0
0.166079178452 0.0596310757101 -0.0672406703234 0.0591272972524 -0.12191350013 0.0673620477319 0.171611368656 0.0363114848733 -0.178699523211 0.0
-0.0370941646397 0.0949366092682 -0.00251796399243 -0.0746202990413 -0.19019241631 -0.0643415898085 -0.0222426597029 -0.175320029259 0.0499420166016 0.0
-0.170065760612 -0.133694082499 0.0217002108693 -0.158361494541 0.0329897589982 0.0282045956701 -0.0295815505087 -0.10056207329 0.059831365943 0.0
0.0322738289833 -0.104517288506 -0.052902854979 -0.0115201985464 -0.060970723629 -0.0284772440791 0.0562763772905 -0.076119787991 -0.0345811583102 0.0
0.147218242288 -0.0872409567237 -0.0706373155117 0.000617091311142 -0.207699522376 -0.141897201538 -0.027461156249 -0.0132882082835 -0.0694897919893 -0.14435
-0.09668251127 0.088079996407 0.044546533376 -0.000311815325404 -0.000124711659737 -0.101598657668 -0.100928775966 -0.0517142601311 0.00223333737813 0.0
-0.0113113718107 -0.131493598223 -0.0246543139219 -0.0799482315779 -0.0626067891717 -0.0124019691721 0.119427233934 -0.117870561779 0.0607490614057 0.0
-0.0955287888646 -0.0582551769912 -0.176870584488 -0.10104124248 -0.131613969803 0.0283004771918 0.0901151448488 0.0350853428245 -0.0549314953387 0.0
-0.0164167843759 -0.0558270849288 0.0614985190332 0.0267318673432 0.11094263196 0.0352728404105 0.0879995748401 0.0251460690051 -0.114929527044 0.0
-0.0540661588311 0.0356052704155 0.121240869164 -0.0190698243678 0.113216482103 -0.0544129572809 -0.0869879573584 -0.0050435392186 -0.0704441741109 0.0
-0.091027893126 0.0728447288275 0.161275565624 -0.123679883778 0.0859717652202 -0.0349809154868 -0.106826111674 0.024262253195 -0.133119598031 0.0
0.101154997945 -0.112014040351 -0.0336284860969 0.0527038797736 -0.0236707087606 -0.102416232228 0.0401608794928 -0.0383917875588 -0.131167009473 0.0
0.0507654622197 0.123514585197 0.0728874802589 0.0634849593043 0.0744206383824 -0.116257630289 -0.168434411287 -0.0398846045136 0.0569663345814 0.0
-0.0173190440983 -0.0126203531399 0.0955363214016 0.0113555407152 0.00853585544974 -0.106795303524 -0.0800986289978 -0.0720679163933 0.00644570076838 0.0
-0.0920928120613 -0.0623558424413 0.0728341266513 0.0123811233789 -0.0414647981524 -0.0074215112254 -0.111887864769 -0.101694792509 0.0187107473612 0.0
0.0439985468984 0.103291630745 -0.0754581615329 -0.220638796687 0.088611356914 -0.0189799237996 -0.0755208432674 0.0120366485789 0.0156746283174 0.0
0.0092561384663 0.165150344372 0.0725592672825 -0.0631520226598 -0.0359281376004 0.0709692761302 -0.0953006595373 0.0668517127633 -0.0580823235214 0.0
-0.0702665001154 0.0406193062663 0.00729429675266 -0.0147532019764 -0.0263440012932 0.0613794773817 -0.081666380167 0.0908857136965 0.0246232878417 0.0
-0.0906542316079 -0.0840055793524 0.0408711843193 -0.0473835282028 0.025605333969 -0.0294081680477 0.0203313231468 -0.0833408907056 -0.0302278958261 0.0
-0.0763066858053 0.0904031991959 0.14033895731 0.009157278575 0.0420214831829 -0.0121484007686 -0.0246405750513 0.0693442672491 -0.0834499523044 0.0
-0.0329487212002 0.160946369171 0.158550173044 -0.0169564597309 -0.0240508746356 0.144158780575 0.0113652907312 -0.149745106697 -0.0307700727135 0.0643391
-0.0429113544524 0.061445556581 -0.0909097269177 -0.326923578978 -0.407166749239 -0.304331421852 0.12660741806 0.147302120924 0.0104733826593 0.0
0.0751461982727 0.00737208034843 -0.0948974713683 -0.0159778445959 -0.0975745543838 -0.0141555927694 0.111079014838 -0.117749139667 0.0112983407453 0.0
0.0322150066495 -0.122169844806 0.0811686962843 -0.0102685149759 0.162121459842 0.114484995604 -0.0054667852819 -0.0336260013282 0.0155290272087 0.0
-0.0225860998034 0.0213865768164 -0.10926104337 -0.181615456939 -0.105823919177 -0.127199843526 -0.205080777407 -0.192372173071 0.010026502423 0.0
-0.0568134896457 -0.00429799035192 0.054545301944 0.0382563099265 0.0104685975239 0.00998693425208 -0.0939223840833 -0.168750852346 0.0739480927587 0.0
-0.256029605865 -0.187499508262 -0.19899623096 0.126314580441 -0.0627073124051 -0.131528735161 -0.130502223969 -0.173346891999 -0.0124582815915 0.0
0.0615188553929 0.115415886045 0.0792273059487 0.140560686588 -0.073985517025 0.0762233138084 0.087084800005 0.0448638051748 -0.00875656679273 0.0
0.0036926784087 -0.0992099568248 0.133127003908 -0.0595102533698 0.188951775432 0.0750625580549 0.226453259587 0.155123233795 0.216571509838 0.0
-0.149470448494 -0.27665784955 -0.0820068493485 -0.165579199791 -0.0518434196711 -0.0597092136741 0.0447876229882 -0.122364632785 -0.196751996875 0.0
0.0262268278748 0.0744333714247 -0.0808669105172 -0.116502977908 -0.239474162459 0.019060427323 0.0493347272277 0.339144617319 0.516107797623 0.0
-0.149958908558 -0.157512113452 -0.258783489466 0.106283083558 0.15716740489 0.0389855057001 0.342525035143 0.247582927346 0.248793646693 0.0
-0.0938695073128 -0.123732276261 -0.234091863036 0.278308212757 0.152424022555 0.178476527333 -0.117839165032 -0.178743243217 0.0181420631707 0.0
-0.0526625663042 -0.134943857789 -0.0587576776743 0.163364887238 -0.0274023804814 -0.047174308449 -0.0277383625507 0.0966114699841 -0.0601093024015 0.0
0.0464678257704 0.0521842688322 0.0627261400223 0.166756689548 0.0736519470811 0.160242825747 0.128535673022 0.262447923422 0.195436686277 0.0
-0.125009581447 0.0702033415437 0.0843899995089 0.0795889720321 -0.0982761010528 -0.0170666649938 0.0658116415143 0.0583809018135 -0.0631559565663 0.0
-0.0990821421146 0.017374496907 -0.0136650810018 0.0469804145396 0.0652504190803 0.052061855793 -0.153435230255 0.0415713042021 -0.0972404852509 -0.140083
-0.182453066111 0.394716620445 -0.100554376841 0.13073836267 -0.0738895535469 -0.181912019849 0.352706998587 -0.332344055176 -0.0567377097905 0.0
0.00807381048799 0.121801778674 0.026906369254 -0.00758319022134 -0.104984901845 -0.0334303490818 -0.0173553042114 -0.111929409206 -0.119329325855 0.0
-0.0386642068624 -0.0225122850388 0.293248265982 -0.0640608593822 0.348969966173 0.15158867836 0.12655299902 0.107020534575 -0.399433225393 0.0
-0.0397764444351 0.341944098473 0.185215994716 0.160896316171 0.0581477060914 -0.057394079864 0.0770366489887 0.0334141664207 0.11047912389 0.0
-0.0300392694771 0.0610725209117 0.385547041893 0.401682555676 -0.0917035490274 0.0479060597718 0.0262103807181 -0.0831787958741 -0.34719774127 0.0
0.140871345997 0.0633295550942 0.130981341004 -0.1816342026 -0.178802341223 -0.156093522906 -0.201818972826 -0.113322392106 -0.333187460899 0.0
0.264792025089 -0.126909419894 -0.0630251467228 -0.107690379024 -0.229785531759 -0.161992534995 -0.174591004848 -0.135899022222 -0.0103238560259 0.0
-0.447028398514 0.291681230068 0.472048640251 -0.0251634623855 0.0757375881076 -0.0977737978101 0.0956988409162 0.010945757851 -0.184609696269 0.0
-0.347054362297 -0.0890413075686 0.0805160179734 -0.410557538271 -0.554699778557 -0.252507418394 -0.200202509761 0.00084888091078 -0.114257328212 0.0
-0.124838374555 -0.100840054452 -0.169377312064 0.179756760597 0.0782731473446 0.138627931476 -0.215277507901 -0.272272765636 -0.31024029851 0.0
-0.162337064743 -0.274570077658 -0.215560525656 -0.309556514025 -0.383432656527 -0.346778184175 0.150465428829 0.221625834703 0.134255617857 0.0
0.0819759517908 0.270420640707 0.103737004101 0.155782967806 -0.235510766506 -0.0994659513235 0.0334131680429 -0.171448916197 -0.102017320693 0.0
-0.0200795475394 0.0147611368448 0.209913000464 -0.217557698488 0.157544374466 0.255399048328 0.0663698837161 -0.367451459169 -0.424365609884 0.0
-0.260547608137 -0.0704284906387 0.108771272004 -0.272100567818 0.00832983665168 0.188284546137 0.0715879797935 -0.155215978622 -0.0715079903603 0.0
-0.0275767110288 0.0497640669346 0.0630345195532 -0.128707408905 -0.0426326692104 0.00264008110389 0.0635222196579 -0.0283989831805 -0.0596126578748 0.0
0.0757942572236 0.107740983367 0.0556831546128 0.237397998571 -0.335114479065 -0.165946513414 0.0195947773755 -0.0210450906307 -0.234979256988 -0.631178
0.0525534637272 -0.103680945933 0.0762531235814 0.0619673542678 0.086988389492 0.133075013757 0.013938610442 0.144617423415 -0.0248584263027 0.0
-0.090672172606 -0.0131204007193 -0.0635740980506 0.0466357655823 0.0991866961122 -0.126469016075 -0.0591938197613 -0.0686810612679 0.0610723979771 0.0
-0.0427236221731 0.135090231895 0.119509220123 -0.165454208851 0.144543141127 0.0790640935302 0.0103270485997 -0.0622157081962 -0.225486636162 0.0
-0.0763775855303 -0.046733006835 -0.0508284047246 -0.0400262139738 -0.0559301376343 -0.0424861311913 -0.100036583841 -0.11045294255 0.0129183754325 0.0
-0.15496994555 -0.138974577188 0.00842780526727 -0.00244365748949 -0.143594816327 -0.173214167356 0.186096578836 -0.197245538235 -0.0787825062871 0.0
-0.2086455971 -0.462500095367 -0.191149353981 -0.114471539855 -0.00670340610668 0.0799022018909 -0.0386066101491 0.0572457276285 -0.204909086227 0.0
-0.0808307155967 0.0539039224386 0.0495662838221 -0.0643614605069 0.0987461060286 0.0659173280001 -0.0771041065454 -0.10766416043 -0.0487591102719 0.0
-0.174254775047 -0.186115831137 0.190759241581 0.02249163948 -0.10590557009 -0.227649897337 0.190357387066 0.190480455756 0.110860526562 0.0
0.0130970152095 0.00475012790412 -0.289082050323 0.0327274240553 0.199308291078 0.00965843349695 -0.104397505522 0.106105133891 0.262246310711 0.0
0.0103692607954 -0.14120939374 -0.0989148318768 0.073407150805 0.060992795974 -0.162652477622 0.211000710726 -0.272651404142 -0.169596850872 0.0
0.0601315163076 -0.158527329564 -0.142698928714 -0.188173517585 -0.39082056284 -0.291598945856 -0.074983432889 -0.0738958790898 0.130209878087 0.0
0.141189515591 -0.0146150514483 0.0365430377424 0.0228244643658 -0.0682711303234 -0.185902178288 0.17426237464 -0.064091347158 -0.0961759015918 0.0
0.158981993794 -0.0285436678678 0.00106790312566 0.0492870248854 0.0187354572117 0.298686087132 -0.0931714400649 -0.263389348984 -0.0260598249733 0.0
-0.11412294209 -0.177237212658 0.100750245154 -0.038433086127 -0.0452090241015 0.114539943635 0.0829166322947 0.0133040156215 -0.039302688092 0.0
-0.0817799195647 -0.144839301705 -0.11553426832 -0.0897210910916 0.00181417772546 -0.108649425209 0.0724174678326 0.0868365541101 0.0868459492922 0.0
-0.0554318763316 -0.0971211791039 0.00333062722348 -0.0790581330657 -0.407385349274 -0.177390664816 0.154225945473 -0.364161789417 -0.0808529704809 -0.0691853
-0.0541528388858 0.0653747618198 -0.11581441015 -0.183007821441 -0.0418900437653 -0.111825942993 0.0552674643695 -0.028193987906 -0.0925656333566 0.0
-0.0457663349807 -0.0459411516786 0.0698853954673 -0.020717844367 0.0379072166979 -0.0852687656879 -0.127397298813 0.0683112740517 -0.0552013367414 0.0
0.0802258700132 -0.0463909842074 -0.0752586722374 -0.0232214126736 0.0885608866811 0.0820340663195 -0.06310364604 -0.0649673417211 -0.0907313376665 0.0
-0.0343046821654 -0.0640310272574 -0.0116116348654 -0.10955928266 -0.0316696465015 -0.0977367162704 0.0499849058688 -0.113661587238 -0.0882753953338 0.0
0.120780177414 0.0618675388396 0.0271226596087 0.212123245001 -0.0141140418127 -0.0461364835501 -0.0705665424466 0.0988114029169 0.060088288039 0.0
0.0120922857895 0.00428021233529 0.0471246428788 0.00110998668242 -0.135762378573 0.141504526138 -0.167056575418 0.0855665355921 -0.104270763695 0.0
-0.0434274300933 0.080913849175 -0.0650259852409 -0.0988166406751 0.0795428603888 -0.0323004424572 0.0895026549697 -0.0747788622975 0.152983188629 0.0
-0.027074418962 0.0517991222441 -0.108407951891 0.0861138775945 -0.00739646609873 0.193447560072 0.0434468276799 -0.0421402044594 0.0864033550024 0.0
-0.0671430081129 -0.117328107357 0.183051615953 -0.0668289065361 -0.0978743731976 -0.172294706106 -0.00138088676613 -0.124794177711 0.0810795426369 0.0
0.0151412319392 -0.122515842319 0.00744835846126 0.122253961861 -0.133078426123 -0.122012227774 0.0141749521717 -0.0433155745268 -0.00202355813235 0.0
0.0577439516783 -0.201949715614 -0.133731618524 -0.135431200266 0.0667917206883 0.01771415025 0.077240370214 -0.0862462669611 0.101713255048 0.0
-0.0473314970732 -0.0140745993704 0.0827053040266 0.00989908725023 0.0257692094892 -0.0330591201782 -0.0961512774229 0.0385474823415 -0.193996116519 0.0
0.134282931685 0.0674094706774 -0.110433235765 0.0851027816534 -0.0555574633181 0.107840500772 -0.0855265259743 0.0566644147038 0.0342479497194 0.0
0.11558277905 0.060450155288 -0.179487243295 0.0934408158064 0.0631205439568 0.0177116002887 -0.0438094623387 -0.0845304206014 0.00412493897602 0.0
0.0873492732644 0.118440449238 -0.0693665891886 -0.0419969260693 0.0463961549103 -0.0460244193673 0.0756073221564 0.0122789470479 -0.0463640354574 0.0
0.0647705569863 0.069445669651 0.0674796327949 -0.102806262672 0.140518561006 0.0163327977061 0.0107363602147 -0.131349280477 0.0535754412413 0.105746
-0.0872817635536 -0.153707325459 0.141602218151 -0.0115808295086 -0.145771667361 -0.0946764573455 -0.0953369066119 0.15642914176 -0.10302631557 0.0
0.118437297642 -0.120329149067 0.0365824587643 -0.0857622176409 -0.0355337522924 -0.0283288341016 -0.0534502491355 0.139839187264 0.0441626012325 0.0
-0.137003645301 -0.0331339649856 -0.0922117382288 -0.0730047076941 -0.0859418064356 -0.0657605305314 -0.0658485889435 -0.043923098594 0.136557534337 0.0
0.0344532988966 -0.0867343023419 0.0589923262596 0.00332795944996 -0.0204835254699 0.121815152466 0.0611194744706 -0.0647882968187 -0.0673594102263 0.0
0.0288438368589 0.00848983693868 -0.0786124616861 -0.147627040744 0.29498192668 -0.112968362868 -0.0769878178835 -0.00795194879174 -0.106220133603 0.0
-0.138206720352 0.0687301903963 -0.0354164540768 -0.047077126801 -0.095914915204 -0.0876352116466 0.13798879087 -0.25529897213 -0.0457345657051 0.0
-0.0897198468447 0.0554623045027 0.0238426495343 -0.120102003217 -0.136498838663 -0.134985208511 -0.0708209127188 -0.107787840068 0.0404707863927 0.0
-0.0600803717971 -0.0313070714474 -0.0625081285834 0.027692919597 0.0540810935199 -0.0660391300917 -0.0330883227289 0.073741696775 0.0379618443549 0.0
0.369807869196 -0.362538278103 -0.0249911304563 0.172006487846 -0.129474326968 -0.0185883212835 -0.178484797478 0.0361152328551 0.0198333598673 0.0
0.0561801306903 0.0870292633772 0.0585673898458 -0.104692593217 0.14462018013 0.00994319561869 0.042746193707 -0.0499707907438 -0.0913108438253 0.0
0.19828774035 -0.0383387394249 -0.0607044547796 0.26892721653 -0.225877508521 -0.216613963246 0.28001755476 -0.142819926143 -0.00491783535108 0.0
0.0165658332407 0.0836398005486 0.0736417323351 -0.207313835621 0.0790453329682 0.0818126425147 -0.0550712458789 0.010376855731 0.0907826423645 0.0
0.178903087974 -0.212585404515 0.109179541469 0.0395698174834 0.0422550104558 -0.123152039945 -0.171028077602 0.233280301094 -0.178359359503 0.0
-0.119295410812 -0.0477105379105 -0.127710789442 -0.236338376999 0.123320475221 -0.0866114795208 -0.0291988551617 0.193523854017 0.167663127184 0.0
-0.132539778948 -0.124787092209 0.0220551583916 -0.108775362372 0.100956790149 -0.00580403767526 -0.111953392625 0.0961451753974 -0.0199980009347 0.0
0.056972913444 0.0522820688784 -0.17893384397 -0.218213155866 0.352873802185 -0.338708490133 -0.0770331397653 0.0956716835499 -0.114485427737 -0.0105185
0.0561470612884 0.0367775037885 -0.040993090719 -0.100951083004 0.092538587749 0.0294338949025 -0.0306897070259 0.0925444811583 0.0324813686311 0.0
0.0972414314747 -0.000847445393447 -0.0783814489841 -0.0393166206777 -0.05199880898 0.101061463356 -0.0567897520959 0.0077471002005 0.073269918561 0.0
0.0705855637789 0.100413165987 -0.0853593200445 -0.0977897644043 -0.0592500381172 -0.0374780707061 0.0550678446889 -0.00342936790548 0.0945372581482 0.0
-0.0352267771959 0.0270938221365 0.0566999912262 -0.0396861024201 0.104153938591 -0.114455446601 0.102276623249 -0.0094963433221 0.0996108874679 0.0
0.10112067312 -0.0457242764533 -0.126642882824 -0.0307457260787 -0.0660677179694 0.0990066751838 0.00578642217442 0.0185707770288 -0.0712850764394 0.0
0.0966264456511 -0.00614886172116 0.0604970827699 0.0228783339262 0.0867812857032 0.118852473795 0.0102522913367 -0.151224792004 0.00110405217856 0.0
-0.0212105326355 -0.0250462591648 0.0437506772578 -0.0218066759408 -0.127058967948 0.0900271385908 0.106702961028 0.00753771932796 0.00349711137824 0.0
0.0782433599234 -0.0351488217711 -0.0637766718864 0.130110397935 0.12743511796 0.0885154306889 -0.00402387883514 0.0393297001719 -0.126303166151 0.0
0.147065684199 -0.0266294274479 0.0385934971273 0.0299812611192 -0.0785395205021 0.0190865732729 -0.154816031456 -0.179157674313 -0.209438666701 0.0
0.0279780551791 -0.0881771892309 -0.0454911328852 -0.0198749061674 -0.142287269235 -0.0610143616796 0.000184194243047 -0.0095617454499 0.0515498556197 0.0
-0.154547736049 0.0373845659196 0.0484839975834 0.0171122904867 0.0246532261372 -0.0507382154465 -0.126936644316 0.0251767188311 -0.162923082709 0.0
0.0994220972061 -0.00747139984742 -0.147200718522 0.0931586250663 -0.0896506980062 0.130551531911 -0.0539613850415 0.103340998292 0.103313095868 0.0
0.00740661192685 -0.0668158456683 0.0722249448299 -0.0120700504631 0.000513983948622 -0.0320699512959 -0.0394554249942 -0.147371515632 0.0769796893001 0.0
-0.0802031159401 -0.0422916300595 0.0698362737894 -0.0145452786237 0.0251543018967 -0.0733461007476 -0.0946735143661 -0.0806340500712 0.0638363808393 0.0
0.0766708999872 -0.0428166426718 0.0563272871077 0.0580741465092 0.0181768704206 0.0371982567012 -0.0649477988482 -0.0981446057558 0.0256268884987 0.0
-0.023221924901 0.0919791907072 -0.0425037294626 0.0783443823457 0.0970472842455 -0.0268807038665 0.0719814524055 0.0336444489658 -0.0568273961544 -0.053076
0.149023592472 -0.20522351563 0.403499633074 -0.0238248240203 0.11804676801 0.166385173798 0.0967518389225 -0.140106916428 -0.364079326391 0.0
0.105130940676 -0.0634942352772 0.0408311635256 -0.00384333101101 0.0854064300656 -0.104446694255 -0.0411233268678 -0.112170852721 -0.116967283189 0.0
0.121375747025 -0.0899863615632 -0.120030745864 -0.023612704128 0.255614340305 0.165728241205 0.0116060273722 0.0648825466633 -0.336919844151 0.0
-0.139005348086 -0.180214852095 0.0660388246179 0.0610028989613 -0.0789873823524 -0.0527496635914 0.0979622751474 -0.246111884713 -0.148040488362 0.0
0.0259333383292 0.0163201615214 -0.212490618229 0.283865451813 0.492303431034 -0.277936339378 -0.170488715172 0.458809584379 0.0856639072299 0.0
-0.118631094694 0.0788356512785 0.433952182531 -0.42001953721 -0.116019763052 0.222985073924 -0.538086950779 -0.511779129505 -0.553410410881 0.0
-0.017441380769 0.117648363113 0.185648947954 -0.22660677135 -0.124398037791 -0.147857919335 -0.282871186733 -0.108039841056 -0.0693514496088 0.0
-0.0771055817604 0.00111394689884 0.0576312541962 -0.0233057960868 -0.0213831868023 -0.34667429328 0.50410836935 -0.175566792488 -0.0516428649426 0.0
0.0220684204251 -0.104081980884 0.0155457193032 -0.0952238515019 -0.297337889671 0.0581778734922 -0.034471269697 -0.603587508202 -0.0147809004411 0.0
-0.0674912706017 -0.0396536365151 -0.245791971684 -0.130779638886 -0.229618161917 -0.470205277205 0.0814055129886 0.373780727386 0.286324620247 0.0
-0.194209590554 -0.380415946245 -0.0848810747266 -0.288676857948 -0.333851307631 -0.347783595324 -0.0159081574529 -0.286040395498 -0.316432893276 0.0
0.19994007051 0.187884911895 -0.175535261631 0.1759236902 -0.0260669421405 0.0499399527907 -0.0681286975741 0.220016896725 0.115045614541 0.0
-0.0981561467052 -0.0746455267072 -0.194671943784 -0.0224766135216 -0.195904389024 -0.0642637088895 0.309591054916 0.016183167696 -0.507563412189 0.0
0.21454975009 0.0284987613559 -0.206599786878 0.241840288043 -0.16074731946 -0.00751084694639 0.624657690525 0.32813128829 -0.043664637953 0.0
-0.0964486226439 0.115862376988 0.0453544966877 0.0702552348375 -0.00619843462482 -0.144651845098 -0.0979302972555 -0.050966758281 0.047741767019 0.0
0.107935026288 0.134620383382 -0.397592306137 0.366766750813 -0.0273415856063 -0.411050796509 -0.0369790941477 0.427741080523 0.180776014924 -0.287903
0.039488568902 0.0513866208494 -0.171666130424 -0.074055030942 -0.182113498449 0.18045565486 -0.0553572624922 -0.026346784085 -0.220312178135 0.0
0.0208593364805 -0.0295413918793 -0.0909308940172 -0.0484811887145 -0.119926981628 -0.0891741588712 -0.084316380322 0.0674576833844 0.0870615169406 0.0
0.0390060320497 0.0273457933217 0.315077781677 -0.0370716787875 0.104443714023 0.301059693098 -0.193396568298 0.0217191204429 -0.168046817183 0.0
-0.0146707044914 0.138577759266 0.00407536746934 0.0336288176477 -0.0714053362608 -0.0876049920917 -0.181783244014 -0.172554895282 0.0221758391708 0.0
-0.156180173159 0.0221883449703 0.00153191317804 0.104632601142 -0.0543788187206 0.195612624288 0.239018946886 -0.444160729647 -0.266023635864 0.0
-0.246643453836 -0.500216722488 -0.310040205717 -0.204365819693 0.0331572033465 0.163036927581 0.274428039789 0.25937128067 0.0598971843719 0.0
-0.0891110226512 0.01671086438 -0.188088670373 0.24925839901 0.0770127251744 -0.00238252361305 -0.0956759750843 -0.0565600916743 -0.121834293008 0.0
-0.219111189246 0.0694787502289 0.0818720459938 0.0561469495296 0.142724648118 0.0360830500722 -0.297421216965 0.0192640330642 -0.163465186954 0.0
0.117492251098 -0.235775500536 0.119300588965 -0.28459456563 0.0773540362716 -0.0615952238441 0.0123429521918 0.349862635136 -0.0505710616708 0.0
-0.136080250144 -0.180352330208 -0.304063826799 0.0290728472173 -0.0272059813142 -0.0255441702902 0.139707833529 -0.38740798831 -0.229155674577 0.0
0.312456041574 0.275024831295 0.272457480431 0.0345224998891 -0.093108728528 0.322092980146 -0.047124568373 -0.0705733299255 0.0624993219972 0.0
0.170012384653 0.105569332838 0.105752564967 0.131466805935 -0.0685899704695 -0.0763813555241 0.15256665647 -0.476080358028 -0.380694031715 0.0
0.29703772068 0.288073867559 0.0801068544388 -0.126673981547 0.189907133579 0.0444195605814 0.026519568637 -0.150064319372 0.00285998196341 0.0
-0.157144278288 0.231628373265 0.262664377689 -0.0692616999149 0.372905701399 0.268590152264 -0.259272485971 -0.076256416738 -0.147638559341 0.0
0.0973445177078 -0.0967120453715 0.000616611388978 0.0646359622478 0.0176126733422 0.0303570590913 -0.0996476635337 -0.04519617185 -0.0346442088485 0.0
-0.0329703316092 -0.0256852284074 -0.223731085658 0.122385963798 -0.233283132315 -0.0943356752396 -0.102582022548 -0.614379048347 -0.383070856333 -0.25117
-0.148777812719 -0.0658110231161 -0.00631382456049 -0.161787420511 -0.0636737197638 -0.125541746616 -0.340537160635 -0.015550239943 0.0194166451693 0.0
-0.0363117940724 0.0595181696117 -0.0232550371438 -0.149120092392 0.156221881509 0.0851199552417 -0.0506178997457 0.0908097922802 -0.0750586166978 0.0
0.105747036636 -0.289179772139 0.0738638043404 0.0196758955717 -0.0265904739499 0.249252721667 -0.231742247939 -0.233298063278 0.31260189414 0.0
-0.17722851038 0.0574708767235 -0.122096985579 0.13625459373 -0.193397134542 -0.117893524468 -0.0864774137735 -0.120583280921 -0.0533318892121 0.0
-0.428342998028 -0.302013546228 -0.0125578166917 -0.581475198269 -0.432603955269 0.296151310205 0.317180544138 0.147910714149 -0.462100625038 0.0
0.365669369698 0.0503122247756 -0.0901139304042 -0.0416362099349 0.0168611351401 -0.110080443323 -0.604099452496 0.196732491255 0.394656777382 0.0
0.0424316711724 0.040757868439 -0.00616990448907 -0.0352305024862 -0.140865802765 -0.159285306931 -0.0262821577489 -0.182283043861 -0.164881512523 0.0
-0.135218635201 -0.232391491532 -0.125767663121 -0.500192821026 -0.364111453295 0.0241561625153 -0.158776983619 -0.186328545213 0.390632778406 0.0
0.214099213481 0.0978942662477 0.169945463538 0.232513204217 0.00652282126248 -0.057108040899 -0.192120298743 -0.339587211609 -0.290107816458 0.0
-0.294724553823 -0.369550764561 0.10023920238 -0.407574415207 -0.572274446487 -0.00686428835616 0.434181153774 0.418995976448 -0.267629235983 0.0
0.453419029713 -0.138355329633 -0.0549119636416 -0.337875068188 -0.243419393897 -0.0166109539568 -0.495634585619 -0.452809482813 0.458758354187 0.0
0.0848718062043 0.0425336286426 0.342890202999 -0.0475498475134 -0.178101092577 0.12472628057 -0.00602714391425 0.165517061949 -0.549560070038 0.0
-0.249433144927 0.253208756447 0.101908057928 -0.384777963161 -0.198812708259 0.00380069063976 -0.43783774972 -0.351475894451 0.300810366869 0.0
-0.323624879122 -0.406260669231 0.0883592292666 -0.244056791067 -0.461230576038 -0.0463124997914 -0.380795747042 -0.415322124958 0.181541234255 0.0
-0.0416468754411 0.0851585194468 -0.057559106499 0.0922073572874 0.105737194419 -0.0282159484923 0.00871128868312 0.0238548517227 0.0334180034697 0.0
-0.350044131279 -0.0341067276895 0.357754021883 -0.0973133519292 0.0167824085802 0.260486155748 1.18326985836 0.117317810655 -0.546202659607 -0.138622
-0.0970634743571 -0.00446940306574 -0.076691173017 0.0796109959483 -0.0508025027812 0.0719544738531 -0.0538837276399 -0.0429076217115 -0.144516974688 0.0
-0.0493266098201 0.0247899219394 0.128959327936 0.059459079057 0.11010401696 -0.106249712408 -0.00803831033409 0.122448995709 0.0832078233361 0.0
-0.0251434501261 0.0236459542066 0.052186742425 -0.0912963598967 0.0671966969967 -0.0762058123946 0.052874751389 0.0803278908134 -0.118739575148 0.0
0.0312748104334 0.0146908154711 0.0840988606215 0.104700148106 -0.119391173124 -0.0398237258196 -0.0374747775495 0.0272926539183 -0.121851585805 0.0
0.186495929956 0.0445917285979 0.112553857267 0.126468867064 0.129423335195 0.00967988930643 0.0948427692056 0.0330810621381 0.167721346021 0.0
0.0964533686638 0.171652764082 0.238505408168 -0.0124271456152 -0.0947454571724 -0.0881577283144 -0.0386282913387 -0.13028781116 -0.0546755641699 0.0
0.0750666633248 0.141274526715 -0.0538192167878 -0.0308654457331 -0.146082103252 -0.0938186943531 0.0667128413916 -0.0303970444947 -0.131626293063 0.0
-0.0413956083357 -0.125348865986 -0.114250481129 0.0825800746679 0.114366494119 0.189651176333 -0.156976535916 -0.060224737972 -0.0977299585938 0.0
0.209535270929 -0.0128426048905 0.0790928900242 -0.0034896612633 0.00452097551897 -0.112966701388 -0.209788307548 -0.0137737924233 -0.059700768441 0.0
0.163687765598 0.194420412183 0.208396762609 -0.142546638846 -0.0858103632927 0.0714334100485 0.0145085351542 -0.0992535129189 0.0745806768537 0.0
-0.0454900041223 0.125234618783 0.0846083685756 -0.0589270703495 -0.0949895828962 -0.0839882194996 -0.0490023456514 -0.169372186065 0.00783079396933 0.0
0.00332659273408 -0.001576605835 -0.0729470774531 0.0356044284999 -0.0796865969896 0.118066497147 0.0867215916514 -0.0204929132015 -0.0735668241978 0.0
-0.00185651134234 -0.101295888424 -0.0899423733354 -0.0549740567803 -0.0866615474224 -0.047618187964 0.00393378036097 0.0851465687156 0.0325920172036 0.0
-0.00722277909517 0.0317764915526 0.00363207189366 0.0929469168186 0.164339154959 0.0886470675468 -0.163694679737 -0.0556691363454 0.0802697688341 0.0
0.0712514445186 -0.0549200326204 -0.0979713052511 -0.106967665255 -0.0406692288816 -0.0586476884782 0.0657385066152 -0.122597001493 -0.00793738290668 0.0
0.162288039923 0.131555974483 -0.117705710232 0.00826508179307 -0.107319787145 -0.0264820810407 -0.181057244539 -0.154901489615 0.0132855325937 -0.0426532
0.0371837988496 0.183914512396 0.014590700157 0.0181111488491 0.0379236452281 -0.0228152088821 0.167728438973 0.13470338285 0.00632435223088 0.0
0.116140238941 0.00926498416811 -0.0774599388242 -0.0555069595575 -0.055177051574 0.0840164870024 0.0998103991151 -0.116688400507 0.02269044891 0.0
-0.129666388035 -0.046774841845 0.10032916069 -0.274774998426 -0.287002176046 -0.135634228587 -0.141208529472 0.136837825179 0.0960277467966 0.0
0.0854798853397 -0.137417376041 0.024423269555 -0.0698151737452 -0.161061257124 -0.154786199331 0.0506530702114 -0.208774909377 -0.105139926076 0.0
-0.17774116993 0.0885182023048 0.0951804965734 -0.422520667315 -0.167510062456 0.180733576417 0.114975854754 0.0429444611073 -0.188232898712 0.0
-0.26489263773 -0.318326026201 0.324162781239 -0.211744770408 -0.399265766144 -0.107622541487 0.0117632979527 0.0925976336002 -0.132145524025 0.0
-0.0380227304995 -0.0514562986791 -0.00530659826472 -0.0571983940899 -0.180727362633 -0.292447268963 -0.0339072272182 -0.105551339686 -0.111573189497 0.0
-0.355510383844 -0.0811584219337 0.0499690361321 -0.261244386435 -0.0203633010387 0.160363942385 -0.126203030348 -0.010669616051 0.195524483919 0.0
0.187673211098 0.0233072005212 -0.191944509745 -0.211135208607 -0.305295616388 -0.258608847857 -0.385284811258 -0.0912251397967 0.175575017929 0.0
-0.114317968488 0.0207759011537 -0.156083479524 -0.250671237707 -0.223660036922 -0.349171429873 -0.170220211148 -0.179044917226 -0.210813388228 0.0
-0.0683743655682 -0.254611283541 -0.242296889424 -0.127533733845 -0.162541911006 -0.451818078756 0.390525281429 0.201280608773 0.509977757931 0.0
0.203592404723 0.12822432816 0.432206779718 0.027837254107 -0.223362803459 -0.0421679727733 0.268575280905 -0.134075656533 -0.151379212737 0.0
-0.0997684821486 -0.0259534008801 -0.106709316373 -0.190298750997 -0.0270408913493 -0.0731201544404 -0.13293325901 -0.0289584994316 0.21006038785 0.0
-0.4427318573 -0.265718370676 0.207823842764 -0.453875780106 -0.128869235516 0.275448381901 -0.198562711477 -0.10513573885 0.206027984619 0.0
0.0569472797215 -0.0833621248603 -0.0315152779222 -0.0371204465628 0.077164568007 -0.120934188366 0.0327605754137 -0.10314758867 0.0667606294155 0.0
-0.202323645353 0.274920195341 0.186462014914 -0.0762619152665 -0.159617990255 0.165585786104 0.329464405775 -0.364263534546 0.00138006173074 -0.339242
-0.0798313841224 0.0614995248616 -0.0656046941876 -0.137840166688 -0.0566468834877 -0.0862607657909 -0.0944424569607 0.0369764007628 0.0690854787827 0.0
0.102416925132 0.116493411362 -0.0572792738676 -0.12191066891 -0.0330897495151 -0.121296912432 -0.0770695656538 0.110719561577 0.0783793181181 0.0
-0.0113836135715 0.095808044076 0.131583243608 -0.0259216614068 -0.164044111967 -0.0808848440647 0.0928101018071 -0.0443681739271 0.153059110045 0.0
-0.0411808229983 -0.0201259274036 0.117435581982 -0.069172911346 -0.0230674836785 -0.0560568124056 -0.0114011783153 -0.0286121629179 0.0963372662663 0.0
0.116699777544 0.0734050124884 -0.0569344498217 0.0439813546836 -0.135863646865 -0.0154993403703 0.166230931878 -0.0503751337528 0.0318118333817 0.0
0.247159346938 0.0310803037137 0.034780588001 -0.147314488888 -0.136859282851 -0.126571834087 -0.0216980036348 -0.0755858719349 0.00284124072641 0.0
-0.0254898183048 0.0322109274566 0.0058299000375 0.0733461230993 0.0708941370249 -0.128480538726 0.0964590385556 -0.111022986472 0.0908305794001 0.0
-0.0653144568205 0.0931758061051 0.0542573742568 -0.0561308152974 0.141181781888 0.119982309639 -0.042050242424 -0.0739734098315 -0.246796816587 0.0
-0.016707226634 0.0982517153025 -0.0857715308666 -0.0874368622899 0.0272177588195 -0.136712923646 -0.0263704676181 -0.213849455118 -0.18594288826 0.0
0.119134277105 -0.0483119934797 0.0139873102307 0.00956788752228 0.0452253073454 -0.0523506216705 -0.160695597529 0.041217122227 -0.0052584214136 0.0
0.0846627429128 0.0135915894061 -0.115223348141 0.0736576095223 0.0576816350222 -0.128955572844 0.0321803316474 -0.00339664844796 -0.0573363490403 0.0
0.20942337811 0.151854082942 -0.0440963059664 0.0138672888279 0.0587772801518 -0.117053397 0.0937835872173 0.0969999209046 0.0966443642974 0.0
0.00928726792336 0.029475113377 -0.105006881058 -0.0510704144835 -0.169891223311 -0.0734319016337 0.0121697885916 0.0243794899434 -0.0246682502329 0.0
0.129121750593 -0.0272855423391 0.178442150354 0.0457609705627 0.116007685661 0.143606588244 0.0166389662772 -0.0150962835178 -0.0851376205683 0.0
0.0983560308814 -0.125838547945 0.132317915559 0.0769236981869 -0.117687471211 -0.0859864279628 -0.125676944852 -0.0298792757094 0.126650869846 0.0
-0.0240283031017 0.00408863462508 0.0734901502728 0.0011699066963 0.0594942234457 -0.167886227369 -0.105850085616 -0.0715434402227 -0.110639676452 0.12995
0.00344767700881 0.0884455814958 0.0999032333493 -0.0771754458547 0.131432384253 0.00802895799279 -0.0331437960267 -0.0226192586124 -0.0711265057325 0.0
-0.127878621221 0.109214141965 -0.0590496435761 -0.0583343021572 -0.0990487113595 -0.0191042907536 -0.124914385378 0.0346975103021 0.0742806494236 0.0
0.00759976683185 -0.0899956673384 -0.0474788509309 0.0784043744206 -0.00647318270057 -0.0594847127795 0.0393872223794 0.0463785640895 0.0973464027047 0.0
-0.0522843375802 -0.01751303114 -0.0426040738821 0.0971119850874 -0.0446126461029 0.0394085384905 0.0125311948359 0.0514901503921 0.0601247549057 0.0
-0.0294836889952 0.105554766953 0.0450456179678 -0.0234373193234 0.164943560958 0.0387428738177 -0.102427467704 0.0280632451177 0.0395130515099 0.0
-0.0423465929925 -0.1038640365 -0.0125084370375 -0.0553162917495 -0.045631442219 -0.0414177812636 -0.0792910680175 -0.0596406459808 -0.0935013741255 0.0
0.105863370001 -0.0897478535771 0.109804920852 0.109947912395 -0.0611796490848 0.0716533064842 0.103550478816 0.0172044131905 0.000292233482469 0.0
0.0861035883427 0.0246439054608 0.0719830468297 -0.0752074271441 -0.0806378275156 0.0250608883798 -0.0251170750707 -0.151017189026 -0.129128083587 0.0
0.0104278028011 -0.0783526003361 0.217317730188 -0.0217397753149 -0.0240131188184 0.0843400135636 -0.127140671015 -0.00673261936754 0.107843868434 0.0
0.105983674526 -0.0576094165444 0.0765990391374 -0.102147005498 -0.122608676553 -0.192529037595 -0.0999606028199 -0.164579689503 -0.00848194025457 0.0
0.068399682641 0.00580394314602 0.0850287973881 -0.0324434414506 -0.0665696263313 -0.0236336551607 0.0434620752931 0.0304252747446 0.052568282932 0.0
-0.0720897987485 -0.00402911007404 -0.10057220608 0.15927273035 0.0552051924169 -0.0695462301373 0.0831622108817 -0.112823069096 0.0910325497389 0.0
-0.100837737322 0.0676544606686 0.027580562979 -0.131480291486 0.0433853603899 0.0114287547767 0.0349436663091 -0.0705091804266 0.0948669686913 0.0
0.0573058947921 -0.0815781876445 0.0451105944812 -0.101249106228 -0.110111266375 0.052531067282 -0.00918176583946 0.0678503364325 -0.097476862371 0.0
-0.118125930429 -0.0674476549029 0.0587215386331 -0.114241704345 0.0774589180946 -0.0115768127143 -0.0285839363933 -0.0480113886297 -0.100795350969 0.0
-0.0809897482395 -0.00387266115285 0.0164345707744 0.0757276266813 0.0359108038247 0.0325948446989 -0.0334137678146 -0.159212008119 0.0743225440383 -0.136441
0.0872369632125 0.200607821345 -0.0555717051029 0.120186217129 -0.105770558119 -0.15582215786 0.0464926473796 -0.149737492204 0.0114179793745 0.0
-0.10214138031 -0.0562576837838 0.10249915719 -0.0141533659771 0.0829945653677 -0.0498927570879 0.113499827683 0.0732908919454 -0.0125173237175 0.0
-0.107036493719 0.265289843082 0.190444052219 0.0406422242522 0.0777246430516 -0.206366464496 0.105226844549 -0.160783946514 -0.0998891144991 0.0
-0.0143590597436 0.0356437154114 0.0876288414001 -0.0819037333131 0.0365515723825 -0.106215536594 -0.0349654629827 -0.171433478594 0.0386503748596 0.0
-0.0449279919267 -0.121853485703 -0.111465297639 -0.0627055466175 -0.140941143036 -0.0816715508699 -0.0281570646912 -0.165067493916 -0.144747108221 0.0
-0.144270196557 0.0352360866964 -0.0332580246031 -0.0903616026044 -0.119515009224 -0.0332001484931 0.182622388005 -0.0966583266854 0.0828724652529 0.0
-0.072073765099 0.0835010781884 -0.0501847416162 0.0452198758721 0.0671354234219 0.0891135185957 -0.0458002947271 -0.106371708214 -0.0845558270812 0.0
0.179839625955 0.14272069931 0.091805383563 0.0583107769489 -0.0895749330521 -0.0724930018187 -0.0668698847294 -0.0337313860655 -0.0419213995337 0.0
0.177351847291 -0.000682070036419 -0.0141271036118 0.168330326676 -0.168435424566 -0.0577720329165 0.0135236755013 0.058251619339 0.102764740586 0.0
0.051203045994 -0.0307408925146 0.00699899811298 0.0308505240828 -0.173794299364 -0.20708592236 -0.0653625205159 -0.142046570778 -0.0198145620525 0.0
-0.152771741152 0.017305592075 0.0841132849455 0.049722507596 0.0122712254524 0.0824115797877 0.0126890139654 0.0215204562992 0.143330544233 0.0
0.0750632286072 -0.189457193017 -0.0915427207947 -0.0413593873382 0.020677793771 -0.0970358401537 0.0606377348304 -0.166187301278 0.0130708422512 0.0
0.0337530896068 -0.0146733988076 0.00786547269672 0.0402700379491 -0.0820378884673 0.107973635197 0.0163113214076 -0.0578048191965 0.0681668743491 0.0
-0.0559899285436 0.174648672342 0.171259075403 -0.0054053934291 -0.0876010805368 0.039577037096 -0.0219469647855 -0.0468171648681 -0.11753667146 0.0
-0.124439008534 0.111315645278 0.026567293331 0.0695341676474 0.107981659472 -0.0335959047079 -0.0733881369233 0.122988805175 0.0106665389612 0.0
-0.0303293336183 -0.182998791337 -0.067899428308 -0.0538250021636 -0.0564379133284 -0.152018502355 -0.0539595559239 -0.179529294372 -0.0653203576803 -0.0957559
0.0366677418351 -0.0231059137732 -0.0147502087057 0.0613520033658 -0.0357492007315 0.062092769891 0.0116005316377 0.0523786321282 -0.0309984087944 0.0
0.0403797402978 0.0572951473296 -0.130088254809 0.000641536491457 0.0100586591288 0.0227457471192 0.0671896710992 0.0484515950084 0.127250149846 0.0
0.0259512662888 -0.153012514114 -0.0703478455544 0.0708176419139 0.0221762694418 -0.127352252603 -0.0875865668058 0.0655127614737 -0.0548819974065 0.0
0.0278299320489 0.0387547723949 0.108958825469 -0.0203846134245 -0.0933094397187 0.121952757239 -0.0256001073867 -0.0705051794648 -0.0848093032837 0.0
-0.111395165324 -0.0504014678299 0.0344753973186 -0.0390261523426 -0.00536610512063 -0.0663946419954 -0.0363928601146 0.00619524205104 -0.103040464222 0.0
-0.0709164440632 -0.0665508583188 0.0537733733654 -0.0084161516279 -0.192587867379 -0.0386153608561 -0.0143488887697 0.0823013111949 -0.0707732662559 0.0
0.0396783687174 -0.0950807183981 0.0380026437342 -0.0479591302574 -0.0207380205393 -0.0504436679184 0.0349582731724 0.0604028627276 -0.00881534907967 0.0
-0.0443156398833 -0.0537342987955 -0.0933684036136 -0.0688674598932 0.0590547211468 -0.0860361903906 -0.0293433517218 0.0250362306833 0.0768312066793 0.0
0.052381079644 -0.00886182673275 -0.047180198133 -0.0305322185159 -0.136281594634 0.0110607864335 0.0997895598412 0.00526602286845 0.0439175628126 0.0
0.118510447443 0.0173297841102 -0.0202473588288 0.034670971334 0.0178746283054 0.0180620737374 0.0480648688972 0.087487526238 0.0726806744933 0.0
0.019859585911 -0.0386055894196 -0.0817982926965 0.178035125136 0.0362189896405 -0.153126180172 0.0824871361256 0.0829309225082 0.135901406407 0.0
0.0265281815082 0.0162306707352 0.0164925958961 -0.0967520847917 -0.00983246415854 0.00980580598116 -0.0888609141111 0.0723361372948 0.0603952482343 0.0
-0.12659996748 -0.0841670706868 0.0699563622475 -0.139964297414 -0.0659296438098 -0.0234961919487 0.159002557397 -0.0738804712892 0.119179300964 0.0
-0.0401197895408 0.0356143340468 0.0669953227043 -5.73190009163e-05 -0.115790687501 -0.0773796886206 0.168170288205 0.0825092196465 -0.0455475561321 0.0
-0.105365529656 -0.108131892979 0.110302388668 0.0825278460979 -0.0479472503066 0.0535071901977 0.0370694361627 -0.0716242417693 0.0974708199501 0.0
-0.0856039151549 0.0141758499667 -0.0776911079884 0.172966018319 -0.0562358982861 -0.0815724506974 0.203765109181 -0.156021222472 0.0325033999979 0.0220703
0.055832028389 0.175247386098 0.170050829649 0.0384913235903 0.326568752527 0.210335150361 -0.144236937165 -0.231427893043 0.142242476344 0.0
-0.0279188621789 -0.0232552662492 -0.0953104346991 0.00850670970976 -0.038635879755 -0.079211615026 -0.0228633824736 0.100758127868 -0.117003969848 0.0
-0.411255717278 -0.141152247787 -0.210540175438 -0.311461776495 -0.245268702507 -0.0924124121666 -0.134780496359 -0.285183787346 -0.00673096673563 0.0
0.282383143902 0.0709823444486 0.198798134923 0.103187687695 0.0443932749331 -0.0752485319972 0.0205120053142 0.227223366499 -0.00887042842805 0.0
0.0388605222106 -0.102367989719 -0.0226845368743 0.511056959629 0.00650080293417 -0.010002550669 0.330454111099 0.228052467108 -0.0131001127884 0.0
0.063642822206 -0.178180649877 0.0239850673825 -0.258702129126 0.48177203536 0.408857852221 -0.310148119926 -0.419741779566 -0.137334853411 0.0
0.0290402695537 -0.167818769813 -0.115323811769 -0.00818028859794 0.0734581723809 -0.038103595376 0.0953907519579 -0.12120179832 0.0376725792885 0.0
-0.211192250252 -0.341363877058 -0.399387061596 -0.213377580047 -0.434957623482 -0.066198348999 -0.162944614887 -0.397098362446 -0.222789555788 0.0
0.144519999623 0.325914144516 0.0318200774491 0.263389825821 0.300544291735 -0.111407443881 0.0182421151549 -0.35483917594 -0.080809943378 0.0
-0.153176695108 0.0109843201935 -0.00047659111442 -0.659694969654 -0.487358778715 0.611600220203 0.22079731524 -0.127459958196 -0.0868223831058 0.0
0.0559779703617 0.282929778099 0.130769282579 -0.152565091848 0.00556177040562 0.0349274240434 -0.319939851761 -0.438824832439 -0.025126285851 0.0
0.0729908049107 0.269652038813 0.0936426743865 0.40429186821 0.430944502354 -0.189928635955 -0.130423918366 0.00404903432354 -0.350301712751 0.0
-0.0940005481243 -0.178617939353 -0.0207216106355 -0.0739896893501 -0.156950592995 -0.170360639691 -0.232369080186 -0.121811911464 -0.0698477551341 0.0
0.224583879113 0.225393638015 -0.107143737376 0.0367086492479 0.254224032164 -0.130701929331 -0.12768226862 -0.223965093493 -0.3694473207 0.0
0.0807368978858 -0.101754702628 -0.0250518042594 -0.0565332584083 -0.0740951448679 -0.105543807149 -0.0101576764137 -0.0643536001444 -0.0752984732389 0.0
0.138261824846 0.359321117401 -0.120590299368 0.325452148914 0.380180031061 -0.153089255095 -0.0218455567956 -0.163181066513 -0.384712070227 -1.53069
0.0891065821052 -0.0086520453915 0.11864297092 -0.178176417947 -0.145074471831 -0.0871098786592 0.105225093663 0.132188484073 0.157420054078 0.0
0.110590524971 -0.066616922617 -0.0856545642018 0.0395050831139 0.0976552590728 0.0669886395335 0.0668532252312 -0.0282032508403 0.0413964763284 0.0
-0.022496515885 0.158887863159 -0.153528660536 0.192917853594 0.144872292876 0.304010003805 -0.0876474231482 0.124372765422 0.0316147394478 0.0
0.120296500623 -0.124241396785 -0.0530608445406 0.170068323612 0.0373450480402 -0.0533474087715 -0.0386822111905 -0.0552001744509 0.0752448365092 0.0
-0.10734385252 -0.120519578457 -0.0630189701915 0.0566441267729 -0.0690475478768 -0.0942365527153 0.0983378440142 0.117477752268 -0.0971909239888 0.0
-0.00948529224843 0.152826428413 0.0883658751845 -0.186095505953 -0.103452041745 -0.172978386283 -0.0572282448411 0.114864878356 -0.111317612231 0.0
-0.113815948367 0.0623609647155 -0.0239081028849 0.0556122884154 -0.0991784632206 -0.0917405858636 0.0870040655136 -0.00499292043969 -0.0684942081571 0.0
0.12279176712 0.155329301953 0.139822661877 0.0222759712487 0.0284674987197 0.0974497720599 -0.0791344642639 -0.0308933481574 -0.0810760483146 0.0
-0.0831124708056 0.173790469766 0.233422040939 -0.09299146384 0.0833054631948 0.0605129264295 -0.0503167174757 0.0742909759283 0.0166131332517 0.0
-0.030814865604 0.0432053655386 -0.21120223403 -0.0233707483858 -0.0013787788339 -0.145025745034 -0.27722427249 -0.100631289184 -0.404298603535 0.0
-0.0665968060493 0.114982880652 -0.213054299355 -0.129153087735 0.179802909493 0.051868442446 0.10868807137 0.249727129936 0.0461313351989 0.0
-0.115978583694 0.0269881468266 0.187818974257 -0.261302828789 0.00203636335209 -0.0368134267628 0.133530512452 0.0501467436552 -0.0477176941931 0.0
0.0924176424742 0.0918312519789 0.0895625278354 0.0457975529134 0.0112639842555 0.156436830759 0.133403226733 0.00348604237661 -0.0391831696033 0.0
0.156096071005 0.105383507907 0.0497523508966 0.195381462574 0.17826884985 0.11189045012 0.0397942960262 0.0810445770621 0.021870765835 0.0
0.110998995602 0.0359949618578 0.0495359376073 0.122304700315 0.123384296894 -0.0563680268824 -0.0203266907483 -0.0210038982332 0.0346229113638 0.0
-0.0639518499374 -0.128478556871 0.149832934141 -0.0232405792922 -0.0680106505752 0.0369439460337 0.190658420324 -0.0477021001279 0.177597925067 0.118421
0.15745767951 0.210940420628 0.0322608798742 0.144808471203 0.0775370970368 0.0448943264782 -0.0319093093276 -0.0594070665538 0.0717963054776 0.0
-0.0617012381554 -0.00868599768728 0.121490672231 0.105960816145 -0.0895874723792 -0.0661772713065 -0.109668262303 0.077227383852 0.018788062036 0.0
-0.0874372944236 0.0171812996268 0.125620380044 -0.0391210801899 -0.0062924688682 -0.177407205105 -0.0289937723428 0.0633025243878 0.0357271395624 0.0
0.0755695775151 0.0949134156108 -0.0285959113389 0.115788258612 0.0779933035374 0.0772679448128 -0.151185527444 -0.0249798670411 -0.0252374261618 0.0
0.056960426271 0.0707997083664 0.0372397564352 -0.0104195782915 -0.0368650704622 -0.132418006659 0.198407307267 0.123945131898 -0.00212017842568 0.0
-0.0336986072361 -0.0095895761624 -0.088749691844 -0.0315653458238 0.107948511839 -0.12223354727 -0.141500160098 0.18663983047 -0.262241601944 0.0
0.08086822927 0.0524769946933 -0.0451615303755 -0.0784052461386 -0.178643539548 0.0873455032706 0.030756931752 -0.0151523249224 -0.125329524279 0.0
0.076647810638 0.15016759932 0.0162619557232 -0.037269346416 -0.013291538693 -0.0622868016362 -0.0573985502124 0.281589686871 0.171384364367 0.0
-0.0417574420571 -0.0903363898396 -0.0300358310342 -0.174187526107 -0.0666442736983 -0.129848912358 -0.0968621894717 0.106734126806 -0.156527280807 0.0
-0.0899584144354 0.0806800723076 -0.20194119215 0.148192957044 -0.232774749398 -0.201222583652 0.0339365676045 0.0714248195291 -0.192428171635 0.0
-0.118731699884 -0.14738702774 -0.186000555754 -0.123280100524 -0.187225878239 -0.245068728924 0.0737527012825 -0.00649744551629 0.363660126925 0.0
0.00364424427971 -0.00276650162414 -0.118381358683 0.194679260254 -0.0554934442043 -0.103569418192 -0.00547667825595 -0.213599905372 -0.145990476012 0.0
0.101244866848 -0.106823973358 0.0492064654827 0.0384904071689 -0.114489801228 -0.190751031041 -0.0831273645163 -0.224928200245 -0.160171017051 0.0
-0.03699401021 -0.107836998999 0.0758979395032 -0.139361456037 -0.157754838467 -0.105364173651 0.176521942019 0.0462358482182 -0.127863630652 0.0
-0.0657884255052 -0.0701777562499 -0.0404298007488 0.00571442581713 0.0792888328433 -0.0440998971462 0.0482111163437 -0.0881850197911 -0.0857476219535 0.0
0.0297083947808 -0.0954925641418 -0.0163445398211 0.1548897475 -0.212538838387 -0.0936408415437 0.0784208700061 0.0304307341576 -0.0346470139921 -0.248833
-0.0514681041241 0.12562674284 0.0509721152484 -0.0744142830372 0.0212191734463 -0.0627793967724 0.093295879662 0.00625608488917 0.141165152192 0.0
-0.068678624928 0.0262994766235 -0.0756861269474 -0.0514442101121 0.0961685106158 0.01483287476 -0.0116084432229 0.0123917199671 0.102659896016 0.0
0.15358158946 -0.0694253072143 0.108592197299 0.146685481071 0.108533285558 -0.031470309943 0.114407762885 -0.0488512180746 0.0961040332913 0.0
0.120722346008 0.046403683722 -0.104170627892 0.0613020099699 -0.166407242417 0.0432101041079 0.00556934950873 -0.00771724572405 0.0805554166436 0.0
-0.141315162182 0.00430888915434 -0.0286911111325 -0.00241474644281 -0.0703889429569 -0.140354841948 -0.07413379848 -0.0170088298619 0.143141031265 0.0
0.223834887147 0.0642887577415 -0.298700064421 -0.0444663465023 0.00799890514463 -0.314662128687 0.244290068746 0.0993719100952 -0.108913883567 0.0
-0.0619959048927 0.0632206425071 -0.128325924277 0.0051036933437 -0.118704430759 -0.0846760720015 0.0172645524144 -0.103848040104 0.138524055481 0.0
-0.0464637055993 -0.14617484808 -0.0658499374986 0.186739087105 -0.106318861246 0.158448189497 -0.0473236292601 0.016517193988 -0.206901118159 0.0
-0.275140523911 -0.0141579769552 -0.0652199685574 -0.254751741886 0.0816011205316 -0.0195081755519 -0.257824867964 0.129968822002 0.00416762987152 0.0
-0.0976982489228 0.0464892573655 -0.0574551187456 -0.0398895181715 0.169247061014 -0.134947538376 -0.196882233024 -0.142013147473 -0.0503691844642 0.0
-0.0210394468158 -0.246831431985 -0.143099993467 0.137738108635 0.101521596313 -0.0892932340503 0.210894182324 -0.136360540986 -0.134556770325 0.0
0.156954109669 0.101576767862 0.1400603652 0.103206403553 -0.0180284809321 0.0783469676971 0.220447599888 0.119181334972 -0.0958052501082 0.0
-0.161574780941 -0.129593074322 0.24494381249 -0.0103991217911 -0.0288667678833 0.114119701087 -0.106495536864 0.0504021383822 0.0674777403474 0.0
0.0783888995647 -0.157697409391 -0.117446199059 0.187497720122 0.0993189737201 0.112056836486 0.199919015169 0.164039254189 -0.118518300354 0.0
0.0444974862039 -0.0581078454852 -0.126705050468 0.0873478278518 0.108995422721 0.151140198112 -0.0455538257957 -0.00203216820955 -0.103637300432 0.0
0.195757582784 -0.0130928829312 0.0399878285825 0.0410532727838 -0.159740462899 -0.0931867212057 0.266199856997 0.132264569402 0.243762508035 0.0286375
0.047925312072 0.151243850589 -0.0620397850871 -0.143270164728 -0.0347441881895 -0.121904671192 -0.136795774102 -0.0897457227111 0.0138294762 0.0
0.102136671543 0.0796539708972 0.0931854099035 -0.125425815582 -0.123534202576 -0.0574080906808 0.0183300133795 0.0224548578262 -0.110720135272 0.0
-0.000870311865583 0.0526769682765 -0.0324183516204 -0.149239525199 0.150230765343 0.286327660084 0.136425361037 0.0670524910092 0.204458624125 0.0
-0.00249159801751 0.0766658037901 -0.0422739833593 -0.00442671915516 0.0401771664619 0.0583542585373 -0.235854223371 -0.0834775567055 0.099436044693 0.0
-0.341912299395 -0.185859963298 -0.216369301081 0.0557301603258 -0.157298192382 0.0206096917391 -0.0532592013478 -0.13478423655 -0.145232781768 0.0
-0.0937833487988 -0.195293694735 -0.02977200225 0.160459831357 -0.117959521711 0.282726973295 -0.430150926113 -0.342126756907 -0.212054044008 0.0
-0.096319027245 -0.0979912132025 0.0610995441675 -0.024215426296 -0.145058572292 0.12850420177 0.105459749699 0.0224941819906 0.0419384092093 0.0
0.0257259104401 -0.0326338335872 0.0688220709562 0.167290985584 0.134369313717 0.14184102416 0.0603762678802 0.0467071384192 0.387425720692 0.0
-0.0998833030462 -0.0961725264788 -0.158020719886 0.152763828635 0.000954813673161 -0.0447152219713 -0.113808773458 -0.127898037434 -0.405174762011 0.0
0.00977952685207 -0.181532531977 -0.0125288590789 0.0533118769526 -0.520718753338 0.567412137985 0.0052884016186 -0.127260744572 0.107989005744 0.0
-0.145186856389 -0.260935038328 -0.0824516564608 -0.100116364658 0.168393880129 0.0150950094685 0.2917304039 0.200809299946 0.162970036268 0.0
-0.0839541628957 -0.351041465998 -0.412613779306 0.182887226343 0.072005264461 0.212388038635 -0.114042729139 -0.202858120203 -0.140804752707 0.0
-0.121188670397 -0.0687742829323 0.0219926107675 -0.12080912292 0.124985292554 0.192518755794 -0.0758324638009 -0.025865143165 -0.0123671377078 0.0
-0.0456478260458 -0.226040169597 0.0837324112654 0.0454668290913 -0.0331785306334 0.048761844635 0.176717936993 -0.0696682631969 0.161427021027 0.0
0.0145186036825 -0.126283407211 -0.0483058318496 -0.0336119756103 -0.074025221169 -0.105174511671 -0.015503263101 -0.114721350372 -0.041222140193 0.0
-0.388848304749 -0.252741098404 -0.139608755708 -0.194391652942 0.136842563748 0.222450882196 -0.296186447144 -0.1800814569 -0.166823357344 0.644861
0.115866921842 0.17048047483 0.0280763525516 -0.0247355140746 -0.153976470232 -0.092593498528 0.0639716014266 0.348531186581 -0.0289485789835 0.0
-0.0830872431397 -0.0843654721975 0.0140115376562 0.0101852798834 0.0151227768511 -0.0960183888674 0.0842448398471 -0.0788686797023 -0.0715306699276 0.0
-0.125778913498 -0.041201800108 -0.131946802139 0.293153136969 -0.00636136252433 0.274642497301 -0.189472585917 0.101957693696 0.0854420363903 0.0
0.0771424919367 -0.200512558222 -0.039851423353 -0.0634842589498 0.105609498918 0.0252733826637 0.0344898924232 0.102311700583 -0.0659401491284 0.0
0.0120290992782 -0.154784321785 -0.015872484073 -0.151498064399 -0.0318105146289 -0.197489947081 0.133617907763 0.0590153224766 0.0561564415693 0.0
0.302529126406 0.454568147659 -0.177522197366 -0.229404896498 -0.173524975777 -0.202509477735 0.0590316355228 0.041161544621 -0.194066479802 0.0
-0.0845790579915 0.116920672357 0.0313226357102 0.126802355051 -0.0376370996237 -0.0973722860217 -0.115347221494 -0.0747664794326 0.0516119636595 0.0
0.0892941653728 0.0344719588757 0.148075178266 0.157755360007 -0.0990640446544 0.0786713436246 -0.0305937882513 -0.107080586255 -0.203514173627 0.0
0.137915998697 0.0608239658177 0.390795379877 -0.0846881344914 -0.0301929973066 -0.217299684882 0.00171909946948 0.0802548080683 -0.0437539294362 0.0
-0.00367761147209 0.112168073654 -0.0220410432667 -0.103024169803 0.175193876028 -0.112889014184 -0.17950348556 -0.152924507856 -0.182414352894 0.0
-0.194927543402 -0.0306885913014 -0.231665089726 0.0558694303036 0.124737165868 0.01552389469 0.0322585776448 0.217922613025 -0.103532426059 0.0
0.0645056441426 0.0831523016095 0.111911132932 -0.0243078339845 0.185348317027 -0.140086978674 0.0873198583722 0.012603148818 0.0915452316403 0.0
0.120152123272 0.0128036057577 0.0869411826134 0.0982656106353 0.116729654372 0.118323303759 -0.0206616967916 -0.0579381249845 -0.0378701277077 0.0
-0.0122550260276 0.0364265441895 -0.0471062734723 0.0801239833236 0.12413200736 -0.0331297591329 -0.179506823421 0.142124295235 -0.109912529588 0.0
0.125368252397 -0.0955121964216 -0.0497262068093 0.0482736080885 0.0804027765989 -0.0996819511056 0.037562020123 -0.0907426550984 0.00489489780739 0.0
0.094836987555 -0.0386394932866 0.204237222672 0.0707398355007 -0.0763389244676 -0.0290233325213 0.0255035869777 -0.0957585051656 0.214756652713 0.291296
0.0166588593274 -0.0462964661419 -0.0326261222363 -0.0873326286674 0.0401907488704 -0.0626930817962 -0.109862945974 0.139610141516 -0.0533539392054 0.0
-0.124612763524 -0.106574341655 0.0711684077978 0.0583192333579 -0.0834134891629 -0.0138241527602 -0.0618004836142 0.0443648956716 0.120687037706 0.0
0.0447942912579 0.0381703861058 0.0569936297834 -0.00911201164126 -0.0376926511526 -0.0150008872151 0.094551153481 -0.00927794724703 0.00297340890393 0.0
0.182582825422 -0.20165681839 -0.0602743178606 0.144928961992 -0.190463200212 -0.0768580660224 0.0574060976505 -0.0721938610077 -0.128778889775 0.0
0.0982284620404 0.152709439397 0.280172139406 0.192386597395 0.120878145099 -0.0571751669049 0.176269710064 -0.0449491217732 0.130681350827 0.0
0.432469218969 0.473646849394 0.33499237895 -0.110815696418 -0.145552098751 -0.111711777747 -0.0889017954469 0.0282794740051 -0.130047172308 0.0
-0.0356469973922 0.0950348824263 0.00555784348398 0.0273578055203 -0.0800343379378 -0.198269695044 0.0371096692979 -0.00257481029257 -0.0316209457815 0.0
0.0871606096625 0.00357516319491 0.0362718962133 0.169365748763 0.013811269775 0.0286914464086 -0.275020599365 0.00167479796801 -0.159677937627 0.0
-0.0562677830458 0.0195795241743 0.176905214787 -0.242643997073 -0.301669836044 -0.305421680212 -0.370176076889 -0.180769205093 -0.296236306429 0.0
0.0105553371832 0.286633878946 0.0935030505061 -0.225656658411 0.116044089198 0.0565436892211 0.0740313157439 0.0269548911601 0.0782095566392 0.0
-0.307580918074 0.0253114178777 -0.0934102386236 -0.178661227226 0.0853538289666 -0.193149104714 -0.288340717554 0.126118063927 -0.197006627917 0.0
0.4058791399 0.248254492879 0.0888791009784 0.0266495291144 0.0697624087334 0.0997758209705 0.132021531463 -0.161692261696 -0.162601411343 0.0
0.0047913165763 -0.0304979924113 -0.0488379746675 0.0459095276892 -0.0394393280149 0.00499637844041 -0.0586238242686 -0.129295870662 0.0568632036448 0.0
0.126425802708 -0.00839678384364 -0.102910920978 -0.0600228458643 0.115307062864 0.126453414559 -0.250552982092 -0.0744221583009 -0.103624515235 0.0
-0.0285742171109 -0.0639850050211 0.0184059757739 0.0663582757115 0.0217359215021 0.0121469339356 0.0177713371813 -0.0191962327808 -0.0585868544877 0.0
0.196834206581 0.355726599693 0.214960277081 -0.0145532386377 -0.0748462602496 -0.0416816733778 -0.192462697625 -0.172379150987 -0.189741909504 0.265618
0.137024879456 0.0330016650259 0.089325606823 -0.148531213403 0.0346107818186 0.118994414806 0.0490576997399 0.000580832012929 0.34946373105 0.0
-0.0167980641127 -0.101325288415 0.130646124482 0.062857106328 -0.0687345117331 -0.0571430586278 0.115087792277 -0.0706108286977 0.123177111149 0.0
-0.104701720178 0.255389928818 0.0430281944573 0.0423178300261 0.233343824744 0.197228848934 -0.102977506816 0.134848564863 0.0574088953435 0.0
-0.0197376925498 -0.0826781317592 0.127746373415 -0.0552491620183 -0.141346156597 0.0293286126107 -0.00868765637279 0.0600876286626 0.113772846758 0.0
0.122018389404 -0.00708434125409 -0.163638144732 -0.122656591237 -0.106457896531 0.0407328642905 -0.196961790323 0.0673894360662 0.0283171162009 0.0
-0.243745431304 0.0840632542968 -0.0503494329751 -0.111838586628 -0.00764623982832 0.00476517388597 -0.0742319822311 0.245513379574 -0.000190863909665 0.0
-0.0849603712559 -0.0359638929367 0.012946720235 -0.0514960549772 -0.0336903110147 -0.0274165365845 -0.010333057493 -0.0356123819947 -0.0870972797275 0.0
-0.0103014195338 0.0283964890987 0.226314380765 -0.0910785123706 -0.0096685057506 -0.00862022489309 -0.0372928604484 0.0333649404347 -0.16951623559 0.0
0.0205025207251 0.152542129159 -0.0444008596241 -0.00815948471427 0.106987565756 0.0213526450098 0.0136870127171 0.203737854958 0.0264732651412 0.0
-0.23847450316 0.03191556409 -0.0603181123734 -0.23082472384 0.196363016963 -0.20554278791 -0.239398345351 -0.0339356251061 -0.258516788483 0.0
-0.0555427223444 0.080602966249 -0.00666350498796 -0.0870093926787 -0.0163775216788 -0.128348648548 0.107138291001 0.282011270523 0.0724357590079 0.0
-0.0983927324414 0.00317426002584 -0.116593711078 -0.127171084285 0.0828758627176 -0.000858940125909 -0.190901234746 0.126009330153 -0.157197371125 0.0
-0.0643458217382 0.0291237067431 0.105445027351 0.114700622857 0.271555304527 0.15731921792 0.158223152161 -0.0544777847826 -0.00169590068981 0.0
-0.0160092543811 0.0420277565718 0.279536187649 -0.0465904213488 0.145697385073 0.0764272511005 -0.0715202093124 0.0530481897295 -0.0985299125314 0.0
0.00936351250857 -0.0520161539316 -0.0305424965918 -0.000609031936619 -0.018189849332 -0.12205773592 0.0997786894441 0.099349886179 0.0551601536572 0.0
0.119792073965 0.0929603874683 -0.0534917898476 0.206203535199 0.0464348830283 -0.107196576893 0.0976273566484 0.272048145533 -0.0716467052698 0.0321288
0.101177498698 0.118912726641 0.155589744449 -0.139701038599 -0.0178071055561 -0.0960488766432 0.133156269789 -0.13098141551 -0.169452890754 0.0
-0.00576939387247 -0.0522711351514 -0.0557569339871 0.048111833632 0.0197966042906 0.12808573246 -0.0995612293482 -0.121155872941 0.0295862648636 0.0
0.196594804525 0.178575456142 -0.0862059444189 0.0502171516418 -0.120976343751 -0.239796027541 0.165508329868 -0.0204383227974 -0.201800867915 0.0
-0.0625021457672 -0.1408226192 -0.173724979162 -0.0981626287103 -0.104691810906 -0.115238584578 0.0628103241324 0.0376122407615 -0.0645487979054 0.0
-0.021871464327 -0.205103099346 -0.186968922615 0.0902067944407 -0.147558301687 0.0391624346375 -0.1540017277 -0.179858058691 -0.0250426921993 0.0
-0.088166795671 -0.0710581541061 0.47764596343 -0.208499103785 -0.104573041201 0.0680628418922 0.227681726217 -0.136855408549 -0.162906140089 0.0
0.259319722652 0.269378840923 0.292657494545 0.053560744971 -0.253476858139 0.0591991357505 0.0483479127288 -0.171548604965 0.0286145117134 0.0
-0.237310469151 -0.130104273558 -0.0894176587462 0.16656562686 0.0286576431245 -0.190835282207 0.387983471155 0.157797321677 0.117008693516 0.0
0.0353501550853 -0.0214249696583 -0.0649223327637 -0.137486293912 -0.031490739435 -0.165036916733 -0.104990817606 0.417179435492 0.0657701119781 0.0
-0.00721756974235 -0.134625643492 0.0893173515797 -0.161868572235 -0.171722874045 -0.091792717576 -0.0608048699796 0.106528051198 0.0308592431247 0.0
-0.219426095486 -0.0724248662591 0.299321711063 -0.227052077651 -0.156258136034 0.0256151910871 0.0563276819885 0.0969446524978 -0.312462836504 0.0
-0.0947521701455 -0.152877807617 -0.0180313661695 0.00588187202811 -0.0805143266916 -0.0219840165228 -0.183184504509 -0.315473973751 0.182163849473 0.0
0.0598370581865 0.0310994479805 -0.075426183641 -0.0115175647661 -0.17080539465 -0.244476661086 -0.0684987604618 -0.0409400239587 0.0602443888783 0.0
0.112838089466 -0.0130031984299 -0.141763523221 -0.181594625115 -0.146002605557 -0.0979518443346 -0.0826268345118 -0.100857891142 -0.13279747963 0.0
0.0785862952471 -0.0419286824763 -0.0437852181494 0.0591853931546 -0.0180376395583 0.0381662137806 -0.107525102794 0.0388675965369 0.0530211143196 0.0
-0.24073573947 -0.219676628709 -0.108698062599 -0.0509666576982 -0.115471117198 0.0364293679595 -0.106167130172 -0.204308629036 0.406356483698 -0.0440863
-0.0378868840635 0.262644678354 -0.0737406089902 0.102376282215 0.139117598534 0.0287437159568 -0.200636535883 -0.276716321707 -0.187339574099 0.0
-0.0384276732802 0.104540027678 -0.0893529579043 -0.00849148724228 0.0437424555421 0.00960757769644 -0.0862677544355 -0.0951431542635 -0.0987978726625 0.0
-0.0624336265028 0.134802564979 0.222216829658 -0.178217306733 -0.357985377312 -0.151271119714 -0.192652434111 -0.0479842536151 -0.232733696699 0.0
0.0214675124735 0.30024549365 0.0702785626054 0.0566013976932 -0.0546212419868 -0.0217815767974 -0.027436889708 -0.120309963822 -0.0490632355213 0.0
0.00110576627776 0.116179890931 -0.103063955903 0.436320304871 -0.0644499212503 0.0811365619302 -0.176476240158 -0.0158916618675 -0.184348285198 0.0
-0.0170501787215 -0.0629080757499 -0.123563960195 -0.150755271316 -0.117564626038 0.407519161701 -0.231569185853 -0.158023819327 -0.3437102139 0.0
0.118162848055 0.161799758673 0.0413246117532 -0.0727224647999 0.0289292000234 -0.0875476971269 -0.00267193745822 0.0346555709839 0.0629500821233 0.0
-0.249880120158 -0.336018115282 -0.236809551716 -0.243084281683 -0.309568285942 0.0366557687521 -0.128052800894 -0.183085560799 -0.186617046595 0.0
0.0832305699587 0.110487952828 -0.113716490567 0.219474807382 -0.0179198030382 -0.0458715744317 -0.109002433717 -0.240083858371 -0.254462808371 0.0
0.163496300578 0.181181624532 0.0728365853429 -0.302133560181 -0.738351881504 0.476575940847 0.0154894031584 0.00461270753294 -0.13035929203 0.0
-0.403352022171 -0.252363175154 -0.0168793741614 0.0142427543178 -0.00880703888834 0.234074980021 -0.0587063096464 -0.0998792052269 -0.225164219737 0.0
0.0626661255956 0.231163531542 0.0639233142138 0.0814076960087 0.214697286487 0.0832719132304 -0.447309762239 -0.103353954852 -0.142192855477 0.0
-0.12582655251 0.0299108698964 0.0747022256255 -0.210158973932 -0.337813556194 -0.175569429994 -0.209389477968 -0.112689673901 -0.146637916565 0.0
0.19901201129 0.110256649554 -0.0385770015419 -0.244014382362 -0.166059523821 -0.163482487202 -0.0892090350389 -0.283084601164 -0.341658115387 0.0
-0.00156796933152 0.106435246766 -0.108556240797 -0.00475774193183 0.103101961315 -0.0423252545297 -0.0110567333177 0.0839826762676 0.0562046505511 0.0
-0.0838570445776 0.0881571546197 0.1223211959 -0.0365718603134 0.1040558815 0.335385739803 -0.447624057531 -0.25882562995 -0.447601914406 -0.12182
-0.163514748216 -0.208490148187 -0.0951887145638 0.104364685714 0.447225987911 -0.043133046478 -0.0104514956474 -0.163068205118 0.0183702819049 0.0
-0.109470389783 -0.103765316308 0.0631631836295 0.0349390283227 0.085780903697 0.0949995368719 -0.113370150328 0.0212663393468 -0.125374495983 0.0
0.0496461726725 -0.250980138779 0.0109126083553 -0.0243084486574 -0.103746518493 0.225034579635 0.0310155916959 0.193570703268 0.0876885354519 0.0
-0.0290216151625 -0.0569082610309 -0.123503237963 0.00768555188552 -0.0261259991676 -0.134127244353 -0.00929177459329 0.00132743548602 0.0278578400612 0.0
-0.182684525847 0.026048136875 0.154947176576 -0.0249313209206 -0.0677092373371 -0.0510447658598 -0.012977627106 -0.00743443705142 -0.185044273734 0.0
-0.00394172174856 0.0135936597362 -0.449784874916 -0.33275565505 0.192364096642 0.145901709795 -0.169974640012 0.123941980302 0.168973848224 0.0
0.146306201816 0.086152933538 -0.111746072769 0.085041359067 -0.0314258076251 0.18881867826 0.0851484239101 0.110483661294 -0.0206099320203 0.0
-0.123550035059 -0.30593919754 0.322512894869 0.00786566361785 -0.121511667967 0.257890403271 0.00176825618837 -0.257633447647 -0.0856982395053 0.0
0.0114411758259 -0.31585213542 -0.224016979337 -0.0103750182316 -0.252124190331 0.111854173243 -0.163251563907 -0.251287996769 -0.0119500644505 0.0
-0.121995516121 -0.111255809665 0.024078771472 0.124908253551 -0.0354963354766 0.00728359026834 0.0162693373859 -0.254383385181 -0.302727788687 0.0
-0.0286681577563 -0.220402151346 0.0549878291786 -0.0388517640531 -0.274472892284 0.0108504509553 -0.309840589762 -0.299310714006 -0.295388996601 0.0
0.0256819743663 -0.000371838512365 -0.00937234051526 0.0889059901237 -0.0566457882524 -0.266542673111 0.190739050508 0.0199724901468 -0.341777026653 0.0
-0.13243354857 -0.0205217245966 0.051925022155 0.0281930547208 -0.155915290117 0.219863533974 0.0719876587391 0.0765115097165 -0.0213234852999 0.0
-0.0555243678391 -0.304984599352 -0.0686022788286 -0.103564016521 -0.288072913885 0.283013254404 -0.107068687677 -0.146327495575 -0.123930759728 0.0
-0.0742356255651 -0.0886629596353 0.0587648414075 0.113339960575 0.105401754379 0.0492238849401 0.0572788752615 0.0578626021743 0.130611374974 0.0
0.0655914694071 0.134351506829 0.185603603721 0.130880281329 0.0239188540727 -0.367392838001 0.19518442452 0.0433398336172 -0.546113669872 0.0144612
-0.277985244989 0.138608038425 0.0784181505442 -0.238979235291 0.257192581892 0.0682169795036 -0.167473599315 -0.243952527642 -0.0264379587024 0.0
-0.0925053358078 -0.0278686359525 0.0858254730701 0.0714294910431 0.163095846772 0.11522013694 -0.0327637195587 0.031491342932 -0.101565063 0.0
0.0428790003061 -0.28205242753 0.142679199576 -0.163999587297 -0.140161409974 0.277098715305 0.0408639907837 0.143213048577 -0.0717038661242 0.0
0.177776604891 0.0739148706198 -0.17265188694 -0.0474559217691 0.289731323719 -0.0633246302605 -0.00348953297362 -0.117032714188 -0.198075056076 0.0
-0.218864321709 0.326261997223 0.135989874601 -0.199446573853 0.0421751737595 0.242072716355 -0.0958415865898 -0.0117274215445 -0.165981173515 0.0
0.0122440196574 -0.298182934523 0.144304081798 -0.156445980072 -0.244973778725 0.0398795716465 0.124289475381 -0.0923617184162 -0.11935660243 0.0
0.0294356159866 -0.165522634983 -0.115287654102 -0.164180040359 -0.131820365787 -0.0933943688869 -0.142151132226 0.0141447084025 -0.0396907664835 0.0
-0.262066036463 0.0233467724174 0.119248941541 0.112345792353 0.25407102704 0.13149432838 -0.0520537309349 -0.109606683254 -0.0358703024685 0.0
0.230673864484 -0.144191130996 0.197747305036 -0.436746537685 -0.104584671557 -0.145318642259 0.0403960682452 -0.0835855528712 -0.183016628027 0.0
-0.27322563529 0.0887736901641 0.00166632770561 -0.0377074480057 -0.043576978147 -0.271891087294 -0.115741603076 -0.48783403635 -0.391404807568 0.0
0.0102209914476 -0.317727088928 -0.347733855247 0.00457933126017 -0.477607429028 -0.12838844955 0.171413451433 -0.0320887602866 0.135910391808 0.0
-0.127569377422 0.431051045656 0.175918057561 -0.0379293896258 -0.114194981754 0.0203440133482 0.202443733811 -0.0127619234845 0.0498316884041 0.0
0.0589196681976 0.0525953881443 -0.2174577564 -0.242674931884 0.393911093473 -0.120617948472 -0.0142983682454 0.34069955349 0.18970644474 0.0
-0.222815990448 0.300928264856 0.431130319834 -0.459099113941 0.208747580647 0.532344818115 -0.212780550122 0.287738770247 0.314452052116 0.0
0.111182555556 -0.016926234588 0.0455198995769 0.0922372639179 0.0924992263317 -0.120175205171 -0.0331900790334 -0.0473784543574 0.0909433215857 0.0
-0.250332862139 0.803862690926 -0.180666863918 0.11435098201 0.137027189136 0.00104752881452 0.21127744019 -0.444788575172 -0.0398462601006 -0.261362
0.065403714776 -0.0665997415781 -0.0774470195174 0.0772355794907 -0.0834641382098 -0.082923412323 0.0408759154379 -0.0622104369104 0.0530896484852 0.0
-0.0873818844557 0.0449261292815 0.0451030954719 -0.119362540543 0.0479414090514 -0.0911463201046 0.0333688743412 0.0345761664212 -0.0414593853056 0.0
-0.187477245927 0.0397322401404 0.0074191535823 0.0856786817312 0.0624512135983 -0.0229443702847 -0.0721816718578 0.0500334240496 -0.0582310929894 0.0
0.102636449039 -0.0443223230541 0.0743237584829 -0.0268599949777 -0.0319011136889 0.035340283066 0.129191190004 0.0642755627632 -0.0311136003584 0.0
0.153591319919 -0.0133962091058 0.0638038292527 0.065435744822 0.047770190984 0.0166831184179 -0.0291280671954 0.0483054928482 0.0250263717026 0.0
0.0791798457503 0.0352132171392 0.0706992894411 -0.103900305927 -0.118974551558 0.126996010542 0.00916112214327 0.131257489324 0.0189801119268 0.0
0.074636362493 0.0091163571924 0.0981989130378 0.0153887132183 0.0248292796314 -0.109608769417 -0.0177239123732 0.0867782384157 -0.0866385400295 0.0
0.00728016206995 0.0184831302613 0.102910555899 -0.0815168768167 0.0153169855475 0.0516772381961 0.0633820816875 -0.127352833748 0.0361303985119 0.0
-0.0432987809181 -0.0798902660608 0.1177020818 -0.192998021841 -0.00333330640569 0.0988830327988 -0.0458060577512 0.0150292767212 0.186380878091 0.0
-0.127556011081 -0.0596891827881 -0.0553999617696 -0.104140855372 -0.0843150615692 0.0122802127153 -0.0528915300965 -0.041733045131 0.00798401609063 0.0
0.0125938532874 -0.0251435544342 -0.019883852452 -0.068432174623 -0.0535944662988 -0.102306969464 -0.175874620676 -0.0326441638172 0.0722967162728 0.0
-0.0219053439796 0.148566946387 0.0656075254083 0.00677035655826 -0.105229414999 0.042948782444 -0.110215269029 0.0816602557898 -0.0515646934509 0.0
-0.0334979556501 0.0682661309838 -0.0824463665485 -0.0727944299579 0.0788798928261 -0.183636710048 -0.108531877398 -0.0129132112488 -0.0541358143091 0.0
-0.052619356662 0.013258561492 0.0519901700318 -0.11680264771 -0.0504929721355 0.0424663797021 0.0690935179591 0.0427492633462 0.0149162560701 0.0
0.029300423339 -0.128382518888 0.0548642277718 0.0864305198193 0.0371407791972 0.0974448546767 0.0599680654705 -0.0644885227084 0.0585426874459 0.0
0.142397105694 0.0359368994832 -0.0480157881975 0.080491617322 0.114859819412 0.0432170107961 -0.129757940769 -0.0213717315346 0.0629535168409 -0.0106755
0.156002923846 0.343114554882 -0.0401015393436 0.192694023252 -0.222788155079 -0.195850685239 -0.0291809141636 -0.2096170187 -0.124873548746 0.0
0.0681249797344 0.101411856711 0.0340434759855 0.0212292168289 -0.142273068428 -0.0900189653039 0.0879489332438 -0.0881697386503 -0.0717270448804 0.0
0.0248155314475 0.228629186749 -0.227016434073 0.0344201438129 0.0755676180124 -0.242389798164 0.118904232979 -0.204618290067 -0.0479374751449 0.0
0.182524204254 0.145406588912 -0.127163007855 0.0471190847456 -0.120303928852 -0.0939177274704 -0.194263145328 -0.0916629880667 -0.00191921531223 0.0
-0.0178197640926 -0.221788823605 0.0344406478107 -0.116106003523 -0.209705501795 -0.146996200085 -0.204998269677 -0.11267247051 -0.0704572051764 0.0
-0.345286637545 0.0367999225855 0.0540607124567 -0.145603716373 0.170402750373 -0.141468316317 0.094527207315 -0.235887154937 0.0691791474819 0.0
-0.108506515622 0.00556191708893 0.0305272359401 -0.176567569375 -0.274017214775 -0.0162244215608 -0.102247007191 0.0148129519075 0.120061568916 0.0
0.232921689749 -0.0183266792446 -0.0977898240089 -0.0373304486275 -0.0482098385692 -0.0702389553189 -0.00963015202433 0.221735805273 -0.0130107719451 0.0
-0.148363173008 -0.195935696363 0.0330435410142 0.158218562603 -0.0376367084682 0.0366575419903 0.228026255965 0.0443615056574 -0.135849907994 0.0
-0.263350397348 -0.0815775021911 -0.047734618187 -0.23544318974 -0.218191772699 0.00294222100638 -0.0877598896623 0.100055024028 0.0442548431456 0.0
-0.0745976939797 0.188516050577 0.00655214395374 0.283573567867 -0.10974791646 -0.250583797693 0.457769006491 -0.246417999268 -0.0801063850522 0.0
0.07950489223 -0.138958618045 0.00512798782438 0.0862704068422 -0.18410128355 -0.00193808297627 0.0030722101219 0.0597649775445 0.19055339694 0.0
0.103730015457 -0.275397896767 -0.107153818011 0.102259784937 -0.138640031219 0.185325264931 -0.125367969275 -0.11239105463 -0.0604171715677 0.0
0.0630104914308 0.0882778018713 -0.0598961673677 -0.0743992850184 -0.0691915675998 -0.212590709329 -0.0636832267046 0.043261423707 -0.068202458322 0.0
-0.106587730348 -0.103493496776 0.0645601078868 0.104547597468 -0.112208329141 0.0111907208338 0.00168240896892 -0.0935140997171 -0.018639087677 0.0
0.00253777159378 -0.238085046411 0.325406819582 -0.0591116845608 -0.0177825149149 0.0444326400757 -0.185834214091 0.343168616295 -0.308938860893 -0.0767488
