convolution,  5 3
0.397835165262 0.0
0.0162553023547 0.0
0.389804750681 0.0
0.589376747608 0.0
-0.00169702200219 0.0
-0.0348278954625 0.0
0.00467245467007 0.0
0.893516719341 0.0
-0.00619536824524 0.0
-0.0206800624728 0.0
0.0593156628311 0.0
0.772180080414 0.0
-0.000293961988064 0.0
-0.248966172338 0.0
-0.00155705818906 0.0
-0.0442999079823 0.0
-0.0130835203454 0.0
-0.00190910231322 0.0
0.0145096667111 0.0
0.485649704933 0.0
0.00462934840471 0.0
0.506954669952 0.0
-0.00121556455269 0.0
-0.0135019235313 0.0
0.00465252157301 0.0
-0.00399452494457 0.0
0.583822786808 0.0
0.0477852039039 0.0
0.000101952849946 0.0
1.05069613457 0.0
-0.00723381992429 0.0
-0.00558900553733 0.0
0.715448319912 0.0
0.000193035637494 0.0
-0.00804484356195 0.0
0.990233421326 0.0
1.57857871056 0.0
0.0141047900543 0.0
-0.00938626565039 0.0
0.376222938299 0.0
0.680233597755 0.0
-0.0133713958785 0.0
0.167621865869 0.0
1.44981980324 0.0
-0.0114303482696 0.0
0.0184389613569 0.0
0.0139448167756 0.0
-0.00496523408219 0.0
-0.00205656676553 0.0
0.650058507919 0.0
-0.0057867532596 0.0
0.0206436198205 0.0
0.761205792427 0.0
-0.00174619338941 0.0
0.310165852308 0.0
-0.0177386607975 0.0
0.111099489033 0.0
-0.157228440046 0.0
0.0198873858899 0.0
0.00635861000046 0.0
-0.00522323697805 0.0
0.000128778352519 0.0
0.0831260830164 0.0
0.322294384241 -0.300475
-0.246267303824 0.0
-0.00837625935674 0.0
-0.164066523314 0.0
0.609428524971 0.0
0.0036289007403 0.0
0.284777671099 0.0
-0.0301234126091 0.0
-0.557751357555 0.0
-0.00961224827915 0.0
-0.00504372734576 0.0
0.508456170559 0.0
-0.461728930473 0.0
0.000954232702497 0.0
2.19337034225 0.0
0.0266689229757 0.0
0.0792494416237 0.0
-0.00368973053992 0.0
-0.0164481531829 0.0
-0.00168642296921 0.0
-0.0980035811663 0.0
-0.00358494766988 0.0
-0.283301025629 0.0
-0.00201383722015 0.0
-0.00300715421326 0.0
0.0064541711472 0.0
0.00656218966469 0.0
-0.349959999323 0.0
-0.0183732416481 0.0
0.0082072308287 0.0
-0.557551145554 0.0
0.00679552182555 0.0
0.0109288021922 0.0
-0.410034954548 0.0
-0.00657739117742 0.0
0.00849806237966 0.0
-0.56908839941 0.0
-0.922769486904 0.0
-0.0410868227482 0.0
0.00926442164928 0.0
-0.208872035146 0.0
-0.357753694057 0.0
0.0314393825829 0.0
0.283000707626 0.0
-0.868371546268 0.0
-0.00832575932145 0.0
-0.0264876503497 0.0
0.238487407565 0.0
-0.00484720338136 0.0
-0.00208698352799 0.0
0.237081229687 0.0
-0.0151784578338 0.0
-0.0224546883255 0.0
-0.355257898569 0.0
-0.0275781452656 0.0
-0.186263546348 0.0
0.00453502312303 0.0
0.467347323895 0.0
1.48629462719 0.0
-0.00856787338853 0.0
-0.0147334542125 0.0
0.0510348193347 0.0
0.00127860868815 0.0
-0.0500913597643 0.0
-0.166953638196 1.1585
