convolution,  5 3
0.0427049025893 0.0926616638899 0.0731799602509 0.0631128624082 -0.132686346769 0.132204189897 -0.0436741523445 0.00968622788787 0.104573428631 0.0
-0.0638632625341 -0.26642742753 -0.260559558868 -0.0706569254398 -0.468095272779 -0.0833322033286 -0.143482655287 -0.288784056902 -0.10248503834 0.0
0.0279450844973 -0.0666755214334 -0.0365254543722 0.0390530005097 -0.097859069705 0.0910359099507 0.12162476033 -0.0300529003143 0.123356036842 0.0
-0.12387803942 -0.172568306327 0.114773899317 -0.177377298474 0.077915340662 0.187061965466 -0.0776047557592 0.235409632325 0.350154399872 0.0
-0.179606363177 -0.337844520807 -0.101108379662 -0.190663680434 -0.323613792658 -0.109101317823 -0.0440263859928 -0.210638090968 -0.141060441732 0.0
0.0378990285099 0.094014197588 -0.0176019072533 0.0685984641314 -0.0401879698038 0.131668671966 -0.00322429719381 -0.081400834024 0.0842542499304 0.0
-0.0958452671766 -0.0366361811757 -0.0556998662651 -0.12229231745 0.000513644714374 -0.0257858857512 0.0784838348627 0.0362838096917 0.127089381218 0.0
0.0502908304334 -0.0514616295695 0.112215660512 0.106805764139 -0.0614369139075 0.0040793037042 -0.00326603208669 -0.0912235602736 0.0987990275025 0.0
-0.27423748374 -0.217070013285 0.0201860126108 -0.170256778598 -0.0848619267344 0.136107519269 -0.0226938631386 0.139072492719 0.118182756007 0.0
-0.295693099499 0.230970606208 0.200410813093 0.0443938337266 0.491821557283 0.342834055424 0.189358323812 0.269156575203 0.0441212169826 0.0
0.172156557441 0.0737755671144 0.0958018600941 0.174265742302 0.08543086797 -0.0909685045481 -0.0232987962663 -0.0524806752801 0.0321232639253 0.0
-0.0596747547388 -0.000326143432176 -0.0355949215591 0.156412184238 0.126219749451 -0.129765123129 0.188208162785 -0.0174069181085 -0.00588683690876 0.0
0.162922099233 0.195993319154 0.10584101826 -0.036288689822 0.161137387156 -0.106812231243 -0.0424709953368 0.12711930275 0.121488802135 0.0
0.201624959707 0.108314335346 0.187091872096 0.293819487095 0.158528730273 0.210550606251 0.373409450054 0.264337807894 -0.0796322673559 0.0
0.183665752411 0.211100131273 0.0633848235011 0.19624362886 0.064522780478 0.0561350472271 0.000711472413968 0.000205540971365 -0.037236623466 0.0
0.114823400974 -0.0132655939087 -0.00602001696825 0.0425935983658 0.0138170188293 0.0497812442482 0.0343301072717 0.0324576571584 0.13950817287 -0.245141
0.10375521332 -0.0847451686859 -0.0745895281434 0.0521533414721 0.00567898713052 0.0754121094942 0.0302033685148 -0.0707502514124 -0.103267006576 0.0
-0.0197362881154 0.0331983827055 -0.0105074997991 -0.128647685051 -0.0547543913126 -0.220782965422 -0.0397455170751 0.160940244794 0.120520241559 0.0
0.0642051771283 0.129743024707 -0.0134008051828 0.127254083753 0.0719736367464 -0.04386100173 0.0174733381718 -0.111436419189 0.0847874507308 0.0
0.154898107052 -0.0105373263359 0.128879621625 -0.0186621658504 -0.0029001631774 -0.0287380851805 -0.175671488047 -0.0280953068286 0.0188826173544 0.0
-0.058876093477 -0.07900865376 0.0342320166528 -0.158943548799 -0.0186335127801 0.00518093956634 -0.0322181843221 0.141284763813 -0.11189699173 0.0
-0.049395903945 -0.0840264186263 0.15150770545 0.0978933498263 -0.210922658443 0.152120798826 0.0860621184111 -0.00667694350705 0.20228689909 0.0
0.000942462647799 0.013484146446 0.110811367631 -0.0526412166655 -0.0739092305303 -0.0448793917894 0.106724239886 -0.00847321096808 -0.0221688579768 0.0
0.142767846584 -0.00479051051661 0.133758559823 0.038878031075 -0.138058558106 0.118326991796 -0.0145354084671 -0.143682658672 0.184692457318 0.0
0.0304512027651 0.16677711904 0.19488953054 -0.0915815234184 -0.136560231447 -0.125674799085 0.178719118237 0.163828507066 0.0494535528123 0.0
0.0497748032212 -0.136673763394 0.0415337421 0.118809312582 -0.130652666092 0.159983724356 -0.0182455796748 -0.21529276669 0.0524558722973 0.0
0.0177989173681 0.0946109816432 -0.0672221034765 -0.156071051955 0.108650125563 -0.164254665375 -0.044204402715 -0.0351616851985 0.0369833707809 0.0
-0.126186013222 -0.127888724208 -0.0229744650424 -0.0939573049545 -0.00758624542505 0.0589854493737 -0.153024449944 0.0832153633237 -0.0315324068069 0.0
0.0139963692054 -0.0224106628448 -0.0182253438979 0.10925874114 0.232868805528 0.164093375206 0.0347087942064 0.136670991778 0.117509394884 0.0
-0.172953590751 -0.0585605315864 -0.179921522737 -0.120681509376 -0.0572607442737 -0.0948492214084 0.0156284272671 -0.0928519070148 -0.0883685946465 0.0
0.0587836280465 -0.118717625737 -0.0901386812329 0.0103332791477 0.093554712832 -0.170486032963 0.105727039278 0.100445941091 0.018409518525 0.0
0.0178243033588 0.0231917407364 -0.110580705106 0.106305629015 -0.114485278726 0.0317541435361 -0.0019738515839 -0.0594940260053 -0.024391502142 0.130896
-0.0844138711691 0.0799275711179 0.0616685077548 0.126428589225 0.0567045882344 0.0181423444301 -0.0573992803693 -0.125118032098 -0.0743315890431 0.0
0.1060308218 -0.0521810948849 -0.0599858276546 0.0436950363219 -0.18289335072 0.0785321444273 0.103947333992 -0.153533264995 0.180730164051 0.0
0.00325201987289 0.0493034608662 0.0669411867857 0.00711033819243 0.0610908716917 -0.0102367661893 0.0656739547849 -0.114607043564 0.130756661296 0.0
-0.236895933747 -0.166924536228 -0.0255206655711 -0.144778385758 0.00911332760006 0.103911273181 -0.0576225928962 -0.0846169888973 0.0602367781103 0.0
0.134151369333 -0.20975831151 -0.0115252658725 0.0116250822321 -0.111913688481 0.0460729785264 -0.072485871613 0.076815739274 0.142308935523 0.0
-0.0581137277186 0.0645895004272 0.0150536959991 -0.0566891916096 -0.0424486212432 0.0747697800398 0.0609411075711 0.194761425257 0.17400611937 0.0
0.0532543249428 -0.055630736053 -0.11276178807 -0.0106888478622 0.0518420934677 0.0586633309722 -0.0752902776003 -0.0524692162871 -0.120338156819 0.0
-0.0271808095276 0.0459612831473 -0.0241959039122 0.0524439290166 0.0942369699478 0.0758474990726 0.160790607333 0.0208958685398 -0.055620893836 0.0
-0.0524865500629 -0.19385638833 -0.111668951809 0.0530102811754 -0.13180077076 0.0243364144117 -0.0566180236638 0.0548747852445 0.143965110183 0.0
-0.105747237802 0.0471127480268 0.0590394325554 0.0362287163734 0.229776918888 0.165648117661 0.153825163841 0.265617340803 0.131213858724 0.0
0.103257641196 -0.101811796427 0.0321223028004 0.103883646429 0.100678853691 -0.0392165593803 -0.129766359925 -0.186858505011 -0.10029553622 0.0
0.0716859698296 -0.086288459599 -0.071323633194 -0.0285959206522 -0.158773317933 -0.0593694821 0.0622022263706 0.106847926974 0.0756747275591 0.0
-0.202633857727 -0.186582624912 -0.11082919687 0.027967941016 -0.0527911148965 -0.197445839643 -0.259278655052 -0.209216043353 -0.0755466371775 0.0
0.083415210247 0.107936277986 0.204561501741 -0.074021525681 0.141385123134 0.0817229598761 0.0772586166859 0.0923951789737 0.101549997926 0.0
0.0847209244967 -0.0766082108021 0.0591316670179 0.118382543325 -0.0840848609805 -0.111106857657 -0.140669330955 0.0162773709744 0.047426559031 0.0
0.079837270081 0.0563937947154 0.0284863244742 0.0166721530259 0.0134887406603 -0.0857120975852 0.0241514127702 -0.00556004140526 0.0236800685525 0.0184653
-0.112809613347 -0.0267197042704 0.108789265156 -0.0852809622884 0.121456839144 -0.00759175000712 -0.0161702819169 -0.0108113456517 0.0948764532804 0.0
-0.0656942129135 -0.0176219046116 0.02913367562 -0.0777076333761 -0.0838637202978 0.0318539738655 0.101546749473 0.0960669592023 -0.0879441872239 0.0
-0.00364911998622 -0.00731282774359 -0.124321550131 0.124652072787 0.0792713910341 0.0277977101505 -0.000847763032652 0.000463000091258 -0.106638938189 0.0
0.0679150223732 -0.0739854648709 -0.0282062012702 -0.0599097907543 -0.0692365542054 -0.0869304090738 -0.0596471056342 -0.0347888953984 -0.137678906322 0.0
-0.0030904749874 -0.0689186602831 0.0107298688963 -0.0186545643955 0.0858533158898 0.0708196908236 -0.018882362172 -0.00475184898823 -0.125940129161 0.0
-0.0694694444537 -0.032964322716 0.052754316479 0.108278013766 -0.0468503423035 0.108401544392 -0.0979022681713 0.105888254941 -0.0261609721929 0.0
0.0977957397699 0.0393927879632 0.0508364140987 -0.108309745789 -0.117850229144 -0.05815821141 -0.0967127978802 0.100022234023 -0.076314933598 0.0
0.112750999629 -0.123379133642 0.0302235018462 0.103414461017 -0.117190018296 -0.12006341666 -0.140391677618 -0.1406596452 0.084178365767 0.0
-0.14459374547 -0.125656545162 0.0683785974979 -0.0931748896837 0.102669686079 0.101314738393 0.085975125432 0.0728678330779 -0.101627089083 0.0
-0.161669209599 -0.0865880697966 -0.0984488427639 0.0672222524881 0.0822724625468 -0.0106946853921 0.0400616265833 0.0557568185031 -0.0308615434915 0.0
0.0489576272666 -0.125283122063 0.0492053441703 -0.0125733688474 -0.0435572601855 0.0465909391642 -0.029988700524 -0.0930762588978 -0.0834419578314 0.0
-0.0260401964188 0.124553211033 0.121645465493 0.104046925902 0.168906345963 0.0867408439517 0.112306781113 0.130990728736 -0.025441840291 0.0
0.16182230413 0.086876899004 0.077261030674 -0.0821889936924 -0.00112140597776 -0.0179730001837 -0.032777030021 -0.138566672802 -0.120809353888 0.0
0.0195007175207 -0.151733085513 0.0964722633362 -0.0491508543491 0.113349691033 -0.0869578123093 0.264638274908 0.226361244917 0.196300253272 0.0
0.0923802107573 -0.103915140033 -0.0274108741432 0.0271917376667 0.0350127853453 -0.0360052511096 -0.0704334378242 -0.0411085151136 -0.00517920684069 0.0
-0.0646509006619 0.0387458950281 0.0893758833408 0.128005370498 0.0299987308681 -0.0352549925447 0.0929373949766 0.0108121372759 -0.0832592025399 0.0259318
-0.0969191864133 0.122276321054 0.037071492523 0.00742347305641 -0.0764683559537 -0.0550684183836 -0.0675139799714 -0.149639829993 -0.11892452091 0.0
0.291648298502 -0.139847695827 -0.477366238832 0.171127319336 0.0244866367429 -0.292071074247 0.0624394640326 -0.0422468930483 -0.0264757629484 0.0
-0.123416513205 0.0583423934877 0.0803102180362 -0.0217527132481 0.0881291180849 0.10506952554 -0.0638784095645 -0.0649983361363 -0.13194347918 0.0
-0.0911977365613 -0.0640194937587 -0.134289368987 -0.226411044598 -0.122000277042 -0.131087630987 -0.115131691098 -0.105114683509 0.0435397811234 0.0
0.180918559432 -0.0547148287296 -0.116638250649 -0.0318006314337 -0.120500035584 -0.16010761261 -0.00163031183183 0.157858192921 -0.038727145642 0.0
-0.15829052031 -0.0503634959459 -0.0964986011386 -0.19337643683 -0.20713584125 0.0623187087476 -0.0480243265629 0.0937243700027 0.111126735806 0.0
-0.00605385703966 -0.0335515402257 0.116277247667 -0.0328738875687 0.0780961364508 -0.0877587348223 -0.0455454476178 -0.114651829004 -0.109438344836 0.0
-0.0855557844043 -0.119197547436 -0.147682338953 -0.104947991669 -0.113306373358 -0.115217603743 -0.00406997138634 -0.109581008554 -0.0460465326905 0.0
-0.0847624391317 -0.267281860113 -0.111602701247 -0.0243601836264 -0.15556922555 -0.281256258488 0.145069748163 -0.121600486338 0.0380541570485 0.0
-0.256415039301 -0.139081448317 0.112438715994 -0.318386971951 0.0434839464724 0.0180201437324 -0.0239335745573 0.14907155931 0.046953279525 0.0
0.114607356489 0.0796070173383 0.0292966477573 0.00403968757018 0.102678261697 -0.172618508339 -0.0866267457604 0.114390350878 0.0878654494882 0.0
0.0555367916822 0.146473139524 0.0772989392281 0.0281253680587 0.0525504015386 -0.1036009565 0.0958102345467 0.198643922806 -0.0557443089783 0.0
0.297483861446 0.254410207272 0.202475503087 0.119488082826 0.183062940836 0.137303188443 0.0538025051355 -0.106773987412 -0.0266370996833 0.0
0.182130619884 0.226893082261 0.179609149694 0.128032237291 0.208381548524 0.158811330795 0.0706024765968 0.152041241527 0.0495544038713 0.0
0.00235352595337 0.0467261634767 -0.0893158763647 0.186368688941 0.164306417108 -0.02336345613 0.301008999348 0.32316082716 0.178885102272 0.0
0.181959137321 0.236869797111 0.187211215496 -0.016364634037 0.147102877498 -0.0696067661047 -0.0223584566265 0.163076594472 0.192247405648 -0.0371108
-0.0862447097898 -0.0138464337215 -0.0214306674898 -0.0204407144338 -0.0223342627287 -0.0579747147858 0.0963806584477 0.0558547414839 -0.0989205464721 0.0
-0.0134994788095 -0.104864224792 0.119655691087 -0.153887346387 -0.269362956285 0.0552934296429 -0.135794579983 -0.162021577358 0.0736481100321 0.0
-0.0341714024544 0.019773947075 0.119308426976 -0.124100863934 -0.0560891292989 0.118731357157 -0.0578722655773 -0.130333274603 -0.102466873825 0.0
0.45213970542 0.379896253347 0.162521839142 0.0883536487818 0.178494468331 0.0857267081738 -0.164905011654 -0.280920743942 -0.259661018848 0.0
-0.23108316958 -0.237006604671 -0.0108196483925 -0.0151872355491 -0.165738940239 -0.00654501281679 0.0355995595455 0.0141189387068 0.0498525351286 0.0
-0.0377963744104 -0.0732351541519 0.0896603316069 0.121594913304 -0.204005613923 0.0597194992006 0.186450466514 -0.175819158554 -0.072176553309 0.0
-0.0244516432285 0.0100428909063 -0.0477833077312 -0.130838930607 -0.0746592879295 0.0525042973459 -0.0147847617045 -0.123809479177 0.0688106566668 0.0
0.157722711563 -0.0895570218563 0.177048534155 -0.0284070260823 -0.161868199706 0.150878921151 -0.0740567669272 -0.126299723983 -0.195161297917 0.0
0.0459166318178 0.362790375948 0.264836460352 -0.318636596203 -0.188924089074 -0.217354848981 -0.116179868579 -6.53467141092e-05 -0.0435174368322 0.0
0.342937469482 -0.134837880731 -0.151068300009 0.055097207427 -0.0658326670527 -0.21326559782 -0.00564367743209 0.00234566628933 -0.0796875730157 0.0
0.00797308050096 0.111879706383 0.0180339012295 0.0398127995431 0.0863137692213 0.138588815928 -0.0614143721759 0.247279047966 0.070698864758 0.0
0.0121200941503 -0.134235665202 0.129666104913 -0.0217441599816 0.000856060942169 0.180781528354 0.0221140906215 -0.0309681259096 -0.00740527035668 0.0
0.185107961297 0.399193108082 0.349381953478 0.25474396348 0.107399322093 0.122481822968 0.12283269316 0.0971288532019 -0.0407295785844 0.0
0.129883915186 0.121074706316 -0.115477360785 0.0704149454832 -0.0234823208302 -0.141911774874 0.338117748499 0.339035362005 0.113082177937 0.0
-0.0321524776518 -0.0640465393662 -0.0445515327156 0.123859904706 -0.0117381736636 0.135469719768 -0.0757567733526 -0.0129155842587 0.228648498654 0.0
-0.0751451253891 -0.0611334256828 0.0861127749085 -0.0883426517248 0.0827515497804 0.000234608291066 0.0594277605414 0.0526106208563 0.11367328465 -0.520169
-0.11255980283 0.0856765434146 -0.0138185685501 -0.130294084549 0.0410802178085 0.110164120793 0.0340883769095 -0.0789387971163 0.0163015257567 0.0
0.14706030488 -0.0707379877567 -0.403109073639 -0.0995683893561 0.151263490319 -0.00357591849752 -0.350226849318 0.162647262216 0.372775346041 0.0
0.040109667927 -0.134925484657 0.124070495367 0.0680449530482 0.0173233188689 -0.0590087249875 -0.0199010968208 -0.0790533423424 0.123088285327 0.0
-0.222400292754 -0.321688205004 -0.011901281774 -0.1212483868 -0.20542037487 -0.241310879588 0.105848185718 0.0434815473855 -0.213578924537 0.0
0.274323523045 -0.0844938233495 -0.206035539508 -0.015823032707 0.268188714981 0.197049513459 -0.288086652756 0.14129409194 0.0767526850104 0.0
-0.0533323027194 0.0325711555779 -0.186284527183 0.0600686371326 0.126948565245 -0.0514690391719 0.0226393118501 0.0451230965555 0.0949073135853 0.0
-0.112788960338 0.109354168177 0.0580059923232 0.0596172548831 0.0940927416086 0.00726501829922 0.106410332024 0.103183090687 -0.0504499301314 0.0
0.0145219517872 -0.055767070502 -0.0382390581071 -0.0616918317974 -0.0621873512864 -0.147339567542 0.108279697597 0.149776771665 -0.110416971147 0.0
-0.152401775122 -0.247851595283 -0.278544664383 -0.0941644832492 -0.170607581735 -0.163176938891 -0.0469718724489 0.119635760784 0.000989465857856 0.0
-0.152031481266 -0.121329426765 0.102310098708 -0.127059862018 0.0767123252153 0.165284454823 0.031599085778 0.0211816485971 -0.280599862337 0.0
0.229979813099 0.112492099404 -0.117891490459 0.144137084484 0.223054111004 0.149982213974 -0.135739788413 0.144090667367 0.300737500191 0.0
0.0309913661331 0.0519251339138 0.104120366275 0.21796707809 0.222051352262 0.0990895703435 -0.00659339828417 -0.133037507534 -0.132658198476 0.0
-0.0772232189775 -0.0869764089584 0.118808917701 -0.0651149079204 0.0451425947249 -0.162525936961 -0.246101662517 -0.163641929626 -0.0530705973506 0.0
0.140719220042 0.26709228754 0.0337142534554 0.0693395733833 0.28478294611 0.325025171041 0.15913130343 0.224203720689 0.181115537882 0.0
0.254147976637 0.244694888592 0.0229665134102 0.379179447889 0.290895998478 0.0891483202577 0.121021404862 0.234898000956 0.190567344427 0.0
0.164258822799 0.234844088554 0.0314580500126 0.079303778708 0.242066651583 0.138752400875 0.00231021619402 0.0558402650058 -0.041187826544 0.0643762
0.0495320297778 -0.135876893997 0.0952346846461 -0.0266135670245 -0.0022537370678 -0.0631125122309 0.097660459578 -0.112966686487 0.0377479307353 0.0
-0.0516774840653 -0.194647654891 0.0893338471651 -0.0381118431687 0.026644192636 0.0815774351358 0.26068687439 -0.106199495494 -0.0915691256523 0.0
-0.025337247178 0.0306154955178 0.106138162315 0.0269140545279 0.0195702090859 0.00425156531855 -0.0808039084077 -0.0179612524807 -0.0497025772929 0.0
-0.0362139567733 0.00117159995716 0.183583572507 -0.079481035471 -0.00905257370323 -0.0067236032337 -0.282374858856 -0.0964340344071 -0.115098640323 0.0
0.0410952121019 -0.230912655592 -0.118808925152 0.210557594895 0.00672844517976 0.0356081016362 0.0386183299124 -0.0602218471467 0.00720947794616 0.0
-0.0774062946439 0.0969062447548 0.0771682560444 0.0597691312432 0.090103469789 0.0732178390026 0.0572710223496 0.0488088391721 -0.150226727128 0.0
-0.00577501393855 -0.09392157197 0.108227401972 0.0849805921316 0.115300960839 0.00732672028244 -0.114117145538 0.0725064203143 0.0573681592941 0.0
-0.106791816652 0.0228466074914 -0.0535265170038 0.0788230150938 -0.0545586757362 0.0328164845705 -0.0198166575283 -0.112276673317 -0.170779809356 0.0
-0.206881597638 -0.0707894191146 0.0342253409326 -0.113719031215 -0.28569367528 -0.200653895736 -0.184469357133 -0.114243686199 -0.11819576472 0.0
0.0648790672421 0.165196686983 0.0174514073879 0.235732123256 0.344417333603 0.151895642281 -0.151290327311 0.177978157997 -0.0698244944215 0.0
-0.0242793895304 0.0379891581833 0.00169562967494 0.123291403055 -0.196183994412 -0.0712824091315 0.193426474929 0.0535187758505 0.137074097991 0.0
-0.0662001296878 0.0855355337262 0.0419606380165 -0.00453406618908 -0.109337702394 -0.129726231098 -0.158751815557 -0.0663954615593 -0.029529877007 0.0
0.0168633218855 0.168737202883 0.161530837417 -0.0301040895283 -0.1106313169 0.0890416130424 -0.188226878643 -0.205428168178 -0.156709551811 0.0
0.00435688113794 0.0548634976149 -0.116520777345 -0.104755230248 -0.0739717110991 -0.109774358571 -0.0220850463957 0.0831314325333 0.00267259310931 0.0
-0.101774662733 0.0359996445477 -0.0913825407624 -0.0515646152198 -0.147357195616 -0.000967174943071 -0.0691092312336 -0.194882273674 -0.177122414112 0.0
-0.0914005637169 0.0825558528304 0.0323085002601 -0.134934574366 -0.181875124574 0.0194507744163 -0.123043760657 0.00495647825301 0.0298991817981 0.550575
-0.0901847034693 -0.138531431556 0.130714118481 -0.0237493682653 0.0933292210102 0.0128698544577 0.0562611594796 -0.0359927602112 0.111251018941 0.0
0.171191856265 0.266745448112 0.0649710074067 0.0368053764105 -0.0721817612648 0.0662146881223 0.169299170375 -0.273530900478 -0.260107219219 0.0
0.0425990894437 0.0712463259697 -0.0153715675697 0.0158640109003 0.0660769194365 0.136528268456 -0.0256963819265 -0.0927610248327 0.099576279521 0.0
0.185737073421 0.170466065407 -0.100246556103 0.0777261555195 0.192178279161 0.0673475936055 0.0476457513869 -0.0647229403257 -0.154820844531 0.0
0.133586928248 0.167049884796 0.110036715865 0.0714200213552 -0.108516730368 0.015269998461 -0.185393631458 -0.0601822175086 -0.119744054973 0.0
0.0363658741117 0.156557634473 0.0986289978027 0.166354969144 0.0134481731802 -0.00433782720938 0.0580684170127 -0.0760478079319 -0.124510675669 0.0
0.120330534875 0.102133013308 -0.0467597395182 0.131674617529 -0.104040704668 -0.100243926048 0.133016809821 0.0785281732678 -0.0812588483095 0.0
0.0536451824009 0.141948893666 -0.0884508788586 -0.048690404743 0.0137777077034 0.027098653838 0.0255867913365 0.0916933938861 0.00835976470262 0.0
0.272053152323 0.131254792213 -0.0352268666029 0.0677145496011 0.168757945299 -0.109974771738 -0.0801129937172 -0.163100719452 -0.242281585932 0.0
0.102018125355 -0.0434893555939 -0.151347622275 0.0736267194152 -0.0718078538775 -0.010026386939 -0.229425787926 -0.0928718373179 -0.192967668176 0.0
0.0665444731712 0.0099341114983 0.138589918613 -0.0558766797185 0.0414944626391 0.0526709072292 -0.0189442802221 -0.108810156584 -0.0991001427174 0.0
-0.00386407342739 0.0527410395443 0.109702937305 0.0215498339385 0.0225545428693 0.0611693486571 -0.120121844113 0.0184508729726 -0.0661080852151 0.0
-0.0518534108996 -0.00650072051212 -0.035891585052 -0.0949172005057 -0.0952758193016 -0.11982396245 0.0667261704803 -0.136060371995 -0.18168528378 0.0
-0.034195959568 -0.134580686688 -0.00881514977664 0.103504195809 -0.135219588876 -0.00764525029808 -0.0186540298164 0.045431047678 -0.0923629328609 0.0
-0.0892080068588 0.011659947224 0.0400095097721 -0.126478135586 -0.0592555776238 -0.0881590545177 -0.164496675134 -0.0933723971248 0.0650014430285 0.0
-0.115955851972 -0.103885918856 0.105756208301 0.112665452063 0.00520435534418 0.0690248832107 -0.0281711984426 -0.0955794900656 -0.069600880146 -0.082981
-0.137361988425 -0.0170752052218 -0.044629573822 -0.0310568735003 -0.0812403932214 0.0781487897038 0.103184849024 0.127670839429 0.126312151551 0.0
-0.177535057068 0.207852691412 0.300318986177 -0.212930783629 0.0885672420263 0.41871497035 -0.414512038231 -0.153951719403 0.316922277212 0.0
0.0382190868258 -0.0406234413385 0.0386106669903 -0.0905600711703 -0.0496376901865 -0.0160908326507 0.0931289941072 0.0141840651631 -0.134110793471 0.0
-0.146843865514 -0.225476890802 -0.0983277335763 0.00321796466596 -0.0638243630528 -0.00790555309504 -0.183573827147 0.0743802785873 -0.0538919121027 0.0
-0.205782815814 0.157495394349 0.245167165995 -0.144691035151 0.00851123128086 0.115616947412 -0.159826889634 -0.122734338045 0.17961537838 0.0
-0.145182535052 0.00595133425668 -0.121182344854 0.0631784647703 -0.148487851024 -0.103614613414 -0.115459881723 0.0751678869128 -0.200316801667 0.0
-0.0118247484788 -0.0065977354534 0.12014336139 0.080154761672 -0.137133821845 0.126828566194 -0.0526466481388 0.0260793995112 0.00249044178054 0.0
-0.0913604274392 0.0708127468824 -0.0688260495663 -0.0198873057961 0.0783726423979 0.00737358257174 -0.0213666614145 -0.00684239948168 -0.154376193881 0.0
-0.299902975559 -0.0630572363734 -0.285324782133 -0.00804272480309 -0.101450033486 -0.081983089447 -0.212628751993 0.0487274490297 0.0807668492198 0.0
-0.0020382667426 -0.279138326645 -0.0954404473305 -0.0514724329114 -0.248594641685 -0.0236224401742 -0.0340778715909 -0.00180072581861 -0.272084861994 0.0
0.0640603750944 -0.0559512898326 -0.0532090701163 -0.0667641982436 -0.0780195817351 0.0815860107541 0.0303090568632 0.0787075906992 0.0960299000144 0.0
-0.143283471465 -0.0961355045438 0.0366568528116 0.0368595644832 -0.0619329549372 -0.0689647272229 0.089453317225 -0.169532909989 0.0111944582313 0.0
0.0544009804726 0.0745200440288 0.0470832400024 0.0757960677147 0.226896822453 0.240557029843 -0.0764233991504 0.128451094031 0.015054859221 0.0
-0.159530952573 -0.204024299979 -0.134336024523 0.0205080267042 -0.137791097164 0.0620326250792 -0.220005169511 -0.0350863151252 0.124990768731 0.0
-0.0596306696534 0.00100200739689 0.0950003787875 -0.00472134631127 0.106266006827 -0.0189297534525 -0.0862537324429 0.0370284616947 0.00599477114156 0.0
-0.169575914741 0.0648483932018 0.0495104975998 -0.0675103142858 -0.0666496306658 -0.0109515544027 0.0187210701406 0.060693949461 -0.00825178809464 0.4682
0.0130859864876 -0.110115945339 0.0296674910933 -0.0433621481061 -0.0811849683523 0.153478339314 -0.126045167446 0.0495106615126 0.0179562587291 0.0
-0.0508176647127 -0.0407347008586 0.221274554729 -0.177141100168 0.0843171924353 0.229176789522 -0.0625235363841 -0.0630450248718 0.0287457909435 0.0
0.0868687182665 0.0592960976064 -0.0742134600878 -0.0404992215335 0.119047425687 -0.0358210876584 -0.0947638526559 -0.0992064401507 0.0794012695551 0.0
-0.0563364028931 -0.0414823926985 -0.0977232381701 0.0656270980835 0.262688428164 0.051358692348 -0.185269117355 0.12652246654 0.0396367162466 0.0
-0.105484612286 -0.0341556221247 0.000818825850729 -0.0821444168687 0.0963643267751 -0.0167291592807 -0.0475322492421 -0.134367883205 -0.0158179346472 0.0
-0.047654055059 0.046814840287 0.179368928075 0.0701254308224 -0.0881896838546 -0.0731012895703 -0.258667886257 -0.130305558443 -0.14280231297 0.0
0.0953647568822 0.125777691603 -0.0197459515184 -0.0206933151931 0.0745500326157 0.0967445001006 0.0967421382666 -0.117446318269 0.0103167053312 0.0
0.0140218343586 -0.0229220278561 0.0322401709855 0.133386299014 0.168331727386 0.0725189000368 -0.133239939809 -0.154613390565 0.0958646088839 0.0
-0.107640832663 0.236124455929 0.0139805842191 0.148314982653 0.338101804256 0.198522105813 -0.160691291094 -0.162208050489 -0.125221639872 0.0
-0.0183040257543 0.196855485439 -0.0331801064312 -0.00624229153618 -0.0318251922727 -0.1037998721 -0.167313486338 -0.0779711306095 -0.166542187333 0.0
-0.0997872427106 0.0507430545986 -0.0124079668894 0.132091626525 -0.014796054922 0.0599564053118 -0.0249402225018 -0.0971680358052 0.0299638863653 0.0
-0.0515185110271 0.0899956077337 -0.0116581106558 -0.0855286046863 0.130085960031 -0.0590119436383 0.0524907894433 0.0874355062842 -0.0251451060176 0.0
0.111011132598 -0.0142481783405 0.111782602966 0.1058967188 0.142136186361 0.0974624082446 0.0965996459126 0.174619615078 0.157110795379 0.0
0.170449212193 0.11214672029 -0.0842689946294 -0.0668483451009 0.0626932457089 0.013953528367 0.00444569298998 -0.0801098197699 -0.0140786971897 0.0
0.000626544118859 -0.00535093806684 0.00449968036264 -0.0996797755361 0.127518251538 -0.00627452787012 0.101203523576 0.120806112885 -0.0449541248381 0.0
0.0115037718788 0.0480949990451 -0.0693825632334 -0.102971933782 0.0309476908296 -0.0870038345456 -0.0216359999031 0.0338581055403 0.0754892081022 -0.111937
-0.0394872613251 0.0792881846428 0.166932955384 -0.0990862324834 0.099439509213 0.0309742297977 0.147600889206 0.0940472260118 -0.061521820724 0.0
-0.23080869019 0.549042522907 -0.00559012265876 -0.178102746606 0.585327029228 0.0536989495158 -0.140519484878 0.346460461617 0.0157906599343 0.0
-0.0279523897916 0.0533045232296 -0.0150002846494 -0.107070401311 0.0856193900108 -0.0382510349154 0.00503445183858 -0.0629569739103 -0.110042490065 0.0
0.175128594041 -0.0885303989053 0.000326915032929 0.139395877719 -0.145331189036 -0.269116222858 -0.0998906940222 0.0278250388801 -0.246542975307 0.0
-0.0191913321614 0.407714694738 0.0591161176562 0.0839075148106 0.156535342336 0.10455121845 -0.112366698682 0.209215983748 -0.201033622026 0.0
0.171045154333 0.137902572751 -0.0941856727004 0.1524104774 -0.00763299502432 -0.229889661074 -0.0774641111493 -0.158328860998 -0.263809800148 0.0
-0.114529542625 -0.130060315132 -0.114835463464 0.0460823252797 -0.107713744044 -0.01342447754 -0.0718511268497 -0.116479970515 0.00957686826587 0.0
0.089013800025 0.0581063553691 -0.0391883291304 0.00525711663067 0.0693123117089 -0.0948857590556 0.0494088716805 0.0874696299434 -0.0588424019516 0.0
-0.0136045999825 0.122365824878 -0.0900278538465 0.310000389814 0.171631321311 -0.263481557369 0.155574008822 -0.0644807890058 -0.34452778101 0.0
0.136292427778 -0.162457436323 -0.0835463926196 -0.105266697705 -0.368130713701 -0.2121989429 -0.059211730957 -0.393493741751 -0.185450822115 0.0
-0.170305728912 0.13487188518 -0.106790825725 0.0376737117767 0.017753040418 0.054766792804 -0.144343778491 0.0299961045384 -0.0703034326434 0.0
0.0296784080565 0.0523536838591 -0.123138658702 -0.111031249166 -0.0524045713246 0.0221564117819 -0.00718288123608 0.0569751858711 -0.101908899844 0.0
-0.00579314585775 -0.0425132550299 -0.171450674534 0.02085551247 -0.0608828850091 0.00863103382289 0.0709234848619 -0.121372558177 0.0355756618083 0.0
-0.0400478355587 -0.129980966449 -0.0248442105949 -0.038079123944 -0.163611412048 -0.0216728653759 -0.0171260163188 -0.0123116951436 -0.0617376342416 0.0
0.0824096947908 0.139709636569 0.101277604699 -0.0838185921311 -0.00516396248713 -0.0444858111441 -0.0208761133254 0.110901191831 -0.212252601981 0.0
-0.0672196820378 0.0745005011559 -0.128239244223 -0.0900491178036 -0.0794349834323 -0.0606669895351 0.0986949875951 0.0697707384825 -0.047872453928 -0.609253
0.124284863472 -0.023375434801 -0.124542362988 -0.0794247761369 0.0610727705061 -0.124352350831 -0.0633792206645 -0.117486648262 0.0667431056499 0.0
-0.136078193784 -0.0044153300114 0.0722590982914 -0.0424418076873 -0.0940841734409 -0.201536029577 0.0902908295393 0.0562540516257 -0.157495707273 0.0
0.00665390351787 0.0891106724739 0.0577925220132 -0.0813324153423 -0.0422398932278 -0.0324698798358 -0.0524135604501 0.107194691896 -0.119581088424 0.0
0.0974257215858 0.173820286989 0.400187194347 -0.0135855916888 0.0385248661041 0.150413677096 -0.0116439694539 0.107450529933 0.198075592518 0.0
0.0242747943848 -0.093725733459 -0.0565085634589 -0.0260797590017 0.072219632566 -0.00521580222994 0.00602848827839 -0.123037233949 -0.217319652438 0.0
0.025271454826 0.133319601417 -0.0193480886519 -0.00313741946593 -0.146372437477 0.228800341487 -0.279485613108 0.1443451792 0.289298057556 0.0
-0.0644641667604 -0.0514014549553 0.11587729305 0.12436388433 -0.133007630706 0.0800385847688 0.113078154624 -0.0513724535704 0.120412670076 0.0
0.00944862887263 0.127271413803 0.178660348058 -0.133999198675 0.106284253299 5.88937609791e-06 -0.11933683604 0.0494554750621 0.191367298365 0.0
0.0439271777868 0.155762180686 0.222189337015 0.0182154253125 0.0541270002723 -0.00603718403727 0.0487796962261 0.0706889182329 0.203372120857 0.0
-0.095713108778 0.0152263287455 0.171539843082 -0.304764121771 0.107172392309 0.0991266146302 -0.278599977493 0.0884961858392 0.478137075901 0.0
-0.0100527154282 -0.194967374206 -0.212466582656 -0.00450803665444 0.0715077295899 -0.0320035070181 -0.130661189556 -0.0165691804141 -0.103369519114 0.0
0.0636122599244 0.0266174711287 -0.0388714782894 -0.00783387292176 0.0978728458285 -0.0342527516186 0.0698697343469 0.0125574609265 -0.117516033351 0.0
-0.128250420094 -0.24504840374 -0.171170562506 -0.141872227192 -0.171024620533 -0.226712703705 0.113078989089 -0.0451491959393 -0.114513546228 0.0
-0.139002904296 -0.131975695491 -0.0588874109089 -0.168400868773 -0.198369070888 -0.0425860881805 -0.184852004051 -0.12921115756 0.210383743048 0.0
-0.0308033674955 -0.172179728746 0.00645991461352 -0.129375457764 0.0821176841855 -0.111327707767 -0.0630352199078 0.0908143520355 0.12821213901 0.0
-0.131326407194 0.0320627093315 0.0312919467688 -0.0862622261047 -0.155598863959 -0.0539398901165 -0.144101038575 0.0258545633405 0.124523237348 -0.580173
-0.0216332897544 0.00329048698768 -0.0494687221944 -0.0964975133538 0.0953611731529 0.122818097472 0.129384115338 -0.094247430563 -0.0560033731163 0.0
-0.12327567488 -0.138264492154 -0.0457069985569 -0.0534576438367 0.0172345023602 -0.0316319018602 0.085077598691 -0.136586338282 0.0596524439752 0.0
-0.0125407539308 0.0716340616345 0.0752513036132 -0.128597557545 0.120141543448 0.0904256999493 0.102325901389 -0.0926386117935 0.127018362284 0.0
0.0266889501363 0.120500572026 -0.112722210586 0.0412686131895 -0.0883363559842 -0.0145491557196 -0.0621512420475 0.00456503918394 -0.10610935837 0.0
0.0127392709255 0.0186300072819 0.132007911801 -0.106921054423 0.0147633776069 0.0225487872958 -0.111693516374 -0.133648112416 -0.0102036865428 0.0
-0.00474275927991 0.00159638258629 0.0091837067157 0.107122585177 0.0396160855889 -0.103475369513 0.0540793165565 0.090788424015 0.10266135633 0.0
-0.00220975908451 -0.12799552083 0.100419819355 -0.0495511554182 -0.128135368228 -0.0882604122162 0.0207190141082 -0.0243498012424 0.0838366448879 0.0
0.0416519157588 -0.0648718997836 -0.109693042934 0.110451593995 0.0214405972511 -0.103787079453 0.0187271498144 0.13510492444 0.133182108402 0.0
-0.0855241641402 -0.134309753776 -0.10020198673 -0.0199732985348 -0.0787305608392 0.0939015746117 -0.0596572719514 -0.113648198545 -0.119021259248 0.0
-0.0449122190475 -0.0676048472524 0.00917408894747 -0.0805875882506 0.00927879847586 -0.1112286672 0.0182035695761 0.00969366729259 0.0186455119401 0.0
-0.102514415979 -0.0277730990201 0.144668161869 -0.0220830589533 0.103210628033 -0.102837078273 -0.088501483202 0.108958244324 -0.075581163168 0.0
0.0638747960329 0.0649462118745 0.0954395011067 -0.136699691415 0.066121853888 -0.107130341232 0.0756557509303 -0.0781927257776 -0.0736405849457 0.0
0.0144743081182 -0.0984179601073 -0.11984424293 0.0824163407087 -0.0841696709394 -0.0547369346023 0.0843447446823 0.0892204642296 0.0205321479589 0.0
0.0968796312809 0.0145135838538 0.125253066421 0.0888028144836 -0.0192821826786 -0.114101603627 0.0574090629816 0.0157470144331 0.0287275910378 0.0
-0.044516582042 0.0451890639961 0.0627891495824 -0.0306301899254 0.0832677781582 -0.125762984157 -0.0384687818587 0.0411368384957 -0.00352080236189 0.0
0.0693461224437 0.0787568762898 0.0828880295157 0.104364655912 0.00418418925256 0.0809797570109 0.0873327106237 0.0548756048083 0.0130124920979 0.0243551
0.0361196398735 -0.0377981923521 0.0799496695399 0.0367155484855 -0.0928363576531 0.0909857004881 0.0649708434939 0.0939549803734 0.140208870173 0.0
-0.0850334912539 0.109843470156 0.128985226154 -0.226978287101 -0.0915932953358 0.0778718218207 -0.0513318479061 -0.153107702732 -0.192591115832 0.0
0.0551897287369 -0.0965800285339 0.0263949688524 0.0843108668923 -0.129402309656 -0.0669584423304 0.0647352263331 -0.130251899362 -0.0986332520843 0.0
0.0769229233265 0.153430193663 -0.0396882891655 -0.0693033784628 0.0426029227674 0.02238804847 -0.146815508604 -0.101757459342 0.0768768340349 0.0
-0.0374153442681 0.0978651344776 0.00601632706821 -0.132808312774 -0.144699141383 0.083573333919 -0.144896119833 -0.129206746817 -0.0858429968357 0.0
0.13930375874 0.0879887193441 0.0268631968647 -0.104333460331 -0.140726640821 -0.20125824213 -0.14022539556 -0.106308817863 -0.214386731386 0.0
0.0993587970734 -0.0161167196929 -0.0260291323066 -0.0166492965072 -0.0811769738793 -0.0426576063037 -0.0663844794035 -0.00359010347165 -0.0473746284842 0.0
-0.0582776218653 0.0751689150929 0.0552187822759 0.0123634636402 -0.0736236348748 -0.139291957021 0.0779957100749 0.10267239809 -0.114716857672 0.0
0.0847751796246 0.027298130095 0.242998793721 -0.0519131757319 0.0279132314026 0.139422848821 0.00418485188857 -0.121512286365 -0.200561732054 0.0
0.0106637245044 0.00635379133746 0.133758485317 -0.0602922514081 -0.00317968195304 -0.0902425944805 -0.141426354647 -0.0706177651882 -0.208641782403 0.0
0.032482214272 -0.0451589748263 -0.0475792475045 0.108289398253 0.0992483571172 0.0966683328152 -0.0141886398196 -0.11144271493 -0.0998528823256 0.0
-0.00342390569858 -0.0846637189388 0.101107515395 0.0799248367548 0.0448043346405 -0.115218497813 0.102044187486 0.0897079929709 0.0667959451675 0.0
0.0574444793165 0.0757267475128 0.191086471081 0.0553813762963 0.369447290897 0.159450829029 -0.0946499630809 -0.0729011073709 0.0623746551573 0.0
0.0076718670316 0.169334590435 0.0912070572376 -0.0344941914082 0.0240464173257 -0.015184706077 -0.0820501670241 0.117986485362 0.0891470685601 0.0
-0.0463028661907 -0.127548888326 -0.111829921603 0.039256349206 -0.126570984721 -0.00329131889157 -0.12381464988 0.0607216507196 -0.0729978978634 0.0
-0.0300263650715 0.0364548899233 0.0586019158363 -0.0885317027569 0.000889832503162 -0.14149042964 0.0666806325316 -0.116065509617 0.10661162436 0.0911208
0.128549039364 0.0304621607065 0.00787752121687 0.00129351194482 -0.0569613836706 0.0380108840764 0.0356736034155 0.14658896625 0.0165758170187 0.0
-0.25672736764 0.122485905886 -0.195206165314 -0.0981791615486 0.265675395727 -0.129679977894 0.0788154825568 0.385377466679 -0.184506610036 0.0
0.111447907984 -0.0693729296327 0.0257538743317 0.0885896012187 0.0753986611962 0.0412792824209 -0.0748673379421 -0.105744756758 -0.0224293209612 0.0
0.0857344120741 0.287059098482 0.20849712193 -0.0685411021113 0.0930874124169 0.0731877610087 -0.0395587943494 -0.14928419888 -0.248995393515 0.0
0.0915616601706 -0.00489237671718 -0.184131473303 0.0370568819344 0.156354054809 -0.0469249486923 -0.0729426145554 0.095158085227 -0.154613852501 0.0
-0.0231341440231 0.0484500937164 -0.000948260771111 -0.0345139540732 0.0713953524828 0.00812390912324 -0.198708340526 0.0282681044191 -0.0550594292581 0.0
0.107692167163 -0.127629101276 0.114787772298 0.0186726246029 0.137263685465 -0.0211742203683 0.0569393076003 -0.125295966864 -0.121147938073 0.0
-0.136817365885 0.159193500876 0.0671213492751 0.0789617076516 -0.0165381990373 0.153294950724 -0.039697829634 -0.010088276118 -0.108267784119 0.0
0.0677219480276 0.0902381688356 0.204276248813 0.277954757214 -0.010141832754 -0.137236490846 0.146462976933 -0.195389911532 -0.170210048556 0.0
0.185433790088 0.116281427443 0.25087171793 -0.118527576327 -0.189528316259 0.210280969739 -0.277464598417 -0.341109424829 0.144711136818 0.0
0.0090543339029 0.0700567066669 0.0116910394281 0.0460778027773 0.123568274081 0.119427993894 0.106996566057 0.135569661856 0.0908541157842 0.0
-0.0463384650648 -0.020434351638 -0.098119020462 0.133272096515 0.0154215916991 0.0263465456665 0.0378512591124 0.126734659076 -0.106587812304 0.0
-0.141971468925 -0.0882914662361 0.0162987485528 0.0751780122519 -0.13008710742 -0.0201567392796 0.0932751223445 -0.0417174659669 -0.142176866531 0.0
-0.0458068884909 -0.130314543843 0.0241645537317 0.166762366891 -0.0528044737875 -0.0886083841324 -0.0948047190905 0.0978106632829 0.109321221709 0.0
0.0770210325718 0.00705565325916 -0.0474834702909 0.195062085986 0.179454877973 -0.0276887286454 0.168933644891 0.111637726426 -0.0331602171063 0.0
-0.0847469866276 0.0125872679055 0.048938754946 -0.0427657738328 0.0990894213319 0.0967165827751 -0.0448557473719 0.0430411286652 -0.0410706438124 -0.875127
