convolution,  5 3
0.234943255782 -0.0288212709129 -0.124180063605 -0.0951083004475 -0.0698958560824 -0.147283226252 -0.00305478298105 -0.053269635886 -0.0321875587106 0.0
-0.0165085140616 -0.077376306057 0.116343460977 -0.0176490526646 -0.105884842575 -0.0556491836905 0.0855482593179 -0.0745330303907 0.0627633184195 0.0
-0.083815023303 -0.0815906971693 -0.192050278187 -0.0097078057006 -0.0372533909976 0.0743130072951 -0.082416407764 -0.1325892061 0.0955365002155 0.0
0.000345179752912 -0.124204672873 -0.118371807039 -0.00979605410248 -0.0281479489058 -0.00441473303363 0.121349044144 -0.131959781051 0.0455666594207 0.0
0.106809154153 0.0982343703508 -0.0888312831521 -0.0734984353185 -0.0408082790673 -0.0360426604748 0.0296977460384 -0.000957502401434 -0.0211089216173 0.0
-0.0905349031091 0.11052326858 -0.0856216549873 -0.0253355037421 -0.107837989926 -0.0406582951546 0.041775777936 -0.0955004021525 0.0286621674895 0.0
-0.0923745259643 0.0702916681767 -0.0136304162443 -0.019095286727 0.0364816561341 0.112318344414 -0.105660386384 -0.0395127497613 0.0722979605198 0.0
0.0432295762002 -0.0796276926994 0.0787526071072 0.0807208120823 -0.0935449674726 -0.00323086022399 -0.050503294915 0.0368103347719 0.0605911836028 0.0
0.0539668761194 -0.0665302723646 0.124684043229 -0.0577046796679 0.0716430693865 -0.11549795419 -0.0627993270755 -0.0902335420251 -0.120059236884 0.0
0.0118619659916 -0.000501702656038 0.0501933731139 0.121603325009 0.0605881549418 0.200341567397 -0.0739495530725 0.0608156435192 0.15813280642 0.0
0.0382614098489 0.0824432373047 -0.0115681476891 -0.0632813647389 0.134467154741 -0.0410904176533 -0.0244500488043 -0.111025303602 -0.119681581855 0.0
-0.0734159201384 0.0880046263337 0.168677657843 -0.141054943204 0.00952083617449 0.0239460840821 -0.0277212262154 -0.154736459255 0.03156613186 0.0
0.0627089589834 0.0242673680186 0.0722637251019 -0.0660620927811 -0.091863848269 0.0196699947119 0.0799195989966 -0.0873434692621 0.0416515246034 0.0
-0.121889330447 0.016101161018 0.064711637795 0.00847649015486 -0.0277058556676 -0.0826367288828 0.00533996568993 0.07157420367 0.0743347257376 0.0
-0.119931124151 -0.135087832808 -0.103838928044 0.0896606743336 -0.0865139514208 -0.0218293275684 -0.116674534976 -0.103054873645 -0.11909802258 0.0
-0.122309692204 0.0651553422213 -0.148923590779 0.0583437010646 -0.0872688889503 0.0614717267454 0.0617325827479 0.0856437459588 -0.14111033082 0.0424707
-0.044072996825 -0.0792022123933 0.0480771921575 -0.0994973108172 -0.0144294099882 -0.0159131642431 0.137054160237 0.035814512521 0.213738054037 0.0
0.0765601694584 -0.0870148763061 -0.0905046314001 0.0417236201465 0.11521474272 -0.0229205787182 0.0149246891961 0.173396170139 -0.0634600967169 0.0
-0.108628727496 -0.0567115806043 0.117112748325 -0.0178820807487 0.059718247503 0.0850061178207 0.00127560237888 0.141635417938 0.210612520576 0.0
-0.0351911075413 0.132120013237 0.0716702491045 -0.0435867682099 -0.137582078576 -0.150668486953 -0.0940915048122 0.0836835801601 -0.00196898076683 0.0
-0.119097568095 -0.14225846529 -0.173085600138 -0.261382997036 -0.195601314306 -0.12879998982 -0.00785278808326 0.0535339936614 0.120491459966 0.0
-0.0108243813738 0.0256038755178 0.11307182163 -0.138878047466 -0.0438971929252 0.132430896163 0.099958576262 0.129668205976 -0.085699185729 0.0
-0.186908558011 -0.0415670126677 -0.0430716834962 -0.222807720304 0.0669365599751 0.0252044964582 0.114399932325 0.212601467967 0.208279788494 0.0
-0.189073085785 -0.0880653038621 0.0697665587068 0.0707380846143 -0.162125661969 0.0762858986855 0.0936866477132 -0.0118008609861 0.103704862297 0.0
-0.199883654714 0.0597621425986 -0.122800737619 -0.0394398830831 -0.128069922328 -0.0137877622619 0.168402075768 0.0991204977036 -0.00631954846904 0.0
-0.120949774981 -0.112783223391 0.0774237066507 -0.187925904989 -0.0676465854049 0.110484234989 -0.140835851431 -0.00286720809527 -0.004679299891 0.0
-0.114664874971 -0.116546869278 0.0555792711675 -0.0382783003151 0.0836836621165 0.124477483332 0.111614562571 0.0122735612094 0.00324170896783 0.0
-0.0357941053808 0.063741274178 -0.0902013406157 0.0957104042172 0.123263701797 0.00842948630452 0.126088410616 -0.104784622788 0.00775918364525 0.0
0.0485404357314 -0.126298129559 -0.0138080427423 0.0980845913291 0.0131273278967 -0.074431873858 -0.121070578694 -0.146168291569 -0.00970832351595 0.0
-0.0542290136218 0.1224033162 0.0246546939015 0.0935957431793 -0.121728345752 0.110604569316 0.101560778916 -0.0201905295253 0.035623062402 0.0
0.0914586037397 -0.0464366711676 0.0395460836589 -0.107988417149 0.0949114710093 -0.102990247309 0.0706325173378 -0.0627653449774 0.0646763816476 0.0
0.100198738277 -0.0759921893477 0.151699990034 -0.00703062769026 0.151605188847 0.221474871039 0.14936953783 0.0839404016733 0.164643108845 -0.173309
-0.131077289581 -0.0290108975023 -0.0289543252438 -0.131660625339 -0.0622068978846 -0.00284963077866 -0.0556504689157 0.0174985658377 -0.160894960165 0.0
-0.0920965671539 -0.0309694204479 -0.0972039625049 -0.0515149757266 -0.13165178895 0.00109784910455 0.137036427855 -0.131532758474 0.0784117355943 0.0
0.0996624305844 0.103830136359 -0.105163544416 0.143387228251 0.0474166423082 -0.0789027661085 0.0827219858766 -0.0783530697227 -0.162144243717 0.0
-0.0116284620017 -0.0921938344836 0.14382790029 0.0871724039316 -0.123255655169 -0.0227803215384 0.0218535605818 -0.0815265774727 0.0836764127016 0.0
-0.116461001337 -0.00307463551871 -0.115185916424 0.151876717806 -0.00680395914242 -0.0346167832613 -0.104384914041 0.0484738722444 0.0832900032401 0.0
-0.0701184347272 0.14679171145 -0.0806137397885 -0.0169277284294 -0.146057620645 -0.0854024365544 -0.0628545507789 -0.109383113682 -0.116292446852 0.0
0.00163713248912 0.107169114053 0.0604080967605 0.0992735475302 0.128053635359 0.0649722665548 -0.042550124228 0.172073736787 -0.105427756906 0.0
0.0626522526145 -0.0555677525699 0.0021061450243 0.0473592095077 -0.0599330104887 -0.0476283319294 0.0525718554854 0.127555385232 0.0773331597447 0.0
0.104248777032 -0.028991445899 0.047204952687 -0.00970881711692 -0.102176524699 0.0934663340449 0.11490560323 -0.0744375362992 0.00141145836096 0.0
0.0528544560075 -0.071007438004 -0.0490810833871 -0.158932492137 0.0676014795899 0.055681347847 -0.0802306160331 -0.0705725252628 -0.0666743665934 0.0
0.0326700620353 0.116652332246 0.119881480932 0.0733543634415 0.0639849230647 -0.0374912954867 -0.0303684771061 0.0836818814278 -0.0418167896569 0.0
-0.0219809543341 -0.0189618393779 0.0199550110847 0.0297695845366 -0.122948363423 0.0881136879325 0.129728749394 0.0582696907222 0.00340601033531 0.0
-0.124097205698 -0.0245205853134 0.0144748836756 -0.049059767276 0.0715993717313 -0.0467531308532 -0.0131903663278 -0.0809811651707 -0.0864566639066 0.0
0.016400353983 -0.109675891697 -0.135555908084 -0.000892747833859 0.126675188541 0.108894698322 -0.0534860044718 0.108542710543 -0.000109198015707 0.0
-0.0150461159647 0.0687459111214 0.139509096742 -0.139408558607 -0.0215341970325 -0.108162581921 0.0601056590676 0.0843307226896 0.12156046927 0.0
0.0438064746559 0.0942981764674 0.0502521768212 -0.0572448223829 0.0983878970146 0.0864127129316 -0.0809516683221 -0.0109104197472 -0.128389120102 0.0322483
0.170799747109 0.275867491961 0.0895017832518 0.0345195382833 0.12238843739 0.249177232385 0.0397923924029 0.199998021126 0.232543677092 0.0
-0.0327639095485 -0.00396715383977 -0.21434366703 -0.0417140200734 -0.17902110517 -0.238685205579 -0.0680940747261 -0.072918176651 -0.20837944746 0.0
0.0433459766209 -0.16581979394 0.112043477595 0.0439686253667 -0.234922632575 0.0883381962776 -0.0730203986168 -0.343970149755 -0.0321327112615 0.0
-0.00435332814232 0.0267630368471 -0.0721434503794 -0.0914406254888 0.0346689112484 0.0467046834528 -0.0938171371818 -0.00495364889503 -0.0989467427135 0.0
-0.0187965221703 0.0557434670627 0.240239202976 0.186445295811 0.0341399386525 -0.0286365579814 0.113716445863 0.0524841696024 -0.00637382408604 0.0
0.0572097152472 0.124304056168 -0.0914199575782 0.0417086593807 0.226425349712 0.207946792245 0.0785685181618 0.0511750504375 0.195426702499 0.0
0.0893526151776 0.145600169897 0.137794584036 0.161870405078 -0.141277059913 -0.0378585085273 0.209845006466 0.0568242929876 -0.204552292824 0.0
-0.000184240241651 -0.285260945559 -0.106227912009 -0.093856535852 -0.268417328596 -0.180577620864 -0.055867690593 -0.0481940060854 -0.113249517977 0.0
0.0161055643111 0.134467720985 0.101279184222 0.0657933875918 0.123319804668 -0.0746146589518 0.14333344996 0.00228998158127 -0.149626195431 0.0
-0.0660733431578 -0.016456540674 -0.134123086929 -0.00993385445327 -0.0112717505544 -0.12623308599 -0.116980679333 -0.207098662853 -0.180704087019 0.0
-0.139489457011 0.138318628073 0.0109601905569 -0.0495580099523 0.165000066161 0.0112368511036 -0.131111204624 -0.0778536945581 0.0640807971358 0.0
0.150122255087 0.247375205159 0.0906130895019 0.260244905949 -0.11521089077 0.101337201893 0.399473488331 0.0216574631631 -0.147552758455 0.0
0.136989712715 -0.219658479095 -0.216180980206 0.00869645178318 -0.235426440835 -0.111957326531 -0.0734248161316 -0.257456868887 -0.0691345632076 0.0
-0.0797007828951 0.102876454592 -0.0402518361807 -0.0657900869846 -0.117780834436 0.0101596033201 -0.121231079102 0.0504759140313 0.0998815670609 0.0
-0.129042744637 0.0609630383551 0.084051579237 -0.0283012855798 0.0287529118359 0.0591271407902 -0.00726731866598 0.0615742057562 -0.0461016632617 0.0
0.115552581847 0.00879547744989 -0.0539715513587 0.0841077342629 -0.124312281609 0.185328692198 0.105987489223 -0.056247100234 0.0396722070873 -1.11506
-0.141954094172 -0.126277312636 -0.0718335658312 -0.160651013255 -0.0598988421261 0.0945858284831 0.0195743516088 -0.0664281174541 0.0455462001264 0.0
0.010577743873 0.106769412756 -0.0508648902178 0.162143990397 -0.050852149725 -0.00111241231207 0.00519548775628 0.135532096028 0.106628835201 0.0
0.109603643417 -0.0787305533886 0.0613993480802 -0.178789243102 -0.0141071258113 0.0614186190069 -0.148139983416 -0.133033528924 0.108945965767 0.0
-0.0926010906696 -0.092243462801 -0.0604162141681 -0.0365698412061 0.0544325262308 0.135835304856 0.0675692260265 0.0424423962831 -0.0379784777761 0.0
-0.0482105948031 -0.0844994112849 -0.0869929119945 0.0914027392864 -0.0545463114977 0.022647857666 0.104566924274 0.190894335508 -0.00519696436822 0.0
0.0967330634594 0.0173871237785 -0.0599739775062 0.0691935420036 0.10825586319 0.0417565628886 0.0696866363287 0.118930481374 0.048411257565 0.0
0.0749869570136 -0.133738487959 0.0989822521806 -0.122687727213 -0.110640920699 -0.0992420315742 -0.00407465873286 0.0167886465788 -0.0484265163541 0.0
-0.0336001701653 -0.00199077511206 -0.0878944098949 0.0969639122486 -0.0357064642012 -0.0649965032935 0.0678753331304 0.103717036545 0.0810420066118 0.0
-0.114028543234 0.135905742645 0.075136333704 0.101806119084 0.155795514584 0.0321805812418 -0.0825742557645 0.142992600799 0.00584235740826 0.0
-0.101844877005 0.0323235802352 0.0234763976187 0.0440649390221 -0.0294798985124 -0.0187985878438 0.094426728785 0.140426769853 -0.0586599782109 0.0
-0.0254470407963 0.0656011477113 0.0435613580048 0.09642893821 0.152221128345 0.0687678530812 0.0939253717661 -0.0196071639657 0.113362759352 0.0
-0.180511340499 -0.104833863676 0.00741929747164 -0.117016099393 0.0701340958476 -0.0402883142233 0.126017123461 0.0490150116384 -0.00500283297151 0.0
-0.131934180856 -0.0202912762761 0.0440609455109 -0.104505591094 -0.178467810154 -0.146066784859 0.0425665192306 0.0715915039182 0.101880505681 0.0
-0.0781079754233 0.0471919104457 -0.0701225847006 0.0694200843573 0.13063403964 -0.0378257967532 -0.116551212966 0.0496277585626 -0.0740953758359 0.0
-0.0614030510187 0.109090685844 -0.104407541454 0.080434858799 0.0624947734177 0.126456260681 0.111403122544 0.0147451404482 -0.102077372372 0.0
-0.0803989320993 -0.0912041217089 0.0312064774334 0.00150736188516 0.134317487478 -0.102060824633 -0.120265766978 -0.114382281899 -0.0662363693118 0.0599655
-0.298116624355 -0.0420445725322 0.0118305049837 -0.174122020602 -0.137858256698 0.0270809940994 -0.292675971985 -0.087855540216 -0.162442818284 0.0
0.14495459199 -0.0138528589159 0.0468035899103 0.00638263998553 -0.0810813084245 -0.0327531695366 -0.0389692857862 -0.00723124714568 0.0505348145962 0.0
-0.10480864346 0.142500326037 0.240626126528 -0.0764188840985 -0.0950465574861 0.0355978868902 0.0303347725421 -0.038807798177 0.0974764749408 0.0
0.0828339830041 0.0968463495374 -0.124107167125 -0.0659401416779 -0.0941774621606 0.111233353615 0.0482081212103 0.104933254421 -0.117593750358 0.0
-0.0399801023304 -0.0235396884382 -0.0532438457012 -0.0132581116632 -0.0708050206304 0.101489894092 -0.11570661515 0.0474402271211 -0.100035682321 0.0
0.0581530295312 0.0235509928316 -0.0036726272665 0.119656771421 0.0204546507448 -0.00715622818097 -0.09928458184 0.0405911765993 0.0742219313979 0.0
-0.24859136343 -0.0142259607092 -0.0599680319428 0.0933239236474 -0.0469890534878 0.00506355799735 0.0119235850871 -0.0408906899393 -0.139150127769 0.0
-0.124423339963 -0.207560241222 0.00190351903439 -0.109036646783 -0.0853150561452 0.129861235619 -0.172003611922 -0.0893423035741 0.037491414696 0.0
-0.107359431684 -0.107321724296 0.108885444701 0.0739966928959 -0.0393035411835 -0.00361716048792 0.120187535882 0.193121895194 0.00444786855951 0.0
-0.069784373045 -0.0971926450729 -0.0982471853495 -0.103267848492 0.0202475469559 0.0544871129096 -0.0920228809118 0.0328579172492 0.074000634253 0.0
0.132661893964 -0.000557245512027 0.0582331754267 0.0606820769608 -0.082342132926 -0.0926171988249 0.1539619416 0.143018215895 0.091589204967 0.0
-0.0691099986434 -0.179856568575 -0.161962002516 -0.0414009205997 -0.149188801646 -0.0971564948559 -0.171179175377 -0.187973678112 0.142474427819 0.0
0.100495994091 0.16320836544 0.345849752426 -0.105865933001 0.0911332294345 0.120447777212 -0.0853002816439 -0.1436226964 0.0311528388411 0.0
-0.10730766505 0.058672465384 0.0757469683886 0.0461417883635 -0.0865560024977 -0.0675625428557 -0.0290336385369 0.0389029197395 0.0400754772127 0.0
-0.110531151295 -0.0406014882028 -0.110194034874 -0.0160297434777 0.0990032032132 -0.178946867585 0.119915828109 -0.116364762187 0.0246017966419 0.0
0.050667911768 0.00756894890219 0.111270055175 -0.090504668653 -0.0500929877162 0.0620024651289 0.0979009047151 0.0715947970748 0.12938760221 0.129932
-0.140718653798 -0.0690164864063 0.179957300425 0.0595540180802 0.0641334280372 0.194424927235 0.0762245208025 0.108920179307 -0.126109331846 0.0
-0.0419817790389 -0.0819432362914 0.000227857774007 -0.00670100701973 -0.0434104725718 -0.192319244146 -0.215663447976 -0.134606957436 0.00269480422139 0.0
-0.0734066963196 -0.226580172777 -0.137658655643 -0.0105273425579 0.137498274446 0.0681503117085 -0.0302827786654 0.297680795193 0.0997941717505 0.0
-0.018815074116 -0.0210071653128 0.146434724331 -0.100632451475 0.0105700567365 0.0579717569053 -0.0572126656771 -0.0799576193094 -0.011639514938 0.0
-0.158327504992 0.00914646033198 0.31690120697 0.134750366211 0.103024676442 0.0480209589005 0.118093810976 -0.0404006801546 -0.286055147648 0.0
0.0753505676985 -0.150685697794 -0.0778761953115 -0.0308285951614 -0.188901096582 -0.25233399868 -0.136175259948 -0.157997816801 -0.265049189329 0.0
-0.24392066896 0.0769475102425 0.373203247786 -0.121169030666 0.140934258699 0.386030972004 -0.0826515108347 -0.236504539847 -0.0630386099219 0.0
0.0364623554051 -0.122752726078 0.259188860655 0.00735314842314 0.0902973711491 0.0309719499201 -0.028789402917 -0.146935835481 -0.011024095118 0.0
-0.0460758246481 0.0486326031387 -0.119810298085 0.0850875303149 -0.0240170620382 0.0317237749696 0.0515703633428 0.148592665792 -0.0305688176304 0.0
0.0788197144866 0.292249232531 0.183004841208 0.0646204128861 -0.0322696939111 0.0398222208023 -0.155762225389 -0.159935578704 0.212795808911 0.0
0.0652445033193 0.0676982775331 -0.0244797803462 0.0749435126781 0.0496404245496 0.0595964603126 -0.0102341445163 -0.146303802729 -0.165398955345 0.0
0.115023508668 0.147472575307 -0.0478158630431 0.0241812858731 0.0131261721253 -0.00759583339095 -0.165772482753 -0.260307312012 -0.108223699033 0.0
-0.0753753036261 -0.179697751999 -0.143149733543 -0.219609811902 -0.043774459511 -0.0590355880558 -0.138387411833 0.0644449815154 0.0727961882949 0.0
0.135209798813 0.0676707476377 0.0619907155633 0.110205903649 -0.0877101942897 -0.0969058647752 -0.0750605240464 0.0569641217589 0.0176362227648 0.0
0.0193491987884 0.0289446637034 -0.02787450701 0.135288417339 -0.0687865316868 0.043631028384 0.000615194207057 -0.193697288632 -0.15716098249 0.0
-0.00199905922636 -0.132323637605 -0.0937085598707 -0.102012299001 -0.200818970799 -0.0566051118076 -0.254113703966 0.0768430680037 -0.0397861786187 -0.0875421
0.184893220663 0.242472529411 -0.0525859519839 0.146480217576 0.0697031840682 0.174335792661 0.0488939769566 -0.041134018451 0.154038399458 0.0
0.116800829768 -0.0176977515221 0.0459701530635 -0.229934260249 -0.0856834873557 -0.0388169698417 -0.142233356833 -0.0784296244383 -0.102996140718 0.0
-0.0984708368778 -0.200662761927 -0.242284342647 0.150332331657 -0.0114251766354 -0.0804328322411 0.16940189898 -0.153747066855 -0.107894591987 0.0
0.11503393203 0.0323408432305 -0.000182419433258 0.0500112846494 -0.0100223263726 0.0111067732796 -0.00148723216262 0.0380146019161 0.122086323798 0.0
0.199709698558 -0.141345530748 -0.101148858666 0.207709550858 0.0878714844584 0.0431499555707 -0.00785394757986 0.0494864210486 0.0233032852411 0.0
-0.129328891635 -0.106092713773 -0.0637218281627 -0.147584363818 -0.22406154871 -0.153179466724 -0.105508111417 -0.120933413506 -0.0705927610397 0.0
-0.00874592550099 -0.065191835165 -0.231050208211 0.16185939312 0.113760404289 0.0903672724962 0.000647518434562 0.191463753581 0.206144213676 0.0
-0.0472110509872 0.224627375603 0.108851626515 0.0242148116231 0.180617541075 0.0920624658465 -0.0696721896529 -0.0901002883911 -0.0336710326374 0.0
0.0415285825729 -0.150416627526 0.043233782053 -0.0288519226015 -0.131955951452 -0.0292698144913 0.0557613782585 -0.070934318006 0.115009844303 0.0
0.159847095609 -0.0650508254766 0.0569921843708 0.0481232739985 0.200873434544 0.0690898001194 0.0881694406271 0.0827830731869 0.166872963309 0.0
-0.123087137938 0.118440032005 -0.0105757480487 -3.22258165397e-05 0.11534319073 -0.0266106296331 -0.103273279965 -0.182455211878 -0.0716836601496 0.0
-0.00637561222538 -0.0668607801199 0.0742843225598 -0.0727535635233 0.0349362827837 -0.0634813681245 -0.0674770325422 -0.0913726314902 -0.0111697390676 0.0
-0.265391528606 -0.0563025474548 0.142758756876 -0.201244130731 -0.275559157133 -0.0771434530616 0.0989753082395 -0.0504905469716 -0.206409662962 0.0
-0.062797524035 0.114369258285 0.0155309289694 -0.0989240109921 -0.0261057280004 -0.0942110344768 -0.0337889492512 -0.103543937206 -0.106894865632 0.0
0.0013305376051 0.00809086766094 -0.0733425840735 -0.110593654215 -0.120929531753 -0.112694017589 -0.144068837166 -0.0297031793743 0.0352427139878 0.0
-0.166712597013 0.00419142330065 -0.223745286465 -0.246292561293 -0.0140882907435 -0.222079560161 -0.0555188506842 -0.069240309298 -0.061009965837 0.0694413
0.0436994098127 0.29053157568 0.157704547048 0.0804512426257 -0.0941706821322 0.134937599301 -0.0776107534766 -0.200637459755 0.0339108034968 0.0
0.0697038918734 -0.0630556121469 0.119038783014 0.0422985702753 0.042555835098 -0.159777164459 0.0860842838883 0.145124778152 0.106986701488 0.0
-0.0720048546791 -0.0297445468605 -0.0185099113733 0.0911469087005 0.123795926571 0.0537173077464 0.0410870201886 -0.135236352682 0.131966158748 0.0
0.129738360643 0.0288960002363 0.00103612418752 -0.134737104177 -0.101486310363 -0.101363688707 -0.0249207634479 -0.121461898088 0.0113642551005 0.0
-0.0956496223807 -0.0720916762948 0.00249585369602 -0.0428626984358 -0.127491056919 -0.0835871174932 0.0547481030226 -0.0411681830883 -0.144511654973 0.0
-0.076487749815 -0.0131589407101 0.107194833457 0.0218037515879 -0.0970345363021 -0.261577874422 -0.00957263726741 -0.14640763402 -0.0564493723214 0.0
0.127469733357 -0.221034616232 -0.249710932374 -0.0977669134736 -0.137305647135 -0.194414034486 0.116852089763 0.044296387583 0.024729128927 0.0
0.0544715225697 0.0751010626554 -0.214915961027 0.0906329154968 0.0363496169448 0.0323695428669 0.0223910864443 0.152567595243 -0.104271247983 0.0
-0.039869479835 0.139248251915 -0.0556932240725 -0.037319239229 -0.0566748157144 0.0570916086435 0.113939404488 0.107273884118 0.160669282079 0.0
0.0271634049714 -0.201913893223 0.0803619399667 0.0286741554737 -0.114009916782 0.13194654882 -0.0432311370969 -0.00862048752606 0.035056784749 0.0
-0.130253374577 -0.0247908849269 0.0780360400677 -0.0926439017057 0.0124466437846 0.00816759001464 0.175964653492 0.174950867891 0.179521724582 0.0
-0.0934725776315 -0.096236243844 0.145299911499 0.0403644666076 0.0898480415344 0.19578255713 -0.0105837546289 0.0152793582529 0.158131152391 0.0
-0.14200539887 0.216271907091 0.0498080030084 -0.258967846632 -0.176615834236 -0.0811708047986 -0.162376865745 -0.0581052415073 -0.212027311325 0.0
-0.0884496197104 0.0762193799019 0.119300276041 0.138585194945 -0.0342332236469 0.0683308467269 -0.102806784213 0.00374053628184 0.0152935413644 0.0
0.0564598441124 -0.110585525632 0.0564901679754 -0.0986102372408 0.0798194855452 0.0251335911453 -0.00516072427854 0.0316941998899 -0.0421112515032 0.0
0.0368554480374 -0.155168771744 -0.120363339782 -0.0249307826161 0.0830350667238 -0.02831748873 0.00744615821168 -0.04372273013 0.0990435853601 0.152371
-0.0289928130805 0.0659281164408 0.195184096694 0.0625899285078 0.0941804721951 0.0598318502307 0.165566816926 0.179834932089 -0.0412857867777 0.0
-0.106785476208 -0.188357114792 -0.14159090817 -0.0628481581807 -0.0604786798358 -0.0722583681345 0.044503942132 0.118532948196 0.179101988673 0.0
-0.0555469505489 -0.159247428179 -0.0438824892044 0.110737740993 0.123889327049 0.00124851043802 0.13340754807 0.0913547277451 -0.132099181414 0.0
-0.0386187545955 -0.084834061563 -0.142853781581 0.039417270571 0.116017103195 0.0936760231853 0.0408023558557 0.0674432292581 -0.00442034611478 0.0
0.176089063287 -0.0300531312823 -0.0374683402479 -0.0640678778291 0.0827789157629 -0.110280387104 0.0408746004105 -0.0983257442713 -0.0544127039611 0.0
-0.104324191809 0.103274598718 -0.0421064049006 0.0824451297522 -0.032496009022 0.00642719306052 -0.121905736625 -0.138105362654 -0.0632185563445 0.0
0.0891893133521 0.0608936287463 0.0796611383557 -0.144867047668 0.0198801513761 -0.0374920293689 -0.192573174834 0.147920072079 -0.08389942348 0.0
-0.00765699800104 -0.0763538777828 0.0237253252417 -0.13459610939 0.0390174351633 -0.0666901171207 -0.0206724833697 -0.0229739826173 -0.0184994749725 0.0
-0.031973451376 0.002635007957 0.105819694698 -0.144089594483 -0.0328359529376 0.0218396428972 0.0343428701162 -0.0194410309196 0.09526193887 0.0
-0.13831833005 0.0823607817292 -0.195033341646 0.00105305679608 -0.0217409860343 0.00160641386174 -0.142067670822 -0.0978674739599 0.136491686106 0.0
-0.0938496664166 -0.0225993897766 -0.00829488877207 -0.0483611412346 -0.0284461658448 -0.136870265007 -0.0998352915049 0.133710101247 0.125274598598 0.0
-0.185118809342 -0.164310395718 -0.0766988247633 -0.228184968233 -0.152075976133 0.0376986525953 0.0596367679536 0.0898037403822 0.15830090642 0.0
0.0921183824539 -0.084509678185 -0.144734442234 0.0523439384997 -0.0990284979343 0.0150486147031 0.271903246641 0.130921855569 0.10121255368 0.0
-0.00269118486904 0.0707362517715 0.0274248216301 0.0353579297662 -0.123298622668 0.122675083578 -0.0868682935834 -0.0262196045369 -0.0887056440115 0.0
0.0518968142569 0.0835754275322 0.0145645728335 0.0357651114464 -0.136512294412 -0.0722178220749 0.0327562689781 0.0879987925291 0.173050820827 0.0
0.0348286554217 0.0375566855073 0.0315080881119 -0.100457467139 0.0218305923045 -0.12050011009 0.149525254965 -0.00415431568399 0.0903041064739 -0.17636
-0.087537817657 -0.0790982469916 -0.151597037911 0.112338274717 0.0727789103985 -0.252561420202 0.134247645736 0.0408987365663 -0.155175849795 0.0
-0.0659517496824 0.0286796204746 -0.049780882895 -0.177191674709 -0.0496010892093 -0.234093919396 0.177727535367 0.0985388308764 -0.0182453282177 0.0
-0.133774086833 0.024303695187 0.0970799997449 0.0171748884022 -0.00220515602268 0.00748387444764 0.149523735046 -0.06648427248 0.135718286037 0.0
0.0272220168263 0.00741706462577 -0.0981835275888 0.00547534506768 0.0136539181694 -0.111607164145 -0.0397134572268 0.101038880646 0.0377991273999 0.0
-0.0228745229542 -0.077710531652 0.00726248882711 0.128397926688 -0.00744952633977 -0.280675441027 -0.111084200442 -0.184861257672 -0.119926095009 0.0
0.0957957804203 0.180184677243 0.184423968196 0.195651352406 -0.0208263546228 -0.0131113445386 0.145700886846 0.0485839098692 0.0245387256145 0.0
-0.0229652039707 0.0333202779293 0.222497075796 0.0790021494031 -0.0604737848043 0.059254296124 0.13640332222 0.0933580324054 -0.0441857986152 0.0
0.10028334707 0.151460558176 0.10321637243 -0.00916019733995 -0.0113878836855 -0.193699091673 0.156919538975 0.0793814063072 0.0835855901241 0.0
-0.218750357628 -0.167147383094 0.0861060842872 -0.112723015249 -0.0854475796223 0.0896371006966 -0.0972260162234 0.143589392304 -0.00469589605927 0.0
0.00411852216348 -0.127367928624 0.00891022756696 -0.0321698151529 -0.0251006353647 -0.0725244134665 0.207618832588 0.0657157674432 -0.0863720774651 0.0
0.0423971489072 -0.110648274422 0.150633588433 -0.0725977793336 0.063403211534 -0.103079989552 0.0233269613236 -0.0231262464076 0.0181117411703 0.0
-0.299381941557 -0.0543524064124 -0.157860592008 -0.0561574287713 0.0585782490671 -0.103431835771 -0.180706232786 0.0146998530254 -0.179558008909 0.0
0.00917302444577 0.00362348812632 0.0164307355881 -0.090412683785 0.00611630547792 -0.0063600987196 -0.13963252306 0.128099158406 0.0822225213051 0.0
-0.0411273241043 0.0128989946097 -0.0233390945941 0.0692509114742 -0.132365167141 -0.0289083346725 -0.110526487231 -0.100061185658 -0.096090324223 0.0
0.118204347789 -0.000984235084616 -0.0508368127048 0.0146181043237 -0.0948002189398 -0.022087495774 0.140632599592 0.0292340889573 -0.0505088381469 0.0
0.0405410453677 0.0954349339008 -0.113340124488 -0.0329264253378 -0.145799562335 -0.152784869075 0.0748673826456 0.270618200302 0.109442852437 0.263149
-0.0253060627729 -0.136873021722 -0.1099088341 -0.00186306342948 -0.103183567524 0.081271186471 -0.0191223304719 -0.00740355392918 0.0362344160676 0.0
-0.132901266217 -0.0974097326398 -0.115093365312 0.00612387619913 -0.0170319117606 -0.0427898056805 -0.045122846961 -0.0862977057695 -0.105705998838 0.0
-0.130482286215 0.0264013949782 -0.064761467278 0.100547537208 -0.134722799063 -0.0539822243154 0.0997838377953 0.0681696683168 -0.131796255708 0.0
-0.077546171844 0.0813836455345 0.123698987067 0.0417833775282 0.0670625567436 0.0791328474879 0.097596719861 0.12510292232 0.105093732476 0.0
-0.0981717854738 0.0405483543873 0.0979091003537 -0.0541988052428 -0.0238894298673 0.10246886313 -0.0155462026596 -0.0847454443574 -0.015699448064 0.0
-0.0595517344773 0.0413981862366 0.114614471793 -0.0625616237521 -0.0846127867699 -0.0622051134706 -0.0809534788132 0.00157131219748 0.0548089444637 0.0
-0.0530949272215 -0.116798251867 -0.0539295263588 0.0639075040817 0.0662970468402 -0.00343216746114 -0.0945988744497 0.0648409798741 -0.0272668562829 0.0
-0.116106182337 -0.0307155027986 -0.0245149899274 -0.0182337071747 0.0944643244147 -0.100746907294 0.0428768955171 0.0835793986917 -0.0981439948082 0.0
-0.0571706779301 -0.0356041938066 0.110627561808 0.125653922558 -0.0723977163434 -0.0490427948534 0.020409334451 -0.0954892337322 0.0320037230849 0.0
0.0138380490243 -0.103412143886 -0.0112483426929 -0.0965784415603 0.0205947011709 -0.0383124537766 0.031298328191 0.0988030657172 -0.0238259080797 0.0
-0.0364876687527 0.0864511951804 0.119955986738 0.0244736522436 -0.0907067582011 0.131779432297 0.108679093421 -0.132598131895 -0.0524118468165 0.0
-0.0868520662189 0.0341551043093 -0.0614806860685 -0.0680290982127 0.0380841009319 0.0520858466625 0.0777783468366 -0.106422610581 -0.063217535615 0.0
-0.0385301783681 0.0716300681233 0.0395305007696 0.101345464587 -0.0283369738609 -0.00463485065848 -0.0208282563835 -0.133055761456 0.0684442296624 0.0
-0.0368376374245 0.12863099575 -0.0257573015988 -0.0883213877678 0.093941539526 -0.0212434027344 -0.109798483551 0.128674998879 -0.0949861556292 0.0
0.0443804934621 0.120617613196 0.0986551716924 -0.0974842905998 -0.00678899418563 0.0138841029257 0.110322676599 -0.0677208900452 -0.0537876710296 0.0
-0.113425754011 -0.0578566901386 0.0748718455434 -0.0624389722943 0.0797777175903 0.121112540364 -0.117034375668 -0.113358289003 0.124914929271 -0.0312753
0.0740206614137 -0.134680822492 -0.0719181448221 0.110276147723 0.114599905908 -0.00015771141625 -0.0258562583476 0.0137774795294 -0.144200250506 0.0
-0.0124028194696 0.0990916341543 0.0756664052606 -0.0163948852569 -0.106124199927 0.000700623379089 -0.122790113091 0.0993339791894 0.122269317508 0.0
-0.0517654158175 -0.0609323419631 -0.0577490031719 -0.107926473022 0.137702703476 -0.0348430722952 -0.103267751634 0.140239611268 0.058638330549 0.0
0.103627316654 0.0262240245938 0.0864590331912 0.0401154905558 0.0456379689276 0.0754520744085 -0.140165001154 -0.138229727745 0.0264100600034 0.0
-0.228427618742 -0.185859486461 -0.108082145452 -0.10359749198 0.0257556065917 0.0188069287688 -0.0359042696655 -0.108694285154 -0.0283950883895 0.0
0.0115323578939 0.0664301812649 -0.131644845009 -0.0804680660367 0.191857710481 -0.0315515138209 -0.166181832552 -0.000192000501556 -0.0864154994488 0.0
-0.112793505192 -0.202336922288 -0.227537900209 0.0402819104493 -0.186169594526 -0.116309963167 -0.0735756754875 -0.156279295683 -0.254002451897 0.0
0.0377289354801 -0.044273879379 0.0264643467963 0.231453865767 0.108317822218 0.0177359096706 0.23872372508 0.238385930657 0.135446876287 0.0
-0.0257059391588 0.0723338127136 -0.0338192023337 -0.0769678428769 0.00900450628251 -0.0400909408927 0.191549450159 0.0505730994046 0.0755252838135 0.0
0.16019667685 -0.00584032619372 0.0146098472178 0.136450454593 0.0117970248684 0.0259650871158 -0.0101192425936 0.00634467788041 -0.037487462163 0.0
0.0831518024206 -0.0842284858227 -0.228479847312 -0.0774107649922 0.0833365991712 -0.0556812882423 -0.125455081463 0.00968813896179 0.0413539409637 0.0
0.217963159084 0.243113636971 0.140040338039 0.0953358411789 0.154412522912 -0.0385303795338 -0.0613660030067 -0.188278004527 -0.0770249590278 0.0
0.181567072868 0.152588129044 0.0139490924776 -0.00747448392212 -0.0889097824693 0.0622227154672 -0.0729741454124 -0.0682391896844 0.0235032588243 0.0
0.0824083536863 0.100555628538 -0.0748295858502 -0.0152285769582 -0.0902983397245 0.0116727417335 -0.0637519732118 0.00611618533731 -0.0698028206825 0.0
0.00883745308965 -0.0476606823504 -0.0964973270893 -0.0589882619679 -0.0971107557416 -0.165106728673 -0.145609408617 0.0346798300743 -0.151622980833 0.0
0.081666983664 -0.0791849717498 0.0982909053564 0.0350546576083 -0.0440701581538 -0.133592933416 0.0525124408305 -0.0763719975948 0.200590059161 -0.0426384
-0.125145092607 -0.0153904752806 0.0273944251239 0.0108201019466 -0.0475056879222 0.0122468732297 0.0381960012019 -0.124613411725 -0.0254441965371 0.0
0.117575615644 0.168135285378 0.119877755642 -0.15655362606 -0.206252560019 0.0121459290385 -0.0795325189829 -0.0404542982578 0.0323444567621 0.0
-0.138931259513 -0.00625645136461 -0.123795092106 0.0497797951102 -0.114782392979 -0.150258734822 -0.113700754941 -0.207407087088 0.0335208773613 0.0
-0.124531567097 -0.024215226993 -0.0501366518438 0.0524088405073 0.0284454207867 0.0925878211856 -0.136910051107 0.000549158372451 0.0753449052572 0.0
-0.181460827589 -0.134250164032 -0.0658691376448 0.0945567786694 -0.0127495415509 3.21391489706e-05 0.0666004121304 -0.146696746349 0.0100084934384 0.0
-0.116997420788 0.0833516418934 0.200195014477 -0.032411981374 -0.1276589185 0.136988803744 -0.09605371207 0.044627238065 0.0213853530586 0.0
0.027936572209 -0.0496247038245 -0.23205435276 0.214480683208 0.157874494791 0.132530331612 -0.0527205243707 -0.0468564666808 -0.00438746530563 0.0
0.0351091064513 0.0397665053606 0.0525314994156 -0.149016171694 0.0432851947844 -0.0872750282288 -0.0308977290988 -0.19476570189 -0.0381005518138 0.0
0.14443808794 0.0205496121198 0.194628715515 -0.148616686463 -0.0279694274068 -0.126788422465 -0.0784956142306 0.0794463455677 0.0319889262319 0.0
0.0314422138035 -0.000782379240263 0.00448427023366 0.160106673837 -0.134192615747 -0.164374530315 0.177865326405 -0.0484626702964 -0.0545719377697 0.0
-0.046265091747 -0.0931727588177 0.0904928222299 0.0797533765435 -0.0375986546278 0.00881537422538 0.0680289939046 0.00536082219332 -0.00467063905671 0.0
0.1155211851 -0.0537972562015 0.0798850506544 0.13837236166 -0.11030228436 -0.0897674784064 0.144575178623 -0.0807886570692 -0.0346440151334 0.0
0.199389800429 0.309006214142 0.266994446516 -0.163153871894 -0.0458223447204 0.0686545222998 0.125383317471 0.165589302778 0.0650516301394 0.0
-0.0765402764082 0.0873372778296 -0.0897573530674 0.0338376834989 0.125732779503 -0.0586805790663 -0.0300418026745 -0.0507505536079 0.0750785991549 0.0
-0.120977811515 -0.139012992382 -0.11550591886 -0.00597922271118 -0.0338548719883 0.0267206374556 -0.0312563218176 -0.0140156662092 -0.0410005785525 0.0
0.0703138932586 0.116392016411 0.0901990681887 0.0480327531695 0.0255326088518 -0.0448832958937 0.168541446328 0.116991087794 0.16090837121 -0.563863
-0.0431524552405 0.219708487391 0.123109169304 0.122328832746 0.0427065603435 -0.0301676094532 -0.281319648027 0.00293370056897 -0.0172225087881 0.0
0.170612603426 -0.0338788367808 0.111465312541 0.0386956185102 0.0154492864385 0.119992949069 -0.114374086261 0.0560627654195 -0.0674524754286 0.0
0.091965302825 0.16278386116 0.107701554894 0.162447452545 -0.127482384443 -0.0586633384228 0.0447275228798 0.00643638102338 -0.00680774264038 0.0
-0.0911369249225 -0.00405807048082 0.0606586374342 0.124147281051 0.148264050484 0.115284614265 0.109062694013 -0.00262718880549 0.0640619546175 0.0
-0.0473330207169 -0.0458439737558 -0.0910434424877 0.121411427855 -0.0946470499039 -0.0579143278301 -0.0817902758718 -0.135412052274 0.13088311255 0.0
0.0269113574177 0.0819869413972 -0.0571277551353 0.00661810487509 -0.00164971733466 -0.000732858316042 -0.0536599270999 -0.118461109698 -0.095561221242 0.0
0.17014208436 -0.0250118747354 0.00078463263344 0.106702789664 -0.0781599655747 -0.198618575931 0.0874546915293 0.0966883972287 0.232248157263 0.0
0.00216771895066 -0.0495767891407 -0.0249768532813 0.0537675172091 0.0645596086979 -0.0848059356213 -0.0704594478011 0.110998786986 0.0516877993941 0.0
4.64952536277e-05 0.106575787067 0.122672013938 -0.0366752408445 0.116698622704 -0.14290599525 0.19405965507 0.0768911466002 -0.0864663496614 0.0
-0.0704905167222 -0.0308388285339 -0.0454122722149 0.0940906405449 -0.0754231438041 -0.0453679598868 0.0474002212286 -0.157233133912 0.0850447267294 0.0
-0.0734187886119 0.0062273000367 -0.119754269719 0.0368999764323 -0.089983150363 -0.094365157187 -0.0102401226759 -0.129895538092 -0.0765397250652 0.0
0.0969327911735 0.00146974553354 -0.0596904605627 0.0939839705825 0.134638994932 -0.040080845356 -0.0600442066789 -0.0831944048405 0.0451679006219 0.0
-0.176309749484 -0.10638345778 -0.0638053417206 0.0166703350842 0.0457628183067 0.047515578568 -0.130621165037 -0.105825096369 -0.0515992827713 0.0
0.0983468815684 -0.0647870823741 0.0320980139077 0.128058224916 0.106111079454 -0.0360345467925 0.110868424177 -0.125538036227 -0.0358282998204 0.0
-0.0732311010361 -0.015182249248 -0.0847601071 -0.0582658797503 0.0128425993025 0.118247136474 0.0182003732771 -0.128298819065 0.0200290549546 0.0
0.0586386471987 -0.148150458932 0.0283308066428 -0.103994771838 0.0319547690451 -0.132855936885 -0.0356144197285 0.00787928979844 -0.0482139028609 0.00769667
0.0574225336313 0.0460917428136 0.26884457469 -0.0405953377485 -0.127345979214 0.0636677742004 -0.141529321671 -0.221784248948 -0.150218069553 0.0
-0.267325282097 -0.228637874126 -0.101052187383 0.102235510945 0.155839130282 0.0686418637633 -0.0925542265177 0.119534499943 -0.15752568841 0.0
0.275167584419 0.160441413522 0.220460295677 0.149584367871 -0.0887056589127 -0.0524773225188 -0.0945867225528 -0.077501565218 -0.230433940887 0.0
0.0788082629442 0.115578316152 0.136036336422 -0.0781802609563 -0.0544925518334 0.0318444855511 -0.0405384637415 0.0128380144015 0.110941909254 0.0
0.251788765192 -0.00903718266636 0.117880605161 -0.0149620734155 0.128722056746 0.0956499502063 -0.158192768693 -0.157397896051 -0.0896129086614 0.0
-0.121668174863 -0.0622838698328 -0.0435209050775 0.0768509283662 0.0193448420614 -0.0523366443813 -0.209068387747 0.0146076660603 0.142659604549 0.0
0.326701104641 0.057327196002 -0.0761457160115 -0.0998649820685 0.0746523439884 -0.103561520576 -0.339078277349 -0.0839524045587 -0.17521636188 0.0
0.0350026488304 0.0394094586372 0.0215845648199 -0.00140515586827 0.081805549562 -0.0465213805437 -0.0867222473025 -0.0648087561131 0.0198053903878 0.0
-0.0286884456873 -0.0553362667561 -0.13103967905 0.126658752561 -0.0624930299819 0.0126153426245 -0.0224115550518 0.116546519101 0.134213343263 0.0
-0.0349884033203 -0.0767856910825 0.0265940353274 -0.106257967651 0.088429197669 0.153303265572 -0.00194251467474 0.148234039545 0.12061855942 0.0
-0.0155069958419 -0.115220710635 0.120398618281 0.00536318821833 -0.138972431421 -0.185016036034 -0.0200979188085 -0.0973955392838 -0.000949181616306 0.0
-0.0200074464083 0.00312606804073 -0.140475913882 0.0747076496482 0.0570629648864 -0.0741213262081 -0.132105857134 0.110569827259 -0.10757381469 0.0
-0.301366448402 -0.0514682419598 -0.0726103112102 0.0479436852038 0.215752065182 -0.0657366514206 0.0876704677939 0.255373239517 0.142222583294 0.0
0.0528911501169 0.0636481940746 -0.105131708086 0.126101776958 0.0159220602363 0.0791528373957 -0.00170849391725 0.00666924146935 0.127690553665 0.0
0.122971773148 0.0213371179998 -0.028181662783 0.0879495069385 0.0121002178639 0.0410260036588 -0.123988524079 0.072787553072 0.174997776747 0.0
-0.0697174891829 -0.010571224615 -0.0634774416685 -0.0522591769695 0.0244369786233 -0.0683174654841 0.00595439877361 0.183797180653 -0.00294361216947 0.0534397
-0.0659213736653 0.0603024475276 0.152065902948 -0.10217961669 0.0905079245567 0.172104045749 -0.193707183003 -0.0168485026807 0.0172866974026 0.0
0.18659503758 0.237214148045 0.0828352123499 -0.0114149795845 -0.0109533350915 0.0219832472503 0.0198520179838 -0.0672086104751 -0.164710953832 0.0
-0.174273714423 -0.0638178661466 0.113537117839 -0.0812770202756 -0.0305586233735 0.102160707116 -0.281208187342 0.0405252836645 0.105102263391 0.0
0.0224860459566 -0.00434758560732 -0.118503279984 -0.0324947424233 -0.0348020642996 0.0323242768645 0.0966414734721 0.0411856472492 -0.0674352198839 0.0
0.00674318242818 -0.0510791763663 -0.0684747099876 0.0459225662053 0.0669564530253 0.176625236869 0.0127406259999 0.22246350348 0.103308051825 0.0
-0.0845014378428 0.05458650738 0.0331230610609 0.154492229223 -0.045851085335 -0.0655657276511 0.0142381880432 -0.00549594778568 -0.212017193437 0.0
-0.164306893945 -0.00457284878939 -0.0121922530234 -0.0621168836951 -0.0460814498365 0.0380189977586 0.0107847629115 0.07481084764 -0.226313352585 0.0
0.0021864452865 -0.133187934756 -0.0369378589094 -0.0613872073591 0.0734424591064 0.0333653762937 0.121947139502 -0.049657355994 -0.0451863855124 0.0
0.0731615945697 0.0823022797704 -0.0980104580522 0.156947493553 -0.0220262371004 0.0400771163404 0.152444496751 0.0529485084116 0.17777249217 0.0
-0.057606164366 0.0285967607051 -0.00643520755693 -0.0948768854141 -0.0686577931046 0.0122358510271 0.0095976954326 -0.101305782795 0.040296766907 0.0
0.0293307155371 0.177547097206 -0.0860591679811 -0.0420453622937 -0.00953389890492 -0.0145367924124 0.108950175345 0.0862387642264 -0.056308824569 0.0
0.0903251618147 0.0060647726059 -0.0771265178919 0.142286837101 0.157994017005 -0.0147334914654 -0.220776677132 -0.193965643644 -0.157185167074 0.0
0.0945513024926 0.102592244744 0.0733404234052 -0.0592249929905 0.0447967983782 0.00978613644838 0.135523110628 0.037876971066 -0.0533629246056 0.0
-0.0463774651289 -0.00121569947805 0.080760769546 -0.100220225751 0.12067399174 0.0143784545362 0.0791601240635 -0.030666295439 0.0529335848987 0.0
0.131455361843 0.0899479165673 -0.084489390254 -0.126754179597 -0.0701707601547 -0.184005945921 0.0911596342921 0.107067726552 -0.0116168297827 0.0
0.0135551467538 -0.0185935962945 -0.057501591742 0.0921110659838 -0.144307151437 -0.0388193875551 -0.0745800286531 -0.00241120555438 0.049031060189 -0.0996635
-0.0159556176513 -0.0754316449165 0.0629448443651 0.0343270562589 0.0160633027554 -0.00452512968332 -0.135406017303 -0.173218607903 -0.0637654960155 0.0
0.09735558182 0.109241083264 0.0735116899014 -0.0995043814182 0.0265670754015 -0.235269919038 -0.16721598804 0.0772527605295 -0.226253941655 0.0
-0.069702245295 0.120374150574 0.0834882557392 0.10958597064 -0.117155909538 0.0844407454133 0.046659335494 -0.1425601542 0.0938971862197 0.0
-0.118653170764 0.0122646512464 0.103185907006 -0.088477499783 -0.122001893818 0.026397747919 0.076391287148 0.12277481705 -0.0958259701729 0.0
-0.154632881284 0.0160148162395 -0.153643548489 0.0387410409749 -0.141323775053 -0.0602222941816 -0.072560146451 -0.0564471520483 0.04092156142 0.0
-0.117821924388 -0.0714136511087 0.0567004866898 0.0255841575563 -0.170631065965 0.00829127337784 -0.0168820247054 -0.0938828960061 0.0588698424399 0.0
-0.104377433658 -0.116291791201 -0.215319722891 -0.0217510648072 -0.10481351614 -0.17094117403 -0.201934039593 -0.237209826708 -0.167078837752 0.0
-0.00744929956272 0.0946661531925 0.209952384233 -0.1316473037 -0.000715335598215 0.238860368729 0.150558039546 0.111556097865 0.00742132496089 0.0
0.0670305714011 0.0831697061658 0.00679386453703 -0.145030587912 -0.0419306084514 0.140608847141 -0.143313616514 -0.0330175794661 -0.0191570203751 0.0
0.137830078602 0.0476599000394 0.0254653636366 -0.00652907136828 -0.0939836353064 -0.112302467227 0.0406111441553 0.00742731336504 -0.0385663360357 0.0
0.176246106625 0.0725987181067 -0.0042769308202 0.103648841381 0.101580105722 -0.130987688899 -0.0994810834527 -0.0823081359267 0.0499241352081 0.0
0.257348418236 0.15131367743 -0.121863715351 0.046055547893 0.114027045667 0.070691511035 -0.11681356281 0.154979899526 -0.130300208926 0.0
0.0905562341213 0.126869812608 0.141180604696 0.0126853650436 -0.0788523703814 -0.229636132717 0.141781017184 -0.133309617639 -0.149717330933 0.0
0.0912759304047 0.120366811752 -0.00726643158123 -0.102685153484 0.0150496577844 0.0454458035529 -0.00950856972486 -0.080514959991 0.0365928448737 0.0
0.0470794290304 -0.0941113233566 -0.096304602921 -0.0363588780165 -0.122733876109 -0.120686315 -0.103915631771 -0.00256296223961 0.0535529777408 0.0
0.239773958921 0.0815680474043 0.255607873201 -0.0356476642191 -0.0645151808858 0.201927170157 -0.0367343463004 0.0290054939687 0.146853998303 0.12098
-0.0975975468755 0.00661648670211 -0.075542896986 -0.114855259657 -0.180876374245 -0.0900186598301 0.293569535017 0.0241489224136 0.0372553095222 0.0
-0.0139269502833 -0.0323903858662 -0.13892455399 -0.109973281622 0.0929430425167 -0.0506382696331 0.130303993821 -0.11677582562 0.0130472816527 0.0
-0.0758525729179 -0.0758849084377 -0.0808092877269 0.0425614230335 -0.0711508914828 -0.181820333004 0.238319337368 0.1401322335 0.0790346190333 0.0
-0.155442357063 -0.0477488972247 0.0694747418165 0.00126686587464 -0.0438760444522 0.021153382957 -0.0759104266763 -0.156793668866 0.0237642172724 0.0
-0.00339619466104 0.14310669899 0.0300813410431 0.198043227196 0.161094561219 -0.053105764091 0.0884962528944 -0.0892061665654 -0.110925287008 0.0
-0.0313899591565 0.0778572559357 0.174058258533 -0.050305634737 -0.0128065953031 -0.126876696944 -0.0598362982273 -0.0296402331442 0.102239273489 0.0
-0.01355570741 0.0909292548895 -0.0200717225671 0.0940426588058 -0.0818656384945 -0.108925238252 -1.31923852678e-05 -0.0440732650459 -0.116140574217 0.0
0.0945384576917 0.021195134148 0.0350423380733 -0.0999373495579 -0.0390035882592 0.0859180539846 0.0639924481511 0.0318032279611 0.023332208395 0.0
-0.0794920250773 -0.182222902775 -0.235913679004 0.0559705682099 -0.196587726474 0.0259868856519 -0.0659397095442 0.0413592197001 0.0516023300588 0.0
0.126095294952 0.100192457438 0.0222587957978 0.153626292944 0.124521151185 0.00362991751172 0.0199963264167 0.295857340097 0.0923519805074 0.0
-0.110031619668 -0.0215660370886 0.0180197805166 -0.175585776567 -0.0835501998663 -0.0448081493378 0.168072193861 0.0956761315465 0.144831985235 0.0
0.0315938144922 -0.141413748264 0.015282179229 -0.0774219706655 -0.145756244659 -0.119564034045 -0.0115827834234 0.293491184711 0.129795446992 0.0
-0.0477992966771 -0.0159516688436 -0.118256218731 0.144614204764 -0.0123774344102 0.0205054171383 0.261816233397 -0.0619855187833 -0.0374647751451 0.0
-0.0405598022044 -0.0738943293691 0.0997002720833 0.065562158823 -0.116107217968 0.0652021020651 -0.141108199954 0.0387926362455 -0.123437605798 0.0
0.096720457077 -0.0840974450111 -0.132711112499 -0.0696314573288 -0.056368727237 0.0979126915336 0.106562279165 0.221028089523 0.00329595548101 0.0
-0.119698762894 -0.000535917002708 -0.185660123825 0.0315946787596 -0.129640519619 -0.04785842821 0.0690561830997 -0.0465108342469 0.144893854856 0.151412
-0.0149532509968 -0.314767420292 -0.0920836552978 0.0194396506995 -0.00625857664272 -0.0372517965734 0.0996209681034 -0.164639055729 0.00970825832337 0.0
-0.107510313392 0.105528756976 -0.160732463002 -0.0115734729916 -0.138256400824 -0.0993095114827 0.118931293488 0.144505411386 -0.0900742635131 0.0
-0.108279071748 -0.117220126092 -0.192574754357 0.0785525366664 -0.0850673913956 -0.0770421549678 0.175942823291 0.0921913981438 0.104447647929 0.0
-0.10814807564 0.136565044522 0.0943996906281 -0.143893539906 0.097610861063 0.004193326924 -0.0125008709729 -0.0574478134513 -0.0229277573526 0.0
0.00782445259392 -0.126353219151 -0.0471058636904 0.0422643534839 0.155195862055 0.114179156721 -0.0322982780635 0.123067267239 0.0206762235612 0.0
0.023374542594 0.0761875882745 0.0549207627773 -0.161282047629 -0.184645742178 -0.0223423093557 -0.137205049396 -0.221465110779 -0.120362132788 0.0
0.0693209394813 -0.0929765105247 0.0520261637866 -0.112449742854 0.0330917090178 -0.182214573026 -0.111217357218 0.0449580363929 0.15304967761 0.0
0.211534976959 0.197194039822 0.247154533863 0.0943288356066 -0.179629758 -0.0161322001368 0.0663876086473 -0.0591998882592 -0.0715052336454 0.0
-0.043568212539 0.0266869105399 0.00794927682728 0.185109272599 0.11565118283 -0.0510853044689 0.211485758424 0.116471126676 0.0400215573609 0.0
0.0713289454579 0.0299661979079 0.123647384346 0.0118880467489 0.125569209456 -0.0328200571239 0.194130152464 0.0902479439974 0.321587890387 0.0
0.00338356895372 -0.0658289790154 0.0857463777065 0.0731394290924 0.0481349900365 -0.0890350267291 -0.0728002488613 -0.00685490947217 -0.00158959708642 0.0
-0.12828989327 -0.00768626714125 -0.221922770143 -0.167200699449 0.0104312449694 -0.123534813523 -0.114781782031 0.309236764908 0.0233869589865 0.0
-0.00769715476781 0.0830773040652 -0.0356071703136 -0.0904108807445 0.077644109726 -0.161964192986 0.29114061594 0.121936358511 0.0803217813373 0.0
0.0397225357592 -0.109571389854 -0.0709106773138 -0.0609440803528 0.0756825059652 -0.0195570569485 0.0452378764749 -0.0551279112697 0.0245609469712 0.0
-0.0625888109207 0.0556608065963 -0.00502065569162 -0.0875773578882 -0.128303095698 0.147826746106 -0.0542088001966 0.106312014163 0.0473310537636 0.0
0.11424780637 -0.013971472159 -0.161353439093 -0.109976887703 0.0446485765278 -0.0661851018667 0.0348304063082 0.159475162625 0.0455463305116 0.193309
0.162867635489 0.204550236464 -0.187195003033 0.149104595184 0.148900792003 -0.102799199522 0.0546318329871 0.119838044047 0.0811308175325 0.0
0.0733487680554 0.11555492878 0.077832698822 0.117461487651 -0.0856116488576 -0.0728061124682 -5.30431316292e-06 -0.115254849195 -0.176585897803 0.0
-0.0550212785602 0.0241507757455 -0.00115321332123 0.0569815710187 -0.115936599672 -0.179896354675 0.153795555234 0.0202770940959 0.165072247386 0.0
0.0492250621319 0.0594107359648 0.139325112104 -0.0478650666773 0.0626579299569 -0.0761332809925 -0.112725809216 -0.0599081367254 0.120143584907 0.0
0.0288298707455 -0.0493082888424 0.0324538052082 -0.103883229196 -0.104909263551 -0.131398782134 0.106645815074 -0.0316564105451 -0.00408978806809 0.0
0.124889470637 -0.0969076901674 -0.0723508372903 0.035185713321 -0.0542875565588 -0.0777294933796 0.0395698882639 0.136070653796 0.0762641504407 0.0
0.0277149546891 0.113513045013 -0.163989454508 0.0319987609982 -0.0798328369856 -0.22018891573 0.109305486083 0.0654460787773 0.0301595255733 0.0
-0.0906997993588 -0.0458377413452 -0.0463850311935 0.194619610906 0.0955739617348 -0.0989234745502 0.154294207692 0.192002415657 0.136974900961 0.0
0.0245804619044 -0.113998785615 -0.00916184764355 0.101130217314 0.0600902363658 -0.127714067698 0.00856430083513 0.138489544392 -0.0449178740382 0.0
-0.0020461124368 -0.0202942341566 -0.102908447385 -0.160354211926 -0.0911684632301 0.0990514606237 0.105846114457 -0.0569448582828 0.14536575973 0.0
-0.0758863538504 0.0195823982358 -0.154057785869 -0.153335288167 0.111517131329 -0.0345896147192 0.141108185053 0.0727595686913 0.0462610721588 0.0
0.01142096892 0.0766613855958 -0.195073887706 0.0771664232016 0.115998648107 0.0465535148978 -0.064427383244 0.0052638258785 -0.26581838727 0.0
-0.02456035465 0.0668231993914 0.30362278223 -0.00422098860145 -0.0167775247246 0.156205698848 -0.284829229116 -0.27937707305 -0.143014878035 0.0
-0.0828460007906 -0.0931362658739 0.0904195085168 -0.00506284832954 0.12671226263 -0.114084199071 0.130262449384 0.113824576139 0.0982064083219 0.0
0.0903866365552 -0.133001953363 -0.0779220759869 0.0193172041327 0.10221593082 -0.145924985409 -0.143407449126 -0.102550499141 0.0502307415009 0.0
0.116822041571 -0.113116793334 0.145720496774 0.0713079497218 -0.00670163519681 0.0694245919585 0.0748598501086 0.0957669764757 0.0450822971761 -0.188736
0.0637095272541 -0.107781179249 -0.0099138179794 0.0134896095842 0.0595224797726 -0.0208403263241 0.0875719338655 0.0447583645582 0.127495184541 0.0
0.0822581425309 -0.136391460896 -0.0839009806514 0.0295173618942 -0.0931201353669 0.00592970801517 0.032041400671 -0.0334237851202 0.0602586194873 0.0
0.0165701843798 -0.0175112634897 0.0308687593788 0.100368462503 0.0246252268553 0.0392546504736 -0.0346751771867 0.0227477457374 -0.0396425947547 0.0
0.0298447031528 0.124797157943 -0.0858273804188 -0.0683638751507 -0.0845220014453 0.0643336325884 0.100980244577 -0.101032957435 0.0655887722969 0.0
0.0562433227897 -0.127335235476 0.00561367580667 -0.13716840744 0.0406440198421 -0.12051102519 -0.130910232663 -0.105803519487 -0.0627266392112 0.0
0.0650757104158 -0.0398193597794 0.115464046597 -0.0163333453238 0.12204516679 -0.0105285327882 -0.10826176405 -0.101180948317 0.00610832916573 0.0
0.0246810689569 -0.05129417032 0.137647211552 -0.0463165529072 0.0269086938351 -0.135627374053 0.0669401660562 0.145714998245 0.0271282438189 0.0
-0.0559531450272 -0.0386723428965 -0.0273881591856 0.0456667691469 -0.0603621974587 0.109862819314 0.0221788380295 -0.129876792431 0.0706974938512 0.0
-0.0974507555366 0.00587920099497 0.104408949614 -0.0552635118365 -0.0377108491957 -0.0160479452461 -0.0195803660899 -0.0354955904186 -0.0288780089468 0.0
-0.0586533844471 0.0893105342984 -0.082053810358 0.0176596883684 -0.108775563538 0.00186734646559 -0.124307081103 -0.0480123721063 -0.0774883776903 0.0
-0.139737084508 0.0470456853509 -0.0292642284185 0.129507184029 -0.117947302759 -0.0366992205381 -0.111464202404 0.0874531045556 -0.0650805607438 0.0
0.109240785241 -0.110525943339 -0.0459551326931 0.0540689527988 -0.0713531523943 -0.0609561949968 0.0329987704754 -0.0719779804349 -0.0759929418564 0.0
0.00290184863843 -0.093359567225 -0.102300785482 -0.13409113884 -0.0866816341877 -0.0226241871715 0.150353878736 -0.0179574582726 -0.0535964183509 0.0
0.0503303669393 0.127407714725 -0.00868454761803 -0.0840910971165 0.121033869684 0.104804515839 -0.110322184861 0.0391757488251 -0.011075463146 0.0
-0.0400006361306 -0.0918295308948 -0.0564113073051 0.0777579769492 0.0741111040115 0.0441022254527 0.0318229496479 -0.0222673658282 0.123827986419 0.0
-0.132675036788 0.113890208304 -0.13205203414 0.0512960478663 -0.107448987663 0.0544603839517 -0.145038232207 0.0401926226914 -0.0757692232728 -0.0163102
0.220812022686 -0.102195508778 -0.131255552173 0.129781514406 0.0281048510224 0.0330859236419 -0.0710898339748 0.177837342024 -0.12922655046 0.0
-0.0346981547773 -0.100219219923 0.12809753418 -0.0255447085947 -0.0681194290519 -0.0172620061785 0.0489854253829 -0.0752394795418 0.00900862459093 0.0
0.0686496421695 -0.0335835777223 -0.0326145589352 -0.185314640403 -0.0187823958695 -0.129026427865 -0.252667546272 -0.0150905828923 -0.123993895948 0.0
0.0446025505662 0.0145960748196 -0.102891758084 0.0409265942872 -0.0498623475432 -0.05866663903 0.121779195964 0.0536983795464 -0.0888130739331 0.0
-0.0887507349253 -0.100654222071 0.0313063077629 0.0895480364561 -0.101522564888 -0.00291270506568 0.0577534064651 0.10387930274 0.0126476287842 0.0
-0.0892110019922 -0.0873186290264 0.0632074177265 -0.0903685837984 -0.0202453136444 0.0323875173926 -0.00911625940353 0.151542618871 -0.0398435406387 0.0
-0.120225273073 0.137991786003 0.0696858242154 -0.176214113832 -0.0107949776575 -0.0402996093035 -0.0999620258808 0.00482997624204 0.0236583352089 0.0
-0.0829664468765 -0.133022725582 -0.12163105607 -0.0237428843975 0.0622314177454 -0.187239974737 0.0565354824066 0.0857307463884 -0.0910155326128 0.0
0.0416272357106 -0.04488286376 0.0390816181898 0.0303611718118 -0.044317625463 0.0681724324822 -0.0741772130132 0.0787518545985 0.107268884778 0.0
-0.0152081465349 0.0474763177335 -0.103456415236 -0.114787891507 -0.0693270787597 0.0700165852904 -0.0928260684013 -0.0473175868392 0.0810929313302 0.0
-0.132326200604 0.0747241675854 -0.0376620329916 -0.114143565297 -0.0849341750145 0.005914459005 0.128703206778 0.168899789453 -0.0373304225504 0.0
-0.102397352457 0.100568249822 -0.140855714679 0.0263237431645 0.00128671166021 0.0469247847795 0.0375876389444 0.0282250251621 0.0607996731997 0.0
-0.0524701029062 -0.0390938408673 -0.0809321254492 0.0731157287955 0.191387355328 0.0663302987814 0.0171780269593 0.159871041775 0.108753725886 0.0
-0.0486833527684 -0.0700678229332 -0.00129123905208 0.059153791517 0.0797767564654 0.0420832820237 -0.0304528959095 0.0919446200132 0.0462257824838 0.0
0.0881410166621 -0.128304868937 0.0489950403571 0.111434213817 -0.0832649171352 -0.0582333169878 0.113007217646 -0.0844184011221 0.0345267988741 0.0
-0.158849924803 -0.119917035103 0.14756757021 -0.0230430308729 0.100621089339 -0.0548426322639 0.102699704468 0.183717504144 -0.0659050568938 -0.211732
-0.0806546807289 0.100784987211 -0.107888281345 -0.0530430227518 0.0672262832522 -0.000524424365722 -0.0289632994682 0.0318412780762 0.000309113383992 0.0
-0.0452899225056 0.0244809873402 0.17722684145 -0.0190064385533 0.0131871914491 -0.0519552603364 0.089612133801 0.0819193348289 0.0285400711 0.0
-0.0533569604158 -0.0943593159318 0.0406994409859 -0.00495133176446 0.0220480430871 -0.012060135603 -0.130395412445 -0.0560525730252 0.0135717540979 0.0
0.0264652501792 0.0275920797139 -0.0872735530138 0.08433778584 -0.0411715731025 0.0564822778106 -0.0486127138138 -0.120294310153 -0.0810158252716 0.0
-0.0602310076356 0.0223731696606 -0.11544316262 -0.129383176565 0.060682091862 0.140487775207 -0.133983075619 -0.0252455044538 0.0350411459804 0.0
0.0854855626822 0.149267747998 0.209493592381 -0.162897840142 -0.0018729516305 -0.0587143301964 -0.133450016379 -0.11522769928 0.0554771274328 0.0
0.209400266409 0.194660514593 -0.0188857465982 -0.203361690044 0.100382693112 -0.0918808206916 0.119228988886 0.305998027325 0.192079752684 0.0
-0.100372686982 0.0142653696239 -0.176913425326 -0.116165094078 -0.0661302283406 0.0831127613783 0.0456035025418 -0.00498470524326 0.0725412294269 0.0
-0.0185222346336 0.00210843770765 -0.0898610278964 0.150505796075 -0.0257379580289 -0.0329257845879 -0.0269049070776 0.0408709235489 -0.0800023898482 0.0
0.114335998893 -0.0965041965246 -0.0338151939213 0.0126814488322 0.0759650990367 -0.102846950293 -0.0301130544394 -0.0902780592442 -0.17680208385 0.0
-0.0661133825779 0.0371619276702 0.0849553123116 0.0911396443844 -0.0788696482778 0.099746376276 0.138324379921 -0.0108098788187 0.00803324580193 0.0
0.127224966884 -0.0622038803995 -0.0892853215337 -0.00825988966972 0.0670887157321 -0.0990194901824 -0.280744671822 0.120053827763 -0.034813053906 0.0
-0.0821529701352 -0.0642552450299 0.0816016420722 0.141156002879 -0.146129846573 0.0452241562307 0.0996610671282 -0.0981326326728 -0.0721716955304 0.0
-0.0694007277489 0.0911150425673 0.0378671213984 -0.12724532187 -0.0356250554323 -0.0460909940302 0.108090490103 -0.133892282844 0.109233357012 0.0
-0.137621343136 0.134872585535 0.00719131296501 0.0870383754373 0.0308189149946 -0.0815611854196 -0.15415237844 -0.128847271204 -0.0454710200429 0.0
0.0166252274066 0.138303607702 -0.00590223027393 0.073142811656 0.106198042631 -0.0634806528687 0.0810559540987 -0.123566806316 -0.0234491340816 0.0512831
0.0072619295679 -0.0637208670378 -0.0499448180199 -0.0198373477906 -0.106931895018 -0.124394640326 -0.0118133341894 0.0639714300632 -0.0593086518347 0.0
0.0153206763789 0.0377466604114 0.0499249249697 0.0648389607668 -0.0969249978662 -0.0986060798168 0.232401490211 0.151208683848 0.145467713475 0.0
-0.0922210514545 0.0850333869457 -0.147554054856 0.0451627038419 0.0631230771542 -0.140459090471 -0.258725523949 -0.098793618381 -0.233704820275 0.0
-0.0342096537352 0.0154046574607 -0.057702947408 0.0844282060862 0.0667018219829 -0.119322098792 0.0161098390818 -0.0824812501669 -0.133352652192 0.0
0.0503081418574 -0.0951555222273 0.0629222095013 -0.161660790443 0.0272495727986 -0.0567194260657 -0.184082984924 -0.0240368191153 -0.155884191394 0.0
-0.0220796465874 0.0545912310481 0.107126496732 -0.0953101366758 -0.0808273479342 -0.0333257503808 0.089150570333 0.192622199655 0.0846800208092 0.0
-0.0960344523191 -0.10738709569 0.020402001217 0.116713345051 -0.0583604574203 -0.094220995903 0.00940445438027 0.0186370797455 0.0155918942764 0.0
0.141778290272 0.0328291505575 0.13054817915 -0.0863909348845 0.143681108952 -0.0024754460901 -0.0123388683423 -0.0519877634943 0.0915411859751 0.0
0.112127788365 0.150000974536 -0.0193994566798 0.110534258187 -0.157226026058 -0.0460618548095 -0.0930956304073 -0.0431572906673 0.0341633968055 0.0
0.137421742082 -0.040423642844 -0.114072099328 0.199420571327 -0.0736320465803 -0.00337630859576 0.269546627998 0.138772755861 0.193748861551 0.0
-0.0153688360006 -0.155749455094 0.0290838200599 0.0653876960278 -0.19287326932 0.0176335256547 0.245238929987 0.284155666828 -0.00174976140261 0.0
-0.0548347122967 -0.0103831188753 0.0359205268323 0.166849002242 -0.134172335267 -0.28273421526 0.314968824387 0.118856653571 0.137742742896 0.0
-0.0479454137385 0.0476689450443 -0.0158498249948 -0.0915662571788 0.0221726167947 -0.165507137775 0.150966703892 0.199746012688 -0.194231972098 0.0
0.0637050792575 -0.106386825442 -0.119207888842 -0.0271356385201 -0.108306691051 -0.104162193835 -0.00261510978453 -0.00625455239788 -0.0443515740335 0.0
-0.0350112877786 -0.140855789185 0.0660720095038 0.132563829422 0.106265284121 0.100680418313 0.285970062017 0.163192391396 0.151500061154 0.0
0.0272493865341 0.0377035029233 0.155730232596 0.202192798257 -0.0678803026676 0.0214453563094 0.13446354866 0.0371405258775 -0.0123861245811 0.112292
0.0809604153037 0.0591436177492 0.188529610634 0.0466823391616 -0.10072029382 0.0865211412311 -0.0293947774917 -0.0770081058145 -0.159597188234 0.0
0.0361168198287 0.0272098407149 0.0375645495951 0.0459275655448 0.1325070858 0.0357791148126 -0.0911069512367 -0.0762508511543 -0.0714349597692 0.0
0.117809452116 0.037292201072 0.1619117558 0.0432231798768 0.0174223892391 -0.0879997089505 -0.195922493935 -0.0875250101089 -0.132171362638 0.0
-0.045931186527 -0.0195272918791 -0.124536730349 -0.0981219187379 0.0019940698985 0.0768220350146 -0.0700289011002 -0.0708662047982 -0.087779507041 0.0
-0.108515508473 0.0148821966723 0.0352787449956 -0.002903530607 0.060972943902 -0.0940478667617 0.0971392020583 0.0276124477386 -0.0364090874791 0.0
0.0709561705589 0.0469630509615 0.0854725316167 0.14459502697 0.140994608402 0.0740304067731 0.0582168921828 -0.0329560115933 0.0644371062517 0.0
-0.0784074962139 0.0169124882668 0.248544871807 -0.0424911417067 -0.0650056228042 -0.162979260087 0.0526232793927 0.0159157700837 -0.151856377721 0.0
-0.0425492450595 -0.09325889498 0.00196965341456 -0.136292114854 -0.0753397196531 -0.0765438750386 -0.0102089550346 -0.162687420845 -0.0518865436316 0.0
0.151371926069 0.113534003496 0.0232559312135 -0.0458823479712 0.0510710142553 0.00522384606302 0.0575338937342 -0.0419687405229 0.0818539485335 0.0
-0.0478583350778 0.00492729665712 0.101669609547 0.0128832515329 0.039911583066 0.00742457387969 0.0465610027313 -0.086868070066 0.0502007231116 0.0
-0.0392140485346 0.0256984755397 -0.0350456237793 -0.0831683501601 0.166045978665 0.00558686582372 0.0313160791993 -0.0448916591704 0.125928923488 0.0
0.0274088624865 0.0622438788414 0.198391541839 -0.0643927827477 0.0174298994243 0.0725166276097 -0.0418841093779 -0.158069252968 -0.0967334285378 0.0
0.017953151837 -0.0391208902001 -0.129182830453 0.0299004167318 -0.0629480853677 0.0183368567377 -0.134135201573 0.0503841154277 -0.149780169129 0.0
0.0423029884696 -0.134318932891 0.0126193072647 0.131576687098 0.0338506437838 -0.117164865136 -0.105502232909 -0.0133794071153 0.000838609354105 0.0
-0.123129300773 0.0865263864398 -0.0501651354134 0.00186294480227 -0.0149693414569 0.0244861394167 0.0839393660426 0.0531419068575 0.148479416966 0.0
-0.146349072456 0.0617371089756 -0.068546205759 0.0272915586829 0.0844582095742 0.109114587307 -0.0613719858229 0.040715392679 0.0137153211981 -0.0329955
-0.380300849676 -0.233756482601 -0.313298732042 -0.165483996272 -0.212258338928 -0.188754066825 -0.104324690998 -0.142799913883 -0.267910867929 0.0
0.0504278615117 -0.147122845054 -0.123986393213 -0.0372529737651 0.0242720916867 -0.0469526946545 0.285618185997 0.185093656182 -0.013169568032 0.0
0.0688191130757 -0.114868760109 -0.0598912350833 -0.0165301691741 0.0722318440676 -0.0982140749693 0.260706841946 0.15527947247 0.0210366770625 0.0
0.0627309009433 0.0848031565547 -0.0777006372809 -0.126991540194 -0.0245094075799 -0.138412311673 -0.101588107646 0.0445456430316 0.00120708579198 0.0
0.078368075192 -0.172846570611 -0.154427617788 -0.132297307253 -0.0519186258316 -0.168795093894 -0.129726409912 -0.15500985086 0.0441570021212 0.0
0.0696779638529 -0.00953225046396 -0.0111754881218 -0.144547268748 -0.107950232923 -0.126364529133 -0.0164113212377 -0.115865066648 -0.105761319399 0.0
0.0501132197678 0.0106691224501 0.0369284152985 -0.00763250002638 0.0217518676072 -0.0747889280319 0.074772298336 0.183053165674 0.161405816674 0.0
0.117706365883 -0.00620512384921 0.214673399925 -0.0943013951182 -0.0587846525013 0.106277935207 -0.00907819066197 0.0782986283302 -0.00153740856331 0.0
-0.206235274673 0.0377817116678 -0.165786936879 0.0400040373206 0.129958152771 -0.140938967466 0.0817321464419 -0.0163460038602 -0.0861146375537 0.0
-0.05895870924 -0.00708348536864 -0.0515481159091 -0.0045260488987 -0.0844326093793 0.0417524538934 -0.144477263093 -0.148059412837 -0.138307973742 0.0
-0.025863096118 -0.0377580150962 0.0586090795696 -0.196654289961 -0.160455837846 -0.0707429721951 -0.123154655099 -0.0210958793759 -0.210015118122 0.0
-0.253229349852 -0.323519974947 -0.312632352114 -0.102631650865 -0.0882941707969 -0.212745696306 -0.0142970858142 -0.241150677204 -0.195023477077 0.0
-0.0856656730175 -0.0844242498279 -0.111065581441 0.00526920426637 -0.00380017771386 0.0447234474123 0.076381161809 0.25651243329 0.0295879859477 0.0
-0.126245722175 -0.0914338454604 -0.00447136024013 0.0566218085587 0.105734467506 0.0641902163625 0.0169016122818 -0.0363034233451 0.0792087987065 0.0
-0.141803339124 0.0897400379181 -0.039128869772 0.0766913294792 -0.126144453883 0.0174898691475 -0.0834185108542 0.110229387879 0.0196564123034 0.0
-0.0951372087002 -0.0641478151083 -0.042518671602 -0.140416204929 0.0098671047017 -0.0732777044177 0.23290656507 0.0613479241729 -0.097327016294 0.909611
0.000127636885736 -0.11828879267 -0.0700920000672 0.0659077838063 -0.0103604504839 0.113752759993 -0.06314779073 0.170699089766 0.126985415816 0.0
0.153082430363 0.158934190869 0.0134947178885 0.122901290655 -0.143597856164 0.0662508904934 0.0506353713572 -0.116366654634 -0.12093295902 0.0
-0.115010470152 0.152223110199 0.11622197926 -0.0973523184657 0.185847043991 0.0695279240608 -0.121616698802 0.0488552823663 -0.292949020863 0.0
-0.0193336941302 0.0681322589517 -0.00345326308161 0.139792367816 0.062373381108 0.0808278024197 0.124621905386 0.00651293806732 0.00549338990822 0.0
-0.146769598126 0.0434156022966 0.0240375064313 0.00367241958156 0.147016584873 0.00226876488887 0.165789037943 -0.0131736276671 0.0793182477355 0.0
0.160770118237 -0.0490621998906 -0.0272495821118 0.180544495583 0.110076785088 -0.173057511449 0.249413773417 0.0980100333691 -0.0554670616984 0.0
-0.0559949427843 -0.08551517874 -0.0735750868917 -0.110180906951 -0.0658099800348 -0.0186304617673 -0.00486930925399 -0.133280932903 -0.222786933184 0.0
0.107369035482 0.0308435466141 0.0389144197106 -0.0251090824604 -0.0716231018305 0.010965064168 0.0194714907557 0.123018011451 0.0356116034091 0.0
-0.0775738880038 0.136077538133 -0.051010325551 -0.015891527757 0.047186434269 -0.119813285768 -0.115967601538 0.119147822261 0.0492527410388 0.0
-0.084445759654 0.00381891126744 -0.0523009076715 -0.0708407238126 0.123271815479 -0.0321223065257 0.154545992613 0.0484248176217 0.0722657963634 0.0
-0.0596792176366 -0.125841870904 -0.0804374665022 0.13422472775 0.101097464561 0.0761510804296 0.0622257553041 0.0806002691388 -0.185992360115 0.0
-0.0218533575535 -0.0221432950348 0.0369529724121 -0.117013350129 -0.0183707661927 0.151663139462 0.0178466010839 0.079767331481 0.232805877924 0.0
-0.0395436920226 0.0802652612329 -0.195871725678 -0.00748700648546 -0.117603287101 -0.197529941797 0.0631734505296 0.00404838006943 -0.339183270931 0.0
0.0152282817289 0.0277868583798 -0.123106442392 0.0036113159731 -0.129164814949 0.0380920171738 0.0211296267807 0.0158076938242 0.0389333330095 0.0
0.0589486174285 0.0797080919147 0.061059191823 0.0776164755225 -0.0489814952016 -0.0313164144754 -0.038012187928 0.0406250990927 -0.0227529369295 0.0
-0.144081950188 0.0932520031929 -0.0924892276525 -0.157057747245 0.0718527212739 -0.11151253432 -0.0227571986616 -0.102537371218 0.0315048843622 0.140744
-0.158449336886 -0.032866306603 0.0494964234531 -0.174307391047 -0.211227074265 0.0169766694307 -0.19566090405 -0.337749302387 -0.0556691288948 0.0
0.119065195322 -0.0556587055326 -0.0736087411642 0.0151618449017 -0.0825304538012 -0.0808457732201 -0.119664728642 -0.0734676942229 0.0873975679278 0.0
-0.0623188465834 0.0605896189809 -0.169757783413 0.102232597768 0.0371250212193 0.056155692786 -0.01945005171 0.140661150217 0.159039959311 0.0
-0.0480509102345 0.0984285697341 0.036816328764 0.037868373096 -0.025909466669 0.14951081574 0.0542093105614 0.0461859926581 0.127501264215 0.0
-0.104628793895 0.0728589966893 0.173140123487 0.0476511232555 0.152007967234 0.104627668858 -0.00776362465695 0.0621013827622 0.0347944237292 0.0
0.0857973322272 -0.0320825055242 -0.163182079792 0.0432370267808 0.00453932164237 -0.0500883795321 -0.178119719028 -0.162654712796 -0.0809189602733 0.0
0.0468354783952 0.0745065510273 0.0876308605075 0.110982961953 0.19795037806 -0.0274905133992 0.00920778885484 0.101394601166 -0.0650823190808 0.0
-0.208496600389 0.0266894325614 -0.149378716946 -0.116287134588 -0.0596651956439 -0.107261799276 -0.185860648751 -0.10119920224 0.0851411446929 0.0
-0.0859219133854 -0.141017153859 -0.0881258398294 0.118877731264 0.00800070911646 -0.0450598113239 0.0579088665545 0.156876713037 0.201452583075 0.0
0.0868525505066 -0.154511123896 -0.0380031391978 -0.0598003230989 0.0613479949534 -0.0972284600139 -0.0805466473103 -0.0698347017169 0.0129766156897 0.0
-0.0232635289431 -0.0464129894972 0.0143035883084 0.156941741705 0.00596494041383 -0.0995927080512 0.0972423255444 -0.0256476700306 0.0992259010673 0.0
0.393139064312 -0.0650413185358 0.0314066000283 -0.00371559197083 0.219537675381 0.00497562903911 -0.376802295446 0.00578832719475 -0.139830216765 0.0
-0.0579434372485 -0.182275161147 -0.14610825479 -0.13315141201 -0.0893076658249 -0.183116838336 0.0470608659089 -0.0896792188287 0.00233752047643 0.0
-0.0711278244853 -0.0952348783612 -0.108355201781 -0.0139974784106 -0.0732966214418 -0.104064151645 -0.0132235018536 -0.0575994886458 0.0431358031929 0.0
0.015510587953 -0.105277441442 0.0592891573906 0.0712247267365 0.104646131396 0.0844199582934 0.0428630672395 -0.0303863026202 -0.00510927615687 0.0
0.0884937644005 0.020207747817 -0.182800784707 -0.223457828164 0.0555829443038 -0.0301113221794 -0.162285491824 0.00649962108582 -0.0358307287097 -0.17203
0.230771571398 0.00380089250393 -0.0363003388047 -0.161514401436 -0.0558071471751 -0.211400702596 -0.120734743774 -0.182802155614 -0.218594223261 0.0
0.101967588067 0.0563903413713 -0.190177515149 0.016844984144 0.0562414973974 0.137813925743 -0.188900738955 0.029858564958 0.0220361836255 0.0
0.25292545557 -0.114710405469 0.0140235722065 -0.295477151871 -0.120258174837 -0.143372893333 -0.373327046633 -0.17204734683 -0.0569494366646 0.0
-0.169611573219 -0.0839280337095 -0.0565156005323 -0.174332082272 -0.118422992527 -0.162450671196 0.0275663919747 0.00636421190575 -0.0846148729324 0.0
-0.0771837756038 0.0135533213615 0.0651132911444 -0.0974035710096 -0.225400805473 0.0149187603965 -0.118820764124 0.0900365784764 -0.0744867250323 0.0
-0.0455063544214 0.122667431831 -0.117614105344 -0.124502077699 -0.0688054487109 -0.0238435268402 -0.241567656398 0.0558283999562 0.079257376492 0.0
0.0495541654527 -0.0674549862742 0.107245795429 -0.327505856752 -0.232166871428 -0.127897471189 -0.230208054185 -0.242999464273 0.111462533474 0.0
0.140084996819 0.175207257271 0.180274993181 0.0435492284596 -0.0418217591941 0.0902882739902 0.203995585442 0.19857648015 0.18051995337 0.0
-0.0258650835603 0.214119702578 -0.134473234415 0.128561288118 -0.033692676574 -0.197623893619 -0.0779829919338 0.0270726047456 -0.102892585099 0.0
0.0919998809695 0.15248978138 0.140180245042 0.143813401461 -0.102815203369 0.240699797869 0.386188566685 0.14699780941 0.282254040241 0.0
-0.00383251765743 0.205555975437 -0.0833360031247 -0.0363469235599 0.070382155478 0.099366389215 -0.0611769519746 0.128621533513 0.0522453039885 0.0
-0.0538869276643 0.327749371529 -0.262578815222 0.00127372331917 -0.0250382106751 -0.185548365116 0.142207920551 -0.0316741876304 0.00775558222085 0.0
0.162648528814 0.0517358593643 -0.0882529839873 0.143262371421 0.121438473463 0.112489506602 -0.0117523083463 -0.00146367354318 -0.0332343839109 0.0
0.0210789162666 0.0898796394467 -0.0756898075342 0.128796502948 0.0300733968616 0.10123617202 -0.137357205153 0.0406776107848 0.0544217005372 0.0
-0.0392140708864 0.0597040168941 0.000466532888822 -0.0418860130012 -0.105021543801 -0.0310738347471 0.0368012562394 0.032088842243 -0.0231558866799 0.0
0.156181633472 0.132268354297 0.127169460058 0.180457100272 -0.189133703709 -0.0376581139863 0.323758870363 0.092455431819 0.00833331421018 0.382162
0.0191597472876 -0.030616492033 -0.0242988467216 -0.00392657751217 -0.12932369113 0.120667822659 -0.041510976851 -0.0248200930655 0.132225885987 0.0
-0.0630050227046 -0.0670520812273 0.0114140473306 0.00884646829218 -0.0738140940666 -0.0530619584024 -0.167066067457 -0.0745112672448 0.0474588535726 0.0
-0.0394141301513 -0.0323751308024 -0.0972678661346 -0.0117572071031 0.057331867516 0.127933874726 -0.131512343884 -0.120967835188 0.125631049275 0.0
0.138921037316 -0.0559294335544 -0.0261069200933 0.0388453342021 -0.0460734888911 -0.0229377690703 -0.0967805534601 0.0748862400651 0.10964743793 0.0
-0.0400986485183 0.0246689282358 -0.0875106006861 0.0180218685418 0.0422866083682 -0.0325025394559 0.0754862651229 0.0100349113345 0.0448088720441 0.0
0.117667987943 0.107622608542 -0.031777318567 -0.0340020619333 -0.193568021059 -0.0977466851473 0.0703424215317 0.0359268076718 -0.141286402941 0.0
0.173170909286 -0.0746359527111 -0.105305984616 -0.0779192075133 0.160834208131 0.177673712373 0.0209035910666 -0.0486604869366 0.0563727729023 0.0
-0.0583058670163 0.114300318062 0.133564725518 -0.237405195832 -0.129268348217 -0.104280970991 -0.198751151562 -0.151744067669 0.0810246393085 0.0
-0.109447851777 -0.0294694025069 0.176903128624 -0.0302131194621 -0.0764311105013 0.109776370227 0.0478648282588 -0.106890849769 0.0851682573557 0.0
0.0416807830334 -0.0170732382685 -0.101663202047 -0.0609224252403 -0.123936638236 0.0416939407587 -0.0110380798578 -0.154822647572 0.0831166505814 0.0
0.0973055809736 -0.0566829554737 0.0486653484404 0.0147452298552 0.0438377223909 -0.158527091146 0.0163835473359 -0.113872356713 -0.0823870822787 0.0
-0.0257891193032 -0.0669346675277 -0.00556735415012 -0.226691454649 -0.202596902847 -0.101150624454 0.0459335371852 0.0303304661065 0.152520149946 0.0
0.0901646986604 0.217208757997 0.181171804667 -0.0233797933906 0.118153065443 -0.0798082798719 -0.0720657035708 0.194063290954 0.0691883116961 0.0
-0.0140338325873 0.00202312623151 0.0373972281814 -0.125475779176 -0.12020085007 -0.125627756119 0.0165083277971 0.0185917597264 0.0969864428043 0.0
-0.0460512787104 -0.0404980368912 -0.116793014109 0.0985858514905 -0.11564283818 -0.134113177657 -0.106445357203 0.0305020101368 -0.0559351444244 0.0
0.162434399128 0.136451005936 0.0788152143359 -0.0658736974001 -0.0154639761895 0.055965077132 0.0329364389181 0.0711523965001 -0.0523864887655 -0.420304
-0.121438056231 -0.0730361789465 0.0214321576059 -0.0908613801003 0.0806907713413 0.0760297849774 -0.133870214224 -0.105111420155 -0.0542136952281 0.0
0.0476552471519 0.0272625498474 -0.0300635192543 -0.200693294406 0.0244478918612 -0.0779288485646 0.0440352745354 0.00197675521486 -0.0555347204208 0.0
-0.0523391589522 -0.0462264418602 -0.0299323052168 0.102016627789 0.0345594398677 0.0412335060537 0.0506135225296 0.153565138578 0.236386999488 0.0
0.0115359751508 0.079549357295 0.112183853984 -0.00502104358748 0.0145889138803 0.0670268461108 -0.0474716462195 0.083637624979 0.0837010368705 0.0
-0.0357224605978 -0.0567850954831 0.0213471315801 -0.0508949272335 -0.0768501460552 -0.0980186536908 0.0420670844615 -0.149212703109 -0.178116038442 0.0
-0.0756342560053 0.0065016685985 -0.0367795936763 0.0820331275463 0.0977228805423 -0.00327013037167 -0.0294239390641 -0.0564780831337 0.0344455428421 0.0
-0.192728728056 -0.0912638828158 -0.170526996255 -0.0655565708876 -0.169674187899 -0.112220786512 -0.266084432602 -0.219679370522 -0.0851701498032 0.0
0.0529929548502 -0.0679414346814 0.142916202545 0.053885512054 0.0520276427269 -0.10834017396 0.0141277806833 -0.117230668664 0.0536290928721 0.0
0.147539302707 0.0341700576246 0.238735154271 -0.118893146515 -0.129853367805 0.0167835559696 -0.0078494604677 0.0353146269917 -0.0595567263663 0.0
0.12452737987 0.050086081028 0.179046049714 -0.0369373038411 -0.0968388468027 0.00600174022838 0.112503796816 0.0358533374965 -0.0452319793403 0.0
0.0109671931714 0.136508956552 0.0718912854791 0.110398299992 0.108351156116 -0.0846661254764 0.127359062433 -0.0714757442474 0.0209338795394 0.0
0.0888591334224 -0.0383208952844 0.0688255354762 -0.074482999742 0.0183840915561 -0.0733363628387 -0.207115516067 -0.108945682645 -0.0124312890694 0.0
0.28197067976 0.271396905184 0.0256157368422 -0.224158763885 -0.0856235697865 0.146354690194 -0.146609485149 -0.173370018601 0.195312723517 0.0
0.0613682977855 -0.0639242529869 0.11256531626 0.10149051249 0.0623115636408 0.0210281331092 0.0293247699738 -0.000819504726678 -0.0613442100585 0.0
-0.121847346425 -0.0698215961456 -0.032764967531 0.00524462759495 -0.112771876156 0.0558607317507 0.0286864656955 -0.0428824275732 -0.0936564132571 0.0
0.089682392776 0.197100907564 0.122844308615 0.0641328468919 0.00673783710226 0.0580987334251 -0.0976347103715 -0.0548539347947 -0.0464899465442 0.0407347
