convolution,  5 3
-0.00491792708635 0.0
0.425969988108 0.0
-0.000216019587242 0.0
0.0308640152216 0.0
-0.00898844003677 0.0
-0.00761972274631 0.0
-0.00970374047756 0.0
0.320748567581 0.0
-0.0101626683027 0.0
-0.0076273814775 0.0
0.355953425169 0.0
0.0048786252737 0.0
-0.000156560141477 0.0
0.0217153374106 0.0
-0.00687566585839 0.0
-0.0164671353996 0.0
0.237496823072 0.0
0.00383253255859 0.0
0.761475920677 0.0
-0.00678209075704 0.0
0.800475656986 0.0
0.685882747173 0.0
-0.0196081306785 0.0
0.052972048521 0.0
-0.00576810678467 0.0
0.00514624314383 0.0
-0.0402476713061 0.0
0.404338598251 0.0
0.00605626497418 0.0
-0.0790804550052 0.0
0.608626365662 0.0
0.147721424699 0.0
0.757198154926 0.0
1.12294995785 0.0
0.0201103445143 0.0
0.0579225160182 0.0
-0.0147790079936 0.0
0.00467366818339 0.0
-0.0053378874436 0.0
0.714672327042 0.0
1.00107336044 0.0
0.326630711555 0.0
-0.0257548820227 0.0
0.209039762616 0.0
0.25025343895 0.0
-0.0126400711015 0.0
0.136814162135 0.0
0.0674084201455 0.0
-0.00470543373376 0.0
-0.00928265973926 0.0
-0.00372415059246 0.0
-0.0160039775074 0.0
0.283721774817 0.0
0.00426110252738 0.0
-0.0116428341717 0.0
0.000933076313231 0.0
0.00451229140162 0.0
0.405496925116 0.0
0.383319586515 0.0
0.175676345825 0.0
0.00629529170692 0.0
-0.00664976937696 0.0
0.0188841726631 0.0
-0.0183116029948 -0.332355
0.0192003175616 0.0
-0.151737466455 0.0
0.00209988630377 0.0
-0.00237728469074 0.0
0.088073477149 0.0
0.0527647919953 0.0
0.00140115187969 0.0
-0.140081003308 0.0
-0.00171450932976 0.0
0.00133003969677 0.0
-0.143289253116 0.0
0.00899744592607 0.0
-0.0028253600467 0.0
0.0949860960245 0.0
0.00554581452161 0.0
0.00135802198201 0.0
-0.063704431057 0.0
0.160785585642 0.0
-0.297298848629 0.0
-0.0060360673815 0.0
-0.306272834539 0.0
-0.243548870087 0.0
0.198396518826 0.0
-0.00711519224569 0.0
0.816278874874 0.0
-0.00675132032484 0.0
0.545404613018 0.0
-0.154346674681 0.0
-0.00194544380065 0.0
0.965642333031 0.0
-0.233924910426 0.0
-0.0647846981883 0.0
-0.312485694885 0.0
-0.430585980415 0.0
0.0256320871413 0.0
-0.024701885879 0.0
-0.00202406337485 0.0
-0.0106881307438 0.0
-0.011207007803 0.0
-0.268318772316 0.0
-0.395446240902 0.0
-0.0963996946812 0.0
-0.0144634665921 0.0
-0.0684521049261 0.0
-0.105708830059 0.0
0.00154774659313 0.0
0.270788609982 0.0
-0.0369954332709 0.0
0.0158427488059 0.0
0.641425013542 0.0
0.00403054710478 0.0
-0.0156620759517 0.0
-0.123814538121 0.0
-0.0212573222816 0.0
0.00202455068938 0.0
0.0134323844686 0.0
0.00177542062011 0.0
-0.146794199944 0.0
-0.143732339144 0.0
-0.0529121570289 0.0
0.403253525496 0.0
0.0011709081009 0.0
0.601539492607 0.0
0.0469136834145 0.982562
