convolution,  5 3
0.539906680584 -0.148812532425 -0.391154766083 0.266157984734 -0.390415728092 0.428513854742 -0.0308955404907 -0.163252472878 -0.515645503998 0.0527743
0.925588011742 -0.171374857426 -0.519220888615 1.02681517601 0.130578830838 -0.560898125172 0.682760894299 0.0288618635386 -0.358267843723 0.0339037
-0.357089519501 0.289824277163 0.0650962740183 0.286799758673 -0.54747647047 -0.507130205631 -0.0182379838079 0.00425505731255 -0.274488508701 -0.00201642
0.334272921085 0.874012231827 0.792075514793 -0.143946543336 -0.125748738647 0.625085890293 -0.07036819309 -0.237379461527 -0.0934344008565 -1.23857
0.341472834349 -0.33248269558 -0.0516000390053 0.314454078674 0.21646130085 -0.634461581707 0.610948264599 0.430111259222 -0.184082329273 0.0563969
-0.153070241213 -0.221837639809 0.406028240919 0.35999161005 0.0224344581366 -0.0390557609499 0.0822964385152 -0.101455196738 0.803960800171 -0.409874
0.224003449082 0.13004732132 -0.135695561767 -0.501745760441 0.306962400675 -0.307330071926 -0.322220116854 -0.426952153444 0.43169760704 -0.00459659
0.449154913425 0.0303103290498 0.146621882915 -0.00646334374323 -0.0311666950583 0.409868448973 0.0853870809078 -0.165130570531 0.136427998543 -0.506264
0.221618175507 0.520198404789 0.183725386858 0.701698958874 0.940083920956 0.263594537973 -0.459199160337 -0.0281638037413 -0.115607053041 -1.19909
-0.396731972694 -0.362611740828 0.851883471012 -0.917441606522 0.0919119864702 0.626076757908 0.538983166218 0.137144237757 0.825342655182 -0.285095
0.0915487036109 -0.652036428452 -0.417034357786 0.545641481876 0.321609735489 -0.446161717176 -0.174058735371 0.658107161522 0.00785887893289 0.104106
0.446010738611 -0.519402623177 -0.275514960289 -0.10426454246 -0.595065832138 -0.325992792845 0.149030968547 0.493212997913 0.0796953737736 0.296278
0.290333658457 0.539241790771 0.568572342396 -0.161571800709 0.247129514813 -0.395643383265 -0.888339281082 -0.320274233818 -0.898838222027 0.788245
-0.987705349922 -0.716573417187 -0.919003486633 -0.499118924141 0.542913913727 0.371160954237 0.430667698383 0.401764571667 0.834115147591 0.163678
-0.0632326379418 -0.472028642893 -0.844495236874 0.0450718663633 0.0485971048474 -0.669669210911 0.47254049778 0.623275399208 0.39571377635 0.0792971
-0.235740199685 -0.373044729233 -0.61935532093 -0.181328862906 -0.331709951162 -0.0128413951024 0.339435428381 0.216485902667 0.404977500439 0.30139
