convolution,  5 3
0.0977901667356 -0.0300382915884 0.0693332031369 0.00532755861059 0.0815647691488 0.0184957478195 0.064393594861 0.0734072327614 0.0197510011494 0.0
-0.0990983843803 -0.00716411415488 -0.0354795381427 -0.00674799084663 -0.103944413364 -0.0259019173682 0.00169373222161 0.0616749078035 0.0032374758739 0.0
0.0402793847024 0.0940457955003 -0.0334843285382 -0.0439364276826 0.018508631736 -0.104787454009 -0.0271508041769 0.00135998032056 0.0220510177314 0.0
0.0430708453059 -0.0857880786061 -0.112164087594 -0.0443219617009 0.00790305621922 -0.0296448357403 -0.100069470704 0.0855174586177 -0.0680029541254 0.0
0.109825953841 0.0544792935252 0.0698264241219 0.0712318867445 0.0490201227367 0.0316229015589 -0.0323645211756 -0.0860014408827 -0.00489652249962 0.0
-0.127168014646 0.0646321251988 0.00329782487825 -0.0105610322207 -0.0872812792659 -0.0412950403988 0.0211280956864 -0.0104312077165 0.00325551000424 0.0
-0.037480186671 0.00573193421587 0.0321795605123 -0.0278994720429 -0.0877091810107 -0.0292088165879 0.0271262135357 0.109587132931 0.0691133514047 0.0
0.0388905405998 0.047867257148 0.11885099113 0.0564739257097 0.0808422118425 -0.00532024400309 -0.0289987251163 0.116071268916 0.144570022821 0.0
0.0190056823194 0.119343392551 0.124706573784 -0.108203195035 0.0916584357619 -0.00552947400138 -0.126387923956 -0.0272832643241 -0.0207269601524 0.0
-0.0305453073233 -0.0453067310154 -0.0660482943058 -0.010223980993 -0.116264097393 -0.0531279332936 -0.116651013494 -0.0689282491803 0.0904094204307 0.0
-0.132364913821 -0.0889751762152 0.0605116263032 -0.0933986455202 -0.132952198386 0.0589730963111 -0.0580256618559 -0.0331298820674 0.0831643939018 0.0
-0.00688844965771 -0.0369928330183 0.0262495260686 -0.00246282853186 0.0796271413565 0.0396921224892 -0.0369034446776 -0.0649518370628 -0.0703070685267 0.0
0.00282053998671 -0.0458354689181 -0.0319187790155 0.00507956324145 -0.00385189731605 -0.0655431672931 -0.101691886783 -0.0870495885611 -0.053013432771 0.0
-0.0240776706487 -0.0483213141561 0.0510567910969 0.0331126451492 -0.0550794526935 0.0631142631173 0.0275507550687 0.0454884618521 -0.11593952775 0.0
0.0133844073862 0.0324342250824 -0.0116051454097 -0.0250355452299 0.0239206925035 -0.0856010466814 0.00293006235734 -0.0724818259478 0.00969514064491 0.0
0.0669829696417 0.0571801029146 -0.0778524056077 0.090750567615 -0.0609394498169 0.0322749167681 0.10548504442 0.183712825179 0.0653529986739 0.0
-0.105774953961 -0.00961788464338 -0.0251675136387 0.125731661916 0.04943170771 -0.0987271293998 0.0463658459485 -0.0766126960516 0.0402427427471 0.0
0.0656303316355 -0.043882496655 -0.0028791972436 0.121175125241 -0.0806433036923 -0.0549756102264 0.0190481320024 0.0751581713557 0.0363370478153 0.0
0.145143926144 0.119281202555 -0.0148884430528 0.06064267084 0.104434356093 0.0981424003839 0.059569016099 0.149608016014 0.0469051785767 0.0
0.000129099935293 0.0163383390754 0.045385863632 0.159814074636 -0.0383648090065 0.0278201363981 0.0548899546266 0.145754337311 0.0475970543921 0.0
0.0537208616734 -0.045426491648 -0.0446462109685 -0.0886524170637 -0.0416944511235 -0.033447176218 -0.185176163912 -0.124105788767 -0.0729372873902 0.0
0.0622297525406 0.010746864602 0.0543621778488 0.0745905563235 0.0237303804606 -0.0424909889698 -0.0248845014721 -0.0659910589457 0.074706107378 0.0
-0.0293393917382 0.0163002498448 -0.112096734345 -0.0752402469516 0.00987207423896 -0.0872364640236 0.00871574692428 -0.0814784765244 0.0998860821128 0.0
0.0723542273045 -0.065073736012 -0.0359021276236 0.179287314415 -0.103272937238 0.0311378277838 -0.0179034303874 -0.0501584671438 -0.0351666733623 0.0
0.0881005525589 0.0879500210285 -0.0321568474174 -0.0330637209117 -0.0172099526972 0.00800294708461 0.0252846963704 -0.0400625504553 -0.0864104777575 0.0
0.0435645356774 -0.0306241121143 -0.0503479912877 -0.0611887685955 0.0323646552861 -0.105649806559 0.0378927625716 -0.0752455890179 -0.0541571602225 0.0
-0.049103345722 0.037126980722 -0.0241965223104 0.0242672059685 0.0725410431623 -0.0942424088717 0.0590855032206 0.0236213468015 -0.0368213802576 0.0
0.0669072493911 0.0519839413464 -0.0120275439695 0.0453273393214 -0.0510816797614 -0.00274963746779 0.0977212116122 -0.0498919934034 0.0363530553877 0.0
-0.0333010703325 0.115513168275 0.0241092834622 0.113103345037 -0.047530181706 -0.00718220509589 0.0899735242128 0.0305298846215 0.0186051912606 0.0
-0.115206941962 -0.116652965546 -0.10509327054 -0.0746840238571 -0.0647030621767 0.002916904632 0.0791284143925 -0.0791624188423 0.0568672046065 0.0
0.00497301248834 -0.0552364215255 -0.00638118293136 -0.0941275134683 -0.0974601656199 -0.00601646583527 -0.0740180984139 0.0597122088075 -0.0201633777469 0.0
0.0552302002907 -0.0800362452865 0.0689759403467 -0.0525648444891 -0.0955550596118 -0.0227601863444 0.0799447000027 0.0439637675881 0.0142279397696 0.0953053
-0.00702634826303 -0.0442386195064 0.016670435667 -0.0252247732133 0.11332590133 0.0343298837543 -0.0536467209458 -0.0227996371686 0.0890192911029 0.0
-0.0407664738595 -0.0665375813842 0.00418913457543 0.0201823022217 0.167616575956 0.165194272995 -0.203329727054 -0.16057357192 -0.0784933194518 0.0
0.0382069312036 -0.00182022410445 0.00130540889222 -0.0756798088551 -0.0978722050786 0.0322464480996 -0.0389790348709 0.0638178884983 -0.00943701714277 0.0
0.00300061353482 -0.0779470726848 0.105376631021 -0.00445365859196 -0.247098103166 -0.114618718624 -0.153541743755 -0.121454320848 -0.103789523244 0.0
-0.0936827585101 -0.016256775707 -0.0237736813724 -0.0902228951454 -0.1493781358 -0.0351022444665 0.0409892201424 -0.0071536465548 0.0263802036643 0.0
0.0467034168541 0.0658360645175 -0.104638695717 0.0729125365615 0.155838027596 0.0824809446931 -0.139470338821 -0.0580670386553 -0.025714835152 0.0
0.0264727622271 -0.0846855044365 0.0407239198685 -0.129801899195 0.180202484131 -0.148512780666 0.112760066986 0.268064022064 0.232075825334 0.0
0.0562441498041 -0.00167599809356 -0.030262041837 0.216902136803 0.0263148508966 0.123531989753 0.0959876924753 -0.122959703207 0.124508067966 0.0
0.197586864233 0.0508417375386 0.0190643407404 0.152564704418 -0.0263072364032 0.0754647776484 0.0619606636465 0.0403553061187 -0.0831327810884 0.0
0.0093620987609 -0.137293636799 -0.13358296454 -0.0759077444673 -0.142620235682 -0.0700335130095 0.165226429701 -0.0403879024088 -0.0476477816701 0.0
0.0770381316543 0.105013951659 0.00039569978253 -0.127925515175 -0.0555033311248 -0.0537189096212 0.210655972362 0.123863145709 -0.1131798774 0.0
0.0595351196826 0.0153449680656 0.0799385681748 0.0921462699771 -0.0116449734196 -0.0631819367409 -0.0339168123901 0.0664548575878 0.0143755376339 0.0
-0.155498489738 -0.101560927927 0.150557234883 -0.112212486565 0.156204923987 0.103176161647 -0.082532145083 -0.0292950812727 -0.0830291435122 0.0
-0.0516576953232 -0.0273849349469 0.0113308448344 -0.0668381899595 0.0203691925853 0.0890714079142 -0.113155119121 -0.136439457536 -0.0571357756853 0.0
0.181519553065 0.162891849875 -0.0635027065873 0.060594432056 -0.0890680849552 0.0788467079401 0.0118232956156 -0.0984340384603 -0.152393609285 0.0
0.166807666421 -0.0383881442249 -0.099520586431 -0.146179065108 -0.185285925865 -0.248174741864 0.115495979786 -0.0761029422283 0.0520370155573 0.0
-0.0712559372187 -0.010212732479 -0.139567479491 -0.0425098203123 0.108981832862 0.019351227209 -0.067253023386 -0.196114763618 -0.149788364768 0.0
-0.0190702658147 0.0186164733022 -0.143681421876 0.103275202215 0.108193233609 0.0498689115047 0.00652570324019 -0.161048546433 0.0516085587442 0.0
0.0191835593432 -0.264816433191 -0.127909556031 0.0456824563444 -0.219720080495 0.102474071085 0.1329857409 -0.0567037351429 -0.00722195580602 0.0
-0.122679971159 -0.0696036219597 -0.204700171947 -0.0381388142705 0.0291400421411 0.0311847459525 0.167647108436 -0.0578474476933 -0.0214830674231 0.0
0.363166898489 0.152309298515 0.0202837046236 0.191772475839 0.105925895274 0.0924288704991 -0.0364445671439 -0.10146355629 -0.0295264571905 0.0
-0.0559212230146 0.0388046316803 0.0787095278502 0.0991938114166 -0.0717438012362 -0.0652697309852 -0.0290179140866 0.105265550315 -0.0942780151963 0.0
-0.125558629632 0.0036423294805 0.0101072713733 -0.101567104459 -0.0601763762534 0.0106822904199 0.0590268447995 0.00510082254186 -0.0918944180012 0.0
0.0207772161812 -0.0158896651119 0.0727290213108 -0.00848676450551 -0.0674853026867 0.188699275255 -0.0688275918365 -0.0641671717167 0.0753445848823 0.0
0.0212551504374 0.0784174352884 0.0141637707129 -0.0643519163132 -0.0814276710153 0.0175131596625 -0.0308367479593 0.105704642832 -0.125177890062 0.0
-0.110714778304 0.117301493883 -0.0125156119466 0.0136204063892 -0.107832446694 -0.0955306142569 0.0657093971968 0.0348304584622 -0.0166391246021 0.0
-0.0222707986832 -0.0580945461988 0.0159720107913 0.06781424582 0.0640155300498 -0.0363301821053 -0.0122155994177 -0.0456301085651 -0.0191942211241 0.0
0.0120227122679 -0.0463045910001 -0.128212958574 -0.166998624802 -0.0380785949528 -0.0469995215535 0.0224600620568 0.0283860899508 -0.0236894767731 0.0
-0.0643593817949 -0.096924893558 -0.0806128755212 -0.111261382699 0.0437267161906 0.128414645791 0.0641342848539 0.12909579277 0.126637205482 0.0
-0.105872638524 -0.0350171327591 0.249875128269 -0.0750276371837 0.119557887316 -0.200044184923 -0.124485574663 0.0216982103884 -0.00749121978879 0.0
-0.0979000404477 0.0740227997303 0.0127637311816 -0.0893121138215 -0.149374261498 -0.121204182506 0.0282611213624 -0.0788109898567 -0.0103148333728 0.0
-0.138321861625 0.0657309666276 -0.0124301062897 -0.00242725224234 0.148547038436 0.224225386977 -0.0984541475773 -0.164664044976 -0.0133197624236 0.0978503
-0.0385554917157 -0.0840409398079 0.002595159458 0.0527237355709 -0.0665230453014 -0.035115044564 -0.0674106776714 -0.0411710366607 -0.0657121539116 0.0
0.107693120837 -0.0642319992185 -0.0754732787609 -0.0593338161707 -0.119170062244 -0.0961846113205 -0.145019829273 -0.255494207144 0.0688615739346 0.0
0.0738639831543 0.0401198528707 -0.103671088815 -0.0154607407749 -0.00167790346313 0.0414698757231 -0.00518502993509 -0.069000415504 -0.0125866001472 0.0
-0.0591117069125 0.0427865199745 -0.0872439965606 0.0585625655949 0.130739033222 0.0928718224168 -0.0498529784381 0.111225813627 0.0237364582717 0.0
-0.103420473635 -0.0100473929197 0.0666340142488 0.126723125577 0.123908601701 0.150740027428 0.0859597027302 0.139387398958 0.216672405601 0.0
-0.030682310462 -0.175209149718 -0.080362893641 0.143698513508 0.0966898873448 0.256185233593 0.108771339059 0.0879604518414 0.195037797093 0.0
-0.119995705783 0.0852639526129 0.160207137465 0.136432036757 -0.00852673314512 0.0409277714789 0.0357259884477 -0.0467274822295 0.153440728784 0.0
-0.146151721478 -0.0625613927841 -0.0857802182436 0.335433006287 0.126595854759 0.126786291599 0.223779529333 0.0381791368127 0.0280073415488 0.0
-0.154736563563 -0.093849979341 -0.135022312403 -0.0494575425982 -0.27521032095 -0.0362627506256 -0.0684547275305 -0.150678634644 -0.199163615704 0.0
-0.147073462605 -0.0946881696582 -0.189432442188 0.0954240784049 0.188503161073 0.246846497059 -0.0472999215126 -0.126406773925 -0.0989566966891 0.0
-0.275847643614 -0.328402489424 -0.257367968559 0.107800230384 0.12915840745 0.0902205705643 -0.0110352020711 -0.0809519737959 -0.131301790476 0.0
-0.0337389148772 0.0205811541528 -0.0371881648898 -0.0468956679106 0.0840973630548 0.0198631007224 -0.00171191757545 0.00931115355343 -0.0884243100882 0.0
-0.231487780809 -0.269696205854 -0.0538546852767 -0.0640349462628 -0.035452157259 -0.0221544727683 -0.0538682043552 -0.0977681279182 0.0198170542717 0.0
-0.258720040321 -0.382539540529 -0.290794819593 0.0763453096151 -0.157560288906 0.0946471244097 0.0474065244198 -0.124446921051 0.0120362397283 0.0
0.148449227214 0.0972476229072 -0.13854983449 0.0314356721938 -0.11457606405 -0.130803585052 0.0773514658213 -0.156969159842 -0.0629346296191 0.0
-0.0985102057457 0.0799854025245 0.112344451249 0.188502818346 0.191116899252 0.0830786675215 0.229380458593 -0.0373016148806 -0.122955009341 0.0
-0.0169262327254 -0.0240133106709 0.0101750865579 0.167591109872 0.108517438173 0.219672128558 -0.101577237248 -0.0365723185241 0.143020391464 0.0
-0.0273808408529 -0.195098012686 -0.243731021881 -0.126570627093 -0.159808576107 -0.0462361611426 -0.183403462172 -0.108599342406 0.102818951011 0.0
-0.183715298772 -0.296098023653 -0.117361351848 0.136261239648 0.129175588489 0.199053004384 0.0825538635254 -0.0599211119115 0.0936938822269 0.0
-0.221599668264 -0.359126657248 -0.280275583267 0.286821871996 0.153323382139 0.0425082445145 0.106924176216 -0.037843529135 0.0790504068136 0.0
-0.12532491982 -0.0568789243698 -0.128577768803 -0.17711892724 -0.0942818894982 -0.0732153207064 0.103489913046 0.00683937221766 0.0523156896234 0.0
-0.0548854991794 0.0684029310942 -0.0563379079103 -0.0485879778862 -0.0100902719423 -0.08837775141 -0.0546320080757 0.0599342770875 0.0551104545593 0.0
-0.0729892402887 -0.189571216702 -0.0384650491178 0.0713105723262 0.118911549449 0.00195397646166 0.0643651634455 0.103832624853 0.0701073333621 0.0
-0.0102692460641 -0.10354693979 -0.0260801352561 -0.0452697537839 -0.0991868525743 -0.0140869859606 -0.0578801855445 -0.0816800370812 -0.0195515975356 0.0
-0.284725397825 -0.187249302864 -0.320834934711 0.182784959674 -0.116889879107 0.0041839312762 0.0582930371165 0.0378095582128 -0.0924276337028 0.0
0.0241766534746 -0.133435964584 -0.00634199520573 0.0267372205853 0.107434019446 0.159622788429 -0.0127362823114 0.0545044727623 0.0523162931204 0.0
-0.128626674414 -0.110392816365 -0.102808572352 0.143960490823 0.253264993429 0.191849678755 0.180121183395 0.120849475265 0.0226211044937 0.0
-0.0466136336327 -0.111358210444 0.0197579823434 -0.0550508275628 0.0710426717997 0.0955275520682 0.00636417604983 -0.0330480784178 0.135378211737 0.0
-0.113759040833 -0.0351454913616 0.0161588955671 -0.0423906370997 0.00383114092983 0.0387120097876 -0.000853648816701 -0.0385697372258 0.129138991237 0.0
-0.239839330316 -0.333330750465 -0.356195181608 0.247115045786 0.0621184334159 0.104542456567 0.11322633177 0.157525911927 0.164670601487 0.0
-0.196956589818 -0.115189775825 0.0148586127907 0.0635632276535 0.00879979040474 0.00319154583849 -0.0672337338328 -0.0596254616976 -0.0186446122825 0.0
-0.148151636124 -0.231333732605 -0.0569707863033 0.0291787907481 0.0263384822756 -0.0401735305786 0.0405985750258 -0.0598155520856 0.119042351842 -0.0400552
-0.000414749811171 -0.0906615182757 -0.0547250695527 0.0442126691341 0.0480068437755 -0.0660885199904 0.0499299839139 -0.062289301306 -0.077481739223 0.0
0.0969099551439 0.0649125874043 -0.0564292259514 -0.106114439666 -0.111012451351 -0.077989064157 -0.151456102729 0.084858737886 0.0403140969574 0.0
-0.036642447114 -0.0871856883168 -0.0124689601362 0.0473107174039 -0.0468895286322 0.0149616729468 -0.0788468495011 -0.0120696499944 0.0578373670578 0.0
0.046107981354 0.0301580931991 -0.133277863264 0.168645456433 0.215098157525 0.0266493111849 0.00206252164207 0.239404469728 0.063032053411 0.0
-0.128933936357 0.0106958299875 -0.00516453804448 -0.0604580640793 0.0595461986959 0.100693747401 -0.0130192274228 0.164092391729 0.0116566661745 0.0
-0.117476612329 -0.0807976946235 -0.181839421391 0.138111561537 0.102833777666 0.121780067682 -0.109593600035 0.0976360887289 0.0695734918118 0.0
0.00855970755219 -0.0530653968453 -0.175959274173 0.124927759171 -0.0158208366483 0.032259311527 -0.0726150944829 -0.0911236852407 0.151527449489 0.0
-0.160730838776 -0.0935852974653 -0.11338584125 0.176044896245 -0.063328564167 -0.021315369755 0.0331107266247 -0.0915573090315 0.0515670292079 0.0
-0.0628781095147 -0.246048673987 -0.0571814775467 -0.0545000098646 -0.0685298889875 -0.0144371185452 0.00542843155563 -0.194264277816 0.0599703155458 0.0
-0.120722658932 -0.145188674331 -0.167984977365 0.111150443554 0.108038723469 -0.0210701264441 -0.108082026243 -0.134371310472 -0.0533881597221 0.0
-0.114442326128 -0.164856925607 -0.123371556401 0.17132858932 0.0936519801617 0.130712598562 0.165459275246 0.00653228443116 0.0330377556384 0.0
-0.075136654079 0.0172621048987 -0.041448533535 0.0149522889405 0.066855661571 0.00136720808223 0.0683910697699 -0.032579023391 -0.0464371517301 0.0
-0.195042312145 -0.259193956852 -0.13020157814 0.0348972901702 0.0950580313802 -0.0757693052292 -0.0531521998346 -0.185841262341 -0.0312767066061 0.0
-0.260051697493 -0.197147116065 -0.160375088453 0.271675974131 0.1254209131 0.19655507803 -0.0266725346446 -0.0358783639967 -0.00253858650103 0.0
0.122865900397 -0.0246602855623 0.0570559352636 -0.0253368914127 -0.0106108300388 -0.0833734273911 -0.0129744000733 -0.0551596283913 -0.0347505174577 0.0
0.0900479704142 -0.01938893646 0.0214851070195 0.160071864724 0.173840358853 0.0726495757699 0.146063134074 -0.0603538192809 0.0509512089193 0.0
-0.131274551153 -0.197929009795 -0.109135687351 0.0906297639012 0.0968581065536 0.0883607119322 -0.0236380267888 0.0440423451364 0.0442379824817 0.0
-0.197529658675 -0.252527058125 -0.130002513528 -0.0230049658567 -0.056417234242 0.014223376289 -0.0357897244394 -0.0358361005783 -0.0756236836314 0.0
-0.148856639862 -0.19597889483 -0.0469781905413 0.171293452382 0.0279074124992 -0.0060477303341 0.121273450553 -0.0143262930214 0.168798312545 0.0
-0.166332319379 -0.20071567595 -0.149777129292 0.0285985171795 0.0268482081592 0.202636808157 0.107694976032 0.0470074079931 -0.0445204116404 0.0
-0.156879141927 -0.0911187902093 -0.0888122394681 -0.136224582791 -0.150879770517 -0.0895595103502 0.143602266908 0.111984655261 -0.0638326480985 0.0
-0.0250151492655 0.00265719229355 0.0334070771933 -0.0247425101697 -0.0411485992372 -0.0846807211637 0.0492053255439 -0.0250718928874 -0.0837183892727 0.0
-0.0701220855117 -0.0736094787717 -0.148169502616 0.0592864379287 -0.0304699856788 -0.0632767304778 0.042270347476 -0.13648802042 0.0881603658199 0.0
-0.0912254229188 0.0720543414354 0.0259302761406 0.118816524744 0.0114815160632 -0.0134003274143 0.0620257817209 -0.0649170726538 -0.113805651665 0.0
-0.158810660243 -0.289177268744 -0.249461978674 0.177907958627 0.0231643710285 -0.0183666199446 0.0836071670055 -0.0590261407197 0.0655932724476 0.0
-0.0319161452353 -0.0678374022245 0.0207777619362 0.101090364158 0.00621904106811 0.127424418926 0.174934059381 0.00283184461296 0.0257778912783 0.0
-0.0620120838284 -0.087242744863 -0.0222623441368 0.133138731122 0.178497985005 0.184552788734 0.0810134261847 0.19741499424 0.145192876458 0.0
-0.0816996470094 -0.0208599343896 0.0386626273394 -0.133829176426 0.0242698807269 0.123669803143 -0.0601620599627 -0.081343896687 0.233159705997 0.0
-0.125874891877 -0.0517564117908 -0.00926628243178 -0.012237302959 -0.00445911893621 0.00889083743095 0.0824834853411 -0.0120600685477 0.0716537609696 0.0
-0.186290472746 -0.366633445024 -0.299305468798 0.195670247078 0.00963635183871 0.194053277373 0.2488424927 -0.0184567384422 0.213439539075 0.0
-0.0374123416841 -0.0962220355868 -0.146356448531 -0.0230206307024 -0.0753977671266 0.142071723938 0.00761340977624 -0.0708205774426 0.0920691341162 0.0
-0.13596175611 -0.212962970138 -0.146803483367 0.110849753022 -0.0666536912322 0.0861724317074 0.0366186909378 -0.0667377859354 -0.00507731037214 0.0772604
0.0452265068889 -0.0825071036816 -0.0273781809956 0.0588927790523 0.0577340833843 0.0236447118223 0.0974244400859 -0.02833150886 0.0432885959744 0.0
-0.0586299821734 0.0697830095887 0.00592940021306 -0.0032486137934 -0.0472157634795 -0.138088986278 0.0298815276474 0.162177860737 0.0749144926667 0.0
-0.0619016885757 -0.0396631099284 0.112579114735 0.00676941080019 0.083199210465 0.0717829987407 -0.0811314731836 -0.0876767784357 0.0971814468503 0.0
-0.0276552885771 -0.0234677214175 0.101015560329 -0.113829933107 -0.148373544216 0.0656083226204 -0.0491692908108 0.119633607566 -0.0347453765571 0.0
-0.0935780182481 0.00230273976922 -0.0599944144487 0.0293189361691 0.0333788953722 -0.00564888352528 -0.0660593286157 -0.147075518966 -0.135425686836 0.0
0.116169542074 0.0327034518123 -0.077271156013 -0.0454845838249 -0.0483135953546 -0.0928738862276 0.0806060805917 0.0325803272426 0.0170982964337 0.0
-0.0538730174303 -0.104148134589 -0.117526188493 -0.0325759202242 -0.0726443603635 0.00246279756539 0.0103133162484 -0.0171531718224 0.050935447216 0.0
-0.0749973505735 0.0810628905892 -0.0145678352565 -0.0344945304096 -0.00377191556618 0.020176416263 -0.0199893247336 -0.0836016088724 0.0637086927891 0.0
0.0656880289316 -0.0125293442979 -0.0740920454264 0.0834370777011 0.0887465327978 -0.0185045152903 0.0280344039202 0.0597429275513 -0.0691373795271 0.0
-0.135144680738 0.0835800841451 -0.0322542339563 -0.0370199419558 0.0392623767257 0.0014318524627 -0.0973609536886 0.0619605742395 0.00709740491584 0.0
-0.0242270287126 -0.00544770620763 0.00747915869579 0.00755896233022 0.0347743295133 -0.000675061310176 -0.0340937711298 0.102304756641 -0.0664002597332 0.0
-0.0913503244519 -0.0866760388017 0.0164506584406 -0.0521578751504 -0.0307560227811 -0.0690408423543 0.0481496416032 0.0218531861901 0.0895837172866 0.0
-0.100085563958 -0.00815060175955 0.143808722496 -0.111901856959 -0.0341522246599 -0.0616326220334 -0.0820397287607 0.0907641500235 -0.0738282203674 0.0
-0.0234719384462 0.0347622819245 0.024120753631 -0.0748218595982 0.0840937644243 -0.0877565294504 -0.00910874642432 0.0580131523311 -0.151062652469 0.0
0.082418166101 0.0727926790714 0.0612342730165 0.00919257104397 -0.0484728254378 0.101589486003 0.0660624802113 -0.0399126186967 0.0463971234858 0.0
-0.0810663178563 0.0570923537016 0.0876507908106 -0.109568528831 0.0826077535748 0.0034417216666 -0.128378629684 0.034155856818 -0.112639471889 0.0
-0.0499054156244 0.00789618957788 0.0146624781191 -0.134369269013 0.0940455570817 0.0265230629593 -0.0822038576007 0.0223901085556 -0.0935591086745 0.0
-0.0574628375471 0.0833120271564 0.111060999334 -0.028022069484 0.0881700664759 0.0236261729151 -0.0179248508066 0.14216697216 -0.166035205126 0.0
-0.0710565075278 -0.00896260421723 0.03272235021 -0.0622326731682 -0.00566813722253 -0.0966622084379 0.0590988025069 0.0638784766197 0.0900567248464 0.0
-0.176067873836 0.137904897332 0.00717903580517 -0.0839426666498 0.0945159718394 -0.106381170452 -0.0806593969464 0.247122496367 -0.056646425277 0.0
-0.0560697801411 0.0191276483238 0.0299142170697 -0.115997232497 0.101157084107 0.0487430430949 0.00573420617729 0.0794256851077 -0.0145398396999 0.0
0.0299354363233 -0.00239605153911 0.0304090883583 -0.0696186646819 0.0465230047703 0.0517044328153 0.0741899311543 -0.0611889995635 0.0209903921932 0.0
0.0575351007283 -0.106489412487 -0.0652147382498 0.0119740152732 0.024808537215 -0.0748337283731 0.0193015933037 0.0447123162448 -0.0111176511273 0.0
-0.00760099804029 0.106904178858 -0.047182098031 0.0973152443767 0.0559850819409 -0.0586728788912 0.109559454024 0.0594718903303 0.125977888703 0.0
0.0341610386968 -0.083808735013 0.0256984662265 -0.0338508188725 -0.0368179306388 -0.0628686845303 0.00604884652421 -0.0468461588025 0.0612395443022 0.0
-0.107051730156 0.086944937706 0.100542128086 -0.132425099611 0.0479202456772 -0.000196801134734 0.0589958354831 -0.0396416261792 0.0457972474396 0.0
0.141996562481 0.113440953195 -0.0150042660534 0.00939116161317 0.0435189828277 0.024173675105 -0.0030409542378 -0.0358683988452 -0.0439900867641 0.0
0.114505559206 -0.115066058934 0.0527927167714 -0.0367661640048 -0.142361983657 0.0314752906561 0.0521413907409 -0.124064005911 0.0403990931809 0.0
-0.00070294260513 -0.00912681687623 0.0345962643623 -0.0519708395004 -0.0574052706361 -0.0356543473899 0.0766889750957 -0.115877263248 -0.0402690395713 0.0
-0.0794758051634 0.171131327748 0.0655749589205 -0.156685769558 -0.00749463541433 -0.0831178873777 -0.051874101162 0.0372859276831 0.0957628265023 0.0
-0.054368339479 0.0544598512352 -0.0870922729373 -0.0345690920949 0.138389319181 0.0113643221557 -0.0590388551354 0.13035300374 -0.107973977923 0.0
0.05449475348 0.185013815761 -0.0685801655054 -0.0185293890536 0.0468066520989 -0.0654838904738 0.0400336422026 0.130618304014 -0.124004028738 -0.00610595
0.0604126751423 0.0024184784852 0.033487226814 -0.0821939408779 -0.00802148971707 0.0182518661022 0.0786322727799 -0.0674302577972 -0.0663451552391 0.0
0.0761834979057 -0.0075631281361 -0.128169819713 0.0377910323441 -0.0172573793679 0.00764185981825 -0.0480240397155 -0.0714605301619 0.016029778868 0.0
0.0117841912434 0.0821437910199 -0.0332750827074 0.0594171434641 -0.0920065119863 -0.063658259809 -0.021335599944 0.0595240928233 -0.0301135294139 0.0
0.0593469999731 0.0339301489294 0.0763704031706 0.0913760140538 -0.0319952964783 0.0592793039978 0.134723886847 0.103109158576 0.019020602107 0.0
0.0478568002582 -0.00165592436679 0.00520066404715 0.0347759798169 -0.0896530821919 -0.0541868247092 -0.0943505689502 -0.0151146128774 0.0614600516856 0.0
0.0703821852803 -0.0312638171017 -0.0351351834834 -0.0124362790957 0.017357353121 -0.00721511477605 -0.0808446183801 -0.0599113218486 -0.0547433644533 0.0
0.0361060649157 -0.0475175082684 -0.0342661477625 -0.0812098160386 -0.120356164873 -0.123936980963 -0.100879170001 -0.0218489486724 -0.080983325839 0.0
-0.035988137126 0.0626116469502 -0.0041913012974 -0.0681634247303 0.0830007120967 0.0352685675025 0.072434656322 0.0673465877771 -0.0703415125608 0.0
-0.0347173698246 0.00763178151101 -0.108937047422 -0.0313584282994 -0.0340197272599 0.0146711664274 -0.0183423757553 -0.0268291700631 0.0247318726033 0.0
-0.0251858960837 -0.010348206386 0.0800816565752 -0.0522633753717 -0.0335425622761 0.0345958396792 -0.0113424900919 0.0949927195907 0.0431810058653 0.0
0.0361471958458 0.0432880446315 -0.0787684097886 -0.0612649023533 -0.0694057419896 -0.126386374235 0.0367799699306 0.0404870696366 0.0401858501136 0.0
-0.0342658534646 -0.0270069185644 -0.00282804155722 0.0376516878605 0.0133114010096 -0.0490397252142 -0.068778000772 -0.0441398136318 -0.0408779084682 0.0
0.0850427746773 0.0176225490868 0.0321080610156 -0.0932881981134 0.00131727673579 -0.0191133096814 -0.0233715698123 -0.0402445979416 0.0348525457084 0.0
0.116740144789 0.100958608091 0.00727576622739 0.00742845050991 0.0626637786627 -0.0460560396314 0.113291703165 0.0182773564011 -0.0964486822486 0.0
0.111934863031 -0.0879629701376 -0.0428539216518 0.06088251248 -0.00421152077615 -0.0506773479283 0.0761357173324 -0.0882990583777 0.0257979109883 0.0
0.0119405230507 0.128255113959 0.113288797438 -0.0520589537919 -0.0664453357458 0.0283352136612 -0.0202010273933 -0.00327182910405 -0.015300096944 0.0
0.167238250375 -0.0372613035142 -0.0430003739893 -0.0991788581014 -0.0218859966844 -0.113204225898 -0.0992196723819 -0.0544577129185 -0.00838018674403 0.0
0.170049190521 0.0966893285513 0.0210280753672 -0.023769326508 0.0339134186506 -0.0339647084475 0.108034364879 0.0948364213109 -0.0504435151815 0.0
-0.0737136229873 -0.00764787197113 -0.086082868278 -0.0193944331259 -0.104341380298 0.0402041599154 0.0888289213181 0.0493151135743 0.00255625182763 0.0
-0.00880303420126 -0.132428959012 -0.0799906328321 -0.0138632496819 0.0384003035724 -0.0653341263533 0.0560544542968 -0.0701063498855 -0.00318731577136 0.0
0.0583660826087 0.137689262629 0.0786488056183 0.0281898397952 -0.0885838121176 -0.00250386097468 0.00535751366988 0.0753506496549 -0.0242110732943 0.0
-0.0615987107158 0.0506437271833 -0.0096771074459 -0.0232593063265 -0.00466271908954 0.0376144461334 0.0970510616899 -0.0738422125578 0.0228467844427 0.0
0.0417377837002 -0.00416953209788 -0.0480087287724 -0.0906632989645 0.0193049758673 -0.026925528422 -0.052385546267 0.131440147758 0.0126185938716 0.0
-0.0358680337667 -0.095991410315 0.0111081413925 0.00399061944336 -0.0921987742186 -0.0108439810574 0.0390982441604 -0.0185599513352 -0.049281552434 0.0
0.0789998173714 0.000121652024973 -0.12546120584 -0.0347025506198 0.0368644110858 -0.0644488111138 0.0732026696205 0.0602078773081 0.0280870441347 0.0
0.0210078749806 -0.0494728386402 -0.0526111647487 0.0553582459688 -0.0424180738628 0.00971241854131 0.0808474570513 0.105264425278 0.108205914497 0.0
-0.0399701595306 -0.0728725790977 -0.020083989948 -0.115346238017 -0.0859173163772 0.0473451204598 -0.000736312242225 -0.105054840446 -0.0815274044871 0.0
0.0140186790377 0.0371112190187 -0.0154610564932 -0.0625313147902 -0.0122295822948 0.071514390409 -0.0988128259778 0.0575228966773 0.0346923135221 0.0
-0.0359267182648 -0.0962221994996 0.0673536509275 -0.0702280327678 -0.0143047962338 -0.0848669931293 -0.0252082329243 -0.0323152020574 -0.0907163023949 0.0
0.132318764925 -0.0577868111432 -0.0785686671734 0.0216333474964 -0.100352287292 -0.0686798393726 0.0880011096597 -0.0316885262728 -0.036638122052 0.0
0.0561805590987 0.0134802581742 0.00748306978494 0.0507356226444 0.0281024649739 0.00413650320843 -0.00084871344734 0.0333368852735 -0.0832384079695 0.0
0.0270131640136 -0.00921808183193 0.0189995709807 0.0523240976036 0.0334640517831 -0.128813073039 0.0334925167263 0.000161026298883 -0.115019544959 -0.0928088
0.00461546424776 0.0427304282784 -0.0421720519662 0.0669071152806 -0.0333598442376 0.111995771527 -0.102650441229 0.0174987260252 0.144884675741 0.0
0.268980711699 0.0975887104869 -0.0303226653486 0.262546688318 -0.0978373512626 -0.181882575154 -0.0540050603449 -0.232331588864 -0.204087466002 0.0
-0.104641474783 -0.147627413273 -0.0478207468987 0.0444615222514 -0.0468801818788 -0.0188760217279 -0.0919985994697 -0.069943882525 -0.0360190570354 0.0
-0.115442156792 0.136069536209 -0.000931073329411 -0.224630445242 -0.0588636659086 -0.0843545123935 -0.184568122029 0.0180284008384 -0.0389890857041 0.0
0.0237698331475 0.0831671580672 -0.1396484375 0.11141307652 0.0941436290741 -0.146830111742 -0.0251409430057 0.0995040461421 -0.0368102192879 0.0
0.0875749140978 0.218279957771 0.0384472943842 0.00515508418903 0.114503510296 0.162565633655 -0.119323924184 -0.155630990863 -0.106505267322 0.0
0.00224394048564 -0.107251606882 -0.11873319 -0.182281285524 -0.0403710417449 -0.12776440382 0.171874567866 -0.0559772700071 0.123060412705 0.0
-0.111993119121 -0.0638175308704 -0.0770480111241 -0.060034122318 0.0188428089023 0.0834593847394 0.076447814703 0.22042325139 0.0986280068755 0.0
-0.056386243552 0.0950724184513 0.20909743011 0.10753954947 0.0891244783998 0.0424639321864 -0.0944112762809 0.0527362301946 -0.0619173310697 0.0
-0.0167869143188 -0.0441024526954 -0.0236914306879 -0.259059339762 -0.194547504187 -0.184143260121 -0.140411794186 0.115444988012 -0.130695238709 0.0
-0.228975296021 0.137172698975 0.276569396257 -0.163684308529 0.0350168198347 0.19902575016 -0.070950858295 0.0440057367086 -0.034274738282 0.0
-0.0740599632263 -0.00110500387382 -0.0932858660817 -0.0276376791298 0.0666076466441 0.0126102715731 0.00415481347591 0.0867495462298 -0.0598559193313 0.0
-0.106739930809 0.048962648958 0.11798197031 0.110658489168 0.186452299356 0.269557863474 0.000685325881932 -0.35038164258 -0.0570378936827 0.0
0.0438978038728 -0.0283896271139 -0.0797568708658 -0.043008890003 0.0054262583144 0.107733361423 -0.131767734885 -0.212557449937 -0.125071942806 0.0
0.012187381275 -0.109007529914 0.0357746556401 -0.0290302224457 0.0875755473971 0.166415497661 0.0638195052743 -0.00515747163445 -0.0957134440541 0.0
-0.155495643616 0.0275122206658 -0.0334834344685 -0.0824360102415 -0.16287560761 -0.259790271521 0.198343753815 0.373351991177 0.121332578361 0.0
-0.116053499281 0.0793492496014 -0.141249522567 0.228270873427 0.253280818462 -0.0701671466231 -0.0337127819657 -0.206310272217 -0.169543683529 0.0
0.0334199368954 -0.178500503302 -0.0756876394153 0.143517866731 -0.00702387001365 0.0524710305035 -0.110485434532 -0.173215374351 0.069553039968 0.0
-0.0623487979174 -0.0502619929612 -0.0661783516407 -0.200263693929 -0.00892556551844 -0.196384564042 -0.0833738222718 0.140134036541 -0.347879618406 0.0
-0.00859941728413 -0.120091512799 -0.168218582869 -0.0591830164194 -0.0535721555352 -0.120157316327 0.00358742149547 -0.000846911745612 -0.125141248107 0.0
0.0550033561885 0.235310360789 -0.150639742613 -0.0981567651033 0.169314593077 0.328648746014 -0.108847975731 -0.102692976594 0.0523663125932 0.0
-0.0347110070288 0.0794061645865 -0.0553969405591 0.0604534521699 -0.0509883016348 -0.0201077200472 0.0818242877722 0.0872987508774 0.0604108572006 0.0
0.00401092041284 -0.0763398557901 -0.101574599743 -0.0883356407285 -0.167674675584 -0.0253621600568 0.0825926959515 -0.00969040766358 -0.0387678258121 0.0
-0.114143028855 0.0948693826795 -0.0688836872578 0.106635734439 -0.0827194303274 -0.0310851242393 -0.0508792735636 -0.0723134130239 -0.171006470919 0.0
0.0521208308637 0.0807952731848 -0.0155986407772 -0.0258356202394 -0.0455475263298 -0.178160741925 -0.164233803749 -0.245465487242 -0.151613920927 0.0
-0.0626524537802 0.0976664796472 -0.0426705032587 -0.0896147042513 0.0126947257668 -0.0550838150084 -0.0822925195098 -0.0236214697361 0.0904321745038 0.0
0.0870231464505 -0.0516993403435 0.00331023242325 -0.103674329817 -0.0984901562333 -0.0933093577623 0.0199283249676 0.0331382192671 0.0763078182936 0.0
-0.00389627693221 0.178636789322 0.105652943254 0.00953023415059 -0.0118842031807 0.00300670438446 0.0420710481703 -0.289467066526 0.0540243200958 0.0
0.0410942137241 -0.0473110973835 -0.0201164484024 0.0796013399959 -0.0615541525185 -0.0655808895826 0.124522611499 -0.0801862478256 0.0130824679509 0.0
-0.0266402009875 -0.119993597269 -0.0132980654016 0.00181023089681 -0.216331526637 -0.0119526488706 0.0210615154356 -0.025192623958 0.351588398218 0.0
0.0223373658955 -0.0575002357364 0.0404077097774 -0.0337383486331 0.101102232933 0.0144412145019 -0.132954180241 -0.0249441377819 -0.152005419135 0.0
0.0270526409149 0.0259229466319 0.0182592924684 -0.0918836817145 -0.0725245848298 0.0960629731417 -0.180057197809 -0.286649048328 -0.0638667568564 0.121389
0.0760603174567 -0.0810421928763 -0.0307734254748 0.0101473983377 -0.0803112909198 -0.0702872648835 0.0811085775495 -0.0155330263078 0.0202112570405 0.0
-0.0624898001552 -0.0269684232771 0.0686339437962 -0.0829273685813 0.0457464903593 -0.053875181824 0.0833838060498 0.15999352932 -0.00169454631396 0.0
0.0512915104628 0.0271064471453 -0.0193141400814 -0.0571050271392 -0.0301989428699 -0.0769496038556 -0.0964137390256 -0.0835371240973 0.0393448583782 0.0
0.0796750709414 -0.03309353441 -0.0589460842311 -0.0257305465639 -0.0604036524892 -0.0909278094769 -0.0286143999547 0.0403942503035 -0.0192979294807 0.0
-0.132576361299 0.0125800836831 0.0521618127823 -0.0843175649643 -0.0788375660777 0.0782494395971 -0.00957718584687 -0.101957775652 -0.0710044205189 0.0
0.099712215364 -0.0781322717667 0.0217656008899 -0.0394193306565 0.0294775515795 0.0927178859711 -0.0693613886833 -0.0530114546418 0.0507757402956 0.0
0.0140666160733 0.00888976920396 0.0489198602736 0.066991828382 -0.038292940706 -0.0722265765071 -0.0695845112205 0.0558557361364 -0.0687099322677 0.0
-0.049502748996 -0.117589212954 -0.108037538826 -0.0988580659032 -0.131217643619 0.0207930039614 -0.0468640178442 -0.0818998068571 0.0659746974707 0.0
0.070613488555 -0.117767468095 -0.0133052272722 0.123676925898 -0.0516927018762 -0.049581233412 0.055362675339 0.0345074161887 0.171325445175 0.0
0.00166677171364 0.0138091919944 0.0284699145705 0.00892698764801 0.144235536456 0.103069461882 -0.0115832230076 0.083037674427 0.0892772004008 0.0
0.0163520369679 0.108852721751 -0.0567696243525 -0.0548616461456 -0.0759745314717 -0.128375276923 0.0532822944224 0.0113583682105 -0.0476343519986 0.0
-0.0583671964705 0.0898300111294 0.0421982593834 -0.0233662724495 0.034574598074 0.0505645759404 0.0152795435861 6.35050673736e-05 0.0140995541587 0.0
0.141434207559 0.0231568980962 0.122732281685 -0.0190822854638 -0.0830592140555 -0.0893595516682 -0.00238679163158 -0.00348652899265 -0.0293913651258 0.0
0.0598747543991 0.020109936595 0.0371480807662 0.080051921308 -0.0989477708936 0.0385050363839 0.137636989355 -0.0719754993916 -0.0758898630738 0.0
0.0422520041466 -0.0487155765295 0.0874116718769 0.0768586918712 0.0312544889748 0.0406154096127 -0.0688166618347 -0.0911890864372 -0.0662186741829 0.0
0.0620811767876 -0.0370214208961 0.0950850695372 -0.0933886095881 0.0878082886338 0.0922474861145 -0.0773578211665 0.0985790789127 -0.00997505988926 0.0
0.115003414452 0.0566847845912 0.0835570767522 0.0656616017222 0.0975780263543 -0.0305566880852 0.00163151137531 0.0201590210199 -0.0471911132336 0.0
-0.00347074959427 -0.0326652042568 0.175942867994 0.0515573583543 0.0276162158698 0.1035220474 -0.14565333724 -0.000413846399169 -0.0287579111755 0.0
-0.0189332384616 -0.110687933862 0.0588301122189 -0.0483082570136 0.0115411188453 0.0105721354485 -0.00163933436852 -0.0289073958993 0.0606747195125 0.0
0.0108989179134 -0.0324407294393 -0.0854961201549 -0.0151259517297 -0.0278650820255 0.0473900474608 0.0234765037894 0.0690989792347 -0.0500725246966 0.0
-0.00842670537531 0.0212172493339 0.0454194508493 0.00404546502978 -0.0433181002736 -0.107410289347 0.0297583267093 0.0627422332764 0.0633746162057 0.0
0.0957656800747 0.0930693522096 0.0180272050202 -0.0738731697202 -0.0700170993805 0.023090755567 -0.0149755114689 0.0146218622103 0.0855086371303 0.0
-0.0679320022464 0.0187517665327 0.019846631214 -0.0575934834778 0.0344384685159 0.00384807144292 0.0880415514112 0.0985660776496 0.00715732574463 0.0
-0.0249780956656 -0.106206662953 -0.0472854860127 0.0960695743561 -0.0607074759901 -0.125228270888 0.131712168455 0.0282788779587 -0.0983545035124 0.0
0.0486432984471 -0.15937396884 0.114043824375 0.11884675175 -0.0445859134197 0.00165795104112 0.0012569334358 -0.127466127276 -0.0040028821677 0.0
-0.00818193517625 -0.0846921131015 0.0202637147158 -0.118646040559 -0.0522066168487 -0.0083133848384 0.029021050781 0.0487758368254 0.0236958749592 0.0
0.10011934489 0.126533985138 0.150670751929 0.0818462073803 0.0937058404088 0.135035827756 -0.0264563355595 0.0265273377299 0.085379332304 0.0
-0.115365810692 -0.0689057931304 0.0180803835392 0.0319654121995 0.0388351343572 -0.000990488682874 -0.0839179456234 -0.11687964946 0.0313157849014 0.0
-0.063077762723 -0.0499075464904 -0.0463267304003 -0.0834188312292 0.0301685892045 0.0394293703139 -0.0640896037221 0.057402331382 -0.0717532038689 0.0
0.0660009607673 0.069357663393 0.157644793391 0.0576452799141 -0.081459261477 0.127812117338 -0.0605343207717 -0.0468208342791 -0.0943820253015 0.0
-0.0147073091939 -0.0638105943799 -0.0418973192573 0.0755970999599 -0.12973369658 -0.00376403145492 0.0990272909403 -0.0111979832873 -0.0556847602129 0.0
0.0752072706819 -0.0161107908934 0.0745249986649 0.0281354375184 0.0131686516106 -0.0800037309527 -0.0953828394413 0.0323155783117 -0.0288064386696 -0.0679581
0.0975672453642 -0.0813178345561 -0.0836033672094 0.0371948666871 0.0756119936705 0.0198047459126 0.0470771044493 0.0211705267429 0.0677856057882 0.0
-0.0926847755909 0.0552692227066 -0.0878900513053 0.024908317253 -0.0167175959796 -0.141492590308 -0.0922494158149 0.0251517202705 -0.049748275429 0.0
0.0280989594758 0.0691734626889 0.0483785234392 0.00253213592805 0.00320666912012 0.0181043036282 0.000220614645514 0.0390485599637 0.0236917007715 0.0
-0.0196894165128 -0.0948501601815 0.0466718748212 -0.118198551238 -0.0711957067251 0.0564404800534 0.050857141614 0.0389609150589 -0.00376888504252 0.0
-0.00838099885732 -0.0563098676503 0.0247130263597 -0.0410070382059 -0.100082196295 -0.0302831139416 0.0703178197145 -0.120174460113 0.0808371976018 0.0
0.00434338627383 -0.0596195682883 0.0339784137905 -0.10460653156 0.00535928923637 -0.0870588198304 0.0167416445911 -0.087492570281 -0.0965348854661 0.0
0.182632401586 -0.0595226511359 0.00663138180971 0.0459836088121 -0.0436655022204 -0.0491186603904 0.0165192577988 -0.114429399371 0.00608923053369 0.0
0.058507617563 -0.000655651208945 0.0646076798439 -0.00886353757232 0.108676642179 -0.0311902482063 0.032082721591 0.109182164073 0.0713416561484 0.0
-0.0419765971601 0.0683133676648 0.056661657989 0.0325042679906 0.0922745764256 -0.0717651322484 0.0404645577073 0.071022734046 0.0572312436998 0.0
0.0394327230752 -0.0250252820551 0.0680155605078 0.0352758057415 -0.0493175648153 -0.0912312045693 -0.0393199771643 0.0198637321591 0.0620238669217 0.0
0.0542908757925 0.0415345281363 0.129730299115 -0.0612035542727 -0.0681447386742 -0.0415888503194 -0.0229060016572 -0.109632834792 -0.0421702675521 0.0
-0.0901117101312 0.0620852783322 -0.0955492332578 0.0633178651333 0.0840503796935 0.0287820082158 0.0665284618735 0.0909964889288 0.0520913638175 0.0
0.0886957943439 0.113562934101 -0.0741670206189 -0.0372507460415 0.155255898833 -0.150049939752 -0.000912084768061 0.18895997107 -0.0538841597736 0.0
-0.0178603809327 0.192273885012 0.0445364974439 -0.119290590286 0.0763967111707 -0.0526982620358 -0.105909697711 0.101921834052 0.0538435094059 0.0
0.018295193091 0.0514505133033 -0.0468245521188 -0.0597402118146 0.0683380588889 0.00287688220851 0.00214037741534 0.0646662637591 -0.000983441830613 0.0
-0.0106039913371 -0.0927014872432 -0.0311063621193 -0.0203751269728 -0.0586193390191 0.108464062214 -0.00060655263951 0.0575607195497 0.014934161678 0.0
0.00965469889343 0.00430162763223 -0.014466419816 -0.0775868967175 -0.0108310170472 -0.0826411917806 -0.0178629606962 -0.0255479589105 -0.104083068669 0.0
0.00432604923844 0.215564653277 -0.0270835347474 -0.0789774879813 0.125368177891 -0.0789402723312 -0.0240148361772 0.124867424369 -0.0988065078855 0.0
0.061407931149 0.021010003984 -0.0124326935038 0.0151620414108 0.0645425543189 -0.0737649351358 -0.00370301143266 -0.0116047076881 0.039200745523 0.0
0.0406150445342 -0.057577971369 0.0179871190339 -0.0416787154973 -0.0514577627182 0.0707642883062 -0.000374585652025 0.104864701629 0.135608568788 0.0
-0.0337868183851 0.0662017762661 0.0776661261916 -0.0567230805755 0.113085277379 -0.0384357534349 0.00890927668661 0.0278387796134 -0.112987279892 0.0
0.0640855953097 0.0466221086681 0.095683246851 -0.00359735637903 0.046036940068 0.0621515288949 0.00992913823575 -0.0274433493614 0.0189409218729 0.0
-0.00745205720887 0.0139317847788 0.0680671334267 0.0196868777275 -0.000119048425404 0.0135388802737 -0.023567808792 -0.0976511016488 0.0580122768879 0.0
-0.0359251573682 -0.0140279754996 0.056180562824 -0.016649428755 0.15873721242 0.0328848324716 0.0642866045237 0.0997647494078 0.0173488967121 0.0
-0.0980838090181 0.0634706318378 -0.091110855341 -0.106173053384 -0.0906918570399 -0.128418505192 0.0348546244204 0.169207662344 -0.0185322649777 0.0
0.00275533087552 0.0601218678057 0.0253933425993 -0.0488477647305 0.0254076961428 -0.0277225188911 -0.138862982392 0.0267842318863 -0.0776606202126 0.0
-0.0173169411719 -0.00447125686333 -0.0205759797245 0.0912540704012 0.0346008390188 0.0575338192284 -0.0425053201616 -0.134703725576 0.0132406363264 0.0
0.130451589823 0.126934945583 0.0726676732302 0.0805976688862 -0.0206527467817 -0.0881491079926 0.102421455085 0.0311204660684 -0.0481300465763 0.0
0.0685821026564 -0.1115103513 0.0796319395304 0.055593740195 -0.0066028451547 0.0521347932518 -0.0317246615887 0.021591803059 -0.0678030252457 0.0
0.0445427745581 0.105885595083 -0.0178352408111 -0.185440376401 0.0917717814445 -0.141258090734 -0.186728820205 0.164844945073 -0.115800134838 0.0
0.076324403286 0.0729918703437 -0.00666447076946 0.0207542106509 0.105951599777 0.0110592283309 -0.0240746606141 0.0293417889625 0.0441123917699 0.0
0.0251140426844 0.0961184352636 0.0039617237635 0.00129986659158 0.106879763305 -0.0226826462895 -0.112080745399 0.0988463461399 -0.141806095839 0.0491588
0.00727623607963 -0.0330643281341 0.0534045882523 0.0510002337396 -0.00778329465538 0.0570220984519 0.0370243750513 -0.0233495105058 0.0651458352804 0.0
0.13371874392 0.00725214835256 -0.0799583643675 0.0230390708894 -0.0363146327436 -0.05129994452 -0.103894770145 -0.089610144496 -0.153721883893 0.0
-0.0345353782177 -0.0641381144524 0.0857948958874 -0.0869205221534 0.0712140724063 0.00743021443486 -0.0431350879371 0.0269550420344 -0.0385791882873 0.0
-0.0256136823446 -0.0686588734388 0.0817339420319 -0.107827432454 -0.123023383319 -0.0631159096956 -0.0252711307257 0.00548925343901 0.00565655110404 0.0
-0.10150077939 0.0349500328302 -0.0477176979184 -0.113808043301 0.00333510548808 -0.0430875383317 0.0206023156643 0.0158980153501 0.0895131602883 0.0
-0.0728127807379 -0.0860369428992 0.0333728045225 -0.0209496766329 -0.0276287663728 -0.0546438097954 -0.0369295552373 -0.0263391174376 -0.0615076571703 0.0
0.00859323330224 -0.0741481855512 -0.0847811847925 0.0721859559417 -0.0538240894675 0.00807534903288 -0.0258716847748 0.0273111518472 -0.0351750664413 0.0
-0.0671927183867 -0.0938754305243 0.0336311161518 -0.0201797876507 -0.0021627289243 0.0352595523 -0.112251035869 -0.055050406605 0.108442880213 0.0
-0.000944307714235 0.0643699020147 0.124772943556 -0.0652828961611 -0.112130619586 0.0282337479293 0.0614157989621 -0.0741315037012 -0.0424724705517 0.0
0.0825124979019 -0.0766933113337 -0.0678351670504 0.0397965051234 -0.128512531519 0.00132073462009 -0.0701774954796 -0.00883214361966 -0.026154268533 0.0
-0.0596672333777 -0.0206506736577 -0.0262806136161 0.0344802364707 -0.132462978363 0.0163837429136 -0.0611857064068 -0.0758399143815 -0.0607707463205 0.0
-0.0494003072381 0.0863801166415 0.0652536377311 0.0349937602878 -0.00849898718297 0.0831849500537 -0.0815095975995 0.0583654157817 -0.0883217677474 0.0
0.0966387689114 0.0548963844776 -0.00357595435344 -0.0192189682275 0.120915532112 0.0242374353111 -0.109582953155 -0.142946854234 -0.105992764235 0.0
-0.0147902071476 -0.02547673136 0.0348594561219 0.0613972507417 0.0400094427168 0.0596644431353 -0.0687769427896 -0.101962059736 -0.108742713928 0.0
-0.00378608494066 0.120226085186 0.028674274683 -0.0621702969074 0.110425390303 0.127292349935 -0.137113630772 -0.10501947999 0.0504753999412 0.0
-0.0693033710122 -0.0383329391479 -0.0938682928681 0.0539103336632 0.0747453346848 0.00830713845789 -0.00146310275886 0.0288113895804 0.121480204165 0.0
-0.0909261405468 0.095250338316 0.0844926983118 0.122515328228 0.0713151022792 0.044039029628 -0.0675245672464 -0.0734916031361 -0.0440243370831 0.0
-0.00676122214645 0.00175890186802 -0.117899425328 -0.0905141308904 -0.0641090795398 -0.020601676777 -0.157410040498 -0.107233971357 0.0333893783391 0.0
-0.114350870252 0.107808426023 0.0930137559772 -0.110307216644 -0.0317483469844 0.0831183642149 -0.159200236201 0.0904761254787 0.0809629634023 0.0
0.0427597984672 0.0860011726618 0.0514706894755 -0.0290440153331 0.0335539951921 0.0874890014529 0.0195968672633 0.041073128581 0.00645393971354 0.0
-0.0160094518214 0.0373204164207 0.096058703959 0.0545235015452 -0.0195965897292 0.0760670602322 -0.0150379845873 -0.22249186039 -0.00940488185734 0.0
0.0453940853477 0.0622349083424 0.0769990086555 0.0807253271341 -0.0140571035445 0.0642926320434 -0.0540675520897 0.0804515853524 -0.0205719899386 0.0
0.00891207251698 0.0735083147883 0.0101456157863 -0.0371116399765 0.0433825068176 -0.0663818046451 0.0314102657139 -0.00227180379443 0.0781930461526 0.0
-0.00513961864635 0.0894664153457 -0.04920970276 -0.15402135253 0.128812387586 0.0631532892585 -0.148781687021 0.0842187106609 0.0936048477888 0.0
-0.0287421625108 0.209803342819 0.152206495404 0.0448977835476 -0.00972195342183 0.027065558359 0.0115769188851 -0.0413686819375 -0.132973387837 0.0
-0.106949083507 -0.0787993744016 -0.0801031365991 -0.0436057001352 0.00439972244203 0.0131541835144 0.0667348206043 -0.0172178465873 -0.0683625638485 0.0
-0.092325694859 0.0330458171666 0.0907807648182 -0.0493389368057 0.0737146735191 0.0545329935849 -0.0944773778319 0.00330475531518 -0.0410853140056 0.0
0.017831530422 0.051269069314 0.0536592938006 -0.0242915730923 0.00355340051465 -0.110761396587 0.0605391189456 -0.00638074288145 -0.126628220081 0.0
-0.0750128999352 0.081680804491 -0.0517447479069 -0.00103335676249 0.130129531026 -0.0115504702553 -0.0196884702891 0.040098529309 -0.0212194193155 0.0
0.111932635307 0.134859293699 0.0706890299916 0.0884480625391 0.116088420153 0.000357759330655 0.0951312556863 0.0649454444647 0.123205557466 0.0
0.0900075435638 0.0288645792753 -0.0779365822673 0.00214229663834 -0.0684200152755 -0.0110678449273 -0.0559898577631 0.0838818475604 -0.0114181619138 0.0
0.0213076993823 -0.106699071825 -0.0580430589616 0.104109428823 -0.0889074355364 -0.073070064187 0.0316245034337 -0.0400161668658 -0.136433586478 -0.00100298
0.0860216915607 -0.0333285592496 0.0721830353141 0.0802077874541 -0.0649463534355 -0.0635799244046 0.00960952974856 -0.00425323843956 -0.091160081327 0.0
0.0324949286878 0.054886803031 -0.0993462875485 -0.0342361852527 0.0255863610655 0.041652943939 0.0666861459613 0.0739900916815 -0.0258659478277 0.0
0.0552765242755 0.0441923886538 -0.0165772214532 -0.0829913020134 -0.053045257926 0.0281813684851 0.0405393466353 0.0456278808415 0.04753196612 0.0
-0.0328489504755 0.00575268967077 0.0931639075279 -0.0798385962844 -0.0540572367609 0.101492628455 -0.0512254089117 0.072746284306 -0.0309637319297 0.0
-0.0674744918942 -0.083257034421 0.0363184176385 -0.0274526346475 0.0327857285738 0.0967201218009 0.0664768666029 -0.0672892406583 -0.050118856132 0.0
-0.0102486368269 0.10182325542 -0.0509462021291 0.022092372179 -0.0552892722189 -0.151483893394 0.0990492850542 -0.0652820244431 -0.0881960391998 0.0
0.121304266155 0.0574397780001 0.00133671483491 0.113657996058 0.0736162662506 0.0287373922765 0.0288627184927 -0.0631459653378 -0.0286662075669 0.0
-0.0305218938738 -0.0280934758484 0.0355351418257 0.0159828625619 -0.0116310827434 -0.0172754973173 -0.0887817442417 -0.0309627186507 -0.0712523087859 0.0
0.061062052846 0.0932140573859 0.000151945103426 -0.00390142458491 0.107537068427 -0.0834060534835 0.105027906597 -0.00765113765374 0.0848999246955 0.0
0.0553744770586 -0.00928422715515 -0.0599364303052 -0.0137836122885 -0.0346167124808 -0.0125267552212 0.0123972855508 -0.100383616984 0.0508086830378 0.0
0.141508132219 0.100433118641 0.00259221252054 -0.0649882927537 -0.0982308536768 0.0502441935241 0.100444965065 0.0475099943578 0.0194986183196 0.0
-0.0478649884462 -0.0252927970141 -0.0708118006587 -0.095603428781 0.00652806507424 0.0814291909337 0.0257029496133 -0.0977699384093 -0.0645673722029 0.0
0.0618913955986 -0.0309932604432 -0.0513543188572 -0.0219709724188 -0.0401711575687 0.00762847531587 -0.019350528717 -0.0588371045887 0.0165016707033 0.0
0.0212423354387 0.067883849144 -0.131398797035 -0.0480530522764 -0.0649549737573 -0.0901695564389 -0.0613460801542 -0.000197830144316 0.0345419235528 0.0
0.0523746572435 0.0568286068738 0.0723410025239 -0.0394946075976 0.113670624793 0.00609474955127 0.0524922050536 -0.023592505604 -0.0195732228458 0.0
-0.0493447855115 0.0770830214024 -0.0391368567944 0.0424735099077 0.0186797250062 0.0178441181779 -0.0357268303633 0.0776337832212 -0.127732634544 0.0
-0.0555245317519 0.0819266960025 -0.0395189970732 -0.0448569022119 0.0920162200928 0.0334891416132 0.00340301683173 0.0288463253528 -0.0794745236635 0.0
0.0526952520013 -0.0204977057874 0.147689566016 -0.0513235889375 0.0766656845808 -0.0839053466916 -0.0717459395528 0.0884031876922 -0.0803530588746 0.0
-0.0238225720823 -0.0162585955113 -0.0857324972749 0.0421119630337 0.0181342307478 0.0656882748008 0.0861982107162 0.0472534410655 0.0255799181759 0.0
0.0426983647048 -0.0283553432673 -0.0326142385602 -0.0824128016829 -0.0255599021912 0.00530762784183 0.0118617815897 0.00561524741352 0.0964978411794 0.0
-0.0483809895813 0.073017321527 0.0990623682737 -0.00867799576372 -0.0420946553349 0.051877040416 0.0690525695682 0.0676820352674 0.00953513197601 0.0
0.077992990613 0.00668590376154 0.0136840278283 -0.0403603166342 0.0878933221102 0.0697543695569 -0.0459936000407 0.010423425585 0.0245405808091 0.0
0.079564884305 -0.0302127413452 0.0652889683843 0.0156469754875 -0.0854068920016 -0.00920107308775 -0.0632355362177 0.058162484318 0.00827283691615 0.0
0.0827493295074 0.0836372002959 0.00200455961749 0.0472640953958 -0.0508878305554 -0.0194413568825 -0.0052197156474 -0.0594317577779 0.0791399478912 0.0
-0.0201140940189 0.0861629620194 0.0713433399796 -0.104834191501 0.0661967396736 -0.0312797166407 0.00482540996745 0.112896881998 0.00817426573485 0.0
0.0649392753839 -0.0635135695338 0.0314601287246 -0.0273341592401 -0.0237174537033 0.037297245115 -0.036272123456 0.0443595834076 -0.100942671299 0.0
0.0775453001261 -0.0536364540458 -0.0287404730916 0.023742409423 0.0769547820091 0.0440401397645 0.0584085546434 0.0284542683512 0.0708285272121 0.0
0.00593322096393 0.0611081905663 0.0641674622893 -0.0856543853879 0.0770920664072 0.0962793752551 -0.0234726760536 -0.0364148952067 0.149122193456 0.0
0.0255964621902 0.0941466167569 -0.0680901184678 0.0258311741054 -0.0558993704617 -0.0393647104502 0.0789412558079 0.0335105285048 0.00810137111694 0.0
0.0247086938471 0.0740018188953 -0.0470502153039 -0.109051808715 -0.0542425177991 -0.0881068110466 -0.08551286906 0.0687477737665 -0.0788305699825 0.0
-0.0371229760349 -0.00380820967257 -0.0840910747647 -0.0328587293625 0.117435909808 0.023406304419 -0.0117950281128 0.0543513447046 -0.0933563709259 0.0
0.0946195721626 0.0706396102905 -0.0317780040205 -0.0368651263416 0.0171310640872 -0.0518436916173 0.0986952632666 -0.00918526854366 -0.0889965370297 0.0285778
-0.0795120745897 -0.0744213014841 -0.0298860371113 0.0232216697186 0.03457788378 0.0654209852219 0.030623793602 0.0976482853293 0.0872532948852 0.0
0.203484281898 0.129555180669 -0.0737247020006 0.0398214496672 0.0164901521057 0.0154567230493 -0.151360064745 -0.188554495573 -0.180560320616 0.0
0.0511464774609 0.030192958191 -0.057551253587 0.00454028788954 -0.0668641701341 -0.0627898201346 -0.0113107645884 -0.0111699225381 0.0183931160718 0.0
0.0458903871477 -0.00795192737132 0.00128780689556 0.0338982902467 -0.179866567254 -0.136994123459 -0.10517462343 -0.00444070994854 0.111779160798 0.0
0.106651768088 -0.0110356677324 0.0680766925216 0.0455915890634 0.027540223673 -0.013677759096 -0.0458262860775 -0.00386530929245 -0.0231223888695 0.0
-0.138181075454 -0.0794278606772 0.113303370774 0.0637728646398 -0.0105814756826 -0.0582644194365 -0.0827832743526 -0.122889503837 -0.14245980978 0.0
0.154807060957 0.0958988368511 -0.0946622639894 -0.121528759599 0.154686108232 -0.16399346292 -0.116401337087 0.191307350993 -0.0616590417922 0.0
0.0742727741599 0.0130684953183 -0.115128986537 -0.0844750255346 -0.0989280864596 0.00974840298295 0.089479804039 -0.0858344659209 0.151264816523 0.0
-0.0060747875832 0.0130590973422 0.164065942168 -0.00247305817902 -0.113924898207 0.0118303885683 0.0768427029252 -0.149623066187 -0.0879134386778 0.0
0.0836608484387 -0.0842019841075 -0.126464009285 -0.108511447906 -0.0883067473769 -0.109609253705 0.00472471071407 -0.0219412986189 0.0343800075352 0.0
-0.0539639592171 -0.0994990617037 -0.0461519397795 0.12202578783 -0.163774862885 0.0238401871175 -0.00132161518559 -0.144671782851 -0.125999167562 0.0
0.04602984339 0.0683398544788 0.0254291072488 -0.0139804016799 0.00413293717429 -0.0502426065505 0.0959604606032 0.0890161469579 0.0801023989916 0.0
0.115650221705 -0.067543707788 0.0470028482378 0.104491099715 0.0699060410261 0.0681924894452 -0.185821905732 -0.0908215269446 -0.193148553371 0.0
0.0516212768853 0.0578857623041 0.047514654696 0.0129025112838 0.0765967741609 -0.0692253038287 -0.131889089942 -0.16257147491 -0.144744843245 0.0
-0.028735762462 0.0427653715014 -0.0189354512841 -0.0617787912488 0.00286005530506 0.0231244508177 -0.0706304982305 -0.0664705187082 -0.0474199615419 0.0
-0.15849763155 0.0591627061367 -0.0853373408318 -0.099386677146 -0.014774507843 0.1984795928 0.165301889181 -0.0260228291154 0.213744997978 0.0
0.0177580155432 -0.0460207276046 0.0212939698249 0.0722453519702 0.11936391145 0.0319958738983 -0.100852221251 0.0245998241007 -0.147161990404 0.0
-0.0198736917228 0.141339763999 -0.0183574762195 0.0693234428763 0.0362781397998 0.01191138383 -0.112482815981 -0.183045521379 0.0671441629529 0.0
0.00980274286121 0.0276933927089 0.0603257864714 -0.0440903939307 -0.185687303543 0.153811782598 0.0999360606074 -0.0480142608285 0.0230642966926 0.0
-0.0634624660015 0.14887329936 -0.0369512625039 0.0228217821568 -0.0187811814249 0.119244657457 -0.0438563078642 0.0411308892071 0.225720688701 0.0
-0.0214298032224 -0.0438150465488 0.163763523102 -0.00444662803784 0.0704417824745 0.0755994766951 -0.0123981963843 -0.086783438921 -0.209448039532 0.0
0.018696051091 -0.0266407895833 -0.0848355814815 -0.0709661766887 0.0625724047422 0.0790259540081 -0.00060328876134 0.067418448627 0.0528350062668 0.0
0.0844847783446 0.040943082422 0.105538114905 0.003750044154 -0.0491028353572 0.00372529774904 -0.0252058748156 0.0861049592495 0.0769982859492 0.0
-0.0942461788654 0.173455655575 0.0905870348215 -0.0425151027739 0.0545441582799 0.0965173766017 -0.163468405604 -0.133257433772 0.101581729949 0.0
0.00485178921372 0.0740324929357 0.2659984231 0.0225033853203 -0.000781630340498 -0.0991699248552 0.00772574543953 0.014025487937 -0.1292206496 0.0
0.0167233124375 -0.180650323629 -0.0717891976237 -0.00424489704892 -0.101715527475 0.01830053702 0.0667068585753 -0.064733363688 -0.050737567246 0.0
-0.0103281298652 0.09822139889 -0.0102914031595 -0.013951134868 -0.00232463469729 0.0433480478823 -0.0538554787636 -0.0303007438779 0.0444255098701 0.0
0.144544109702 -0.0486293211579 -0.0304253175855 0.0126410089433 0.0571584403515 -0.00371014443226 -0.102616511285 0.0653318986297 -0.0636512562633 0.0
-0.142990723252 0.118168987334 0.0859224721789 -0.0675149559975 0.125240638852 0.124505229294 0.0304106716067 0.0263358354568 -0.00590908108279 0.0
0.329247921705 0.0469786450267 -0.00886368006468 -0.0314243212342 0.0277921427041 -0.00220413529314 -0.0444409660995 0.133964508772 0.0562805794179 0.0
0.0350303798914 0.0335736647248 0.0454712919891 -0.00560155883431 -0.0338666364551 -0.113684333861 -0.0773558989167 -0.125155746937 -0.0270005129278 0.0
-0.150562524796 -0.0762753859162 0.0327311083674 0.107129059732 -0.0978453084826 0.00558728864416 0.0363389141858 -0.0729570314288 -0.189120009542 -0.0810144
0.104426644742 -0.021077927202 -0.0671629458666 -0.0327513702214 -0.00712376506999 0.0825692042708 0.0226179789752 0.0588958859444 0.0704994350672 0.0
0.0354409776628 0.155353873968 -0.0387773215771 0.123329788446 -0.0603286772966 -0.0457668974996 -0.0132270464674 -0.075440607965 -0.0572801120579 0.0
0.0941708683968 0.0188277568668 0.0126135814935 -0.0554329864681 0.031412165612 -0.0742772743106 0.0942436829209 0.047440469265 0.0522720627487 0.0
-0.050291262567 0.109065666795 -0.0528333187103 -0.0703146234155 0.0720780044794 0.0659598261118 0.0448892526329 -0.0281457398087 -0.0594771839678 0.0
-0.0195350330323 -0.054830994457 -0.0711023807526 -0.0476058758795 -0.00145331968088 0.037452634424 -0.0734866634011 -0.0613795556128 -0.141289353371 0.0
-0.00964012928307 0.0268594678491 -0.0877140387893 0.122842237353 -0.0572576671839 0.0529922544956 0.21690274775 -0.0701487734914 -0.101022608578 0.0
0.0396660268307 0.0891560614109 -0.14409545064 0.101670399308 -0.0513275116682 -0.133789151907 0.112429402769 0.0103425709531 -0.0076507027261 0.0
-0.103881292045 -0.101035729051 -0.0280072018504 -0.0746637135744 0.0908978432417 -0.056551143527 -0.0325613878667 0.065800562501 -0.109235398471 0.0
-0.0666121467948 -0.0140779567882 0.00908839423209 0.0332324802876 -0.0111189577729 -0.0378912240267 -0.0644845589995 0.151566103101 -0.0199652388692 0.0
0.16975350678 0.150084927678 0.0165862031281 -0.0264710709453 0.0554125867784 -0.0677682384849 0.113077580929 0.112627312541 -0.101180173457 0.0
-0.0551315918565 0.148992672563 0.00227149552666 0.0723023936152 0.0333949625492 -0.131559193134 0.176772356033 0.164259031415 -0.243496850133 0.0
-0.0555613264441 -0.0399875156581 -0.0215299576521 -0.00772876758128 -0.0817528739572 -0.0855912044644 -0.0897417515516 0.0204126890749 -0.040931019932 0.0
-0.00417888583615 -0.046325225383 -0.14802634716 -0.0597768686712 -0.0660158768296 0.0307512786239 -0.0596261322498 -0.00340490764938 0.00675713317469 0.0
-0.0671316385269 -0.0755597651005 0.137378796935 0.0324995703995 0.0304363928735 0.176866516471 0.0712579414248 0.0934060886502 0.0396044701338 0.0
-0.198768883944 0.00378169585019 0.0175211187452 -0.0124474409968 -0.0800613760948 0.041600253433 -0.0127164525911 -0.0428599156439 -0.140743136406 0.0
-0.0964554473758 0.0453349724412 0.0292796045542 -0.224460244179 -0.223740071058 -0.015702817589 0.0187081061304 0.0517557449639 -0.100415453315 0.0
0.12328055501 0.103852391243 -0.0706741064787 -0.0152070792392 0.0215836241841 -0.125926017761 0.00784888863564 -0.00234065251425 -0.0713680684566 0.0
-0.0254128146917 -0.117058545351 -0.0572048798203 0.0253793727607 -0.113435335457 0.0894655510783 0.123387090862 -0.0187365114689 0.123143769801 0.0
-0.00649516517296 0.173692330718 0.0648873075843 0.0733093768358 -0.0228145085275 -0.154646769166 0.0956176072359 -0.0999269559979 -0.111560158432 0.0
-0.0735263600945 0.0371533744037 0.0722559913993 -0.033683013171 0.0804075300694 0.160263285041 -0.145281329751 0.0569052472711 0.00516457902268 0.0
-0.18348364532 0.000943541992456 0.0104581099004 -0.221223473549 -0.117159664631 -0.0586101748049 -0.0593413859606 -0.100366063416 -0.181159496307 0.0
0.0447140000761 0.0611189678311 -0.0604832544923 -0.043608032167 0.0654353275895 0.0404151715338 0.00492757931352 0.00196705409326 0.0669600963593 0.0
0.0241006892174 0.0370553433895 -0.00838837120682 -0.0085633257404 -0.0266197081655 0.0616053901613 -0.108056753874 -0.0108566898853 0.16524258256 0.0
-0.0489770658314 -0.0865035280585 0.0291906166822 -0.0597284696996 0.029549408704 -0.00863149017096 -0.0217629671097 0.0102160144597 0.0548192225397 0.0
-0.0590180270374 -0.053317643702 -0.0691614001989 -0.143936365843 -0.114133052528 0.0772556811571 -0.0341501459479 -0.065573528409 0.0270875878632 0.0
0.149487510324 0.0704695507884 -0.0148987947032 0.0258392412215 0.0129715939984 -0.0495017319918 0.0492364726961 0.0195675846189 0.041535794735 0.0
-0.103860594332 -0.0922262594104 -0.0726711601019 -0.0177653487772 -0.0322714038193 0.0349061973393 -0.097141996026 -0.0838413387537 -0.0426777414978 0.0
0.120563790202 0.0492731779814 -0.0320934802294 0.0645043477416 0.0713833793998 -0.0662988722324 0.0103811537847 -0.121311530471 -0.0635781735182 0.0
0.0283485222608 0.0868048891425 0.0677473023534 -0.0529691651464 -0.0243747401983 -0.0673652216792 0.00845592468977 -0.0721040517092 0.0337208099663 0.0
0.0317283943295 -0.137364670634 -0.135682091117 -0.198130682111 -0.103727869689 0.0299834068865 -0.247277155519 -0.0318598337471 0.259902477264 0.0
0.0917980968952 -0.120272800326 -0.106992088258 0.187663406134 0.0920691341162 0.126206099987 0.0925240442157 -0.0271176267415 0.0587492547929 0.0
0.0637687146664 -0.170396849513 -0.00827192142606 0.142709612846 0.058801535517 0.0117737650871 0.0547063201666 0.159397229552 -0.0757150948048 0.0648688
0.0862446501851 0.029396455735 -0.0701294764876 0.0356861650944 0.0195043422282 -0.0637102350593 0.0292726997286 -0.0590418092906 -0.0691997930408 0.0
0.0416384190321 -0.0356258936226 0.0839808359742 -0.0397154353559 -0.153622552752 -0.11781834811 -0.00182035099715 -0.0100612817332 0.025363843888 0.0
-0.0733505636454 -0.0283108931035 0.103757143021 0.04093240574 -0.0546031445265 0.0826547667384 0.0287129264325 -0.101216554642 -0.0163602959365 0.0
0.048140656203 0.0989536121488 -0.0212337430567 0.0165286529809 -0.0229769032449 0.0743690654635 0.122082814574 0.0759249404073 0.101087383926 0.0
-0.0750623047352 0.0978779494762 0.0441408976912 -0.0577223822474 -0.0586190670729 -0.0249731130898 -0.021636608988 0.00999243929982 -0.10145034641 0.0
0.017535392195 -0.00900018680841 0.115101568401 -0.0396038591862 -0.00616676779464 0.0811906158924 -0.0495532155037 0.0732480660081 0.143349602818 0.0
-0.0232523716986 -0.108851350844 -0.0547873303294 -0.0677675753832 -0.0820743665099 0.0705050528049 0.0404997132719 -0.0324655808508 0.0235443934798 0.0
0.0847966000438 0.0246617309749 -0.0769923701882 -0.00293781817891 -0.028680620715 -0.0611404255033 -0.0298251584172 -0.0784378200769 -0.0738790854812 0.0
-0.114595383406 -0.0276363901794 0.057929944247 0.00857741385698 0.032107423991 0.027409363538 0.0833688899875 0.111188352108 0.126849651337 0.0
-0.0968689769506 -0.134141787887 0.00917041767389 -0.042996764183 0.124783374369 0.0580523051322 0.0443126000464 -0.0809852927923 0.055082783103 0.0
-0.0447105765343 0.0329181216657 -0.0593641363084 -0.0240654665977 0.0137627497315 0.0092100026086 0.0131557304412 0.0832654610276 -0.00182241993025 0.0
0.0724711567163 0.0636904463172 0.0478623993695 -0.092921257019 0.0413058996201 0.0848927795887 0.0386919863522 0.0726258382201 0.0248878169805 0.0
0.0829455778003 0.0461898632348 -0.0117564741522 -0.0659401938319 0.0131878880784 -0.0419259145856 0.0758621990681 0.0582341663539 -0.0487709864974 0.0
0.037217926234 -0.0857837796211 -0.0745490565896 0.0905784890056 -0.158809229732 -0.0102420151234 0.10248606652 -0.100042395294 0.0378155186772 0.0
-0.128193438053 -0.00172242126428 0.109363891184 0.0551758855581 -0.0363216102123 0.0619641654193 -0.108262084424 0.0786089450121 0.0260180924088 0.0
-0.0501467995346 0.0150479543954 -0.0124158477411 -0.0509620159864 0.00921260658652 0.122670777142 -0.0371965616941 -0.000146124119055 0.0437407456338 0.0
0.0392954647541 0.0889422670007 0.189049988985 0.014218468219 -0.0865877345204 0.0203925911337 -0.0459497608244 -0.0601855777204 0.10494004935 0.0
0.11452472955 0.0554028041661 0.18512262404 0.0170886684209 -0.0811714977026 0.0101780481637 0.00814674701542 -0.0730515569448 -0.0170696023852 0.0
-0.011393904686 -0.00257432064973 -0.172642797232 0.0841175988317 0.0285208038986 -0.0816044360399 -0.00655050948262 0.0211160387844 -0.0261292643845 0.0
-0.018990593031 -0.175626039505 0.000348296656739 -0.0224358830601 0.084318742156 0.0837097167969 0.145300000906 0.00171105517074 0.171288505197 0.0
0.0221515353769 -0.0724197551608 0.0192601513118 -0.0565099045634 -0.114608034492 0.0777672231197 -0.0646371915936 -0.0834337547421 0.0576196685433 0.0
-0.0212455056608 -0.0118121188134 0.0469614081085 0.0900548920035 -0.0548606701195 0.0749667584896 0.0238691437989 -0.00492544006556 0.101329475641 0.0
-0.114695481956 0.0496502481401 0.0366258993745 -0.0193214770406 0.032331507653 0.0139997918159 -0.0667199417949 -0.0240748692304 0.0429487377405 0.0
0.00441749300808 -0.0774535238743 -0.0226642414927 0.0328347012401 0.0048058195971 0.00131852261256 -0.0166671033949 -0.0778905451298 0.0917916595936 0.0
-0.0721913129091 -0.137861207128 -0.131173029542 -0.129941269755 -0.150190800428 -0.0733237937093 0.178863584995 0.11050324887 0.152401641011 0.0
-0.0181294977665 0.0631284639239 0.0904960855842 0.0197116397321 -0.0456318259239 -0.104502312839 -0.120040558279 0.0734643563628 -0.0694104209542 0.0
-0.0810495465994 0.0911291092634 0.158271819353 -0.0214118398726 0.0458676703274 0.00177711516153 -0.126257568598 0.0271651204675 0.0653065443039 0.0
-0.00444623548537 0.0173055361956 -0.0958876088262 -0.125400349498 0.0524028539658 0.0396816954017 -0.0559508129954 0.102792225778 0.0789743065834 0.0
-0.0208555720747 -0.112100213766 -0.0420727357268 -0.123596809804 0.0886438935995 0.0143463881686 -0.146241292357 -0.131578609347 0.0753235369921 0.0
0.11733828485 -0.0911926180124 -0.0905120074749 0.0174639523029 -0.039092708379 0.0660241246223 0.139392584562 0.0587609708309 -0.00986059289426 0.0
-0.035353641957 -0.0142288161442 0.107728973031 0.0328828282654 -0.145185351372 0.00648848153651 0.0185335502028 -0.0514103397727 0.0831120610237 0.0
0.169252201915 0.0704300701618 0.0190365742892 0.0406437814236 -0.0571817792952 0.0553616583347 -0.0365808792412 0.0129858748987 0.032685033977 0.0893463
-0.0209888163954 0.0850516557693 -0.0563952550292 -0.00409759115428 0.052350435406 -0.00422788131982 -0.0837150067091 0.0608740188181 -0.0506732389331 0.0
-0.024611685425 0.048587154597 -0.0458081588149 0.0799063816667 -0.0271156840026 -0.00709670688957 0.0916066169739 -0.0574813783169 -0.0524317547679 0.0
-0.0990653261542 0.0388671755791 -0.0249597597867 -0.0781622380018 -0.00114556786139 0.0049258209765 -0.0192721560597 0.0849416032434 0.0107052568346 0.0
0.0481999740005 -0.0612942837179 0.0616363473237 0.102989569306 -0.100767575204 -0.0214239805937 0.0202137585729 -0.102816551924 0.0898267775774 0.0
-0.0415091738105 -0.0374299734831 -0.00367222796194 -0.0896344780922 0.0644781291485 -0.0446424894035 -0.033498108387 0.023223048076 0.0322021022439 0.0
0.0291099790484 -0.096798196435 0.0335677526891 0.0698557421565 -0.0382085181773 0.0996519997716 -0.0608138851821 0.0798043459654 -0.0382250025868 0.0
-0.111602902412 -0.0321694947779 0.0304445512593 -0.0333727151155 0.0244912169874 0.0527864471078 0.037320278585 -0.0444666296244 0.0529007129371 0.0
0.0413117669523 0.00937553215772 -0.0418121255934 -0.0536749921739 0.0218559019268 0.0853978767991 0.047869052738 0.0705664530396 0.092974819243 0.0
0.0460501536727 -0.00410825619474 0.0087738474831 -0.0220442190766 -0.0519644469023 0.0500299520791 -0.0646741166711 0.03838776052 0.00650790007785 0.0
-0.035226136446 0.0491818971932 0.000377673044568 0.0514256469905 -0.102738618851 0.00924437586218 -0.102194271982 -0.109385676682 -0.116879343987 0.0
-0.058439232409 -0.00669493153691 0.103874631226 0.0676382556558 0.016825357452 -0.0647626593709 -0.0193300917745 -0.0730682983994 -0.0707766711712 0.0
0.0408217161894 -0.0547367483377 0.0454580001533 0.053534630686 0.00233089877293 -0.0835347026587 -0.0425822809339 0.0255014169961 0.0747406259179 0.0
-0.0133387930691 0.0458621121943 -0.0216082725674 -0.0298894196749 -0.00855136662722 0.0118763428181 -0.00450554862618 0.0271945763379 -0.0462329797447 0.0
-0.0645552426577 0.0932914093137 -0.0428315140307 -0.00414294842631 0.0485126525164 -0.0720049589872 0.0872521772981 -0.0806025117636 0.00671787466854 0.0
-0.0340894348919 0.0428387410939 -0.0378330908716 -0.0908598974347 0.0617097169161 -0.0913186818361 0.0344075970352 0.0294167939574 -0.0383136086166 0.0
-0.0423423312604 0.0636337846518 0.0781953185797 -0.0871360599995 -0.043502792716 0.0688841789961 -0.0243924837559 0.00315172760747 -0.0038499054499 0.0
-0.00173209095374 0.0114404829219 -0.0365753173828 -0.090924449265 0.0556398294866 0.0285899490118 -0.112119913101 -0.0034277101513 0.0644685998559 0.0
0.0196463223547 0.0772912576795 0.088111743331 -0.0511206798255 -0.00197409535758 0.0926911756396 -0.0734705924988 0.0758913904428 0.154481321573 0.0
0.011550351046 -0.0399973168969 0.00663150614128 -0.0714989453554 0.0606718175113 0.0732148066163 0.0588898062706 0.00616805721074 0.00769898900762 0.0
-0.0788049250841 -0.00637304829434 0.103073365986 -0.0647968649864 -0.0722091197968 0.111234240234 -0.0533979348838 0.0358828045428 0.0418075285852 0.0
-0.102650918067 0.0413857027888 0.0798238962889 0.0616396218538 -0.0688404664397 0.078806117177 -0.0234910957515 0.0163201726973 0.00476918695495 0.0
-0.0341765657067 0.081575088203 -0.0800827518106 0.032045353204 -0.0125950183719 0.0533336848021 0.0487977229059 -0.0764268264174 -0.0674816220999 0.0
0.0406685732305 -0.00579497078434 -0.0630967915058 -0.0851713418961 -0.0635155886412 0.0702299624681 -0.0986941307783 0.00592024577782 0.0151658365503 0.0
-0.054367788136 0.0423874929547 -0.00770930200815 6.41651713522e-05 0.00746600423008 0.0216936320066 -0.0382113084197 -0.0478871241212 0.00909412652254 0.0
-0.065299667418 -0.0785965248942 -0.00745808426291 -0.0731456130743 -0.0817526653409 -0.0124318609014 -0.0220052041113 -0.00280578387901 0.0436817072332 0.0
-0.0327463075519 -0.0403435267508 -0.0708588734269 -0.0744501277804 -0.0996634215117 -0.0866439864039 -0.0404701158404 0.0295042861253 -0.0274369046092 0.0
0.0287999920547 -0.00598811218515 -0.0165610220283 -0.00720686791465 0.0380113720894 0.0870067328215 -0.0812737643719 -0.0663207247853 0.0684745907784 0.0
-0.0845319330692 0.0602378286421 0.0752842649817 0.0451631508768 0.0046679447405 -0.0879304483533 -0.0817677229643 0.0181396529078 0.0200663860887 0.0
-0.0418255552649 0.0541080310941 -0.0990153998137 0.00726937875152 -0.0098311137408 -0.0505599193275 -0.028457460925 0.0611048713326 -0.0100654168054 0.0
0.0548127889633 -0.0384849235415 0.149866715074 0.0362427383661 0.101571112871 0.0834355205297 0.0168842617422 -0.0501505695283 0.088495656848 0.0
-0.0199576839805 0.0740977972746 0.0549729429185 -0.0501076392829 0.0370591022074 -0.0833180323243 -0.0770934596658 0.0688365548849 -0.0146819651127 0.0
-0.0663191899657 0.0987605825067 0.0256271790713 -0.0944877937436 0.00687777809799 0.1021406129 -0.0855007618666 0.0798230469227 -0.0615829490125 0.0568103
-0.010777075775 0.0523184500635 -0.0363313294947 -0.0125575819984 0.0200074855238 0.0507633723319 0.0261405911297 0.0224875211716 -0.0166657548398 0.0
-0.0356893353164 0.126308500767 -0.0416956283152 -0.00838921405375 0.0384629480541 -0.165101483464 0.0209960378706 0.176241248846 -0.0195759758353 0.0
-0.0939458832145 -0.0496545545757 -0.068114168942 -0.0732768923044 -0.0351450592279 0.101763181388 0.0925323888659 0.0914683490992 0.0787265077233 0.0
0.0346017219126 -0.0300519708544 0.0058256383054 -0.0521804876626 0.0248701106757 0.055781904608 0.0946278497577 0.142910733819 0.0810736790299 0.0
-0.00262005534023 -0.0754600167274 0.033559076488 -0.0844898298383 -0.0473626814783 -0.0108350850642 -0.00652685761452 -0.0497764721513 -0.0685992389917 0.0
0.099849306047 0.00149597902782 0.0156042436138 -0.0165780372918 0.0910359397531 -0.0467853844166 0.0435550622642 0.0605721175671 -0.0269497130066 0.0
0.0802624225616 0.0150284674019 -0.0925450772047 -0.0229999404401 0.0530720427632 -0.0460289753973 -0.0689669549465 -0.132558524609 0.0369983538985 0.0
0.00138190784492 0.0321578532457 0.0500868931413 -0.019129389897 0.0211543831974 -0.042034521699 -0.0510846860707 0.070510469377 0.114669688046 0.0
-0.02346242778 0.0573004707694 0.0139132132754 -0.0796999111772 0.0375903435051 0.00970787834376 0.0397628247738 0.0129471803084 -0.0508559383452 0.0
-0.0619845204055 -0.0249407328665 -0.0713321715593 -0.0174771826714 -0.0870844423771 -0.0793606117368 0.0369267575443 -0.129821151495 0.00192930886988 0.0
0.0416380316019 -0.0466860793531 0.0739665031433 0.0270329732448 0.0184482466429 -0.0520445257425 0.0241891033947 0.111636273563 0.0405092388391 0.0
0.074370726943 -0.0630028769374 0.00792715325952 0.00950442161411 0.0545257143676 -0.0446794554591 -0.0977034643292 0.021797388792 -0.0547815747559 0.0
0.0703323334455 0.11549205333 0.0251558925956 0.029411111027 0.0854157954454 -0.0942582935095 -0.0504286549985 0.0324779488146 -0.0392002463341 0.0
-0.058653395623 -0.00202528270893 0.0538245551288 -0.0638920292258 -0.0340819358826 0.033942822367 -0.0114771993831 -0.0111006069928 0.0305257346481 0.0
-0.0852226614952 -0.0530614890158 0.0420466549695 -0.0179954059422 0.0362830124795 -0.0563161000609 -0.0886563509703 -0.0386411435902 -0.0469883196056 0.0
-0.130027860403 0.0269840434194 0.0235755648464 -0.0688058286905 0.0315165780485 0.0984970033169 0.0575720630586 0.0679090172052 -0.0510079413652 0.0
0.0327659733593 0.0613483451307 -0.0855039805174 0.0591317042708 -0.0187205187976 0.0378721393645 -0.0394977256656 0.0470152683556 0.0448861680925 0.0
0.143087953329 0.0891873613 0.124757640064 0.0111925378442 0.0471769534051 -0.0916846469045 -0.0733945518732 0.049136929214 0.0229961685836 0.0
0.0983038172126 0.101498529315 0.0575823560357 -0.0595466643572 0.00349877797998 -0.00324799772352 0.0902759805322 -0.105622902513 0.0864420458674 0.0
0.101723730564 -0.0307029560208 0.036292579025 -0.0151733513921 -0.0464603342116 -0.0808303803205 0.03594058007 0.116493478417 -0.0367869697511 0.0
-0.116780377924 0.0116695873439 0.0953611209989 -0.147565722466 0.106235034764 -0.0363481044769 0.0758676528931 0.173459455371 -0.101788632572 0.0
0.0155930221081 0.0996616408229 0.0918214470148 -0.101179167628 -0.00512201385573 -0.00345359067433 0.0432877466083 -0.0896424800158 -0.0549376383424 0.0
-0.00370705057867 -0.142298072577 0.0103715369478 0.0468962527812 -0.113255389035 -0.089941829443 0.020913887769 -0.0876559019089 -0.0104851322249 0.0
-0.0148222632706 0.0605274662375 0.0642086789012 -0.027708388865 0.0604817122221 -0.00382091267966 0.0567340813577 -0.0521651729941 0.112891323864 0.0
-0.0662542879581 -0.0099676605314 -0.117025718093 -0.0109748989344 -0.0855004861951 -0.041083343327 -0.0352555066347 0.111385777593 -0.0044658430852 0.0
0.0664734840393 0.0687813907862 0.0127025237307 -0.0423988141119 -0.106991931796 -0.0937434360385 -0.0702191442251 0.0821344703436 -0.0250934585929 0.0
0.0999545305967 0.0590727217495 0.0347477123141 0.0774153247476 0.0450027734041 -0.0675147622824 -0.0826398655772 0.0594732128084 0.0777708590031 0.0
0.0259165372699 0.0866763442755 -0.0412298068404 -0.0761846750975 -0.0924274846911 0.0330525636673 0.0451188310981 -0.053314756602 -0.0445211082697 0.0
0.0366220735013 0.0640280917287 0.0685694590211 -0.0736224725842 0.0222736261785 -0.0312677659094 0.0413699410856 -0.0912646651268 -0.03835901618 0.0
-0.0304399523884 0.0656931772828 -0.0411688052118 -0.0476048327982 -0.00495553622022 -0.112403430045 -0.0510780960321 0.102574378252 -0.0896488428116 0.0
0.0245257616043 0.0272225681692 0.0609697923064 -0.0555853694677 0.033448562026 0.0875702872872 0.00121829775162 0.11349029094 0.0912094712257 0.0
0.035548850894 -0.054151583463 0.0922912210226 0.0709710493684 0.0924562886357 0.0621791146696 0.0541016943753 0.0636385604739 -0.0984082520008 0.0322475
0.102703809738 0.006880056113 0.0350753515959 0.0871122032404 0.0474948510528 0.021342471242 0.0703282803297 -0.0392959564924 -0.00203443155624 0.0
-0.148593008518 0.0141331721097 -0.0644171610475 -0.066376440227 0.0839676111937 -0.0150134600699 -0.0456920489669 0.0458736382425 0.0933471098542 0.0
-0.0776812657714 0.0471315979958 0.0300390571356 0.00395669788122 -0.0609699003398 -0.0173551347107 -0.0933752581477 0.0919051468372 0.0182481948286 0.0
-0.0108860563487 0.0193459093571 -0.0155119644478 0.0451733767986 -0.00941593106836 -0.0420074984431 0.0637034922838 0.0654991194606 -0.0683345496655 0.0
0.0330780483782 -0.0532301180065 0.0604059137404 0.0434677451849 -0.0970341637731 -0.00246425764635 -0.0887576639652 -0.104958795011 -0.0727442353964 0.0
-0.000845609349199 -0.0270659588277 0.12330134958 -0.0685858353972 0.079781986773 0.0983633249998 -0.0973343029618 -0.10997967422 0.092671610415 0.0
0.0354794375598 -0.0482926182449 -0.107795394957 -0.0748730301857 -0.0284195449203 0.109211675823 -0.0746323987842 0.0762302204967 -0.104794748127 0.0
0.0241717416793 0.00584770971909 -0.0430669188499 -0.0569684170187 0.004150217399 0.0756748393178 -0.0115789696574 0.0546200759709 0.0450349748135 0.0
0.0638310015202 -0.0930933207273 -0.0245162714273 0.0361288674176 -0.0290884971619 0.039752587676 0.0475781448185 0.0724723562598 -0.0532380975783 0.0
-0.0269940923899 -0.0660743862391 -0.153704434633 -0.0619784370065 -0.049893476069 -0.0398593842983 -0.132200837135 0.0700124278665 0.0458888337016 0.0
-0.0807033628225 0.075627528131 -0.0633954107761 -0.0555780678988 0.115392021835 0.10708066076 -0.05827248469 0.0510049648583 0.0541674830019 0.0
0.034663323313 0.00714536942542 -0.0317990891635 -0.0874995365739 -0.0616100430489 0.0757985934615 -0.0332560241222 -0.00411649374291 0.052454598248 0.0
0.0222121533006 0.0344971492887 -0.0449085943401 0.0536517873406 0.0349424630404 -0.0563780739903 0.0151786692441 0.00811114814132 0.052784845233 0.0
0.0322404578328 -0.0194592103362 0.0381637923419 -0.146275684237 -0.0427080281079 0.0482539460063 -0.134643882513 -0.0253993105143 0.138386264443 0.0
0.0780552104115 0.0181304197758 0.134840011597 -0.0169088989496 0.047628108412 -0.0605155527592 0.0733582153916 -0.0342719145119 -0.00464539509267 0.0
-0.0872686654329 -0.0767254084349 -0.0319165922701 -0.159174397588 0.119824431837 -0.0119050359353 -0.112709999084 0.163416534662 0.0122206592932 0.0
0.0137597536668 0.0195658113807 0.0578286424279 -0.0287799108773 -0.0265758763999 -0.0151746580377 -0.0689093098044 -0.0450104773045 0.0504240989685 0.0
0.0579340942204 0.10881922394 0.0290601328015 -0.0398143343627 0.116957418621 -0.0230298358947 -0.0476529598236 0.167696133256 -0.0283652674407 0.0
0.0607122443616 -0.091573536396 0.0199631415308 -0.0228838399053 0.0213596746325 -0.000655051262584 0.00685901707038 0.139572009444 0.055425118655 0.0
-0.0148638514802 0.135958060622 -0.00891809351742 -0.0752914324403 0.164782866836 -0.109149768949 -0.025119734928 0.198231548071 -0.096996113658 0.0
-0.00789380632341 -0.0890868455172 -0.0710330829024 0.0284875724465 -0.00603131763637 -0.0831967070699 -0.0103817442432 0.0622568354011 0.02534872666 0.0
0.0259335413575 -0.0449062436819 -0.0836493968964 0.0721780285239 -0.0877343192697 0.0392978340387 -0.00940499827266 -0.0878942385316 0.101999394596 0.0
0.0179165303707 -0.093349173665 -0.104237355292 0.0188509300351 0.066326148808 0.0896958112717 0.0156900286674 0.0548830963671 -0.00528891850263 0.0
0.0230725612491 0.0430173911154 0.0402447804809 -0.0063829976134 -0.0393211171031 -0.036124125123 0.0671159550548 0.035624705255 -0.126389592886 0.0
-0.0118425935507 -0.150248557329 -0.0939575433731 0.00197356799617 -0.0755955204368 0.0137559268624 0.0244356244802 0.037219196558 0.032144472003 0.0
0.0384920351207 -0.0447295494378 -0.0649684816599 -0.128189176321 0.0266891960055 0.0762492418289 -0.0761345252395 -0.0675655677915 -0.0148711781949 0.0
0.0319544710219 -0.000266556191491 0.1023420766 0.0121867051348 -0.00894474610686 0.09493021667 0.0555720292032 -0.118561640382 0.000672150810715 0.0
0.0888109952211 -0.0979721173644 0.107105001807 -0.0655341148376 -0.0420776829123 0.0491244010627 -0.0125032430515 -0.0868443399668 0.0763997659087 0.0
-0.0579712055624 -0.100052557886 -0.0936547368765 -0.0829728543758 0.0273298285902 -0.104687616229 -0.0902286171913 -0.0645226240158 0.0453216470778 0.0
0.0783972293139 0.197602689266 -0.00922967866063 -0.0872439518571 0.149248078465 -0.0591427907348 -0.0597199760377 -0.0302121974528 0.0856052264571 0.0
0.000381954683689 0.0299508105963 0.0838049203157 -0.0509730353951 0.0353188030422 0.0224840156734 -0.0950537472963 -0.00385623378679 0.125612720847 0.0
0.0154494522139 0.0237042307854 -0.0753487125039 -0.0122290989384 0.0246809832752 -0.041147775948 0.0522444359958 -0.0122483465821 0.123255088925 0.0734369
0.0301587898284 -0.0994205847383 -0.0464895442128 -0.0178132914007 -0.0137985758483 -0.0124496771023 0.0718979164958 0.0680194124579 -0.0630628913641 0.0
0.0793168991804 -0.188396900892 -0.14928625524 0.00798486545682 -0.120419494808 -0.0366745144129 -0.224888861179 -0.0400584824383 0.0964668765664 0.0
-0.0565612725914 -0.0867290273309 0.0132758216932 0.0522043630481 -0.0785492360592 -0.0275065619498 -0.0608954317868 -0.0919624119997 -0.108499161899 0.0
0.074567168951 0.083824314177 -0.0171454176307 0.0543018206954 0.0145189044997 -0.233404323459 -0.00400745682418 -0.0892535373569 -0.162128940225 0.0
0.00437807012349 0.0447054579854 0.033065404743 -0.0277936104685 -0.0620924308896 0.0806537345052 -0.079788133502 0.0355650186539 0.0226078610867 0.0
0.0986504107714 -0.0221209172159 0.00300834188238 0.121163114905 -0.0606785416603 -0.0134144276381 0.0156979840249 -0.00436603510752 -0.0736075267196 0.0
0.0244537424296 -0.126397639513 -0.138405770063 0.249317839742 0.149139836431 -0.0853153765202 0.00963079929352 -0.00427849497646 0.0361959300935 0.0
-0.0980091243982 0.0953971296549 0.0256172139198 0.136333614588 0.264900565147 0.106563016772 0.0725612267852 -0.0232600513846 0.0468879081309 0.0
-0.179253309965 0.0741764307022 0.0862687006593 -0.293943583965 -0.0206044092774 -0.0149897355586 -0.0657733976841 0.0420531705022 -0.0728067830205 0.0
0.196878880262 0.233570620418 -0.0810961723328 0.120617412031 -0.0367611497641 -0.226889744401 0.101052612066 0.089366517961 -0.234878316522 0.0
-0.014434915036 0.154482662678 0.0508609227836 -0.0116250049323 0.11178573966 -0.0785725712776 0.131211191416 -0.000283917237539 -0.160030514002 0.0
0.00240052887239 -0.0588541589677 -0.0346541069448 0.00139318790752 -0.0629558265209 0.0705429539084 0.0340530350804 -0.0836613327265 0.0943153947592 0.0
-0.117196112871 -0.169538959861 0.198834747076 -0.172343850136 -0.210159733891 -0.00805153232068 -0.109952747822 -0.085947111249 -0.0948421359062 0.0
0.015519073233 -0.042576353997 0.0806699469686 0.0606674589217 0.0840100422502 0.0123538952321 0.150873556733 0.106022678316 0.170112356544 0.0
-0.115691550076 0.0586147271097 -0.0233491826802 -0.0784011632204 0.0855852290988 0.0848947241902 0.126258507371 0.115522615612 -0.11318667978 0.0
0.264676690102 0.221607089043 0.19227424264 -0.0947329327464 0.113629601896 0.00903164688498 -0.0560223311186 0.216014966369 -0.0319104380906 0.0
0.263935655355 0.0414798371494 -0.146670073271 0.0662094950676 -0.0641994699836 -0.0153835453093 -0.0863637775183 -0.154184862971 -0.00807658396661 0.0
-0.065680116415 -0.232191726565 -0.0380587354302 0.0101329553872 0.0919121578336 -0.0630578845739 0.170274019241 0.158260524273 0.0577311143279 0.0
0.158273175359 0.337666094303 -0.079041749239 0.0830194801092 0.137197121978 -0.0958971306682 0.0260112769902 -0.0840042605996 -0.12760874629 0.0
-0.0797428265214 -0.162059351802 0.0306806024164 0.0664575323462 0.0727778449655 0.0855738371611 -0.166002601385 0.0581754930317 0.0838366299868 0.0
-0.0494038015604 0.162691280246 0.0544995218515 -0.24237498641 -0.0297288075089 -0.187617525458 -0.060037959367 -0.152783572674 0.0368653424084 0.0
-0.0619247183204 0.036937367171 0.0549046173692 0.0566266290843 0.015088038519 0.0653628483415 -0.0524229742587 0.0553730912507 -0.00723061431199 0.0
0.00385212269612 -0.010980530642 0.157376974821 0.0882247909904 -0.03058328107 0.0812999904156 -0.0788933932781 0.00802821200341 -0.0152971073985 0.0
-0.0356995128095 -0.097117215395 -0.126412808895 0.0197007842362 -0.0576709136367 0.127553030849 0.0627284422517 0.0743476003408 0.14442768693 0.0
-0.0422066822648 -0.0340555459261 -0.080951936543 -0.0520097725093 0.0746405646205 0.121177107096 -0.0812070965767 -0.0705751404166 0.0550046116114 0.0
0.0388112850487 -0.0937869101763 -0.0598491691053 0.0238765012473 -0.0442633479834 -0.069638364017 0.17771011591 0.0667256712914 -0.0118595436215 0.0
-0.0678073093295 -0.22723479569 -0.120604209602 -0.180944621563 -0.192332386971 -0.0172038320452 -0.0203908290714 0.0366681180894 0.00288999848999 0.0
0.122317299247 -0.0244772285223 -0.136426791549 0.123172841966 -0.00865829829127 -0.0632325783372 -0.11499697715 -0.206448227167 -0.10040782392 0.0
0.0392209365964 -0.0415465459228 -0.0799644067883 -0.0182042028755 0.0114064412192 -0.0106137804687 0.0692787319422 -0.0274678748101 -0.0148835005239 0.0
-0.0602618791163 -0.0869554355741 -0.137224465609 -0.098722435534 -0.175070911646 0.141302138567 -0.00503796106204 0.172356531024 0.356534063816 0.0
-0.0914047285914 -0.0566274859011 -0.122202090919 0.072621807456 0.0686999335885 -0.014931849204 0.177386403084 -0.0132527537644 0.0184408929199 0.0
-0.137747704983 -0.116926975548 -0.071936622262 -0.081797786057 0.013747847639 0.0530440323055 -0.000689282198437 0.141705960035 -0.0401437655091 0.0199113
-0.0786820426583 0.0549244321883 0.0519449263811 0.0731811448932 -0.0300516393036 0.0596101544797 0.0563792102039 -0.0213708616793 -0.0421745441854 0.0
0.0223443675786 0.0217434857041 0.0124288499355 -0.0899105146527 -0.103325873613 0.0888960063457 0.0437093861401 0.091093942523 0.0796460583806 0.0
0.0754725411534 -0.0888507887721 -0.0307907816023 0.0636718571186 -0.0624748580158 0.0658061206341 -0.0895842015743 -0.056845754385 -0.0225136708468 0.0
-0.0191420968622 -0.0568098239601 0.0609089136124 0.01251762826 -0.0936329066753 0.0284133609384 0.00113283691462 -0.0722409039736 0.0594150163233 0.0
0.0238366611302 -0.0315066874027 0.0592631772161 0.0199297331274 0.0620989054441 0.0534103959799 0.0634490922093 0.00112792267464 -0.0746792256832 0.0
0.0584742203355 -0.0553384125233 0.00350404926576 0.00124087953009 -0.0213939845562 -0.000851037213579 0.0423084236681 -0.0795340538025 -0.0567923523486 0.0
0.0444411300123 -0.0117223598063 0.0026575922966 0.0478815548122 0.0930486246943 0.0558747909963 -0.0592811256647 0.0386943928897 0.0327679999173 0.0
0.0522355251014 0.0455920696259 0.0569438226521 0.0852336212993 0.063405662775 0.0259807296097 -0.0479564741254 0.0541373714805 -0.0100457854569 0.0
-0.0838021561503 -0.0603995844722 -0.0853464752436 0.0199748110026 -0.0317662358284 -0.0520831756294 1.32711047627e-05 0.0336999669671 -0.0266623534262 0.0
0.063719406724 0.0805848911405 0.0314079634845 0.04251659289 -0.0930582657456 -0.0986139178276 0.0394754633307 -0.0395134948194 -0.0668971091509 0.0
0.0615311935544 -0.0636076256633 -0.0294833630323 -0.0946276411414 0.0887271761894 -0.0603649355471 0.0550937689841 0.0213769618422 -0.018758058548 0.0
0.00898639857769 0.096765562892 0.0548792183399 -0.0689260140061 0.0679118558764 0.000624523498118 -0.0144348926842 0.0220955014229 -0.0708123445511 0.0
-0.0424358472228 0.0419150665402 -0.0257366951555 -0.0180996675044 0.0654660314322 0.000501225003973 -0.0691698342562 -0.0641257241368 -0.0875887125731 0.0
0.051735367626 0.058633133769 0.01333617419 0.0130606964231 -0.0872603952885 -0.0139793716371 -0.0692239254713 -0.0336153097451 -0.0705334544182 0.0
0.0501468963921 -0.0318369232118 0.0264832880348 -0.0706233382225 -0.0149913420901 -0.0499185658991 -0.0890396758914 0.0461002998054 0.00585915520787 0.0
0.0725124552846 0.0464310608804 0.00796388089657 0.0768695324659 0.00501209218055 0.0576289370656 -0.00429311254993 -0.0155617846176 -0.028669429943 0.0
-0.0599610358477 0.0257903728634 -0.0550661459565 -0.00897265598178 0.06340136379 0.0188283771276 0.0060906293802 0.0932485088706 0.0776484757662 0.0
-0.019275970757 -0.085459060967 0.0420210137963 0.0767180919647 -0.00665277987719 -0.0605801865458 -0.0201681889594 -0.0526311546564 0.0698517933488 0.0
-0.0688640996814 -0.0271771326661 0.069475106895 0.0516176000237 0.0813852474093 0.0461680106819 -0.0141681814566 -0.0419029220939 -0.016232855618 0.0
-0.0490634441376 -0.0639806166291 0.044594053179 0.0657815635204 0.0718693807721 0.0161265674978 0.0270794201642 -0.0203129500151 0.00149640894961 0.0
-0.0463091805577 -0.0269943382591 -0.0195397362113 -0.0364577695727 -0.0858697593212 0.0215607676655 -0.0270652323961 -0.0770755335689 0.0419139750302 0.0
-0.00398577610031 0.0889627337456 -0.0927875339985 -0.042690590024 0.0756551772356 0.0643734559417 0.0929638966918 -0.0320507138968 0.0595267601311 0.0
0.049571428448 -0.0382843613625 -0.0782355666161 -0.0830560401082 -0.0627516806126 -0.0799106284976 0.0135993389413 0.0403732731938 0.048113245517 0.0
-0.0506142787635 -0.0370662845671 0.00788544490933 0.0723082572222 0.0731277167797 -0.0888156145811 0.0247936639935 -0.0100519349799 -0.0159081295133 0.0
-0.0560377091169 -0.0425759069622 0.0313192307949 -0.0392767116427 -0.0206535719335 0.0540058501065 -0.0157735478133 -0.00412124535069 0.0291671399027 0.0
-0.0235771592706 0.00169031426776 0.0607884339988 -0.0817641466856 -0.0822339504957 0.0582093149424 -0.0623305812478 0.0751094743609 0.00643069250509 0.0
0.00878969114274 0.052888892591 0.0681382715702 0.0439948663116 0.00330217601731 -0.017117202282 -0.0202817060053 0.0761507079005 -0.0729212537408 0.0
-0.0956757292151 -0.0498736426234 0.0350777953863 -0.000648898945656 0.0184497814626 -0.0322674661875 -0.0329089798033 -0.069864012301 -0.017696402967 0.0
0.0967801511288 0.0822847634554 -0.00311287073418 -0.0162326078862 0.0950105264783 -0.0381843410432 -0.00441403221339 0.0818131268024 0.00999293196946 0.0
0.00848666485399 -0.0345040820539 -0.0270640105009 -0.0464261174202 0.0748507156968 -0.0408659726381 -0.0720516592264 -0.0541187338531 -0.0153627349064 0.0
0.0742929056287 -0.0982007682323 0.0624270774424 -0.0211413167417 -0.0701103210449 -0.0294146370143 -0.0449630692601 0.0483608581126 -0.0256319195032 0.0
-0.0691768378019 0.0150523176417 -0.0481608957052 0.0256640445441 -0.0757253095508 0.0104391770437 0.0739994943142 -0.0334091447294 0.0155169982463 0.0171941
0.0252027362585 -0.0223398823291 0.0863773226738 0.0866318047047 0.101212963462 0.0491870306432 0.0395619980991 -0.00967501103878 -0.0436088964343 0.0
-0.0687653943896 -0.0175436567515 0.0735321715474 0.0671326965094 -0.0305207278579 -0.0930739417672 -0.00899286288768 -0.064395159483 0.0313235148787 0.0
-0.0734662413597 -0.0438367649913 -0.0345126986504 -0.0288779940456 0.0444075576961 -0.0210544764996 -0.0507143586874 0.0362552143633 0.0762975588441 0.0
-0.00742403231561 -0.0212242361158 0.0330436043441 0.0932128056884 0.00553645333275 -0.0207943432033 0.0531621426344 -0.0485323816538 -0.0251120198518 0.0
0.0521159730852 -0.00142554496415 -0.0389150716364 0.0319509580731 -0.0195767842233 -0.0929863154888 0.0325137637556 -0.0549814589322 0.032440200448 0.0
0.0733005851507 -0.0170061197132 0.0437787622213 0.117787592113 0.0366995595396 -0.0841842144728 0.146725848317 0.0127495424822 -0.091060988605 0.0
-0.00324522284791 0.00583017710596 0.0371186509728 -0.0520799048245 0.0241602230817 -0.0791047886014 -0.0102841947228 0.103688448668 0.0238622967154 0.0
-0.0109920185059 -0.00361362402327 0.019010445103 0.0851396173239 -0.0947983041406 -0.0620656348765 0.0117424819618 -0.0171853154898 0.0180275589228 0.0
-0.0761957764626 -0.0190016571432 0.0532593913376 0.0122234001756 -0.0677301809192 0.0728513672948 -0.0960111618042 -0.0707983076572 -0.0930988714099 0.0
0.0463451743126 0.0777856037021 -0.0813170969486 -0.108985081315 -0.0764997452497 -0.0596322081983 -0.09866438061 -0.00986207090318 -0.0691627040505 0.0
0.0512424893677 -0.0368631258607 0.0335559397936 -0.00296500464901 -0.0643888562918 -0.132702842355 -0.0935443267226 0.000572907505557 -0.0735189467669 0.0
0.00223036925308 -0.0885291323066 -0.0379995666444 0.0522727631032 0.0871522650123 -0.0919202566147 0.0575629919767 -0.0861479863524 0.0524302199483 0.0
-0.0524318888783 -0.0693627670407 -0.0215598344803 0.0390837825835 0.0444215349853 -0.00824233423918 -0.00378764257766 0.0369769670069 0.00776388589293 0.0
-0.0754969269037 -0.0307499039918 0.00269566872157 0.0583301894367 -0.0658070966601 0.0141121232882 0.0461998842657 0.0839058533311 0.0713131800294 0.0
-0.0300135295838 0.114101596177 0.0928831771016 -0.00364040303975 0.0822396054864 0.030091855675 0.0401036478579 -0.0418205410242 -0.125569120049 0.0
0.0878319740295 0.148220837116 0.0356097705662 0.0361410975456 0.0499112829566 0.0341470837593 -0.0496929623187 -0.0637772828341 -0.00317923724651 0.0
-0.102290101349 -0.0168356169015 -0.0288449525833 -0.0564776696265 -0.0505309663713 -0.00848120916635 -0.0872589796782 0.0268075820059 0.0168501138687 0.0
0.0615955293179 0.0312428958714 -0.0657119229436 -0.0115467952564 -0.0715914219618 -0.0445386171341 -0.0867253094912 0.0251480527222 0.0569037050009 0.0
-0.0118769472465 -0.00777874328196 0.0040167029947 -0.137940973043 -0.129070997238 -0.014676310122 -0.0404444001615 0.0347034521401 -0.106155797839 0.0
-0.044883184135 0.133220806718 0.0545944161713 -0.0200344733894 -0.00853628385812 0.0655367895961 0.0178099684417 -0.0766323357821 -0.00926205702126 0.0
0.00950725749135 -0.0108795939013 0.1319334656 -0.044561445713 -0.0079912180081 -0.0159575883299 0.114149607718 -0.128450095654 -0.0877063274384 0.0
-0.0375341512263 -0.0205844473094 -0.0624280497432 0.0624410361052 -0.0131511976942 -0.0430395640433 0.05939245224 -0.0615679509938 -0.0634169131517 0.0
-0.0172104518861 -0.0763306170702 -0.0756406858563 -0.0357477366924 0.0522732771933 0.050361841917 0.0168496165425 -0.0151118924841 0.0699118226767 0.0
0.0853047668934 0.00622010789812 -0.00358856492676 -0.056930847466 0.108963504434 0.0357556380332 0.0410007759929 0.0385651104152 -0.0700884982944 0.0
-0.158529818058 0.0731073245406 0.138911604881 -0.151957303286 -0.102720700204 0.00196763430722 0.0211572237313 0.0977234989405 -0.0780835822225 0.0
0.0150360232219 0.0771199539304 0.0173857230693 0.0134130464867 0.0455906055868 0.0417503491044 -0.0610441826284 0.0832927450538 0.0914784744382 0.0
-0.104389362037 0.0425354093313 0.125900492072 0.00455889385194 0.0648787990212 -0.0263551753014 0.00232551107183 -0.0981474369764 0.0588936395943 0.0
0.0340308099985 0.0209103822708 0.00348157342523 -0.0515818782151 -0.121054679155 0.0178999844939 -0.0319281555712 -0.0903469622135 -0.116297967732 0.0
0.077123939991 0.0794232860208 -0.0598255507648 -0.0382393300533 -0.0322776511312 0.0932166874409 -0.101858556271 0.114782474935 0.0531721264124 0.0
-0.0676748529077 0.00477054947987 -0.0567436888814 0.0572088994086 0.146887525916 0.00440061930567 0.0828939974308 0.143833786249 0.100924819708 0.0
0.037338770926 -0.0217958837748 -0.00571717415005 0.0741938501596 -0.016107711941 0.0153596587479 0.0305305216461 0.11969666183 -0.0702475234866 0.0
0.0914866253734 0.0861908197403 -0.00786611996591 0.047304213047 0.0421346835792 0.0436893589795 0.0765596330166 -0.00086178665515 -0.0200782176107 -0.0160971
-0.0737500786781 -0.0854132026434 -0.108161047101 -0.00323245348409 0.00851560756564 -0.0153906252235 0.0877243131399 -0.00595966354012 -0.0278782304376 0.0
-0.0338248461485 -0.0860352814198 0.174835398793 -0.0707798823714 -0.0943026393652 0.0655862092972 -0.0117649221793 -0.0178876835853 -0.0772799998522 0.0
0.00416527735069 -0.0210450105369 0.0225818250328 0.0912089422345 0.0611746311188 0.0570892766118 0.0137654030696 -0.0476526543498 0.0570914894342 0.0
-0.0898296386003 -0.0363074615598 0.0592612549663 -0.0939975976944 0.0144772389904 0.0738760977983 -0.0578561499715 -0.00848271884024 0.161779791117 0.0
-0.0844753086567 0.0337194018066 -0.0178393926471 0.073976136744 -0.109846800566 -0.0711869224906 -0.0614111199975 -0.0600501969457 -0.0409229546785 0.0
-0.0430543273687 0.0165614020079 0.0376278012991 0.0301499813795 -0.00693434616551 0.0515024736524 -0.026812903583 -0.0646106377244 0.125647172332 0.0
-0.106794670224 -0.0965485423803 0.0753353312612 -0.0574331395328 0.068343386054 -0.0704692751169 -0.0872873067856 -0.0209864545614 -0.109830200672 0.0
-0.114976093173 0.0570391602814 -0.0375637970865 0.0667056813836 0.060656607151 -0.120864599943 -0.0435913614929 -0.0474852621555 -0.0816672667861 0.0
-0.0233705248684 0.00269383215345 -0.0702596604824 -0.0399178639054 -0.133950084448 -0.124430239201 0.0328854694963 0.0787976682186 -0.0281493011862 0.0
-0.131210938096 -0.0174040626734 -0.00812609307468 -0.0354655534029 -0.110786378384 0.0748600512743 0.0906970873475 -0.0677712485194 -0.0409781001508 0.0
-0.0747237354517 -0.0432341694832 -0.0330876260996 0.0254509113729 0.0221314337105 -0.0189435146749 0.0684873238206 -0.0576040968299 0.00722883408889 0.0
0.0551046729088 -0.0133890360594 0.0650648102164 -0.0372134409845 0.0508404485881 0.0665945857763 0.0649810880423 -0.0337522365153 0.0350400172174 0.0
0.0321950949728 -0.121544793248 0.0748784467578 0.0409667491913 0.0331180803478 -0.0728722885251 -0.0984729602933 -0.141693279147 -0.0475591011345 0.0
0.0590185299516 0.0610714778304 -0.0635952427983 -0.0488388165832 -0.00286995875649 -0.0164816956967 0.0806784853339 -0.0128179406747 0.059523165226 0.0
-0.0101068355143 -0.0760281309485 -0.0345581434667 -0.0452738851309 -0.0532250888646 0.0534917674959 -0.023059995845 0.0760374367237 0.000972377019934 0.0
-0.0532468147576 0.00966553390026 0.0153758879751 0.108505956829 0.0846634358168 -0.00510786799714 0.055451836437 -0.00328630162403 -0.069035038352 0.0
-0.0619054511189 -0.0335500910878 0.134706303477 -0.108978815377 -0.115666054189 0.0383543409407 -0.176935121417 -0.0237878076732 -0.143062338233 0.0
0.0378063134849 -0.0929747372866 0.127324521542 -0.0229419060051 -0.0203370358795 0.00306653417647 -0.0855528637767 -0.0914068371058 0.134253531694 0.0
-0.123469263315 -0.122754499316 -0.0945662409067 -0.0565836280584 0.00231114798225 0.0383824333549 -0.011431440711 -0.0435526110232 0.0820693597198 0.0
-0.0211140885949 -0.00477930903435 -0.0755106657743 0.0597141943872 -0.0662052854896 0.0282172001898 0.103716209531 0.0267610754818 0.137663736939 0.0
-0.0247161220759 -0.172027394176 0.0777718573809 -0.0965879634023 -0.158484652638 -0.0744041725993 0.0323840864003 -0.0991066023707 -0.0379434749484 0.0
-0.0248623341322 -0.0435694903135 -0.067124992609 0.0377352163196 -0.0746911019087 0.0937442779541 0.0732439681888 0.0636329799891 0.0790585130453 0.0
