convolution,  5 3
-0.00241074920632 0.0
-0.00154716544785 0.0
-0.00300754932687 0.0
0.00306034949608 0.0
-0.0226158685982 0.0
0.0018971436657 0.0
0.00782837439328 0.0
0.00689489301294 0.0
-0.0251511167735 0.0
-0.0173580180854 0.0
0.00122782052495 0.0
0.0144925285131 0.0
-0.00251215463504 0.0
0.0145825995132 0.0
-0.0144244031981 0.0
-0.0021085368935 0.0
0.0178632326424 0.0
-0.00648299790919 0.0
-0.00123520451598 0.0
-0.00963287334889 0.0
0.00356603693217 0.0
-0.0110260304064 0.0
0.00547950761393 0.0
0.00580440182239 0.0
-0.00109611696098 0.0
-0.0157133471221 0.0
-0.0050335819833 0.0
0.00222605490126 0.0
-0.00429912935942 0.0
-0.0144013529643 0.0
-0.00499648507684 0.0
0.0079745836556 0.000240356
-0.0448334179819 0.0
-0.115589059889 0.0
0.220969632268 0.0
0.175941661 0.0
0.0773700028658 0.0
0.0511210262775 0.0
-0.126724556088 0.0
0.0799647122622 0.0
0.0620323494077 0.0
-0.045710042119 0.0
0.0543384477496 0.0
-0.097469471395 0.0
-0.072934307158 0.0
0.0694229900837 0.0
0.0556251443923 0.0
0.0721837207675 0.0
0.0753376632929 0.0
-0.0878257825971 0.0
0.025066299364 0.0
-0.0181234702468 0.0
0.0605328194797 0.0
0.0338380411267 0.0
-0.0550642944872 0.0
-0.0670406371355 0.0
0.0776264742017 0.0
0.200529187918 0.0
0.0207801293582 0.0
-0.027273254469 0.0
0.0718736723065 0.0
0.0961465090513 0.0
0.109429232776 0.0
-0.109917923808 0.0166734
0.000849524862133 0.0
-0.0110963927582 0.0
-0.0171246733516 0.0
-0.00303632137366 0.0
-0.0176149867475 0.0
0.00106985040475 0.0
-0.0071599255316 0.0
0.00247219461016 0.0
-0.0108036883175 0.0
0.00167946924921 0.0
-0.0130992792547 0.0
0.00571529893205 0.0
0.00480108615011 0.0
-0.00180612574331 0.0
-0.0092076966539 0.0
-0.00351267773658 0.0
0.01749981381 0.0
0.0117089254782 0.0
0.002577557927 0.0
0.00261287530884 0.0
0.00333529175259 0.0
-0.0126708168536 0.0
-0.000769819191191 0.0
-0.008844406344 0.0
-0.00414547137916 0.0
0.00164727622177 0.0
0.00729845557362 0.0
-0.00615449389443 0.0
-0.0110196452588 0.0
-0.00345892831683 0.0
0.00267592887394 0.0
0.00815747585148 -0.000710728
-0.00217712135054 0.0
0.00132416503038 0.0
0.019871884957 0.0
0.0208979286253 0.0
0.0025030891411 0.0
0.0105971759185 0.0
-0.00335312192328 0.0
0.00545123033226 0.0
-0.0131864296272 0.0
-0.00252535613254 0.0
-0.0238320380449 0.0
-0.00883174687624 0.0
0.00154373142868 0.0
0.00624305428937 0.0
0.0042697689496 0.0
-0.0114547386765 0.0
-0.00126837671269 0.0
-0.000665442028549 0.0
-0.00820312835276 0.0
0.00944669544697 0.0
-0.00928173121065 0.0
-0.013004203327 0.0
0.00906194839627 0.0
-0.00351638044231 0.0
-0.00124092819169 0.0
0.00190396036487 0.0
-0.00342041696422 0.0
0.000897231977433 0.0
0.0028110567946 0.0
0.0112601974979 0.0
-0.00684813968837 0.0
-0.0100467540324 0.00100937
0.0119428662583 0.0
0.0269768536091 0.0
-0.0427307337523 0.0
-0.00788424629718 0.0
0.00756284454837 0.0
-0.00857333093882 0.0
0.0397064089775 0.0
0.00367246498354 0.0
0.00787314679474 0.0
0.00493244547397 0.0
-0.0130004361272 0.0
0.0429034009576 0.0
0.0153256533667 0.0
-0.00168136379216 0.0
0.00993868988007 0.0
0.00604008836672 0.0
0.00921472162008 0.0
0.033951189369 0.0
0.0079104192555 0.0
0.0233786702156 0.0
0.00210607657209 0.0
-0.00687077641487 0.0
0.0245774146169 0.0
0.0249461680651 0.0
0.0173932015896 0.0
-0.0093064410612 0.0
-0.000458822469227 0.0
-0.00382333807647 0.0
-0.00231588166207 0.0
0.00809659715742 0.0
0.000306532805553 0.0
0.0258829444647 0.0138016
0.0155070563778 0.0
0.0130351549014 0.0
-0.0128981079906 0.0
-0.000373935559765 0.0
0.0139412758872 0.0
-0.0117182806134 0.0
0.0203954149038 0.0
0.00970438774675 0.0
-0.00258077541366 0.0
0.0199767947197 0.0
-0.012208616361 0.0
0.00742666516453 0.0
0.0144439926371 0.0
-0.00696167116985 0.0
0.00550205865875 0.0
-0.000962677993812 0.0
0.0176269393414 0.0
0.0117742549628 0.0
0.0107651241124 0.0
-0.00699753733352 0.0
-0.018771301955 0.0
-0.00726351700723 0.0
0.0270346179605 0.0
0.0330970659852 0.0
0.0100283278152 0.0
-0.00983171164989 0.0
-0.00540824560449 0.0
0.0038517981302 0.0
-0.0180761814117 0.0
-0.0112540731207 0.0
0.0121393855661 0.0
0.014071688056 0.00800883
-0.00913043133914 0.0
-0.0157095789909 0.0
-0.00073382636765 0.0
-0.0106757543981 0.0
-0.0046259961091 0.0
0.00252875615843 0.0
0.00117703608703 0.0
-0.0129153085873 0.0
-0.00389651954174 0.0
-0.0107374275103 0.0
-0.0026142813731 0.0
0.00664992351085 0.0
-0.000673503323924 0.0
-0.00910863932222 0.0
0.00573199382052 0.0
-0.00430824095383 0.0
0.0107035012916 0.0
-0.00583854643628 0.0
0.00984552223235 0.0
-0.00711722206324 0.0
-0.0137215452269 0.0
0.00846156012267 0.0
-0.0108498744667 0.0
-0.00517728785053 0.0
0.00756607484072 0.0
-0.0113300429657 0.0
-0.00398540403694 0.0
-0.0129137886688 0.0
-0.00536697776988 0.0
-0.0181490797549 0.0
0.0146798668429 0.0
0.00148497824557 -8.16219e-06
-0.0516365133226 0.0
-0.0939596667886 0.0
0.17511190474 0.0
0.140267312527 0.0
0.0628701150417 0.0
0.0259038563818 0.0
-0.116312921047 0.0
0.0551726743579 0.0
0.064213745296 0.0
-0.0272412821651 0.0
0.0406805239618 0.0
-0.0741082057357 0.0
-0.0483394898474 0.0
0.0686991289258 0.0
0.0391447171569 0.0
0.0435221940279 0.0
0.0666307806969 0.0
-0.0697698742151 0.0
0.0139055345207 0.0
-0.0277750585228 0.0
0.0298327431083 0.0
0.0394065491855 0.0
-0.0370951443911 0.0
-0.0413117744029 0.0
0.0518184900284 0.0
0.153910219669 0.0
0.0155393593013 0.0
-0.0185297634453 0.0
0.0535029284656 0.0
0.0662382543087 0.0
0.0868795737624 0.0
-0.0861440375447 0.0140156
0.00696563860402 0.0
-0.0142059512436 0.0
0.00321968691424 0.0
0.00874605681747 0.0
-0.00316895311698 0.0
0.000157873306307 0.0
0.0151424240321 0.0
-0.00265643489547 0.0
0.0191016737372 0.0
-0.000147988510435 0.0
0.00293598696589 0.0
-0.00243522669189 0.0
-0.0115856966004 0.0
0.0251416563988 0.0
0.00701321754605 0.0
-0.0140670919791 0.0
-0.0309073589742 0.0
0.0101573588327 0.0
-0.00567487534136 0.0
-0.0123688038439 0.0
-0.0118702482432 0.0
-0.00706836441532 0.0
-0.00264028343372 0.0
-0.0130114713684 0.0
-0.00170942803379 0.0
-0.00283185602166 0.0
0.00465987576172 0.0
-0.00626574829221 0.0
0.00636396137998 0.0
-0.00728131784126 0.0
-0.0118739614263 0.0
0.013875413686 -0.00169875
0.00535353086889 0.0
-0.00402569677681 0.0
-0.0130516793579 0.0
-0.0043298304081 0.0
-0.0166483875364 0.0
-0.00148332794197 0.0
0.00369409937412 0.0
0.0108426185325 0.0
0.0115691963583 0.0
0.00035601228592 0.0
-0.017182091251 0.0
-0.00630460120738 0.0
-0.00286248093471 0.0
-0.008096171543 0.0
0.00786771811545 0.0
0.00449634203687 0.0
0.00154709129129 0.0
-0.000248346856097 0.0
0.00265747867525 0.0
-0.00767229963094 0.0
-0.0115338377655 0.0
0.00478725973517 0.0
0.00341109652072 0.0
-0.00720350258052 0.0
0.0103141600266 0.0
-0.00649126479402 0.0
0.000904920976609 0.0
-0.000296929269098 0.0
0.0135027971119 0.0
-0.00717993453145 0.0
-0.0154326334596 0.0
0.00330836651847 -9.44134e-05
-0.0417646691203 0.0
-0.097272105515 0.0
0.201546832919 0.0
0.163103640079 0.0
0.0764449089766 0.0
0.0306766685098 0.0
-0.107362680137 0.0
0.0550636909902 0.0
0.0686490386724 0.0
-0.0535817109048 0.0
0.0470184199512 0.0
-0.071676954627 0.0
-0.0513021610677 0.0
0.0653758868575 0.0
0.0439769513905 0.0
0.0454365760088 0.0
0.0677253007889 0.0
-0.0915990918875 0.0
0.0151140075177 0.0
-0.0238925591111 0.0
0.0472910627723 0.0
0.0230319574475 0.0
-0.0365407094359 0.0
-0.0500043071806 0.0
0.0619678534567 0.0
0.15497726202 0.0
0.0124621214345 0.0
-0.019334981218 0.0
0.0582246184349 0.0
0.0741350799799 0.0
0.101842485368 0.0
-0.088628180325 0.0206898
-0.00301944906823 0.0
-0.0056154965423 0.0
0.00330821494572 0.0
0.0187363941222 0.0
0.00818793289363 0.0
-0.0200597178191 0.0
0.000868727045599 0.0
-0.0125653734431 0.0
0.00678598182276 0.0
-0.00593628175557 0.0
0.0149726048112 0.0
-0.00862025283277 0.0
0.00815184786916 0.0
-0.0151898600161 0.0
0.00311379996128 0.0
0.00687086069956 0.0
-0.00174331222661 0.0
-0.0136418137699 0.0
0.0108197685331 0.0
-0.0121624022722 0.0
0.00354906939901 0.0
-0.0139375366271 0.0
-0.00596206588671 0.0
-0.0136471977457 0.0
-0.0182230584323 0.0
0.0083135375753 0.0
-0.0022304749582 0.0
-0.00187899393495 0.0
-0.00417340314016 0.0
-0.0041038277559 0.0
0.0033011813648 0.0
0.00222747796215 2.69819e-05
-0.010300594382 0.0
-0.00957632064819 0.0
-0.00530683528632 0.0
0.000834761129227 0.0
-0.0106209730729 0.0
-0.0229230839759 0.0
0.00151044630911 0.0
0.00966079439968 0.0
-0.0099865635857 0.0
-0.0213472936302 0.0
-0.00439921813086 0.0
0.00469906441867 0.0
0.0128242028877 0.0
0.00503216357902 0.0
0.00386319472454 0.0
0.0293439589441 0.0
0.00385311595164 0.0
-0.0171638410538 0.0
0.00445933872834 0.0
-0.0137609960511 0.0
0.00828615762293 0.0
-0.00497519830242 0.0
0.00264345994219 0.0
-0.00236884038895 0.0
0.00667007500306 0.0
-0.0177140738815 0.0
-0.0113199744374 0.0
-0.0153015861288 0.0
0.00221455120482 0.0
-0.00983933452517 0.0
-0.00136978796218 0.0
-0.0157890040427 -0.000623019
0.0135305607691 0.0
0.0360062941909 0.0
0.0064956843853 0.0
-0.0135469669476 0.0
0.00276656658389 0.0
-0.00981703866273 0.0
0.039231557399 0.0
-0.00520137138665 0.0
0.0156672541052 0.0
0.0125950016081 0.0
0.0118836965412 0.0
0.0249555371702 0.0
0.0397831015289 0.0
-0.0156212355942 0.0
-0.000219817578909 0.0
0.00109565479215 0.0
0.0127404471859 0.0
0.0385800004005 0.0
0.00316432537511 0.0
0.00218130042776 0.0
0.00321209756657 0.0
-0.000351842405507 0.0
0.0281685423106 0.0
0.0230352319777 0.0
0.00967554841191 0.0
0.00122866861057 0.0
-0.00343467528 0.0
0.0116917164996 0.0
0.0150984879583 0.0
0.00251847808249 0.0
0.000644939020276 0.0
0.0306357610971 0.023719
0.0114882662892 0.0
0.00729889050126 0.0
-0.00131939898711 0.0
-0.0132557274774 0.0
0.00374786113389 0.0
-0.0107468627393 0.0
0.0043816305697 0.0
0.00450034672394 0.0
0.00209840130992 0.0
-0.0160824097693 0.0
0.00338668818586 0.0
0.00476008467376 0.0
0.00886275805533 0.0
-0.0075107626617 0.0
-0.00804734136909 0.0
-0.0122241135687 0.0
-0.0078060682863 0.0
-0.00569782778621 0.0
-0.0168427862227 0.0
-0.00928996317089 0.0
0.00492848875001 0.0
0.00481328740716 0.0
-0.00765057420358 0.0
-0.0109324427322 0.0
-0.00171387451701 0.0
-0.00918869115412 0.0
0.0173278171569 0.0
-0.0109258564189 0.0
0.0100525021553 0.0
0.0060964259319 0.0
-0.0201177410781 0.0
0.0108870491385 1.54334e-05
0.0120976325125 0.0
-0.00660662585869 0.0
0.005030405242 0.0
0.00268236431293 0.0
-8.75594705576e-05 0.0
0.000796405831352 0.0
0.00849347095937 0.0
-0.0129054877907 0.0
-0.0210895501077 0.0
0.0114583838731 0.0
0.00316662807018 0.0
-0.00759882386774 0.0
0.0102553805336 0.0
-0.0222818721086 0.0
0.00695553375408 0.0
-0.00394584890455 0.0
-0.0011227860814 0.0
-0.000165017903782 0.0
-0.00463740061969 0.0
0.00638567050919 0.0
0.00380406226031 0.0
0.00132077129092 0.0
-0.0067789349705 0.0
-0.00602451479062 0.0
0.0094940578565 0.0
-0.00634206319228 0.0
0.00363449333236 0.0
-0.00196339236572 0.0
-4.40359035565e-05 0.0
-0.0016876780428 0.0
0.000493284722324 0.0
-0.0103699481115 0.00258607
-0.0305830091238 0.0
-0.053607147187 0.0
0.133769541979 0.0
0.0882551521063 0.0
0.0516184829175 0.0
0.03075774014 0.0
-0.0638548582792 0.0
0.03295237571 0.0
0.0413941368461 0.0
-0.0187654364854 0.0
0.0389714278281 0.0
-0.0330928340554 0.0
-0.0296732429415 0.0
0.0219305679202 0.0
0.0272130072117 0.0
0.0441354177892 0.0
0.0386664457619 0.0
-0.0441487394273 0.0
0.0178351029754 0.0
-0.0179257560521 0.0
0.0348684340715 0.0
0.0242754034698 0.0
-0.0299971457571 0.0
-0.032669365406 0.0
0.0429268665612 0.0
0.101992383599 0.0
0.00675890780985 0.0
0.00371893192641 0.0
0.0615862682462 0.0
0.0474173128605 0.0
0.0485035143793 0.0
-0.0718222633004 0.00717183
0.040090456605 0.0
0.0494644716382 0.0
-0.0305330175906 0.0
-0.0088468240574 0.0
0.00195535947569 0.0
-0.0149894142523 0.0
0.0627166181803 0.0
-0.00627211062238 0.0
0.0120217362419 0.0
0.0489545091987 0.0
0.00835955236107 0.0
0.0425930395722 0.0
0.0454950407147 0.0
0.0257296059281 0.0
-0.00739987101406 0.0
0.0191502217203 0.0
0.00336765358225 0.0
0.0605018027127 0.0
-0.000522698042914 0.0
0.0225473660976 0.0
-0.0161016676575 0.0
-0.0194235052913 0.0
0.0565982572734 0.0
0.0411337576807 0.0
-0.00292548025027 0.0
-0.00337877054699 0.0
0.00839565228671 0.0
-0.00069244671613 0.0
0.00840504840016 0.0
0.00587675208226 0.0
0.00259954109788 0.0
0.0552621893585 0.0304197
-0.0978000462055 0.0
-0.220881909132 0.0
0.405599594116 0.0
0.328942924738 0.0
0.162793800235 0.0
0.079778842628 0.0
-0.240746453404 0.0
0.126874610782 0.0
0.15422052145 0.0
-0.0850745886564 0.0
0.118751272559 0.0
-0.167141258717 0.0
-0.12478864193 0.0
0.116393983364 0.0
0.0933503955603 0.0
0.117032244802 0.0
0.132293730974 0.0
-0.176236823201 0.0
0.0226550158113 0.0
-0.0384461060166 0.0
0.104369036853 0.0
0.0426368899643 0.0
-0.0910163521767 0.0
-0.100924357772 0.0
0.142145335674 0.0
0.348921746016 0.0
0.0382252112031 0.0
-0.019757591188 0.0
0.119091108441 0.0
0.160349816084 0.0
0.192546889186 0.0
-0.21199683845 0.040113
-0.00161751138512 0.0
0.00776669429615 0.0
-0.021043382585 0.0
0.00733382441103 0.0
0.00416569132358 0.0
-0.00334841827862 0.0
0.00992469955236 0.0
-0.00863280985504 0.0
-0.00329983257689 0.0
-0.0192515030503 0.0
-0.0111982226372 0.0
-0.00236733374186 0.0
0.00161939288955 0.0
0.0111262537539 0.0
-0.00379987736233 0.0
-0.0132059482858 0.0
-0.0182670168579 0.0
0.00300805829465 0.0
-0.0137529512867 0.0
0.00384104787372 0.0
0.00187807483599 0.0
0.015727205202 0.0
-0.000584977678955 0.0
-0.0124178333208 0.0
0.0010610006284 0.0
-0.00131578906439 0.0
-0.00978239439428 0.0
-0.00407668156549 0.0
0.00750007852912 0.0
-0.00106080737896 0.0
-0.00119674939197 0.0
-0.00251627503894 -4.93496e-05
-0.0955703407526 0.0
-0.21543200314 0.0
0.428891450167 0.0
0.34790161252 0.0
0.162240862846 0.0
0.0778514221311 0.0
-0.250444859266 0.0
0.129701167345 0.0
0.144872561097 0.0
-0.0844358354807 0.0
0.112926065922 0.0
-0.171647444367 0.0
-0.129261419177 0.0
0.130584746599 0.0
0.105853013694 0.0
0.123953767121 0.0
0.144552528858 0.0
-0.172668129206 0.0
0.0215960722417 0.0
-0.0569808967412 0.0
0.108720563352 0.0
0.0734807103872 0.0
-0.108754120767 0.0
-0.11778241396 0.0
0.154408290982 0.0
0.364712297916 0.0
0.0390994660556 0.0
-0.032238855958 0.0
0.114675864577 0.0
0.180278837681 0.0
0.202256456017 0.0
-0.227786883712 0.0392257
-0.0859908983111 0.0
-0.166517361999 0.0
0.371328473091 0.0
0.281725049019 0.0
0.134727209806 0.0
0.0726173296571 0.0
-0.208866491914 0.0
0.0984287858009 0.0
0.133268490434 0.0
-0.0835965052247 0.0
0.0895864143968 0.0
-0.138555914164 0.0
-0.113410100341 0.0
0.116070434451 0.0
0.0733327791095 0.0
0.0825539082289 0.0
0.135934144258 0.0
-0.137625783682 0.0
0.0242066401988 0.0
-0.047061573714 0.0
0.108461886644 0.0
0.0563752278686 0.0
-0.0943110063672 0.0
-0.0921347141266 0.0
0.126950591803 0.0
0.31307759881 0.0
0.0402708947659 0.0
-0.0438143983483 0.0
0.127242684364 0.0
0.14725881815 0.0
0.183961644769 0.0
-0.185228213668 0.0224815
0.0458454973996 0.0
0.0893251299858 0.0
-0.0444547869265 0.0
-0.0241649691015 0.0
0.0073507828638 0.0
-0.00881803128868 0.0
0.0798855870962 0.0
-0.0107164401561 0.0
0.00656895479187 0.0
0.049156062305 0.0
0.000977439573035 0.0
0.0521429777145 0.0
0.0397233180702 0.0
0.0202125459909 0.0
0.0289256107062 0.0
-0.000955263094511 0.0
0.0147008113563 0.0
0.0597106963396 0.0
0.00223385542631 0.0
0.0437937639654 0.0
-0.0130468215793 0.0
-0.00885516125709 0.0
0.0677452683449 0.0
0.0633717030287 0.0
0.0206986684352 0.0
-0.0157549958676 0.0
0.00910625047982 0.0
0.013703353703 0.0
-0.0167371444404 0.0
-0.0122836949304 0.0
-0.0187345016748 0.0
0.0540029928088 0.0335223
-0.0097149387002 0.0
-0.0103718517348 0.0
0.0426991842687 0.0
0.000623583036941 0.0
0.0169819351286 0.0
0.00671990448609 0.0
-0.0192660577595 0.0
0.0293524842709 0.0
0.011814978905 0.0
-0.00523633183911 0.0
-0.00131799385417 0.0
0.00797173846513 0.0
-0.0165153872222 0.0
0.00832809694111 0.0
0.01966496557 0.0
0.0198324806988 0.0
-0.00365811865777 0.0
-0.00158653629478 0.0
0.00424895249307 0.0
-0.000314504402922 0.0
-0.0138285057619 0.0
0.00438233325258 0.0
0.00772260501981 0.0
0.00130830518901 0.0
0.0143599426374 0.0
0.0101798959076 0.0
-0.00587615510449 0.0
0.000212438462768 0.0
0.0188213456422 0.0
-0.000269955489784 0.0
0.0183754302561 0.0
-0.0306134652346 0.000217879
0.17230014503 0.0
0.298502355814 0.0
-0.129886597395 0.0
-0.0416638739407 0.0
0.0105812232941 0.0
-0.030037028715 0.0
0.375702291727 0.0
-0.0574228465557 0.0
0.0461868159473 0.0
0.219730749726 0.0
0.0345036610961 0.0
0.190711140633 0.0
0.171096980572 0.0
0.0278784073889 0.0
0.0829599201679 0.0
0.0456042923033 0.0
0.0747865587473 0.0
0.265263348818 0.0
0.0460628159344 0.0
0.167628094554 0.0
-0.0291183125228 0.0
-0.00838030688465 0.0
0.270466208458 0.0
0.215311586857 0.0
0.0362989269197 0.0
-0.0537019260228 0.0
0.00133556872606 0.0
0.0340481847525 0.0
-0.0343874022365 0.0
-0.0237442608923 0.0
0.00823387503624 0.0
0.254202365875 0.151912
-0.00217852299102 0.0
-0.0301411189139 0.0
-0.0137672768906 0.0
-0.00247560301796 0.0
-0.00938142370433 0.0
-0.0151316206902 0.0
-0.0122366780415 0.0
-0.00143575307447 0.0
0.0121687361971 0.0
0.00180451280903 0.0
-0.00346912909299 0.0
0.00118295638822 0.0
0.0136723089963 0.0
-0.000722958415281 0.0
0.0046754470095 0.0
-0.01230184827 0.0
-0.00330735160969 0.0
-0.00901917275041 0.0
0.0156476311386 0.0
-0.00962992943823 0.0
0.00180241384078 0.0
-0.00749297160655 0.0
-0.00623068073764 0.0
0.0137477843091 0.0
0.0133529435843 0.0
-0.0171072669327 0.0
-0.00934318266809 0.0
-0.00880353245884 0.0
-0.0211733151227 0.0
-0.00551921641454 0.0
0.00684553431347 0.0
0.015422904864 -0.00197114
0.122157052159 0.0
0.204503282905 0.0
-0.104550495744 0.0
-0.0367261618376 0.0
-0.00938739813864 0.0
-0.003485113848 0.0
0.263437002897 0.0
-0.0384944081306 0.0
0.00293432944454 0.0
0.130051463842 0.0
0.0209358558059 0.0
0.130018770695 0.0
0.123299285769 0.0
0.0114390468225 0.0
0.0694122388959 0.0
0.0264395717531 0.0
0.0474781692028 0.0
0.167389944196 0.0
0.0220326688141 0.0
0.102584041655 0.0
-0.0327764078975 0.0
0.00353282387368 0.0
0.171482414007 0.0
0.157484203577 0.0
0.0333258099854 0.0
-0.050482109189 0.0
0.00111132673919 0.0
0.0473022684455 0.0
-0.0291320402175 0.0
-0.0133529705927 0.0
-0.00742398109287 0.0
0.196506634355 0.0926467
-0.0435685478151 0.0
-0.0994286313653 0.0
0.217941060662 0.0
0.173882782459 0.0
0.0799128115177 0.0
0.0455110222101 0.0
-0.148860022426 0.0
0.0559928901494 0.0
0.0812110751867 0.0
-0.0478061251342 0.0
0.0436538085341 0.0
-0.0936911031604 0.0
-0.0701398476958 0.0
0.0528537184 0.0
0.0465517789125 0.0
0.056437227875 0.0
0.0561560615897 0.0
-0.0805502608418 0.0
0.00203458103351 0.0
-0.0294119622558 0.0
0.0768315941095 0.0
0.0268173422664 0.0
-0.044030547142 0.0
-0.0718250796199 0.0
0.0693132653832 0.0
0.192237511277 0.0
0.00361881870776 0.0
-0.02314802818 0.0
0.0564148798585 0.0
0.0965113267303 0.0
0.113012313843 0.0
-0.0887568295002 0.0212751
0.00558111211285 0.0
0.00490387156606 0.0
-0.00235788989812 0.0
-0.0179149955511 0.0
-0.00929366052151 0.0
-0.00925501901656 0.0
-0.0209664534777 0.0
0.00424266606569 0.0
-0.00480266613886 0.0
0.00828439183533 0.0
0.00347371120006 0.0
-0.00178077386227 0.0
0.0146756572649 0.0
0.00475237052888 0.0
0.00203282991424 0.0
-0.00117149983998 0.0
-0.00717491609976 0.0
0.00237360061146 0.0
-0.0140883047134 0.0
-0.0158854164183 0.0
0.00239241030067 0.0
-0.00213106442243 0.0
-0.008296453394 0.0
-0.0183024760336 0.0
0.00513047259301 0.0
-0.00655968207866 0.0
-0.0150339454412 0.0
-0.0129333948717 0.0
-0.0035221488215 0.0
-0.0038234454114 0.0
-0.00899935513735 0.0
-0.00234416453168 2.46264e-07
0.18658874929 0.0
0.369479060173 0.0
-0.181286677718 0.0
-0.0655804425478 0.0
-0.0232816748321 0.0
-0.0305181164294 0.0
0.453579872847 0.0
-0.0578018389642 0.0
0.00756103359163 0.0
0.258153319359 0.0
0.0331202596426 0.0
0.248793229461 0.0
0.210723862052 0.0
0.0369184650481 0.0
0.086719147861 0.0
0.0504906736314 0.0
0.0690330266953 0.0
0.313824534416 0.0
0.0452096797526 0.0
0.182459652424 0.0
-0.0530207194388 0.0
-0.00260676979087 0.0
0.324497103691 0.0
0.268968969584 0.0
0.0328200384974 0.0
-0.0974352136254 0.0
0.00125976244453 0.0
0.0479877777398 0.0
-0.0436585843563 0.0
-0.033660273999 0.0
-0.00555064063519 0.0
0.33687761426 0.183569
-0.0575137659907 0.0
-0.165890082717 0.0
0.34160399437 0.0
0.249259486794 0.0
0.113707721233 0.0
0.0642543584108 0.0
-0.196013763547 0.0
0.0940724089742 0.0
0.11981330812 0.0
-0.0766583830118 0.0
0.0786552876234 0.0
-0.137148544192 0.0
-0.110079139471 0.0
0.0936163514853 0.0
0.0663533583283 0.0
0.0888105630875 0.0
0.120907984674 0.0
-0.119260951877 0.0
0.0251315478235 0.0
-0.0418739691377 0.0
0.0647287070751 0.0
0.0550208352506 0.0
-0.076915435493 0.0
-0.0923247337341 0.0
0.12835071981 0.0
0.281696915627 0.0
0.00958043243736 0.0
-0.0182683672756 0.0
0.102734342217 0.0
0.13185608387 0.0
0.149691969156 0.0
-0.166445374489 0.0232839
-0.0138053502887 0.0
-0.0503218024969 0.0
0.0772068053484 0.0
0.0629147365689 0.0
0.0198469478637 0.0
-0.00742022506893 0.0
-0.0435896962881 0.0
0.0233780145645 0.0
0.02231580019 0.0
0.00115198909771 0.0
0.0198562089354 0.0
-0.0277234651148 0.0
-0.0248356144875 0.0
0.0250070896 0.0
0.0245604496449 0.0
0.0133795011789 0.0
0.033747587353 0.0
-0.0490132234991 0.0
0.0121702058241 0.0
-0.00432632863522 0.0
0.0324433520436 0.0
0.0171747524291 0.0
-0.0198013670743 0.0
-0.0337749272585 0.0
0.0149952089414 0.0
0.0646413043141 0.0
0.00966575555503 0.0
-0.0176564548165 0.0
0.0210640281439 0.0
0.0504247099161 0.0
0.0430959537625 0.0
-0.0374409593642 0.0171601
-0.0928410664201 0.0
-0.192275851965 0.0
0.425158053637 0.0
0.316671550274 0.0
0.153256133199 0.0
0.0911192148924 0.0
-0.253167748451 0.0
0.098414093256 0.0
0.135799407959 0.0
-0.100214518607 0.0
0.104131102562 0.0
-0.171852499247 0.0
-0.12460834533 0.0
0.116573892534 0.0
0.0817627683282 0.0
0.105523265898 0.0
0.144107416272 0.0
-0.15844386816 0.0
0.0393909998238 0.0
-0.0414809435606 0.0
0.109555691481 0.0
0.0677414610982 0.0
-0.0973689705133 0.0
-0.107868157327 0.0
0.129910513759 0.0
0.341322571039 0.0
0.0445068739355 0.0
-0.0439870543778 0.0
0.137016430497 0.0
0.198537573218 0.0
0.211280316114 0.0
-0.213183522224 0.0402591
-0.138000026345 0.0
-0.301342099905 0.0
0.609087765217 0.0
0.468214929104 0.0
0.211042732 0.0
0.101742468774 0.0
-0.371961593628 0.0
0.174207508564 0.0
0.227204173803 0.0
-0.12551432848 0.0
0.147393539548 0.0
-0.243901833892 0.0
-0.193088591099 0.0
0.181580290198 0.0
0.13634505868 0.0
0.177651911974 0.0
0.217580020428 0.0
-0.236168682575 0.0
0.0309807397425 0.0
-0.0703953802586 0.0
0.158678784966 0.0
0.0807011798024 0.0
-0.147016987205 0.0
-0.161047339439 0.0
0.210770025849 0.0
0.517303347588 0.0
0.0571427084506 0.0
-0.0494455099106 0.0
0.16032640636 0.0
0.250808894634 0.0
0.296097755432 0.0
-0.300429195166 0.0497173
-0.00349661009386 0.0
-0.00213519716635 0.0
0.00469547696412 0.0
0.00806431286037 0.0
-0.00174812600017 0.0
0.00924041308463 0.0
0.0141386417672 0.0
0.00287405005656 0.0
0.00223035016097 0.0
0.00740107242018 0.0
-0.0036795118358 0.0
-0.00390717061237 0.0
0.0173938758671 0.0
-0.0156495757401 0.0
0.0082421656698 0.0
0.000857966486365 0.0
0.00803418364376 0.0
0.014570672065 0.0
-0.0131027083844 0.0
-0.0243695937097 0.0
0.00263729318976 0.0
-0.00543986354023 0.0
0.0171962529421 0.0
0.00857611186802 0.0
0.0158070828766 0.0
0.00617398973554 0.0
-0.0137097537518 0.0
0.011969756335 0.0
0.000944629835431 0.0
0.00349848368205 0.0
0.002265017014 0.0
0.00848993659019 0.00970582
-0.0180665198714 0.0
-0.0115293981507 0.0
0.038672529161 0.0
0.0194085072726 0.0
0.0358971692622 0.0
0.0102709354833 0.0
-0.010086893104 0.0
0.0208974163979 0.0
-0.00190512498375 0.0
-0.0220716819167 0.0
0.0106380255893 0.0
0.00170748273376 0.0
-0.000855162623338 0.0
0.00766225252301 0.0
0.00855358038098 0.0
0.023236265406 0.0
0.0108808046207 0.0
-0.00215551094152 0.0
0.0023300468456 0.0
-0.0146680092439 0.0
0.0226466748863 0.0
0.00966526661068 0.0
-0.00930955912918 0.0
-0.0143225174397 0.0
0.0017082626 0.0
0.0215425360948 0.0
-0.00239786575548 0.0
0.00759377842769 0.0
0.0139774326235 0.0
0.000189925296581 0.0
0.0257035512477 0.0
-0.0205948203802 0.000369136
-0.00282933353446 0.0
0.000470522412797 0.0
-0.0125708859414 0.0
0.00132914329879 0.0
-0.00981636717916 0.0
-0.00343494047411 0.0
0.00369384745136 0.0
0.00253290403634 0.0
-0.000914132280741 0.0
0.00235305470414 0.0
-0.00676512438804 0.0
-0.0137067651376 0.0
-0.0136236380786 0.0
0.0110250702128 0.0
0.0140320481732 0.0
0.00147614919115 0.0
0.00585154769942 0.0
0.00364513834938 0.0
0.0151916965842 0.0
0.0160006452352 0.0
-0.00728812068701 0.0
-0.0058034430258 0.0
-0.00423392793164 0.0
-0.00226776790805 0.0
0.00427414802834 0.0
-0.007311262656 0.0
0.00600546831265 0.0
0.0031982937362 0.0
-0.00694715604186 0.0
-0.0093362107873 0.0
-0.00107459386345 0.0
-0.000398065894842 -0.00129597
0.0100988699123 0.0
-0.00226821820252 0.0
0.00117991946172 0.0
-0.00328718521632 0.0
-0.0111267585307 0.0
0.00733556458727 0.0
0.0090277120471 0.0
-0.00295090209693 0.0
-0.00408519664779 0.0
-0.00105593865737 0.0
0.00231864396483 0.0
0.0127853089944 0.0
-0.00443886872381 0.0
-0.0019420501776 0.0
-0.0186075251549 0.0
-0.00755712436512 0.0
-0.0142552834004 0.0
0.0118827307597 0.0
-0.00173837528564 0.0
-0.00595163879916 0.0
-0.0175910368562 0.0
-0.0258800107986 0.0
-0.00898880884051 0.0
-0.00730214407668 0.0
-0.00774250878021 0.0
0.00317457923666 0.0
-0.00725600542501 0.0
-0.0131455631927 0.0
-0.00265041412786 0.0
-0.000782538787462 0.0
0.0101784197614 0.0
0.00588390883058 -2.90308e-05
0.00159663171507 0.0
-0.00532489269972 0.0
-0.00228633428924 0.0
-0.00210994295776 0.0
0.00127856258769 0.0
-0.0036229765974 0.0
0.00565195363015 0.0
-0.000647255044896 0.0
0.013331791386 0.0
-0.00117092672735 0.0
0.00182773324195 0.0
-0.00472154421732 0.0
-0.0055414061062 0.0
0.0139917219058 0.0
0.00173399958294 0.0
-0.014751534909 0.0
-0.0152153894305 0.0
-0.00525477994233 0.0
0.0173795185983 0.0
-0.00619426835328 0.0
-0.00434516370296 0.0
-0.00800393056124 0.0
0.00454796571285 0.0
-0.0062366775237 0.0
-0.0302896909416 0.0
0.00677930284292 0.0
-0.00217307801358 0.0
0.0117712225765 0.0
-0.000519856461324 0.0
0.00153301120736 0.0
-0.000355331285391 0.0
0.00651345867664 -0.00085701
-0.0789633765817 0.0
-0.175615012646 0.0
0.388785094023 0.0
0.305173903704 0.0
0.150670960546 0.0
0.0682899951935 0.0
-0.228730276227 0.0
0.11995909363 0.0
0.129759415984 0.0
-0.0962670594454 0.0
0.0994859486818 0.0
-0.144335880876 0.0
-0.122492827475 0.0
0.116588637233 0.0
0.0875030830503 0.0
0.114082917571 0.0
0.121722541749 0.0
-0.146207362413 0.0
0.0300812982023 0.0
-0.039418052882 0.0
0.0870918110013 0.0
0.0636299550533 0.0
-0.0842175334692 0.0
-0.119816295803 0.0
0.125555425882 0.0
0.327043563128 0.0
0.0270536262542 0.0
-0.0238074231893 0.0
0.111467130482 0.0
0.160160794854 0.0
0.183001071215 0.0
-0.201723799109 0.034266
-0.108407348394 0.0
-0.270973861217 0.0
0.536320984364 0.0
0.441712379456 0.0
0.183891132474 0.0
0.107780113816 0.0
-0.320525169373 0.0
0.157656475902 0.0
0.195781305432 0.0
-0.114840060472 0.0
0.139537483454 0.0
-0.201460763812 0.0
-0.155793607235 0.0
0.150146618485 0.0
0.137627929449 0.0
0.170515060425 0.0
0.185775354505 0.0
-0.216729789972 0.0
0.0362806022167 0.0
-0.0669233798981 0.0
0.134227573872 0.0
0.0799032524228 0.0
-0.143419742584 0.0
-0.166154682636 0.0
0.18161791563 0.0
0.457638651133 0.0
0.0291922204196 0.0
-0.0538253411651 0.0
0.16454705596 0.0
0.231059297919 0.0
0.261120706797 0.0
-0.274926811457 0.0543587
-0.0324034392834 0.0
-0.0854844078422 0.0
0.165966689587 0.0
0.145613417029 0.0
0.0543711781502 0.0
0.0314125046134 0.0
-0.100842088461 0.0
0.0701062083244 0.0
0.0567363761365 0.0
-0.0404079817235 0.0
0.0427416115999 0.0
-0.0720826983452 0.0
-0.0585429519415 0.0
0.0498459897935 0.0
0.0376939326525 0.0
0.0439983047545 0.0
0.0637913644314 0.0
-0.0565794482827 0.0
0.00611925637349 0.0
-0.0203036684543 0.0
0.0604177042842 0.0
0.0404716581106 0.0
-0.0442102514207 0.0
-0.0341431573033 0.0
0.0642736256123 0.0
0.136495649815 0.0
0.0115322880447 0.0
-0.0101067256182 0.0
0.0530265048146 0.0
0.0806283950806 0.0
0.0763741359115 0.0
-0.0643717572093 0.00609831
-0.00810653530061 0.0
-0.000596209021751 0.0
0.0026567322202 0.0
-0.0193966533989 0.0
0.00289212423377 0.0
-0.00039903545985 0.0
0.00401159422472 0.0
-0.00127176975366 0.0
0.00527198845521 0.0
0.000112592017103 0.0
-0.00107459037099 0.0
-0.00484091229737 0.0
0.00552855059505 0.0
-0.00594425061718 0.0
-0.0161433629692 0.0
-0.0126983020455 0.0
0.00215160939842 0.0
-0.0023256293498 0.0
-0.00624867156148 0.0
-0.000151004482177 0.0
0.0187289286405 0.0
-0.0108465990052 0.0
-0.0120000429451 0.0
-0.000158082009875 0.0
0.00157506274991 0.0
-0.0161206442863 0.0
-0.0132609019056 0.0
-0.00377132510766 0.0
0.00683621922508 0.0
0.00666739186272 0.0
0.0119331367314 0.0
-0.00913209281862 -8.55837e-06
-0.0291626024991 0.0
-0.0530470609665 0.0
0.106543980539 0.0
0.0889611765742 0.0
0.0409449450672 0.0
0.0284189265221 0.0
-0.0608242377639 0.0
0.0432700105011 0.0
0.0245755799115 0.0
-0.0105947358534 0.0
0.0324951186776 0.0
-0.0302594546229 0.0
-0.0304083973169 0.0
0.0447906292975 0.0
0.0301547497511 0.0
0.0353868529201 0.0
0.0276999026537 0.0
-0.0372883155942 0.0
0.00635494012386 0.0
0.00159494997934 0.0
0.0295027066022 0.0
0.0173004381359 0.0
-0.0377425849438 0.0
-0.0371233299375 0.0
0.0404258854687 0.0
0.101027332246 0.0
0.0101610179991 0.0
-0.0150197874755 0.0
0.0557284317911 0.0
0.057728767395 0.0
0.0229069907218 0.0
-0.0646694675088 0.00559516
-0.0208713449538 0.0
-0.0744212344289 0.0
0.136485770345 0.0
0.106972910464 0.0
0.0347182527184 0.0
0.0203976240009 0.0
-0.0657123103738 0.0
0.0370213314891 0.0
0.0463240966201 0.0
-0.0430581085384 0.0
0.0367476306856 0.0
-0.063258305192 0.0
-0.0432208105922 0.0
0.0392281077802 0.0
0.0249796658754 0.0
0.044293500483 0.0
0.0469519682229 0.0
-0.0372879207134 0.0
0.0122472411022 0.0
-0.00880271010101 0.0
0.0352757647634 0.0
0.0238086208701 0.0
-0.0437169149518 0.0
-0.0574059970677 0.0
0.0535495504737 0.0
0.135498940945 0.0
0.0109004415572 0.0
-0.00184614071622 0.0
0.0411423332989 0.0
0.0435137115419 0.0
0.0637724772096 0.0
-0.0631302073598 0.0113099
-0.0026194776874 0.0
-0.0018940147711 0.0
-0.00971024576575 0.0
0.00109353091102 0.0
0.00658270064741 0.0
-0.00352362776175 0.0
0.00675467541441 0.0
-0.00220527453348 0.0
0.00410948181525 0.0
0.0219426676631 0.0
-0.00071517523611 0.0
-0.0151052763686 0.0
-0.000908457150217 0.0
0.00223169848323 0.0
-0.0193300340325 0.0
-0.0105533851311 0.0
0.00185626395978 0.0
0.008375659585 0.0
-0.0154312243685 0.0
0.00685686524957 0.0
0.000661664642394 0.0
-0.000931577174924 0.0
0.00824883300811 0.0
-0.00149593898095 0.0
-0.00182166043669 0.0
0.00930372439325 0.0
0.0137302130461 0.0
-0.0158086735755 0.0
-0.0134642068297 0.0
0.00481784064323 0.0
-0.0116846766323 0.0
-0.0144974458963 -0.000261708
0.0483484566212 0.0
0.0754355564713 0.0
0.0197393707931 0.0
0.0484029464424 0.0
0.0293185673654 0.0
0.00537200691178 0.0
0.0898743495345 0.0
0.00665105134249 0.0
0.0188634488732 0.0
0.0564368218184 0.0
0.0316600650549 0.0
0.0500085130334 0.0
0.0696345493197 0.0
0.0259705018252 0.0
0.047050088644 0.0
0.0403484776616 0.0
0.0636078193784 0.0
0.0787866860628 0.0
0.0125224208459 0.0
0.0415452159941 0.0
0.0165101829916 0.0
0.00611368566751 0.0
0.0790806636214 0.0
0.0795565322042 0.0
0.036019705236 0.0
0.0336884632707 0.0
0.00820648670197 0.0
0.0111186364666 0.0
0.0166749265045 0.0
0.0216175336391 0.0
0.0330813601613 0.0
0.0537004284561 0.05932
-0.00439407117665 0.0
-0.0234844088554 0.0
0.0398650169373 0.0
0.0372248329222 0.0
0.0113774342462 0.0
0.0145565848798 0.0
-0.0342499613762 0.0
0.00632364721969 0.0
0.017686503008 0.0
-0.0155637832358 0.0
0.00952651072294 0.0
-0.00299897184595 0.0
-0.0126369288191 0.0
0.00175005884375 0.0
0.0020009027794 0.0
0.0151470433921 0.0
0.0172542687505 0.0
-0.0128876920789 0.0
-0.000591177376918 0.0
0.000454930181149 0.0
0.019307795912 0.0
-0.00178737612441 0.0
-0.0146780088544 0.0
0.000328107533278 0.0
0.0195807199925 0.0
0.0325817875564 0.0
0.0185996629298 0.0
0.000422349665314 0.0
0.00216993619688 0.0
0.024426156655 0.0
0.00414943508804 0.0
-0.0285571385175 0.015007
-0.0067423870787 0.0
0.00134656403679 0.0
-0.0105354497209 0.0
0.0030792739708 0.0
-0.0112217748538 0.0
-0.0103897880763 0.0
0.0040067397058 0.0
0.00574569683522 0.0
0.00839473120868 0.0
-0.00730230659246 0.0
-0.00939970742911 0.0
-0.0160866975784 0.0
0.0011684402125 0.0
-0.0220803134143 0.0
0.00668907724321 0.0
-0.00277057196945 0.0
0.0102866487578 0.0
-0.00406706985086 0.0
-0.000549576594494 0.0
0.00792758353055 0.0
0.00447125872597 0.0
-0.00962355267256 0.0
-0.0191640853882 0.0
-0.00491331890225 0.0
-0.00634939735755 0.0
0.00952089577913 0.0
-0.00723263341933 0.0
-0.00491722719744 0.0
0.00425898330286 0.0
0.00205521797761 0.0
-0.00205437163822 0.0
0.0219575781375 -0.000493361
0.130121126771 0.0
0.238716140389 0.0
-0.104347750545 0.0
-0.0414244532585 0.0
0.00259342510253 0.0
-0.0173257477582 0.0
0.293131351471 0.0
-0.0346794351935 0.0
0.0365074500442 0.0
0.15261477232 0.0
0.0374190099537 0.0
0.158889263868 0.0
0.148155748844 0.0
0.0135175837204 0.0
0.0800790563226 0.0
0.0533541701734 0.0
0.0483511909842 0.0
0.21014893055 0.0
0.0455756746233 0.0
0.116791300476 0.0
-0.0319987274706 0.0
-0.000524652132299 0.0
0.202655926347 0.0
0.169306159019 0.0
0.0192934181541 0.0
-0.0372201800346 0.0
-0.000951163645368 0.0
0.0253099091351 0.0
-0.0326304212213 0.0
-0.0189840588719 0.0
-0.00273062894121 0.0
0.217908069491 0.11863
-0.000170161263668 0.0
0.00226919725537 0.0
-0.00966607406735 0.0
-0.00569798517972 0.0
-0.0101424064487 0.0
0.00697052199394 0.0
-0.00198243930936 0.0
-0.00377255259082 0.0
-0.0150321582332 0.0
-0.0197127629071 0.0
0.00191161094699 0.0
-0.00197312189266 0.0
-0.000587268848903 0.0
-0.0124666998163 0.0
-0.000766801356804 0.0
-0.0137045783922 0.0
0.0145475566387 0.0
0.00371571211144 0.0
0.000601646839641 0.0
0.00750050367787 0.0
0.000649388006423 0.0
0.00170699553564 0.0
-0.00292197568342 0.0
0.00250387168489 0.0
-0.00318896514364 0.0
-0.00772444205359 0.0
0.0123051349074 0.0
0.00487010646611 0.0
0.00958270579576 0.0
-0.0119580850005 0.0
0.000986442784779 0.0
0.018705829978 0.00053114
0.00245699170046 0.0
-0.00189822679386 0.0
-0.010550451465 0.0
0.01252905 0.0
-0.00352464290336 0.0
-0.0153517564759 0.0
-0.00230724643916 0.0
-0.013290562667 0.0
0.0101180421188 0.0
0.00509629072621 0.0
-0.0170667469501 0.0
-0.0190295428038 0.0
0.010057781823 0.0
0.00341779668815 0.0
0.0010856629815 0.0
0.0080208145082 0.0
-0.00437976513058 0.0
-0.0082382466644 0.0
-0.010049645789 0.0
-0.00413300702348 0.0
0.0108780693263 0.0
0.0108889257535 0.0
-0.00498611386865 0.0
0.00742978649214 0.0
0.00959128700197 0.0
-0.0262209028006 0.0
-0.00999087188393 0.0
-0.00649557868019 0.0
-0.0112780025229 0.0
0.00877551734447 0.0
-0.00286811892875 0.0
-0.00690402975306 -0.000341272
-0.0452937819064 0.0
-0.0765161588788 0.0
0.144433140755 0.0
0.123105220497 0.0
0.0570442676544 0.0
-0.000897972087841 0.0
-0.0913319960237 0.0
0.0379877984524 0.0
0.0536013282835 0.0
-0.041120544076 0.0
0.0502034053206 0.0
-0.0643448457122 0.0
-0.0557893328369 0.0
0.033045116812 0.0
0.0278512053192 0.0
0.0249485317618 0.0
0.0447066240013 0.0
-0.061108764261 0.0
0.010224621743 0.0
-0.0144179193303 0.0
0.038389287889 0.0
0.0214780122042 0.0
-0.0298451110721 0.0
-0.0566478222609 0.0
0.0473139286041 0.0
0.153394788504 0.0
0.00251062004827 0.0
-0.0102037917823 0.0
0.0523632653058 0.0
0.073416531086 0.0
0.079176440835 0.0
-0.0714554861188 0.0122888
-0.00153213879094 0.0
-0.00453391857445 0.0
0.00333051988855 0.0
-0.0211630277336 0.0
-0.0104695009068 0.0
0.00192386284471 0.0
-0.00253364513628 0.0
-0.0157289877534 0.0
-0.00027979479637 0.0
-0.00944472849369 0.0
-0.00254955748096 0.0
0.00306159746833 0.0
-0.00483497465029 0.0
-0.00384039571509 0.0
-0.00308113871142 0.0
-0.00438541779295 0.0
0.00335629447363 0.0
0.00831421185285 0.0
0.00404892023653 0.0
-0.00942279398441 0.0
0.0212883912027 0.0
-0.00890574976802 0.0
0.00764608383179 0.0
0.00272634043358 0.0
0.00300835538656 0.0
-0.0193314515054 0.0
-0.0196999832988 0.0
-0.00530870817602 0.0
-0.00586481811479 0.0
-0.00675445981324 0.0
-0.00732566742226 0.0
0.0025060782209 -0.000139935
-0.0023591213394 0.0
-0.0201771836728 0.0
-0.0217987131327 0.0
0.0139644211158 0.0
0.00757169444114 0.0
-0.0107652246952 0.0
-0.00403349474072 0.0
0.00567268813029 0.0
0.0027322829701 0.0
-0.00677085248753 0.0
-0.00271925586276 0.0
-0.00469517661259 0.0
0.00621954817325 0.0
0.00611046049744 0.0
-0.0106886643916 0.0
-0.0111884344369 0.0
-0.0106368046254 0.0
0.0120139131323 0.0
0.00446617836133 0.0
-0.00479165930301 0.0
0.0200689267367 0.0
-0.00842595007271 0.0
-0.0105433920398 0.0
0.010669044219 0.0
-0.000104989798274 0.0
-0.0075844838284 0.0
0.0152524095029 0.0
0.0173741690814 0.0
-0.0171929355711 0.0
0.00371249299496 0.0
0.00699294172227 0.0
-0.0032070458401 -0.00436195
0.00597153231502 0.0
-0.0133208101615 0.0
-0.0108213704079 0.0
-0.0152254672721 0.0
0.00597941223532 0.0
-0.00573508720845 0.0
-0.000140941076097 0.0
-0.010744583793 0.0
0.00136935245246 0.0
0.00323950964957 0.0
-0.0164106283337 0.0
-0.0104646096006 0.0
0.0136844646186 0.0
0.00195622886531 0.0
-6.16710167378e-06 0.0
-0.0202408134937 0.0
0.00411819154397 0.0
0.00290642445907 0.0
-0.00944131799042 0.0
-0.009077783674 0.0
-0.0152427889407 0.0
0.00116724602412 0.0
0.00256169610657 0.0
-0.0151630938053 0.0
-0.0121182100847 0.0
-0.000117564566608 0.0
0.00897014699876 0.0
0.0103100519627 0.0
0.00220217881724 0.0
-0.00477176345885 0.0
-0.00350426533259 0.0
-0.0125314109027 -4.51478e-06
0.0131967840716 0.0
-0.0147071229294 0.0
-0.00461640115827 0.0
-0.0255539286882 0.0
0.0132712433115 0.0
-0.00557925133035 0.0
0.0101932827383 0.0
0.00892316456884 0.0
0.0266358312219 0.0
-0.00892837624997 0.0
-0.0186344645917 0.0
0.0128555670381 0.0
-0.00731947785243 0.0
0.015078060329 0.0
0.00390466256067 0.0
0.011371480301 0.0
-0.00847028754652 0.0
-0.00361093482934 0.0
-0.00269667850807 0.0
-0.0128315770999 0.0
-0.00801683776081 0.0
0.00240111956373 0.0
-0.00608070613816 0.0
-0.00189843017142 0.0
-0.015419694595 0.0
-0.00543127954006 0.0
-0.00261060451157 0.0
0.00846348050982 0.0
-0.00516610313207 0.0
-0.0128640346229 0.0
-0.00582861248404 0.0
-0.0123549941927 0.000237096
-0.0407206527889 0.0
-0.120661132038 0.0
0.220719382167 0.0
0.157441422343 0.0
0.0714370533824 0.0
0.0378378592432 0.0
-0.133327454329 0.0
0.0470826327801 0.0
0.0793221369386 0.0
-0.0387209244072 0.0
0.0630948096514 0.0
-0.0898429900408 0.0
-0.0673334226012 0.0
0.0758354440331 0.0
0.0527989938855 0.0
0.073400773108 0.0
0.0713977217674 0.0
-0.0755896642804 0.0
0.0321527682245 0.0
-0.0170928426087 0.0
0.0800888240337 0.0
0.0364886708558 0.0
-0.0667336210608 0.0
-0.0462727472186 0.0
0.05995073542 0.0
0.192957654595 0.0
0.0119051625952 0.0
-0.0145065505058 0.0
0.0732963681221 0.0
0.0734003260732 0.0
0.104949377477 0.0
-0.100208230317 0.0117589
-0.0322767831385 0.0
-0.0995129048824 0.0
0.206225708127 0.0
0.15996389091 0.0
0.0722121447325 0.0
0.0397905856371 0.0
-0.123334147036 0.0
0.0602545626462 0.0
0.0658322498202 0.0
-0.0477901026607 0.0
0.052092704922 0.0
-0.0784282386303 0.0
-0.0728348121047 0.0
0.0533956773579 0.0
0.0679587200284 0.0
0.0602762810886 0.0
0.0810662135482 0.0
-0.0727065131068 0.0
0.027779346332 0.0
-0.0169650074095 0.0
0.0564744286239 0.0
0.0395047813654 0.0
-0.0652458444238 0.0
-0.0587187111378 0.0
0.0797151252627 0.0
0.158095940948 0.0
0.0111549170688 0.0
-0.0209122095257 0.0
0.0693729743361 0.0
0.0917487442493 0.0
0.102668382227 0.0
-0.108139552176 0.0170526
-0.0178717207164 0.0
-0.0530313961208 0.0
0.0890441760421 0.0
0.0635141283274 0.0
0.0362905226648 0.0
0.0111613841727 0.0
-0.059556055814 0.0
0.0274442415684 0.0
0.032436594367 0.0
0.0045642866753 0.0
0.0367384441197 0.0
-0.0365016385913 0.0
-0.0341713801026 0.0
0.0445553697646 0.0
0.038849927485 0.0
0.0162042677402 0.0
0.0427723899484 0.0
-0.0416731499135 0.0
0.00385417602956 0.0
-0.0204820297658 0.0
0.0248600449413 0.0
-0.000862339453306 0.0
-0.00895387958735 0.0
-0.0284895319492 0.0
0.0382779091597 0.0
0.0641860514879 0.0
0.0133142955601 0.0
-0.00357816996984 0.0
0.0348341278732 0.0
0.0380330905318 0.0
0.0367089062929 0.0
-0.0564690046012 0.00673891
0.0808088481426 0.0
0.126032963395 0.0
-0.0569341443479 0.0
-0.0379174798727 0.0
0.00628144619986 0.0
-0.0127112520859 0.0
0.180401206017 0.0
-0.00979036279023 0.0
0.0244505703449 0.0
0.110858649015 0.0
0.0226649101824 0.0
0.116269364953 0.0
0.091296762228 0.0
0.00764629198238 0.0
0.056739192456 0.0
0.0230220239609 0.0
0.0229473523796 0.0
0.144708141685 0.0
0.0202475227416 0.0
0.0635027959943 0.0
-0.00820216909051 0.0
-0.00432008970529 0.0
0.118982352316 0.0
0.119349651039 0.0
0.0233687330037 0.0
-0.0132228247821 0.0
0.00359269906767 0.0
-0.00227597472258 0.0
-0.0257113985717 0.0
-0.0235578976572 0.0
0.00884760171175 0.0
0.133006691933 0.0729776
0.00356246088631 0.0
-0.00847528409213 0.0
-0.00149791617878 0.0
0.00428781565279 0.0
-0.0236928574741 0.0
-0.0131728146225 0.0
-0.0040999208577 0.0
-0.0101548200473 0.0
0.0217180233449 0.0
-0.00526993302628 0.0
-0.0188723970205 0.0
-0.00145847559907 0.0
0.000815427862108 0.0
-0.00253789382987 0.0
0.00430443696678 0.0
0.00514508783817 0.0
0.00395225407556 0.0
-0.00257803848945 0.0
-0.00568858440965 0.0
0.00014904460113 0.0
0.00953755248338 0.0
-0.0109230987728 0.0
0.00153433368541 0.0
-0.000191159517271 0.0
-0.00726786721498 0.0
-0.0061401752755 0.0
0.0121387597173 0.0
0.0129259489477 0.0
0.00216595316306 0.0
0.00502643128857 0.0
0.00540866982192 0.0
-0.00807126518339 -0.00122475
0.130927100778 0.0
0.212264150381 0.0
-0.0949048176408 0.0
-0.00806471146643 0.0
0.00471318420023 0.0
-0.0285952985287 0.0
0.261497765779 0.0
-0.030785234645 0.0
0.0139140775427 0.0
0.147198498249 0.0
0.0200295075774 0.0
0.153910428286 0.0
0.12748862803 0.0
0.0303657520562 0.0
0.0678099989891 0.0
0.0293213613331 0.0
0.0677036046982 0.0
0.19090731442 0.0
0.0306336563081 0.0
0.107361070812 0.0
-0.0328735411167 0.0
-0.00928960647434 0.0
0.193661808968 0.0
0.185142025352 0.0
0.0274487994611 0.0
-0.0226684119552 0.0
0.0132694188505 0.0
0.0322558954358 0.0
-0.00979903247207 0.0
-0.000587606977206 0.0
0.0130018051714 0.0
0.194907337427 0.112067
0.029016315937 0.0
0.00812424719334 0.0
-0.0154541414231 0.0
-0.00329098920338 0.0
-0.00268645165488 0.0
0.0053331637755 0.0
0.0129132028669 0.0
0.0109087741002 0.0
-0.00173135602381 0.0
0.0134458430111 0.0
-0.00766080711037 0.0
0.0166464857757 0.0
0.000506740179844 0.0
-0.00773957371712 0.0
0.00901293288916 0.0
-0.00298778549768 0.0
0.0113364160061 0.0
0.0406766459346 0.0
-0.00930431950837 0.0
0.00238069845363 0.0
0.00906949862838 0.0
-0.00867358688265 0.0
0.0119812460616 0.0
0.026137182489 0.0
-0.00593331316486 0.0
-0.0215043146163 0.0
0.00184550881386 0.0
-0.0034807191696 0.0
0.00371520733461 0.0
-0.0165901258588 0.0
-0.0107746608555 0.0
0.020096052438 0.00577825
